{"learner":{"attributes":{"best_iteration":"12","best_score":"10.320442276324172","scikit_learn":"{\"_estimator_type\": \"regressor\"}"},"feature_names":[],"feature_types":[],"gradient_booster":{"model":{"gbtree_model_param":{"num_parallel_tree":"1","num_trees":"63"},"iteration_indptr":[0,1,2,3,4,5,6,7,8,9,10,11,12,13,14,15,16,17,18,19,20,21,22,23,24,25,26,27,28,29,30,31,32,33,34,35,36,37,38,39,40,41,42,43,44,45,46,47,48,49,50,51,52,53,54,55,56,57,58,59,60,61,62,63],"tree_info":[0,0,0,0,0,0,0,0,0,0,0,0,0,0,0,0,0,0,0,0,0,0,0,0,0,0,0,0,0,0,0,0,0,0,0,0,0,0,0,0,0,0,0,0,0,0,0,0,0,0,0,0,0,0,0,0,0,0,0,0,0,0,0],"trees":[{"base_weights":[-4.628175E-2,-1.3786254E0,3.378559E0,-2.4677794E0,1.1981268E0,2.7717597E0,1.1369764E1,-1.5238895E0,-1.8916725E-1,-4.1013533E-1,1.8122722E0,1.0690693E0,6.0728645E0,1.8093481E0,1.107812E1],"categories":[],"categories_nodes":[],"categories_segments":[],"categories_sizes":[],"default_left":[0,0,0,0,0,0,0,0,0,0,0,0,0,0,0],"id":0,"left_children":[1,3,5,7,9,11,13,-1,-1,-1,-1,-1,-1,-1,-1],"loss_changes":[4.782526E3,2.1192085E3,1.4063247E3,9.016885E2,1.274684E3,1.2891777E3,1.8761006E3,0E0,0E0,0E0,0E0,0E0,0E0,0E0,0E0],"parents":[2147483647,0,0,1,1,2,2,3,3,4,4,5,5,6,6],"right_children":[2,4,6,8,10,12,14,-1,-1,-1,-1,-1,-1,-1,-1],"split_conditions":[8E0,6E0,2.5E1,5E0,6E0,1.9E1,2.3E1,-1.5238895E0,-1.8916725E-1,-4.1013533E-1,1.8122722E0,1.0690693E0,6.0728645E0,1.8093481E0,1.107812E1],"split_indices":[28,26,10,14,20,9,28,0,0,0,0,0,0,0,0],"split_type":[0,0,0,0,0,0,0,0,0,0,0,0,0,0,0],"sum_hessian":[1.047E3,7.54E2,2.93E2,5.3E2,2.24E2,2.73E2,2E1,3.78E2,1.52E2,1.27E2,9.7E1,2.62E2,1.1E1,1.3E1,7E0],"tree_param":{"num_deleted":"0","num_feature":"32","num_nodes":"15","size_leaf_vector":"1"}},{"base_weights":[1.7944211E-1,-1.0486511E0,2.7795277E0,-1.7111919E0,1.4742309E0,1.9967171E0,1.842468E1,-1.4506544E0,-4.7119445E-1,3.4176822E0,-3.8240033E-1,1.5291036E0,-5.242961E-1,1.25775E1,1.9054197E0],"categories":[],"categories_nodes":[],"categories_segments":[],"categories_sizes":[],"default_left":[0,0,0,0,0,0,0,0,0,0,0,0,0,0,0],"id":1,"left_children":[1,3,5,7,9,11,13,-1,-1,-1,-1,-1,-1,-1,-1],"loss_changes":[3.2603203E3,1.1606305E3,3.9915325E3,5.404999E2,1.9698014E3,1.282052E3,1.8874697E3,0E0,0E0,0E0,0E0,0E0,0E0,0E0,0E0],"parents":[2147483647,0,0,1,1,2,2,3,3,4,4,5,5,6,6],"right_children":[2,4,6,8,10,12,14,-1,-1,-1,-1,-1,-1,-1,-1],"split_conditions":[7E0,8E0,3.2E1,2E0,2E0,5E0,4E0,-1.4506544E0,-4.7119445E-1,3.4176822E0,-3.8240033E-1,1.5291036E0,-5.242961E-1,1.25775E1,1.9054197E0],"split_indices":[30,24,28,12,21,31,13,0,0,0,0,0,0,0,0],"split_type":[0,0,0,0,0,0,0,0,0,0,0,0,0,0,0],"sum_hessian":[1.02E3,6.93E2,3.27E2,5.49E2,1.44E2,3.12E2,1.5E1,1.79E2,3.7E2,4E1,1.04E2,2.2E2,9.2E1,9E0,6E0],"tree_param":{"num_deleted":"0","num_feature":"32","num_nodes":"15","size_leaf_vector":"1"}},{"base_weights":[-1.7418048E-1,1.3297604E0,-1.2276728E0,9.6422535E-1,1.2547241E1,-4.8224455E-1,-1.985603E0,-2.341103E-1,1.1618547E0,1.0555929E1,-1.5337957E-1,-5.814076E-1,6.3752425E-1,-1.0838957E0,-3.186204E-1],"categories":[],"categories_nodes":[],"categories_segments":[],"categories_sizes":[],"default_left":[0,0,0,0,0,0,0,0,0,0,0,0,0,0,0],"id":2,"left_children":[1,3,5,7,9,11,13,-1,-1,-1,-1,-1,-1,-1,-1],"loss_changes":[1.6558466E3,1.7588308E3,3.4668658E2,9.504767E2,1.7951519E3,4.4834937E2,1.4022998E2,0E0,0E0,0E0,0E0,0E0,0E0,0E0,0E0],"parents":[2147483647,0,0,1,1,2,2,3,3,4,4,5,5,6,6],"right_children":[2,4,6,8,10,12,14,-1,-1,-1,-1,-1,-1,-1,-1],"split_conditions":[3E0,3.9E1,5E0,5E0,3E0,8E0,6E0,-2.341103E-1,1.1618547E0,1.0555929E1,-1.5337957E-1,-5.814076E-1,6.3752425E-1,-1.0838957E0,-3.186204E-1],"split_indices":[29,28,21,18,3,22,18,0,0,0,0,0,0,0,0],"split_type":[0,0,0,0,0,0,0,0,0,0,0,0,0,0,0],"sum_hessian":[1.044E3,4.3E2,6.14E2,4.17E2,1.3E1,3.1E2,3.04E2,2.14E2,2.03E2,7E0,6E0,2.19E2,9.1E1,2.38E2,6.6E1],"tree_param":{"num_deleted":"0","num_feature":"32","num_nodes":"15","size_leaf_vector":"1"}},{"base_weights":[7.852683E-2,1.0086167E0,-1.1442652E0,3.5861266E-1,3.4264534E0,-1.3745358E0,2.4528167E0,6.482102E-2,4.583122E0,1.1130754E0,3.9921129E0,-1.2381657E0,-4.174161E-1,-3.1001917E-1,5.798326E0],"categories":[],"categories_nodes":[],"categories_segments":[],"categories_sizes":[],"default_left":[0,0,0,0,0,0,0,0,0,0,0,0,0,0,0],"id":3,"left_children":[1,3,5,7,9,11,13,-1,-1,-1,-1,-1,-1,-1,-1],"loss_changes":[1.1965509E3,9.384332E2,3.783249E2,9.829895E2,6.606019E2,2.6154858E2,8.7157947E2,0E0,0E0,0E0,0E0,0E0,0E0,0E0,0E0],"parents":[2147483647,0,0,1,1,2,2,3,3,4,4,5,5,6,6],"right_children":[2,4,6,8,10,12,14,-1,-1,-1,-1,-1,-1,-1,-1],"split_conditions":[5E0,1.2E1,1.7E1,3.9E1,2E1,3E0,1.2E1,6.482102E-2,4.583122E0,1.1130754E0,3.9921129E0,-1.2381657E0,-4.174161E-1,-3.1001917E-1,5.798326E0],"split_indices":[19,8,30,28,14,31,10,0,0,0,0,0,0,0,0],"split_type":[0,0,0,0,0,0,0,0,0,0,0,0,0,0,0],"sum_hessian":[1.051E3,5.97E2,4.54E2,4.71E2,1.26E2,4.27E2,2.7E1,4.61E2,1E1,1.06E2,2E1,1.13E2,3.14E2,2.1E1,6E0],"tree_param":{"num_deleted":"0","num_feature":"32","num_nodes":"15","size_leaf_vector":"1"}},{"base_weights":[-1.7025624E-1,-2.6684523E-1,4.3487196E0,-3.708289E-1,5.099346E0,-2.5210416E-1,1.0824234E0],"categories":[],"categories_nodes":[],"categories_segments":[],"categories_sizes":[],"default_left":[0,0,0,0,0,0,0],"id":4,"left_children":[1,3,-1,5,-1,-1,-1],"loss_changes":[9.7521893E2,1.2272208E3,0E0,4.888912E2,0E0,0E0,0E0],"parents":[2147483647,0,0,1,1,3,3],"right_children":[2,4,-1,6,-1,-1,-1],"split_conditions":[4.9E1,5.4E1,4.3487196E0,2.1E1,5.099346E0,-2.5210416E-1,1.0824234E0],"split_indices":[27,24,0,4,0,0,0],"split_type":[0,0,0,0,0,0,0],"sum_hessian":[1.053E3,1.043E3,1E1,1.034E3,9E0,9.72E2,6.2E1],"tree_param":{"num_deleted":"0","num_feature":"32","num_nodes":"7","size_leaf_vector":"1"}},{"base_weights":[1.2130857E-1,9.91071E-3,9.127308E0,2.1773925E-1,-2.952727E0,8.394914E0,-2.9942152E-1,-9.051801E-3,1.9003348E0,-9.9047047E-1,-2.9402912E0],"categories":[],"categories_nodes":[],"categories_segments":[],"categories_sizes":[],"default_left":[0,0,0,0,0,0,0,0,0,0,0],"id":5,"left_children":[1,3,5,7,9,-1,-1,-1,-1,-1,-1],"loss_changes":[1.0298282E3,6.2502277E2,1.1119465E3,8.756305E2,1.7644122E2,0E0,0E0,0E0,0E0,0E0,0E0],"parents":[2147483647,0,0,1,1,2,2,3,3,4,4],"right_children":[2,4,6,8,10,-1,-1,-1,-1,-1,-1],"split_conditions":[4.1E1,2E1,4E0,2.1E1,2.3E1,8.394914E0,-2.9942152E-1,-9.051801E-3,1.9003348E0,-9.9047047E-1,-2.9402912E0],"split_indices":[22,18,6,6,22,0,0,0,0,0,0],"split_type":[0,0,0,0,0,0,0,0,0,0,0],"sum_hessian":[1.026E3,1.014E3,1.2E1,9.48E2,6.6E1,6E0,6E0,8.94E2,5.4E1,5.4E1,1.2E1],"tree_param":{"num_deleted":"0","num_feature":"32","num_nodes":"11","size_leaf_vector":"1"}},{"base_weights":[-8.9060925E-2,-1.2360576E-2,-3.2260199E0,-5.516422E-1,9.53671E-1,-3.1331939E-1,1.04763E0,3.4788826E-1,4.9199543E0],"categories":[],"categories_nodes":[],"categories_segments":[],"categories_sizes":[],"default_left":[0,0,0,0,0,0,0,0,0],"id":6,"left_children":[1,3,-1,5,7,-1,-1,-1,-1],"loss_changes":[5.5306525E2,5.4028503E2,0E0,2.3624525E2,7.211643E2,0E0,0E0,0E0,0E0],"parents":[2147483647,0,0,1,1,3,3,4,4],"right_children":[2,4,-1,6,8,-1,-1,-1,-1],"split_conditions":[4.4E1,6E0,-3.2260199E0,2.2E1,3.9E1,-3.1331939E-1,1.04763E0,3.4788826E-1,4.9199543E0],"split_indices":[2,12,0,28,28,0,0,0,0],"split_type":[0,0,0,0,0,0,0,0,0],"sum_hessian":[1.047E3,1.036E3,1.1E1,6.65E2,3.71E2,6.37E2,2.8E1,3.64E2,7E0],"tree_param":{"num_deleted":"0","num_feature":"32","num_nodes":"9","size_leaf_vector":"1"}},{"base_weights":[2.0997806E-1,3.276313E-1,-7.3715277E0,2.7206674E-1,3.527138E0,8.100627E-1,-6.110163E0,1.498782E-1,-2.6523526E0],"categories":[],"categories_nodes":[],"categories_segments":[],"categories_sizes":[],"default_left":[0,0,0,0,0,0,0,0,0],"id":7,"left_children":[1,3,5,7,-1,-1,-1,-1,-1],"loss_changes":[9.071605E2,4.0451465E2,8.399247E2,3.1065366E2,0E0,0E0,0E0,0E0,0E0],"parents":[2147483647,0,0,1,1,2,2,3,3],"right_children":[2,4,6,8,-1,-1,-1,-1,-1],"split_conditions":[4.1E1,5.7E1,3E0,5.4E1,3.527138E0,8.100627E-1,-6.110163E0,1.498782E-1,-2.6523526E0],"split_indices":[28,22,2,4,0,0,0,0,0],"split_type":[0,0,0,0,0,0,0,0,0],"sum_hessian":[1.015E3,1E3,1.5E1,9.93E2,7E0,6E0,9E0,9.85E2,8E0],"tree_param":{"num_deleted":"0","num_feature":"32","num_nodes":"9","size_leaf_vector":"1"}},{"base_weights":[-3.1309589E-3,-9.3014434E-2,4.876268E0,-1.4693429E-1,3.2661202E0,-2.5265273E-1,6.6181903E0,-1.21448696E-1,1.1667168E0,-3.4130278E0,3.1889365E0],"categories":[],"categories_nodes":[],"categories_segments":[],"categories_sizes":[],"default_left":[0,0,0,0,0,0,0,0,0,0,0],"id":8,"left_children":[1,3,5,7,-1,9,-1,-1,-1,-1,-1],"loss_changes":[4.495866E2,3.8876352E2,8.98664E2,3.0867917E2,0E0,6.660645E2,0E0,0E0,0E0,0E0,0E0],"parents":[2147483647,0,0,1,1,2,2,3,3,5,5],"right_children":[2,4,6,8,-1,10,-1,-1,-1,-1,-1],"split_conditions":[3.7E1,5.5E1,9E0,2.4E1,3.2661202E0,7E0,6.6181903E0,-1.21448696E-1,1.1667168E0,-3.4130278E0,3.1889365E0],"split_indices":[22,6,20,8,0,18,0,0,0,0,0],"split_type":[0,0,0,0,0,0,0,0,0,0,0],"sum_hessian":[1.024E3,1.006E3,1.8E1,9.99E2,7E0,1.2E1,6E0,9.58E2,4.1E1,6E0,6E0],"tree_param":{"num_deleted":"0","num_feature":"32","num_nodes":"11","size_leaf_vector":"1"}},{"base_weights":[7.068158E-2,2.9514977E-1,-1.4567574E0,2.1473828E-1,5.2576756E0,-2.6722887E0,-2.8291193E-1,2.0053318E-1,-4.6911117E-1,-1.4980141E0,-3.4210253E-1,1.2361217E0,-3.225854E-1],"categories":[],"categories_nodes":[],"categories_segments":[],"categories_sizes":[],"default_left":[0,0,0,0,0,0,0,0,0,0,0,0,0],"id":9,"left_children":[1,3,5,7,-1,9,11,-1,-1,-1,-1,-1,-1],"loss_changes":[3.5733752E2,8.073799E2,1.9013397E2,2.4279356E2,0E0,7.0366425E1,8.493011E1,0E0,0E0,0E0,0E0,0E0,0E0],"parents":[2147483647,0,0,1,1,2,2,3,3,5,5,6,6],"right_children":[2,4,6,8,-1,10,12,-1,-1,-1,-1,-1,-1],"split_conditions":[1.4E1,3.7E1,7E0,1.3E1,5.2576756E0,1.6E1,8E0,2.0053318E-1,-4.6911117E-1,-1.4980141E0,-3.4210253E-1,1.2361217E0,-3.225854E-1],"split_indices":[31,27,17,16,0,27,17,0,0,0,0,0,0],"split_type":[0,0,0,0,0,0,0,0,0,0,0,0,0],"sum_hessian":[1.041E3,9.08E2,1.33E2,9.02E2,6E0,6.5E1,6.8E1,7.66E2,1.36E2,5E1,1.5E1,8E0,6E1],"tree_param":{"num_deleted":"0","num_feature":"32","num_nodes":"13","size_leaf_vector":"1"}},{"base_weights":[-1.39206685E-2,1.0370985E0,-3.6475033E-1,4.792098E0,2.3622428E-1,-4.3744013E-1,3.7188694E0,5.707075E0,-5.002592E-1,3.7036252E-1,-1.5533776E0,-3.289131E-1,6.7095536E-1],"categories":[],"categories_nodes":[],"categories_segments":[],"categories_sizes":[],"default_left":[0,0,0,0,0,0,0,0,0,0,0,0,0],"id":10,"left_children":[1,3,5,7,9,11,-1,-1,-1,-1,-1,-1,-1],"loss_changes":[3.735582E2,7.618585E2,4.6585242E2,1.9808047E3,4.2643085E2,3.8962558E2,0E0,0E0,0E0,0E0,0E0,0E0,0E0],"parents":[2147483647,0,0,1,1,2,2,3,3,4,4,5,5],"right_children":[2,4,6,8,10,12,-1,-1,-1,-1,-1,-1,-1],"split_conditions":[2E0,2E0,4.1E1,3E0,1.9E1,1.3E1,3.7188694E0,5.707075E0,-5.002592E-1,3.7036252E-1,-1.5533776E0,-3.289131E-1,6.7095536E-1],"split_indices":[23,2,24,13,10,30,0,0,0,0,0,0,0],"split_type":[0,0,0,0,0,0,0,0,0,0,0,0,0],"sum_hessian":[1.012E3,2.53E2,7.59E2,4.4E1,2.09E2,7.53E2,6E0,1.9E1,2.5E1,1.81E2,2.8E1,6.58E2,9.5E1],"tree_param":{"num_deleted":"0","num_feature":"32","num_nodes":"13","size_leaf_vector":"1"}},{"base_weights":[3.99982E-2,1.2394536E-1,-3.5893407E0,1.6978918E-1,-3.2268727E0,-3.535947E-1,-5.644908E0,5.760078E-2,2.8633409E0,-1.717674E0,-3.4257314E0],"categories":[],"categories_nodes":[],"categories_segments":[],"categories_sizes":[],"default_left":[0,0,0,0,0,0,0,0,0,0,0],"id":11,"left_children":[1,3,5,7,-1,-1,9,-1,-1,-1,-1],"loss_changes":[3.1726575E2,3.317915E2,1.3437112E2,2.7530908E2,0E0,0E0,3.11492E1,0E0,0E0,0E0,0E0],"parents":[2147483647,0,0,1,1,2,2,3,3,6,6],"right_children":[2,4,6,8,-1,-1,10,-1,-1,-1,-1],"split_conditions":[3.5E1,4.7E1,3E0,4.9E1,-3.2268727E0,-3.535947E-1,9E0,5.760078E-2,2.8633409E0,-1.717674E0,-3.4257314E0],"split_indices":[12,27,17,17,0,0,10,0,0,0,0],"split_type":[0,0,0,0,0,0,0,0,0,0,0],"sum_hessian":[1.04E3,1.017E3,2.3E1,1.011E3,6E0,1E1,1.3E1,1.004E3,7E0,7E0,6E0],"tree_param":{"num_deleted":"0","num_feature":"32","num_nodes":"11","size_leaf_vector":"1"}},{"base_weights":[-1.461184E-1,-3.9762446E-1,1.6164422E0,-3.0417338E-1,-4.9751387E0,5.4339147E0,-5.1544565E-1,-2.1416973E-1,8.079782E-1,-6.169969E-1,-3.8556578E0,1.4156058E0,9.280216E0,-1.0945495E0,8.208803E-1],"categories":[],"categories_nodes":[],"categories_segments":[],"categories_sizes":[],"default_left":[0,0,0,0,0,0,0,0,0,0,0,0,0,0,0],"id":12,"left_children":[1,3,5,7,9,11,13,-1,-1,-1,-1,-1,-1,-1,-1],"loss_changes":[4.7048087E2,3.9638574E2,1.0801995E3,2.9687222E2,2.2077365E2,1.6174722E3,3.6472858E2,0E0,0E0,0E0,0E0,0E0,0E0,0E0,0E0],"parents":[2147483647,0,0,1,1,2,2,3,3,4,4,5,5,6,6],"right_children":[2,4,6,8,10,12,14,-1,-1,-1,-1,-1,-1,-1,-1],"split_conditions":[1.4E1,2.9E1,2E0,1.9E1,9E0,1.9E1,3E0,-2.1416973E-1,8.079782E-1,-6.169969E-1,-3.8556578E0,1.4156058E0,9.280216E0,-1.0945495E0,8.208803E-1],"split_indices":[20,24,15,4,8,28,13,0,0,0,0,0,0,0,0],"split_type":[0,0,0,0,0,0,0,0,0,0,0,0,0,0,0],"sum_hessian":[1.06E3,9.28E2,1.32E2,9.1E2,1.8E1,4.7E1,8.5E1,8.45E2,6.5E1,9E0,9E0,4.1E1,6E0,4.7E1,3.8E1],"tree_param":{"num_deleted":"0","num_feature":"32","num_nodes":"15","size_leaf_vector":"1"}},{"base_weights":[5.408405E-2,-1.2808998E-1,2.1766694E0,-6.866607E-2,-2.8348963E0,-3.659884E-1,7.644626E0,5.7167407E-2,-6.1041564E-1,-6.9567966E-1,9.581289E-1,9.009119E0,1.7006125E0],"categories":[],"categories_nodes":[],"categories_segments":[],"categories_sizes":[],"default_left":[0,0,0,0,0,0,0,0,0,0,0,0,0],"id":13,"left_children":[1,3,5,7,-1,9,11,-1,-1,-1,-1,-1,-1],"loss_changes":[4.0869455E2,3.4685904E2,1.1630106E3,2.3200256E2,0E0,1.6123253E2,1.2072218E3,0E0,0E0,0E0,0E0,0E0,0E0],"parents":[2147483647,0,0,1,1,2,2,3,3,5,5,6,6],"right_children":[2,4,6,8,-1,10,12,-1,-1,-1,-1,-1,-1],"split_conditions":[1.9E1,4.9E1,5E0,1.4E1,-2.8348963E0,1.4E1,3E0,5.7167407E-2,-6.1041564E-1,-6.9567966E-1,9.581289E-1,9.009119E0,1.7006125E0],"split_indices":[11,30,6,0,0,13,25,0,0,0,0,0,0],"split_type":[0,0,0,0,0,0,0,0,0,0,0,0,0],"sum_hessian":[1.056E3,9.73E2,8.3E1,9.64E2,9E0,5.7E1,2.6E1,8.36E2,1.28E2,3.9E1,1.8E1,6E0,2E1],"tree_param":{"num_deleted":"0","num_feature":"32","num_nodes":"13","size_leaf_vector":"1"}},{"base_weights":[-7.418643E-2,-4.5255834E-1,7.318294E-1,-3.1351003E-1,-6.677472E0,4.69635E-1,4.055532E0,-9.564118E-2,-1.8563123E0,-4.162352E0,-1.6518925E0,-1.389256E-1,7.752051E-1],"categories":[],"categories_nodes":[],"categories_segments":[],"categories_sizes":[],"default_left":[0,0,0,0,0,0,0,0,0,0,0,0,0],"id":14,"left_children":[1,3,5,7,9,11,-1,-1,-1,-1,-1,-1,-1],"loss_changes":[3.193473E2,6.1561597E2,7.024976E2,2.7506E2,9.459552E1,3.0161685E2,0E0,0E0,0E0,0E0,0E0,0E0,0E0],"parents":[2147483647,0,0,1,1,2,2,3,3,4,4,5,5],"right_children":[2,4,6,8,10,12,-1,-1,-1,-1,-1,-1,-1],"split_conditions":[7E0,3.5E1,2.1E1,3.5E1,9E0,4E0,4.055532E0,-9.564118E-2,-1.8563123E0,-4.162352E0,-1.6518925E0,-1.389256E-1,7.752051E-1],"split_indices":[3,22,6,4,8,12,0,0,0,0,0,0,0],"split_type":[0,0,0,0,0,0,0,0,0,0,0,0,0],"sum_hessian":[1.046E3,7.12E2,3.34E2,6.97E2,1.5E1,3.24E2,1E1,6.78E2,1.9E1,8E0,7E0,1.98E2,1.26E2],"tree_param":{"num_deleted":"0","num_feature":"32","num_nodes":"13","size_leaf_vector":"1"}},{"base_weights":[-9.2638284E-2,-6.861488E-1,3.3234826E-1,-8.2264614E-1,3.9324496E0,2.4419038E-1,3.063947E0,-2.3341198E-1,-1.3312327E0,8.356451E-2,2.8256383E0],"categories":[],"categories_nodes":[],"categories_segments":[],"categories_sizes":[],"default_left":[0,0,0,0,0,0,0,0,0,0,0],"id":15,"left_children":[1,3,5,7,-1,9,-1,-1,-1,-1,-1],"loss_changes":[2.6813272E2,5.5994446E2,3.4269196E2,2.8522946E2,0E0,2.2732729E2,0E0,0E0,0E0,0E0,0E0],"parents":[2147483647,0,0,1,1,2,2,3,3,5,5],"right_children":[2,4,6,8,-1,10,-1,-1,-1,-1,-1],"split_conditions":[3E0,4.3E1,4.9E1,1.1E1,3.9324496E0,3.7E1,3.063947E0,-2.3341198E-1,-1.3312327E0,8.356451E-2,2.8256383E0],"split_indices":[28,27,22,20,0,11,0,0,0,0,0],"split_type":[0,0,0,0,0,0,0,0,0,0,0],"sum_hessian":[1.062E3,4.43E2,6.19E2,4.37E2,6E0,6.11E2,8E0,3.79E2,5.8E1,6.05E2,6E0],"tree_param":{"num_deleted":"0","num_feature":"32","num_nodes":"11","size_leaf_vector":"1"}},{"base_weights":[1.7055103E-1,-6.310375E-1,4.3868324E-1,-1.2445592E0,2.217614E0,1.1807632E0,-1.4318429E-1,-4.1816503E-1,-2.5894475E0,-3.0733198E-1,3.4540298E0,2.7766138E-1,2.1004267E0,-1.954293E-2,-3.148472E0],"categories":[],"categories_nodes":[],"categories_segments":[],"categories_sizes":[],"default_left":[0,0,0,0,0,0,0,0,0,0,0,0,0,0,0],"id":16,"left_children":[1,3,5,7,9,11,13,-1,-1,-1,-1,-1,-1,-1,-1],"loss_changes":[2.242253E2,4.5859473E2,3.3755536E2,3.1687845E2,7.066482E2,6.685727E2,2.9476608E2,0E0,0E0,0E0,0E0,0E0,0E0,0E0,0E0],"parents":[2147483647,0,0,1,1,2,2,3,3,4,4,5,5,6,6],"right_children":[2,4,6,8,10,12,14,-1,-1,-1,-1,-1,-1,-1,-1],"split_conditions":[2E0,1.6E1,5E0,2.3E1,1.3E1,1.1E1,4.3E1,-4.1816503E-1,-2.5894475E0,-3.0733198E-1,3.4540298E0,2.7766138E-1,2.1004267E0,-1.954293E-2,-3.148472E0],"split_indices":[15,14,15,28,20,11,27,0,0,0,0,0,0,0,0],"split_type":[0,0,0,0,0,0,0,0,0,0,0,0,0,0,0],"sum_hessian":[1.042E3,2.61E2,7.81E2,2.15E2,4.6E1,3.43E2,4.38E2,2E2,1.5E1,3E1,1.6E1,2.93E2,5E1,4.32E2,6E0],"tree_param":{"num_deleted":"0","num_feature":"32","num_nodes":"15","size_leaf_vector":"1"}},{"base_weights":[-5.9132695E-2,-3.846222E-1,6.623091E-1,-1.870529E-1,-2.4631333E0,3.9158815E-1,4.3518815E0,-1.439016E-1,2.924669E0,-1.6234696E0,8.9846295E-1,5.289533E-1,-5.203203E-1,6.07391E0,-2.7293071E-2],"categories":[],"categories_nodes":[],"categories_segments":[],"categories_sizes":[],"default_left":[0,0,0,0,0,0,0,0,0,0,0,0,0,0,0],"id":17,"left_children":[1,3,5,7,9,11,13,-1,-1,-1,-1,-1,-1,-1,-1],"loss_changes":[2.4964594E2,3.0056857E2,3.2923645E2,5.414188E2,2.964917E2,3.5239374E2,8.731131E2,0E0,0E0,0E0,0E0,0E0,0E0,0E0,0E0],"parents":[2147483647,0,0,1,1,2,2,3,3,4,4,5,5,6,6],"right_children":[2,4,6,8,10,12,14,-1,-1,-1,-1,-1,-1,-1,-1],"split_conditions":[7E0,1.4E1,2.7E1,1.3E1,9E0,1.1E1,2E0,-1.439016E-1,2.924669E0,-1.6234696E0,8.9846295E-1,5.289533E-1,-5.203203E-1,6.07391E0,-2.7293071E-2],"split_indices":[2,12,14,12,1,6,11,0,0,0,0,0,0,0,0],"split_type":[0,0,0,0,0,0,0,0,0,0,0,0,0,0,0],"sum_hessian":[1.062E3,7.32E2,3.3E2,6.69E2,6.3E1,3.08E2,2.2E1,6.57E2,1.2E1,5.1E1,1.2E1,2.06E2,1.02E2,7E0,1.5E1],"tree_param":{"num_deleted":"0","num_feature":"32","num_nodes":"15","size_leaf_vector":"1"}},{"base_weights":[-5.4511774E-2,3.1231696E-2,-3.395485E0,5.820451E-1,-5.1748985E-1,-2.358441E0,-2.9472804E0,9.654535E-1,-5.3176254E-2,-1.5618135E-1,-1.9858074E0,-7.12844E-2,-2.0548344E0],"categories":[],"categories_nodes":[],"categories_segments":[],"categories_sizes":[],"default_left":[0,0,0,0,0,0,0,0,0,0,0,0,0],"id":18,"left_children":[1,3,5,7,9,11,-1,-1,-1,-1,-1,-1,-1],"loss_changes":[3.0386734E2,3.128464E2,7.374924E1,5.4189404E2,3.5135748E2,9.395673E1,0E0,0E0,0E0,0E0,0E0,0E0,0E0],"parents":[2147483647,0,0,1,1,2,2,3,3,4,4,5,5],"right_children":[2,4,6,8,10,12,-1,-1,-1,-1,-1,-1,-1],"split_conditions":[3.1E1,4E0,1.3E1,2E0,1.9E1,5E0,-2.9472804E0,9.654535E-1,-5.3176254E-2,-1.5618135E-1,-1.9858074E0,-7.12844E-2,-2.0548344E0],"split_indices":[2,25,20,21,30,28,0,0,0,0,0,0,0],"split_type":[0,0,0,0,0,0,0,0,0,0,0,0,0],"sum_hessian":[1.06E3,1.034E3,2.6E1,5.16E2,5.18E2,2E1,6E0,1.63E2,3.53E2,4.95E2,2.3E1,1E1,1E1],"tree_param":{"num_deleted":"0","num_feature":"32","num_nodes":"13","size_leaf_vector":"1"}},{"base_weights":[8.224064E-2,2.0474301E-1,-1.876276E0,-1.0381971E-1,1.3310765E0,-1.2765E0,-2.5522501E0,-3.411186E-1,2.1355508E-1,4.9089527E-1,4.489388E0,-9.73059E-1,1.5990144E-1],"categories":[],"categories_nodes":[],"categories_segments":[],"categories_sizes":[],"default_left":[0,0,0,0,0,0,0,0,0,0,0,0,0],"id":19,"left_children":[1,3,5,7,9,11,-1,-1,-1,-1,-1,-1,-1],"loss_changes":[2.5081769E2,3.418995E2,1.3055879E2,2.7691284E2,4.7263748E2,7.220215E1,0E0,0E0,0E0,0E0,0E0,0E0,0E0],"parents":[2147483647,0,0,1,1,2,2,3,3,4,4,5,5],"right_children":[2,4,6,8,10,12,-1,-1,-1,-1,-1,-1,-1],"split_conditions":[2.2E1,9E0,7E0,4E0,3.6E1,1.1E1,-2.5522501E0,-3.411186E-1,2.1355508E-1,4.9089527E-1,4.489388E0,-9.73059E-1,1.5990144E-1],"split_indices":[13,13,26,18,27,25,0,0,0,0,0,0,0],"split_type":[0,0,0,0,0,0,0,0,0,0,0,0,0],"sum_hessian":[1.044E3,9.83E2,6.1E1,7.72E2,2.11E2,5.3E1,8E0,3.64E2,4.08E2,2.05E2,6E0,3.5E1,1.8E1],"tree_param":{"num_deleted":"0","num_feature":"32","num_nodes":"13","size_leaf_vector":"1"}},{"base_weights":[6.837222E-2,2.4264306E-1,-1.2782979E0,1.2847061E0,-6.501849E-2,1.6773891E0,-2.323399E0,1.818765E0,1.5976237E-2,-9.6361995E-2,1.8328812E0,-7.7972305E-1,2.404811E0,-1.4126664E0,1.2448624E0],"categories":[],"categories_nodes":[],"categories_segments":[],"categories_sizes":[],"default_left":[0,0,0,0,0,0,0,0,0,0,0,0,0,0,0],"id":20,"left_children":[1,3,5,7,9,11,13,-1,-1,-1,-1,-1,-1,-1,-1],"loss_changes":[2.4483734E2,2.961353E2,3.7137567E2,6.965469E2,4.1210736E2,3.781782E2,3.2859738E2,0E0,0E0,0E0,0E0,0E0,0E0,0E0,0E0],"parents":[2147483647,0,0,1,1,2,2,3,3,4,4,5,5,6,6],"right_children":[2,4,6,8,10,12,14,-1,-1,-1,-1,-1,-1,-1,-1],"split_conditions":[1.5E1,2E0,4E0,2E0,2.4E1,5E0,3.9E1,1.818765E0,1.5976237E-2,-9.6361995E-2,1.8328812E0,-7.7972305E-1,2.404811E0,-1.4126664E0,1.2448624E0],"split_indices":[18,5,4,23,26,2,18,0,0,0,0,0,0,0,0],"split_type":[0,0,0,0,0,0,0,0,0,0,0,0,0,0,0],"sum_hessian":[1.042E3,9.23E2,1.19E2,2.1E2,7.13E2,3.1E1,8.8E1,6.7E1,1.43E2,6.89E2,2.4E1,1.6E1,1.5E1,7.7E1,1.1E1],"tree_param":{"num_deleted":"0","num_feature":"32","num_nodes":"15","size_leaf_vector":"1"}},{"base_weights":[-6.1970968E-2,2.539638E-1,-8.3936113E-1,1.6752979E-1,4.302357E0,-4.274961E-1,-3.6545002E0,2.2739492E-1,-4.9500522E-1,2.6581472E-2,4.07166E0,-4.8118782E-1,5.5594003E-1,-5.9298164E-1,-2.5420713E0],"categories":[],"categories_nodes":[],"categories_segments":[],"categories_sizes":[],"default_left":[0,0,0,0,0,0,0,0,0,0,0,0,0,0,0],"id":21,"left_children":[1,3,5,7,9,11,13,-1,-1,-1,-1,-1,-1,-1,-1],"loss_changes":[2.57151E2,2.6013864E2,3.4993784E2,2.9278415E2,2.965172E2,2.6469943E2,1.644751E2,0E0,0E0,0E0,0E0,0E0,0E0,0E0,0E0],"parents":[2147483647,0,0,1,1,2,2,3,3,4,4,5,5,6,6],"right_children":[2,4,6,8,10,12,14,-1,-1,-1,-1,-1,-1,-1,-1],"split_conditions":[8E0,2.5E1,2.1E1,8E0,3E0,1.2E1,7E0,2.2739492E-1,-4.9500522E-1,2.6581472E-2,4.07166E0,-4.8118782E-1,5.5594003E-1,-5.9298164E-1,-2.5420713E0],"split_indices":[24,28,26,18,21,18,14,0,0,0,0,0,0,0,0],"split_type":[0,0,0,0,0,0,0,0,0,0,0,0,0,0,0],"sum_hessian":[1.046E3,7.44E2,3.02E2,7.29E2,1.5E1,2.64E2,3.8E1,5.78E2,1.51E2,8E0,7E0,1.92E2,7.2E1,1.7E1,2.1E1],"tree_param":{"num_deleted":"0","num_feature":"32","num_nodes":"15","size_leaf_vector":"1"}},{"base_weights":[-3.193806E-2,-4.4716105E-1,5.798092E-1,-5.553671E-1,4.4172945E0,1.2978361E0,-9.685963E-1,-6.319555E-1,-6.0348973E-2,4.0511107E0,-4.4004902E-1,-3.4492236E-1,1.0978041E0,-1.24222085E-1,-1.6922003E0],"categories":[],"categories_nodes":[],"categories_segments":[],"categories_sizes":[],"default_left":[0,0,0,0,0,0,0,0,0,0,0,0,0,0,0],"id":22,"left_children":[1,3,5,7,9,11,13,-1,-1,-1,-1,-1,-1,-1,-1],"loss_changes":[2.641961E2,3.274337E2,4.6823828E2,2.0882646E2,3.1997464E2,6.3264124E2,2.5087756E2,0E0,0E0,0E0,0E0,0E0,0E0,0E0,0E0],"parents":[2147483647,0,0,1,1,2,2,3,3,4,4,5,5,6,6],"right_children":[2,4,6,8,10,12,14,-1,-1,-1,-1,-1,-1,-1,-1],"split_conditions":[5E0,2.3E1,1E1,3E0,9E0,3E0,1.7E1,-6.319555E-1,-6.0348973E-2,4.0511107E0,-4.4004902E-1,-3.4492236E-1,1.0978041E0,-1.24222085E-1,-1.6922003E0],"split_indices":[22,26,4,3,5,30,20,0,0,0,0,0,0,0,0],"split_type":[0,0,0,0,0,0,0,0,0,0,0,0,0,0,0],"sum_hessian":[1.039E3,6.19E2,4.2E2,6.06E2,1.3E1,2.87E2,1.33E2,2.08E2,3.98E2,7E0,6E0,9.9E1,1.88E2,1.06E2,2.7E1],"tree_param":{"num_deleted":"0","num_feature":"32","num_nodes":"15","size_leaf_vector":"1"}},{"base_weights":[-1.0768373E-1,8.051329E-2,-1.3538083E0,-2.0537913E-1,1.762813E0,-6.643393E-1,-3.877618E0,-7.5832504E-1,8.641283E-2,5.974825E-1,4.2711115E0,1.6144377E-1,-1.2330979E0,-8.911858E-1,-3.0817378E0],"categories":[],"categories_nodes":[],"categories_segments":[],"categories_sizes":[],"default_left":[0,0,0,0,0,0,0,0,0,0,0,0,0,0,0],"id":23,"left_children":[1,3,5,7,9,11,13,-1,-1,-1,-1,-1,-1,-1,-1],"loss_changes":[2.3868987E2,4.2562253E2,2.3097874E2,4.2554367E2,4.460815E2,2.1450613E2,1.4807755E2,0E0,0E0,0E0,0E0,0E0,0E0,0E0,0E0],"parents":[2147483647,0,0,1,1,2,2,3,3,4,4,5,5,6,6],"right_children":[2,4,6,8,10,12,14,-1,-1,-1,-1,-1,-1,-1,-1],"split_conditions":[1.4E1,1.2E1,1.6E1,2E0,2.5E1,1.2E1,1.1E1,-7.5832504E-1,8.641283E-2,5.974825E-1,4.2711115E0,1.6144377E-1,-1.2330979E0,-8.911858E-1,-3.0817378E0],"split_indices":[22,18,16,11,6,0,4,0,0,0,0,0,0,0,0],"split_type":[0,0,0,0,0,0,0,0,0,0,0,0,0,0,0],"sum_hessian":[1.017E3,8.84E2,1.33E2,7.56E2,1.28E2,1.05E2,2.8E1,1.62E2,5.94E2,1.21E2,7E0,7E1,3.5E1,1.7E1,1.1E1],"tree_param":{"num_deleted":"0","num_feature":"32","num_nodes":"15","size_leaf_vector":"1"}},{"base_weights":[-4.3751106E-2,-1.5208346E-1,1.5610996E0,-2.0556629E-1,3.1450646E0,4.933337E-1,4.570287E0,1.1381152E-1,-3.162091E-1,-6.636135E-1,1.1460849E0],"categories":[],"categories_nodes":[],"categories_segments":[],"categories_sizes":[],"default_left":[0,0,0,0,0,0,0,0,0,0,0],"id":24,"left_children":[1,3,5,7,-1,9,-1,-1,-1,-1,-1],"loss_changes":[1.8294681E2,3.6710004E2,5.883399E2,2.1127872E2,0E0,2.2964748E2,0E0,0E0,0E0,0E0,0E0],"parents":[2147483647,0,0,1,1,2,2,3,3,5,5],"right_children":[2,4,6,8,-1,10,-1,-1,-1,-1,-1],"split_conditions":[2E1,5.5E1,1.1E1,4E0,3.1450646E0,9E0,4.570287E0,1.1381152E-1,-3.162091E-1,-6.636135E-1,1.1460849E0],"split_indices":[24,30,17,30,0,26,0,0,0,0,0],"split_type":[0,0,0,0,0,0,0,0,0,0,0],"sum_hessian":[1.051E3,9.85E2,6.6E1,9.78E2,7E0,5.9E1,7E0,5.03E2,4.75E2,3E1,2.9E1],"tree_param":{"num_deleted":"0","num_feature":"32","num_nodes":"11","size_leaf_vector":"1"}},{"base_weights":[1.6583812E-1,3.4454203E-1,-1.060187E0,2.9635617E-1,2.8541396E0,-2.0161588E0,4.0051723E0,2.1523952E-1,-6.032468E-1,-1.11037E0,5.456086E-1,3.1668055E0,-1.4219612E0],"categories":[],"categories_nodes":[],"categories_segments":[],"categories_sizes":[],"default_left":[0,0,0,0,0,0,0,0,0,0,0,0,0],"id":25,"left_children":[1,3,5,7,-1,9,11,-1,-1,-1,-1,-1,-1],"loss_changes":[2.3168152E2,2.5793948E2,6.5587317E2,2.4777322E2,0E0,1.408331E2,4.4446457E2,0E0,0E0,0E0,0E0,0E0,0E0],"parents":[2147483647,0,0,1,1,2,2,3,3,5,5,6,6],"right_children":[2,4,6,8,-1,10,12,-1,-1,-1,-1,-1,-1],"split_conditions":[1.5E1,4.9E1,8E0,1.8E1,2.8541396E0,3.3E1,7E0,2.1523952E-1,-6.032468E-1,-1.11037E0,5.456086E-1,3.1668055E0,-1.4219612E0],"split_indices":[18,25,5,7,0,22,10,0,0,0,0,0,0],"split_type":[0,0,0,0,0,0,0,0,0,0,0,0,0],"sum_hessian":[1.056E3,9.22E2,1.34E2,9.15E2,7E0,1.13E2,2.1E1,8.28E2,8.7E1,1.01E2,1.2E1,1.5E1,6E0],"tree_param":{"num_deleted":"0","num_feature":"32","num_nodes":"13","size_leaf_vector":"1"}},{"base_weights":[1.8003823E-2,-5.8200598E-2,2.875939E0,1.7409852E-1,-1.1825058E0,-1.4493984E-1,4.856187E0,1.5857738E-1,-7.558503E-1,-2.4976581E-1,-1.3362626E0,-1.0288818E0,1.5372488E0],"categories":[],"categories_nodes":[],"categories_segments":[],"categories_sizes":[],"default_left":[0,0,0,0,0,0,0,0,0,0,0,0,0],"id":26,"left_children":[1,3,5,7,9,11,-1,-1,-1,-1,-1,-1,-1],"loss_changes":[2.2256953E2,2.601223E2,6.1186005E2,2.5204124E2,1.8610927E2,1.4489078E2,0E0,0E0,0E0,0E0,0E0,0E0,0E0],"parents":[2147483647,0,0,1,1,2,2,3,3,4,4,5,5],"right_children":[2,4,6,8,10,12,-1,-1,-1,-1,-1,-1,-1],"split_conditions":[3.1E1,1.2E1,4E0,1.8E1,5E0,3E0,4.856187E0,1.5857738E-1,-7.558503E-1,-2.4976581E-1,-1.3362626E0,-1.0288818E0,1.5372488E0],"split_indices":[30,9,5,28,26,21,0,0,0,0,0,0,0],"split_type":[0,0,0,0,0,0,0,0,0,0,0,0,0],"sum_hessian":[1.021E3,9.95E2,2.6E1,8.25E2,1.7E2,1.9E1,7E0,7.55E2,7E1,1.24E2,4.6E1,1.2E1,7E0],"tree_param":{"num_deleted":"0","num_feature":"32","num_nodes":"13","size_leaf_vector":"1"}},{"base_weights":[1.2985895E-2,-7.248388E-1,2.684586E-1,-4.608289E-1,-2.2034225E0,4.4281766E-1,-2.0408282E0,-4.1934466E-1,6.6790175E-1,2.2478999E-1,-1.3782525E0,6.62701E-4,6.481885E-1,1.4942685E0,-1.4438249E0],"categories":[],"categories_nodes":[],"categories_segments":[],"categories_sizes":[],"default_left":[0,0,0,0,0,0,0,0,0,0,0,0,0,0,0],"id":27,"left_children":[1,3,5,7,9,11,13,-1,-1,-1,-1,-1,-1,-1,-1],"loss_changes":[1.968069E2,1.0427797E2,3.1275778E2,1.9465894E2,8.535893E1,3.051825E2,3.1594452E2,0E0,0E0,0E0,0E0,0E0,0E0,0E0,0E0],"parents":[2147483647,0,0,1,1,2,2,3,3,4,4,5,5,6,6],"right_children":[2,4,6,8,10,12,14,-1,-1,-1,-1,-1,-1,-1,-1],"split_conditions":[2E0,9E0,2.2E1,7E0,2E0,8E0,3E0,-4.1934466E-1,6.6790175E-1,2.2478999E-1,-1.3782525E0,6.62701E-4,6.481885E-1,1.4942685E0,-1.4438249E0],"split_indices":[28,8,6,2,16,16,16,0,0,0,0,0,0,0,0],"split_type":[0,0,0,0,0,0,0,0,0,0,0,0,0,0,0],"sum_hessian":[1.043E3,2.68E2,7.75E2,2.28E2,4E1,7.21E2,5.4E1,1.85E2,4.3E1,9E0,3.1E1,4.94E2,2.27E2,9E0,4.5E1],"tree_param":{"num_deleted":"0","num_feature":"32","num_nodes":"15","size_leaf_vector":"1"}},{"base_weights":[-5.6589305E-2,2.0519367E-3,-2.857783E0,-5.060958E-2,3.8127334E0,1.4799774E0,-5.8925347E0,1.3351248E-1,-2.3375069E-1,-3.6877995E0,-1.2445884E0],"categories":[],"categories_nodes":[],"categories_segments":[],"categories_sizes":[],"default_left":[0,0,0,0,0,0,0,0,0,0,0],"id":28,"left_children":[1,3,5,7,-1,-1,9,-1,-1,-1,-1],"loss_changes":[1.7257094E2,4.4693594E2,4.0617224E2,1.5792607E2,0E0,0E0,8.5181915E1,0E0,0E0,0E0,0E0],"parents":[2147483647,0,0,1,1,2,2,3,3,6,6],"right_children":[2,4,6,8,-1,-1,10,-1,-1,-1,-1],"split_conditions":[3.6E1,3.1E1,2E0,5E0,3.8127334E0,1.4799774E0,6E0,1.3351248E-1,-2.3375069E-1,-3.6877995E0,-1.2445884E0],"split_indices":[30,30,29,13,0,0,4,0,0,0,0],"split_type":[0,0,0,0,0,0,0,0,0,0,0],"sum_hessian":[1.05E3,1.029E3,2.1E1,1.023E3,6E0,7E0,1.4E1,5.86E2,4.37E2,8E0,6E0],"tree_param":{"num_deleted":"0","num_feature":"32","num_nodes":"11","size_leaf_vector":"1"}},{"base_weights":[-4.9547922E-2,-2.7992237E-1,5.8534205E-1,-6.5095013E-1,4.8081508E-1,9.940424E-1,-2.0160244E0,-2.5877127E-1,-2.3503013E0,1.4603363E-2,2.59975E0,6.712527E-1,-3.7943584E-1,-1.6576614E0,-3.7825972E-1],"categories":[],"categories_nodes":[],"categories_segments":[],"categories_sizes":[],"default_left":[0,0,0,0,0,0,0,0,0,0,0,0,0,0,0],"id":29,"left_children":[1,3,5,7,9,11,13,-1,-1,-1,-1,-1,-1,-1,-1],"loss_changes":[1.5520622E2,2.1991669E2,3.0147858E2,2.1089616E2,5.898263E2,2.033414E2,7.0792725E1,0E0,0E0,0E0,0E0,0E0,0E0,0E0,0E0],"parents":[2147483647,0,0,1,1,2,2,3,3,4,4,5,5,6,6],"right_children":[2,4,6,8,10,12,14,-1,-1,-1,-1,-1,-1,-1,-1],"split_conditions":[9E0,8E0,1.1E1,2.7E1,1.2E1,7E0,1.4E1,-2.5877127E-1,-2.3503013E0,1.4603363E-2,2.59975E0,6.712527E-1,-3.7943584E-1,-1.6576614E0,-3.7825972E-1],"split_indices":[4,19,19,8,10,29,19,0,0,0,0,0,0,0,0],"split_type":[0,0,0,0,0,0,0,0,0,0,0,0,0,0,0],"sum_hessian":[1.06E3,7.78E2,2.82E2,5.23E2,2.55E2,2.44E2,3.8E1,5.13E2,1E1,2.35E2,2E1,1.95E2,4.9E1,1.6E1,2.2E1],"tree_param":{"num_deleted":"0","num_feature":"32","num_nodes":"15","size_leaf_vector":"1"}},{"base_weights":[1.55701E-1,2.1122685E-1,-2.4916298E0,1.6389422E-1,3.0480356E0,-1.5355977E0,-2.1080244E0,4.0056586E-2,1.3156699E0,-1.3667346E0,3.0570585E-1],"categories":[],"categories_nodes":[],"categories_segments":[],"categories_sizes":[],"default_left":[0,0,0,0,0,0,0,0,0,0,0],"id":30,"left_children":[1,3,5,7,-1,9,-1,-1,-1,-1,-1],"loss_changes":[1.5412193E2,3.0897293E2,3.8734833E1,2.1089835E2,0E0,4.948414E1,0E0,0E0,0E0,0E0,0E0],"parents":[2147483647,0,0,1,1,2,2,3,3,5,5],"right_children":[2,4,6,8,-1,10,-1,-1,-1,-1,-1],"split_conditions":[3.5E1,2.7E1,2E1,3.1E1,3.0480356E0,3E0,-2.1080244E0,4.0056586E-2,1.3156699E0,-1.3667346E0,3.0570585E-1],"split_indices":[26,26,24,6,0,17,0,0,0,0,0],"split_type":[0,0,0,0,0,0,0,0,0,0,0],"sum_hessian":[1.046E3,1.025E3,2.1E1,1.018E3,7E0,1.5E1,6E0,9.9E2,2.8E1,9E0,6E0],"tree_param":{"num_deleted":"0","num_feature":"32","num_nodes":"11","size_leaf_vector":"1"}},{"base_weights":[5.2691083E-2,1.21930525E-1,-1.9617473E0,-9.8737165E-2,5.7408607E-1,4.6258917E-1,-3.6262195E0,-1.7299788E-1,4.1456577E-1,-1.4958364E-1,8.911439E-1,1.0603846E0,-9.088459E-1,-8.00779E-1,-2.2023313E0],"categories":[],"categories_nodes":[],"categories_segments":[],"categories_sizes":[],"default_left":[0,0,0,0,0,0,0,0,0,0,0,0,0,0,0],"id":31,"left_children":[1,3,5,7,9,11,13,-1,-1,-1,-1,-1,-1,-1,-1],"loss_changes":[1.4498393E2,1.0026001E2,1.4029372E2,1.8513081E2,4.002141E2,6.7009254E1,3.96922E1,0E0,0E0,0E0,0E0,0E0,0E0,0E0,0E0],"parents":[2147483647,0,0,1,1,2,2,3,3,4,4,5,5,6,6],"right_children":[2,4,6,8,10,12,14,-1,-1,-1,-1,-1,-1,-1,-1],"split_conditions":[2.7E1,7E0,2E0,8E0,4E0,3E0,9E0,-1.7299788E-1,4.1456577E-1,-1.4958364E-1,8.911439E-1,1.0603846E0,-9.088459E-1,-8.00779E-1,-2.2023313E0],"split_indices":[16,11,3,23,14,31,24,0,0,0,0,0,0,0,0],"split_type":[0,0,0,0,0,0,0,0,0,0,0,0,0,0,0],"sum_hessian":[1.038E3,1.004E3,3.4E1,6.75E2,3.29E2,1.4E1,2E1,5.29E2,1.46E2,1.98E2,1.31E2,8E0,6E0,8E0,1.2E1],"tree_param":{"num_deleted":"0","num_feature":"32","num_nodes":"15","size_leaf_vector":"1"}},{"base_weights":[-1.3959427E-1,1.6975205E-1,-5.607908E-1,-7.647892E-2,2.4512656E0,-9.26836E-1,6.2568265E-1,-1.1299094E-1,1.6485032E0,1.7830695E0,-1.2716776E0,-5.0020224E-1,6.1147946E-1,1.0366547E0,-4.3227065E-1],"categories":[],"categories_nodes":[],"categories_segments":[],"categories_sizes":[],"default_left":[0,0,0,0,0,0,0,0,0,0,0,0,0,0,0],"id":32,"left_children":[1,3,5,7,9,11,13,-1,-1,-1,-1,-1,-1,-1,-1],"loss_changes":[1.3341457E2,3.318558E2,1.8860277E2,3.262427E2,4.2550928E2,1.15850494E2,2.5949728E2,0E0,0E0,0E0,0E0,0E0,0E0,0E0,0E0],"parents":[2147483647,0,0,1,1,2,2,3,3,4,4,5,5,6,6],"right_children":[2,4,6,8,10,12,14,-1,-1,-1,-1,-1,-1,-1,-1],"split_conditions":[5E0,1.3E1,7E0,2E1,1.7E1,2.4E1,4E0,-1.1299094E-1,1.6485032E0,1.7830695E0,-1.2716776E0,-5.0020224E-1,6.1147946E-1,1.0366547E0,-4.3227065E-1],"split_indices":[14,4,3,20,28,24,0,0,0,0,0,0,0,0,0],"split_type":[0,0,0,0,0,0,0,0,0,0,0,0,0,0,0],"sum_hessian":[1.023E3,5.9E2,4.33E2,5.33E2,5.7E1,3.31E2,1.02E2,5.1E2,2.3E1,4.5E1,1.2E1,3.1E2,2.1E1,5E1,5.2E1],"tree_param":{"num_deleted":"0","num_feature":"32","num_nodes":"15","size_leaf_vector":"1"}},{"base_weights":[-3.123263E-2,3.0668933E-2,-2.0825934E0,6.7399144E-2,-1.6557609E0,-5.611323E-1,-2.1710017E0,7.536444E-2,-5.5591655E-1,7.22776E-1,-6.918632E-1],"categories":[],"categories_nodes":[],"categories_segments":[],"categories_sizes":[],"default_left":[0,0,0,0,0,0,0,0,0,0,0],"id":33,"left_children":[1,3,5,7,-1,9,-1,-1,-1,-1,-1],"loss_changes":[1.3673651E2,1.3875142E2,1.2383E2,1.256091E2,0E0,4.202144E1,0E0,0E0,0E0,0E0,0E0],"parents":[2147483647,0,0,1,1,2,2,3,3,5,5],"right_children":[2,4,6,8,-1,10,-1,-1,-1,-1,-1],"split_conditions":[3.2E1,4.7E1,4E0,2E1,-1.6557609E0,5E0,-2.1710017E0,7.536444E-2,-5.5591655E-1,7.22776E-1,-6.918632E-1],"split_indices":[26,10,29,21,0,16,0,0,0,0,0],"split_type":[0,0,0,0,0,0,0,0,0,0,0],"sum_hessian":[1.076E3,1.045E3,3.1E1,1.035E3,1E1,2E1,1.1E1,9.63E2,7.2E1,6E0,1.4E1],"tree_param":{"num_deleted":"0","num_feature":"32","num_nodes":"11","size_leaf_vector":"1"}},{"base_weights":[-7.185569E-2,1.3577415E-1,-7.766713E-1,1.8655448E-1,-2.8453417E0,-1.5212632E0,3.9890635E-1,-9.5440455E-2,3.1149566E-1,-2.1729238E0,-2.198247E-1,-3.6965093E-1,-1.3278912E0,-4.3637848E-1,1.0606487E0],"categories":[],"categories_nodes":[],"categories_segments":[],"categories_sizes":[],"default_left":[0,0,0,0,0,0,0,0,0,0,0,0,0,0,0],"id":34,"left_children":[1,3,5,7,9,11,13,-1,-1,-1,-1,-1,-1,-1,-1],"loss_changes":[1.5276984E2,1.2238357E2,2.0825528E2,1.5181679E2,5.8217262E1,1.4056226E2,2.3637993E2,0E0,0E0,0E0,0E0,0E0,0E0,0E0,0E0],"parents":[2147483647,0,0,1,1,2,2,3,3,4,4,5,5,6,6],"right_children":[2,4,6,8,10,12,14,-1,-1,-1,-1,-1,-1,-1,-1],"split_conditions":[1E1,3.7E1,1E1,5E0,1.7E1,6E0,1E1,-9.5440455E-2,3.1149566E-1,-2.1729238E0,-2.198247E-1,-3.6965093E-1,-1.3278912E0,-4.3637848E-1,1.0606487E0],"split_indices":[11,27,15,8,31,6,17,0,0,0,0,0,0,0,0],"split_type":[0,0,0,0,0,0,0,0,0,0,0,0,0,0,0],"sum_hessian":[1.043E3,8.06E2,2.37E2,7.93E2,1.3E1,1.45E2,9.2E1,4.39E2,3.54E2,7E0,6E0,9.5E1,5E1,5.4E1,3.8E1],"tree_param":{"num_deleted":"0","num_feature":"32","num_nodes":"15","size_leaf_vector":"1"}},{"base_weights":[4.3275148E-2,5.9932846E-1,-3.3925664E-1,4.2138195E-1,3.523728E0,-4.7858033E-1,1.5630513E0,1.531885E-1,2.8057673E0,-5.786108E-2,-6.749659E-1,-9.679417E-1,1.8691897E0],"categories":[],"categories_nodes":[],"categories_segments":[],"categories_sizes":[],"default_left":[0,0,0,0,0,0,0,0,0,0,0,0,0],"id":35,"left_children":[1,3,5,7,-1,9,11,-1,-1,-1,-1,-1,-1],"loss_changes":[2.2314348E2,5.3213336E2,1.6513666E2,2.1159808E2,0E0,2.0075539E2,3.8979816E2,0E0,0E0,0E0,0E0,0E0,0E0],"parents":[2147483647,0,0,1,1,2,2,3,3,5,5,6,6],"right_children":[2,4,6,8,-1,10,12,-1,-1,-1,-1,-1,-1],"split_conditions":[3E0,2.1E1,2.2E1,4.9E1,3.523728E0,1E1,9E0,1.531885E-1,2.8057673E0,-5.786108E-2,-6.749659E-1,-9.679417E-1,1.8691897E0],"split_indices":[24,26,8,27,0,12,12,0,0,0,0,0,0],"split_type":[0,0,0,0,0,0,0,0,0,0,0,0,0],"sum_hessian":[1.048E3,4.27E2,6.21E2,4.17E2,1E1,5.79E2,4.2E1,4.11E2,6E0,4.26E2,1.53E2,1.7E1,2.5E1],"tree_param":{"num_deleted":"0","num_feature":"32","num_nodes":"13","size_leaf_vector":"1"}},{"base_weights":[-2.192218E-2,5.513761E-2,-1.8553724E0,5.5437E-3,3.159775E0,-2.8474095E0,-1.0357398E0,1.7140055E-2,-2.1533384E0,3.3622828E0,-3.0887333E-1,5.8504546E-1,-1.0351008E0],"categories":[],"categories_nodes":[],"categories_segments":[],"categories_sizes":[],"default_left":[0,0,0,0,0,0,0,0,0,0,0,0,0],"id":36,"left_children":[1,3,5,7,9,-1,11,-1,-1,-1,-1,-1,-1],"loss_changes":[1.4551456E2,1.5219739E2,1.4293526E2,1.4302304E2,2.4698682E2,0E0,9.9778015E1,0E0,0E0,0E0,0E0,0E0,0E0],"parents":[2147483647,0,0,1,1,2,2,3,3,4,4,6,6],"right_children":[2,4,6,8,10,-1,12,-1,-1,-1,-1,-1,-1],"split_conditions":[2.6E1,3.6E1,2E0,4.4E1,7E0,-2.8474095E0,5E0,1.7140055E-2,-2.1533384E0,3.3622828E0,-3.0887333E-1,5.8504546E-1,-1.0351008E0],"split_indices":[20,24,4,6,14,0,4,0,0,0,0,0,0],"split_type":[0,0,0,0,0,0,0,0,0,0,0,0,0],"sum_hessian":[1.029E3,9.88E2,4.1E1,9.73E2,1.5E1,6E0,3.5E1,9.67E2,6E0,7E0,8E0,1.2E1,2.3E1],"tree_param":{"num_deleted":"0","num_feature":"32","num_nodes":"13","size_leaf_vector":"1"}},{"base_weights":[2.7120695E-2,3.0913532E-1,-5.8157456E-1,2.3941547E-1,3.629598E0,-1.2644519E0,4.360454E-1,-1.9150057E-1,2.7644363E-1,-7.95809E-1,3.0141905E-1,3.6044937E-1,-2.143793E0],"categories":[],"categories_nodes":[],"categories_segments":[],"categories_sizes":[],"default_left":[0,0,0,0,0,0,0,0,0,0,0,0,0],"id":37,"left_children":[1,3,5,7,-1,9,11,-1,-1,-1,-1,-1,-1],"loss_changes":[1.7974782E2,3.7495038E2,2.3069038E2,1.6615231E2,0E0,1.739591E2,2.342328E2,0E0,0E0,0E0,0E0,0E0,0E0],"parents":[2147483647,0,0,1,1,2,2,3,3,5,5,6,6],"right_children":[2,4,6,8,-1,10,12,-1,-1,-1,-1,-1,-1],"split_conditions":[7E0,4.1E1,8E0,3E0,3.629598E0,1.3E1,3.3E1,-1.9150057E-1,2.7644363E-1,-7.95809E-1,3.0141905E-1,3.6044937E-1,-2.143793E0],"split_indices":[8,28,16,3,0,14,28,0,0,0,0,0,0],"split_type":[0,0,0,0,0,0,0,0,0,0,0,0,0],"sum_hessian":[1.046E3,7.15E2,3.31E2,7.09E2,6E0,1.98E2,1.33E2,2.51E2,4.58E2,1.6E2,3.8E1,1.25E2,8E0],"tree_param":{"num_deleted":"0","num_feature":"32","num_nodes":"13","size_leaf_vector":"1"}},{"base_weights":[4.6333693E-2,-1.7218989E-1,5.8542424E-1,-2.1122587E-1,1.9574726E0,3.3187783E0,1.709623E-1,2.3397873E-1,-2.2699656E-1,5.423182E0,-2.6522124E-1,-1.3869824E-1,1.6140221E0],"categories":[],"categories_nodes":[],"categories_segments":[],"categories_sizes":[],"default_left":[0,0,0,0,0,0,0,0,0,0,0,0,0],"id":38,"left_children":[1,3,5,7,-1,9,11,-1,-1,-1,-1,-1,-1],"loss_changes":[1.22752426E2,1.2794607E2,3.401678E2,1.4749765E2,0E0,1.2969429E3,4.090652E2,0E0,0E0,0E0,0E0,0E0,0E0],"parents":[2147483647,0,0,1,1,2,2,3,3,5,5,6,6],"right_children":[2,4,6,8,-1,10,12,-1,-1,-1,-1,-1,-1],"split_conditions":[8E0,4.4E1,2E0,2E0,1.9574726E0,3E0,1.1E1,2.3397873E-1,-2.2699656E-1,5.423182E0,-2.6522124E-1,-1.3869824E-1,1.6140221E0],"split_indices":[11,4,31,1,0,22,10,0,0,0,0,0,0],"split_type":[0,0,0,0,0,0,0,0,0,0,0,0,0],"sum_hessian":[1.041E3,7.41E2,3E2,7.35E2,6E0,3.9E1,2.61E2,2.06E2,5.29E2,1.2E1,2.7E1,2.29E2,3.2E1],"tree_param":{"num_deleted":"0","num_feature":"32","num_nodes":"13","size_leaf_vector":"1"}},{"base_weights":[-1.1184848E-1,-2.7054066E-2,-2.8185148E0,-1.6885953E-1,1.0902922E0,-2.8954437E0,-1.5054607E0,-6.0163964E-2,-1.9368476E0,8.5948026E-1,-1.0336307E0,-4.967492E-2,-1.2616249E0],"categories":[],"categories_nodes":[],"categories_segments":[],"categories_sizes":[],"default_left":[0,0,0,0,0,0,0,0,0,0,0,0,0],"id":39,"left_children":[1,3,5,7,9,-1,11,-1,-1,-1,-1,-1,-1],"loss_changes":[2.3831464E2,1.5974054E2,1.3736836E2,1.3920094E2,2.919558E2,0E0,4.0047604E1,0E0,0E0,0E0,0E0,0E0,0E0],"parents":[2147483647,0,0,1,1,2,2,3,3,4,4,6,6],"right_children":[2,4,6,8,10,-1,12,-1,-1,-1,-1,-1,-1],"split_conditions":[2.8E1,1.5E1,3.3E1,4.9E1,1.7E1,-2.8954437E0,5E0,-6.0163964E-2,-1.9368476E0,8.5948026E-1,-1.0336307E0,-4.967492E-2,-1.2616249E0],"split_indices":[26,6,26,29,30,0,8,0,0,0,0,0,0],"split_type":[0,0,0,0,0,0,0,0,0,0,0,0,0],"sum_hessian":[1.038E3,1.007E3,3.1E1,8.94E2,1.13E2,8E0,2.3E1,8.86E2,8E0,9.2E1,2.1E1,1.1E1,1.2E1],"tree_param":{"num_deleted":"0","num_feature":"32","num_nodes":"13","size_leaf_vector":"1"}},{"base_weights":[4.16526E-2,1.7917901E-1,-1.1395987E0,2.1944393E-1,-1.5356419E0,-5.164267E-1,-3.0308406E0,1.6252655E-1,-4.4722193E-1,-1.3914725E0,1.1145562E-2,-1.7925143E0,-6.0355727E-2],"categories":[],"categories_nodes":[],"categories_segments":[],"categories_sizes":[],"default_left":[0,0,0,0,0,0,0,0,0,0,0,0,0],"id":40,"left_children":[1,3,5,7,-1,9,11,-1,-1,-1,-1,-1,-1],"loss_changes":[1.6752553E2,1.3049126E2,1.25897354E2,1.4306514E2,0E0,1.0984177E2,6.4676956E1,0E0,0E0,0E0,0E0,0E0,0E0],"parents":[2147483647,0,0,1,1,2,2,3,3,5,5,6,6],"right_children":[2,4,6,8,-1,10,12,-1,-1,-1,-1,-1,-1],"split_conditions":[1.7E1,4.7E1,6E0,1.8E1,-1.5356419E0,3E0,1.2E1,1.6252655E-1,-4.4722193E-1,-1.3914725E0,1.1145562E-2,-1.7925143E0,-6.0355727E-2],"split_indices":[15,28,0,16,0,29,13,0,0,0,0,0,0],"split_type":[0,0,0,0,0,0,0,0,0,0,0,0,0],"sum_hessian":[1.03E3,9.23E2,1.07E2,9.13E2,1E1,8.1E1,2.6E1,8.22E2,9.1E1,1.4E1,6.7E1,2E1,6E0],"tree_param":{"num_deleted":"0","num_feature":"32","num_nodes":"13","size_leaf_vector":"1"}},{"base_weights":[-2.2012489E-2,-3.2442734E-1,4.0651035E-1,-2.4250832E-1,-2.562569E0,3.045321E-1,2.861595E0,4.3485776E-2,-4.3458197E-1,1.0177453E-1,2.6615348E0],"categories":[],"categories_nodes":[],"categories_segments":[],"categories_sizes":[],"default_left":[0,0,0,0,0,0,0,0,0,0,0],"id":41,"left_children":[1,3,5,7,-1,9,-1,-1,-1,-1,-1],"loss_changes":[1.3673131E2,2.6349884E2,2.562428E2,1.4298106E2,0E0,1.971755E2,0E0,0E0,0E0,0E0,0E0],"parents":[2147483647,0,0,1,1,2,2,3,3,5,5],"right_children":[2,4,6,8,-1,10,-1,-1,-1,-1,-1],"split_conditions":[5E0,3.6E1,3.5E1,5E0,-2.562569E0,2.8E1,2.861595E0,4.3485776E-2,-4.3458197E-1,1.0177453E-1,2.6615348E0],"split_indices":[6,28,11,12,0,27,0,0,0,0,0],"split_type":[0,0,0,0,0,0,0,0,0,0,0],"sum_hessian":[1.054E3,6.18E2,4.36E2,6.09E2,9E0,4.29E2,7E0,4.11E2,1.98E2,4.23E2,6E0],"tree_param":{"num_deleted":"0","num_feature":"32","num_nodes":"11","size_leaf_vector":"1"}},{"base_weights":[-1.7090085E-1,1.1958203E-2,-1.021759E0,-6.293011E-2,2.180416E0,-8.2741225E-1,-2.090548E0,-7.834232E-3,-2.3393772E0,-6.713166E-2,4.6324096E0,-1.2048919E0,-2.840912E-1],"categories":[],"categories_nodes":[],"categories_segments":[],"categories_sizes":[],"default_left":[0,0,0,0,0,0,0,0,0,0,0,0,0],"id":42,"left_children":[1,3,5,7,9,11,-1,-1,-1,-1,-1,-1,-1],"loss_changes":[1.6143477E2,1.3884523E2,1.2271501E2,1.8980266E2,5.2067725E2,6.530354E1,0E0,0E0,0E0,0E0,0E0,0E0,0E0],"parents":[2147483647,0,0,1,1,2,2,3,3,4,4,5,5],"right_children":[2,4,6,8,10,12,-1,-1,-1,-1,-1,-1,-1],"split_conditions":[1.2E1,1.1E1,1.7E1,4.7E1,1.1E1,2E0,-2.090548E0,-7.834232E-3,-2.3393772E0,-6.713166E-2,4.6324096E0,-1.2048919E0,-2.840912E-1],"split_indices":[3,3,28,22,28,23,0,0,0,0,0,0,0],"split_type":[0,0,0,0,0,0,0,0,0,0,0,0,0],"sum_hessian":[1.037E3,8.54E2,1.83E2,8.26E2,2.8E1,1.74E2,9E0,8.19E2,7E0,2.2E1,6E0,1.8E1,1.56E2],"tree_param":{"num_deleted":"0","num_feature":"32","num_nodes":"13","size_leaf_vector":"1"}},{"base_weights":[2.1227237E-3,-5.5235345E-2,2.194546E0,1.5650512E-1,-9.596385E-1,-4.5801067E-1,4.152119E0,1.5938586E-2,1.0136935E0,9.473462E-2,-7.3186916E-1,6.0209376E-1,2.6405978E0],"categories":[],"categories_nodes":[],"categories_segments":[],"categories_sizes":[],"default_left":[0,0,0,0,0,0,0,0,0,0,0,0,0],"id":43,"left_children":[1,3,5,7,9,-1,11,-1,-1,-1,-1,-1,-1],"loss_changes":[1.3091711E2,1.9436488E2,1.6768895E2,2.0422264E2,1.3969673E2,0E0,6.932977E1,0E0,0E0,0E0,0E0,0E0,0E0],"parents":[2147483647,0,0,1,1,2,2,3,3,4,4,6,6],"right_children":[2,4,6,8,10,-1,12,-1,-1,-1,-1,-1,-1],"split_conditions":[3.1E1,1.1E1,8E0,9E0,2E0,-4.5801067E-1,2E0,1.5938586E-2,1.0136935E0,9.473462E-2,-7.3186916E-1,6.0209376E-1,2.6405978E0],"split_indices":[22,4,18,4,1,0,21,0,0,0,0,0,0],"split_type":[0,0,0,0,0,0,0,0,0,0,0,0,0],"sum_hessian":[1.04E3,1.014E3,2.6E1,8.22E2,1.92E2,1E1,1.6E1,7.76E2,4.6E1,6.7E1,1.25E2,6E0,1E1],"tree_param":{"num_deleted":"0","num_feature":"32","num_nodes":"13","size_leaf_vector":"1"}},{"base_weights":[1.6148262E-1,2.1252081E-1,-2.0352323E0,2.6691726E-1,-1.811645E0,2.6836378E-2,-3.8736398E0,8.1570245E-2,1.3496374E0,1.5606831E-1,-1.5472369E0,-2.7039979E0,-7.317384E-1],"categories":[],"categories_nodes":[],"categories_segments":[],"categories_sizes":[],"default_left":[0,0,0,0,0,0,0,0,0,0,0,0,0],"id":44,"left_children":[1,3,5,7,9,-1,11,-1,-1,-1,-1,-1,-1],"loss_changes":[1.16223434E2,1.1164032E2,9.071625E1,2.3637512E2,8.803629E1,0E0,5.165152E1,0E0,0E0,0E0,0E0,0E0,0E0],"parents":[2147483647,0,0,1,1,2,2,3,3,4,4,6,6],"right_children":[2,4,6,8,10,-1,12,-1,-1,-1,-1,-1,-1],"split_conditions":[3.3E1,3.1E1,8E0,2.1E1,4E0,2.6836378E-2,7E0,8.1570245E-2,1.3496374E0,1.5606831E-1,-1.5472369E0,-2.7039979E0,-7.317384E-1],"split_indices":[5,8,11,8,28,0,13,0,0,0,0,0,0],"split_type":[0,0,0,0,0,0,0,0,0,0,0,0,0],"sum_hessian":[1.034E3,1.011E3,2.3E1,9.85E2,2.6E1,1.1E1,1.2E1,9.53E2,3.2E1,1.1E1,1.5E1,6E0,6E0],"tree_param":{"num_deleted":"0","num_feature":"32","num_nodes":"13","size_leaf_vector":"1"}},{"base_weights":[-1.3848215E-1,-1.04017325E-1,-2.2001364E0,-3.3106531E-3,-1.1051679E0,-2.795532E-1,9.290699E-2,-1.4012471E0,1.2267329E-1],"categories":[],"categories_nodes":[],"categories_segments":[],"categories_sizes":[],"default_left":[0,0,0,0,0,0,0,0,0],"id":45,"left_children":[1,3,-1,5,7,-1,-1,-1,-1],"loss_changes":[1.6197136E2,1.0208506E2,0E0,1.1299109E2,2.4437991E2,0E0,0E0,0E0,0E0],"parents":[2147483647,0,0,1,1,3,3,4,4],"right_children":[2,4,-1,6,8,-1,-1,-1,-1],"split_conditions":[5.5E1,1.8E1,-2.2001364E0,2E0,6E0,-2.795532E-1,9.290699E-2,-1.4012471E0,1.2267329E-1],"split_indices":[22,6,0,29,14,0,0,0,0],"split_type":[0,0,0,0,0,0,0,0,0],"sum_hessian":[1.019E3,1.012E3,7E0,9.2E2,9.2E1,2.33E2,6.87E2,3.8E1,5.4E1],"tree_param":{"num_deleted":"0","num_feature":"32","num_nodes":"9","size_leaf_vector":"1"}},{"base_weights":[1.4108127E-1,2.6094708E-1,-4.6626273E-1,9.839112E-1,5.360948E-2,2.7538533E0,-7.1781814E-1,1.5110528E0,-9.760935E-2,-1.1969576E-1,3.7228587E-1,2.5514266E-1,2.1873956E0,1.8221964E-1,-6.1120343E-1],"categories":[],"categories_nodes":[],"categories_segments":[],"categories_sizes":[],"default_left":[0,0,0,0,0,0,0,0,0,0,0,0,0,0,0],"id":46,"left_children":[1,3,5,7,9,11,13,-1,-1,-1,-1,-1,-1,-1,-1],"loss_changes":[7.5744354E1,1.301638E2,1.4002652E2,5.2817535E2,1.5859018E2,5.31192E1,1.0728608E2,0E0,0E0,0E0,0E0,0E0,0E0,0E0,0E0],"parents":[2147483647,0,0,1,1,2,2,3,3,4,4,5,5,6,6],"right_children":[2,4,6,8,10,12,14,-1,-1,-1,-1,-1,-1,-1,-1],"split_conditions":[1.2E1,2E0,2E0,2E0,9E0,4E0,2E0,1.5110528E0,-9.760935E-2,-1.1969576E-1,3.7228587E-1,2.5514266E-1,2.1873956E0,1.8221964E-1,-6.1120343E-1],"split_indices":[15,8,11,0,22,2,20,0,0,0,0,0,0,0,0],"split_type":[0,0,0,0,0,0,0,0,0,0,0,0,0,0,0],"sum_hessian":[1.039E3,8.68E2,1.71E2,1.93E2,6.75E2,1.2E1,1.59E2,6.6E1,1.27E2,4.77E2,1.98E2,6E0,6E0,5.6E1,1.03E2],"tree_param":{"num_deleted":"0","num_feature":"32","num_nodes":"15","size_leaf_vector":"1"}},{"base_weights":[-1.0736012E-1,-4.928224E-1,1.5126477E-1,-6.581205E-1,2.0580273E0,1.329533E0,-9.744852E-2,-2.0810783E-1,-1.2692145E0,-7.4022233E-1,2.481391E0,1.3039774E0,5.7243213E-2,1.9508189E-1,-2.908136E-1],"categories":[],"categories_nodes":[],"categories_segments":[],"categories_sizes":[],"default_left":[0,0,0,0,0,0,0,0,0,0,0,0,0,0,0],"id":47,"left_children":[1,3,5,7,9,11,13,-1,-1,-1,-1,-1,-1,-1,-1],"loss_changes":[1.0367248E2,1.7679071E2,1.8250671E2,1.6983255E2,3.1349838E2,1.9469688E2,1.420197E2,0E0,0E0,0E0,0E0,0E0,0E0,0E0,0E0],"parents":[2147483647,0,0,1,1,2,2,3,3,4,4,5,5,6,6],"right_children":[2,4,6,8,10,12,14,-1,-1,-1,-1,-1,-1,-1,-1],"split_conditions":[3E0,1.5E1,2E0,1E1,5E0,3E0,3E0,-2.0810783E-1,-1.2692145E0,-7.4022233E-1,2.481391E0,1.3039774E0,5.7243213E-2,1.9508189E-1,-2.908136E-1],"split_indices":[14,28,26,28,5,22,15,0,0,0,0,0,0,0,0],"split_type":[0,0,0,0,0,0,0,0,0,0,0,0,0,0,0],"sum_hessian":[1.039E3,4.17E2,6.22E2,3.92E2,2.5E1,1.08E2,5.14E2,3.57E2,3.5E1,1.2E1,1.3E1,4.8E1,6E1,2.6E2,2.54E2],"tree_param":{"num_deleted":"0","num_feature":"32","num_nodes":"15","size_leaf_vector":"1"}},{"base_weights":[1.1881227E-2,4.111657E-2,-1.6757158E0,-1.9276585E-1,5.344669E-1,-3.7074476E-1,5.4515716E-2,3.1535876E-1,-1.5526309E0],"categories":[],"categories_nodes":[],"categories_segments":[],"categories_sizes":[],"default_left":[0,0,0,0,0,0,0,0,0],"id":48,"left_children":[1,3,-1,5,7,-1,-1,-1,-1],"loss_changes":[1.1370951E2,1.2254286E2,0E0,1.3625894E2,1.9681953E2,0E0,0E0,0E0,0E0],"parents":[2147483647,0,0,1,1,3,3,4,4],"right_children":[2,4,-1,6,8,-1,-1,-1,-1],"split_conditions":[5.5E1,7E0,-1.6757158E0,3E0,2.1E1,-3.7074476E-1,5.4515716E-2,3.1535876E-1,-1.5526309E0],"split_indices":[25,15,0,8,6,0,0,0,0],"split_type":[0,0,0,0,0,0,0,0,0],"sum_hessian":[1.069E3,1.061E3,8E0,7.2E2,3.41E2,2.43E2,4.77E2,3.29E2,1.2E1],"tree_param":{"num_deleted":"0","num_feature":"32","num_nodes":"9","size_leaf_vector":"1"}},{"base_weights":[6.037622E-2,9.137611E-2,-1.971795E0,3.4368685E-1,-4.3751052E-1,2.796583E-1,-3.0722806E-1,-1.3046964E-1,-1.4440128E0],"categories":[],"categories_nodes":[],"categories_segments":[],"categories_sizes":[],"default_left":[0,0,0,0,0,0,0,0,0],"id":49,"left_children":[1,3,-1,5,7,-1,-1,-1,-1],"loss_changes":[1.4191708E2,1.4026976E2,0E0,1.8722974E2,1.4121967E2,0E0,0E0,0E0,0E0],"parents":[2147483647,0,0,1,1,3,3,4,4],"right_children":[2,4,-1,6,8,-1,-1,-1,-1],"split_conditions":[5.4E1,7E0,-1.971795E0,1.2E1,1.5E1,2.796583E-1,-3.0722806E-1,-1.3046964E-1,-1.4440128E0],"split_indices":[27,14,0,21,1,0,0,0,0],"split_type":[0,0,0,0,0,0,0,0,0],"sum_hessian":[1.057E3,1.05E3,7E0,7.11E2,3.39E2,5.65E2,1.46E2,3.21E2,1.8E1],"tree_param":{"num_deleted":"0","num_feature":"32","num_nodes":"9","size_leaf_vector":"1"}},{"base_weights":[-1.0420964E-1,2.4964641E-1,-3.425651E-1,8.867579E-1,-2.0527515E-1,-1.1989543E-1,-1.3740634E0,1.8827431E-1,2.2962291E0,-1.8505047E-1,3.2389705E0,6.2531635E-2,-6.354618E-1,5.808344E-1,-7.993748E-1],"categories":[],"categories_nodes":[],"categories_segments":[],"categories_sizes":[],"default_left":[0,0,0,0,0,0,0,0,0,0,0,0,0,0,0],"id":50,"left_children":[1,3,5,7,9,11,13,-1,-1,-1,-1,-1,-1,-1,-1],"loss_changes":[8.8737076E1,1.22856224E2,1.4427637E2,3.4421155E2,3.4886722E2,1.6558968E2,1.049478E2,0E0,0E0,0E0,0E0,0E0,0E0,0E0,0E0],"parents":[2147483647,0,0,1,1,2,2,3,3,4,4,5,5,6,6],"right_children":[2,4,6,8,10,12,14,-1,-1,-1,-1,-1,-1,-1,-1],"split_conditions":[3E0,4E0,1E1,1.3E1,1.9E1,1.5E1,2E0,1.8827431E-1,2.2962291E0,-1.8505047E-1,3.2389705E0,6.2531635E-2,-6.354618E-1,5.808344E-1,-7.993748E-1],"split_indices":[18,7,11,11,6,30,25,0,0,0,0,0,0,0,0],"split_type":[0,0,0,0,0,0,0,0,0,0,0,0,0,0,0],"sum_hessian":[1.051E3,4.23E2,6.28E2,1.76E2,2.47E2,5.17E2,1.11E2,1.58E2,1.8E1,2.41E2,6E0,4.3E2,8.7E1,1.3E1,9.8E1],"tree_param":{"num_deleted":"0","num_feature":"32","num_nodes":"15","size_leaf_vector":"1"}},{"base_weights":[8.893127E-2,-1.5793701E-3,1.6149307E0,-2.7022344E-1,3.6856586E-1,2.0833206E0,-1.055168E0,-2.1947946E-1,6.203415E-1,4.2174274E-1,-1.18839905E-1,1.3851879E0,-1.8888813E-1],"categories":[],"categories_nodes":[],"categories_segments":[],"categories_sizes":[],"default_left":[0,0,0,0,0,0,0,0,0,0,0,0,0],"id":51,"left_children":[1,3,5,7,9,11,-1,-1,-1,-1,-1,-1,-1],"loss_changes":[1.4441077E2,9.825248E1,1.0939647E2,1.886915E2,1.4126152E2,1.1989792E2,0E0,0E0,0E0,0E0,0E0,0E0,0E0],"parents":[2147483647,0,0,1,1,2,2,3,3,4,4,5,5],"right_children":[2,4,6,8,10,12,-1,-1,-1,-1,-1,-1,-1],"split_conditions":[2.2E1,5E0,2E1,1.7E1,7E0,5E0,-1.055168E0,-2.1947946E-1,6.203415E-1,4.2174274E-1,-1.18839905E-1,1.3851879E0,-1.8888813E-1],"split_indices":[30,27,14,26,25,13,0,0,0,0,0,0,0],"split_type":[0,0,0,0,0,0,0,0,0,0,0,0,0],"sum_hessian":[1.045E3,9.87E2,5.8E1,5.72E2,4.15E2,5.2E1,6E0,5.08E2,6.4E1,2.22E2,1.93E2,3.8E1,1.4E1],"tree_param":{"num_deleted":"0","num_feature":"32","num_nodes":"13","size_leaf_vector":"1"}},{"base_weights":[1.02745906E-1,5.0018128E-2,3.3842678E0,1.6289271E-1,-7.153977E-1,2.9960823E0,3.4619248E-1,3.975671E-2,2.4005568E0,2.869555E-1,-7.318487E-1],"categories":[],"categories_nodes":[],"categories_segments":[],"categories_sizes":[],"default_left":[0,0,0,0,0,0,0,0,0,0,0],"id":52,"left_children":[1,3,5,7,9,-1,-1,-1,-1,-1,-1],"loss_changes":[1.8098863E2,8.909784E1,1.321897E2,3.4730237E2,1.5393057E2,0E0,0E0,0E0,0E0,0E0,0E0],"parents":[2147483647,0,0,1,1,2,2,3,3,4,4],"right_children":[2,4,6,8,10,-1,-1,-1,-1,-1,-1],"split_conditions":[3.7E1,1.4E1,4.7E1,1.3E1,2E0,2.9960823E0,3.4619248E-1,3.975671E-2,2.4005568E0,2.869555E-1,-7.318487E-1],"split_indices":[28,11,28,11,24,0,0,0,0,0,0],"split_type":[0,0,0,0,0,0,0,0,0,0,0],"sum_hessian":[1.046E3,1.03E3,1.6E1,8.98E2,1.32E2,7E0,9E0,8.85E2,1.3E1,5.2E1,8E1],"tree_param":{"num_deleted":"0","num_feature":"32","num_nodes":"11","size_leaf_vector":"1"}},{"base_weights":[-6.0749866E-2,-8.697898E-1,1.8980007E-1,-1.4859741E0,2.573657E-1,7.882092E-1,-1.6439153E-1,-5.8138025E-1,-2.1368876E0,5.6598294E-1,-9.602814E-1,1.133069E0,5.219551E-2,-1.2174218E-1,1.8416226E0],"categories":[],"categories_nodes":[],"categories_segments":[],"categories_sizes":[],"default_left":[0,0,0,0,0,0,0,0,0,0,0,0,0,0,0],"id":53,"left_children":[1,3,5,7,9,11,13,-1,-1,-1,-1,-1,-1,-1,-1],"loss_changes":[2.0878264E2,1.6935571E2,1.6677893E2,1.1003436E2,1.9642041E2,3.2801843E2,2.0301215E2,0E0,0E0,0E0,0E0,0E0,0E0,0E0,0E0],"parents":[2147483647,0,0,1,1,2,2,3,3,4,4,5,5,6,6],"right_children":[2,4,6,8,10,12,14,-1,-1,-1,-1,-1,-1,-1,-1],"split_conditions":[2E0,4E0,3E0,2.5E1,8E0,2E0,2.5E1,-5.8138025E-1,-2.1368876E0,5.6598294E-1,-9.602814E-1,1.133069E0,5.219551E-2,-1.2174218E-1,1.8416226E0],"split_indices":[13,17,17,30,28,31,30,0,0,0,0,0,0,0,0],"split_type":[0,0,0,0,0,0,0,0,0,0,0,0,0,0,0],"sum_hessian":[1.029E3,2.43E2,7.86E2,1.57E2,8.6E1,2.92E2,4.94E2,1.47E2,1E1,6.1E1,2.5E1,8.4E1,2.08E2,4.83E2,1.1E1],"tree_param":{"num_deleted":"0","num_feature":"32","num_nodes":"15","size_leaf_vector":"1"}},{"base_weights":[-5.461168E-2,5.0351797E-3,-1.8039379E0,5.194972E-1,-1.7010151E-1,-9.815951E-2,-2.4050221E0,6.8172336E-1,-2.4893396E-1,6.629195E-2,-2.728443E-1,1.285735E0,-1.2684611E0],"categories":[],"categories_nodes":[],"categories_segments":[],"categories_sizes":[],"default_left":[0,0,0,0,0,0,0,0,0,0,0,0,0],"id":54,"left_children":[1,3,5,7,9,11,-1,-1,-1,-1,-1,-1,-1],"loss_changes":[1.09307335E2,9.136919E1,1.9973436E2,2.6028745E2,9.954455E1,1.8320216E2,0E0,0E0,0E0,0E0,0E0,0E0,0E0],"parents":[2147483647,0,0,1,1,2,2,3,3,4,4,5,5],"right_children":[2,4,6,8,10,12,-1,-1,-1,-1,-1,-1,-1],"split_conditions":[2.9E1,2E0,3E0,6E0,6E0,8E0,-2.4050221E0,6.8172336E-1,-2.4893396E-1,6.629195E-2,-2.728443E-1,1.285735E0,-1.2684611E0],"split_indices":[28,23,25,14,13,4,0,0,0,0,0,0,0],"split_type":[0,0,0,0,0,0,0,0,0,0,0,0,0],"sum_hessian":[1.047E3,1.013E3,3.4E1,2.57E2,7.56E2,2.3E1,1.1E1,1.35E2,1.22E2,4.33E2,3.23E2,1.1E1,1.2E1],"tree_param":{"num_deleted":"0","num_feature":"32","num_nodes":"13","size_leaf_vector":"1"}},{"base_weights":[1.17584385E-1,-1.430965E-1,4.8918918E-1,-5.3390455E-1,4.344578E-1,1.3201458E0,9.447498E-2,-3.1220224E-1,5.4244053E-1,9.902499E-2,1.6463931E0,-1.8914607E-1,1.001026E0,-3.0749726E-1,3.382398E-1],"categories":[],"categories_nodes":[],"categories_segments":[],"categories_sizes":[],"default_left":[0,0,0,0,0,0,0,0,0,0,0,0,0,0,0],"id":55,"left_children":[1,3,5,7,9,11,13,-1,-1,-1,-1,-1,-1,-1,-1],"loss_changes":[1.02579155E2,1.406414E2,1.4311398E2,8.977695E1,1.7280582E2,2.0546906E2,1.4358075E2,0E0,0E0,0E0,0E0,0E0,0E0,0E0,0E0],"parents":[2147483647,0,0,1,1,2,2,3,3,4,4,5,5,6,6],"right_children":[2,4,6,8,10,12,14,-1,-1,-1,-1,-1,-1,-1,-1],"split_conditions":[5E0,7E0,2E0,1.6E1,1.3E1,4E0,3E0,-3.1220224E-1,5.4244053E-1,9.902499E-2,1.6463931E0,-1.8914607E-1,1.001026E0,-3.0749726E-1,3.382398E-1],"split_indices":[22,19,19,24,12,6,31,0,0,0,0,0,0,0,0],"split_type":[0,0,0,0,0,0,0,0,0,0,0,0,0,0,0],"sum_hessian":[1.058E3,6.22E2,4.36E2,3.71E2,2.51E2,1.4E2,2.96E2,3.43E2,2.8E1,2.35E2,1.6E1,4.6E1,9.4E1,1.35E2,1.61E2],"tree_param":{"num_deleted":"0","num_feature":"32","num_nodes":"15","size_leaf_vector":"1"}},{"base_weights":[-9.252828E-3,-6.1551815E-1,1.848885E-1,-1.0298067E0,1.6197627E0,3.2248604E-1,-1.7380306E0,-7.798867E-1,4.6686623E-2,1.6075959E0,-2.696306E-1,1.263314E-1,2.6794467E0,-4.0300328E-1,-1.527743E0],"categories":[],"categories_nodes":[],"categories_segments":[],"categories_sizes":[],"default_left":[0,0,0,0,0,0,0,0,0,0,0,0,0,0,0],"id":56,"left_children":[1,3,5,7,9,11,13,-1,-1,-1,-1,-1,-1,-1,-1],"loss_changes":[1.22063835E2,2.3384451E2,2.0814943E2,1.5773044E2,1.6266473E2,1.9740173E2,6.9691696E1,0E0,0E0,0E0,0E0,0E0,0E0,0E0,0E0],"parents":[2147483647,0,0,1,1,2,2,3,3,4,4,5,5,6,6],"right_children":[2,4,6,8,10,12,14,-1,-1,-1,-1,-1,-1,-1,-1],"split_conditions":[2E0,1.5E1,1.8E1,4E0,1E1,1.7E1,1.1E1,-7.798867E-1,4.6686623E-2,1.6075959E0,-2.696306E-1,1.263314E-1,2.6794467E0,-4.0300328E-1,-1.527743E0],"split_indices":[29,14,26,17,24,26,30,0,0,0,0,0,0,0,0],"split_type":[0,0,0,0,0,0,0,0,0,0,0,0,0,0,0],"sum_hessian":[1.036E3,2.51E2,7.85E2,2.12E2,3.9E1,7.33E2,5.2E1,1.34E2,7.8E1,2.1E1,1.8E1,7.27E2,6E0,3.4E1,1.8E1],"tree_param":{"num_deleted":"0","num_feature":"32","num_nodes":"15","size_leaf_vector":"1"}},{"base_weights":[-9.173171E-3,1.6581953E-1,-4.4588676E-1,-1.242093E-1,7.95491E-1,-8.5921144E-1,3.4176758E-1,4.794371E-2,-1.0212028E0,7.1580243E-1,-1.8265405E-1,-4.4422388E-1,1.0248128E0,2.672518E-1,-1.2792342E0],"categories":[],"categories_nodes":[],"categories_segments":[],"categories_sizes":[],"default_left":[0,0,0,0,0,0,0,0,0,0,0,0,0,0,0],"id":57,"left_children":[1,3,5,7,9,11,13,-1,-1,-1,-1,-1,-1,-1,-1],"loss_changes":[8.162342E1,1.3931114E2,9.96304E1,2.4813542E2,2.1556514E2,6.3416077E1,7.821917E1,0E0,0E0,0E0,0E0,0E0,0E0,0E0,0E0],"parents":[2147483647,0,0,1,1,2,2,3,3,4,4,5,5,6,6],"right_children":[2,4,6,8,10,12,14,-1,-1,-1,-1,-1,-1,-1,-1],"split_conditions":[8E0,8E0,1E1,1.4E1,1E1,2.1E1,2.3E1,4.794371E-2,-1.0212028E0,7.1580243E-1,-1.8265405E-1,-4.4422388E-1,1.0248128E0,2.672518E-1,-1.2792342E0],"split_indices":[1,8,9,22,12,4,31,0,0,0,0,0,0,0,0],"split_type":[0,0,0,0,0,0,0,0,0,0,0,0,0,0,0],"sum_hessian":[1.067E3,7.62E2,3.05E2,5.22E2,2.4E2,2E2,1.05E2,4.71E2,5.1E1,1.47E2,9.3E1,1.94E2,6E0,9.8E1,7E0],"tree_param":{"num_deleted":"0","num_feature":"32","num_nodes":"15","size_leaf_vector":"1"}},{"base_weights":[1.1819878E-2,8.509647E-2,-2.29421E0,3.889568E-2,2.0722294E0,-3.1054056E0,2.3609412E-1,3.320872E-2,-1.1455599E0,6.776033E-2,3.1320972E0,-8.407202E-1,-2.1849105E0],"categories":[],"categories_nodes":[],"categories_segments":[],"categories_sizes":[],"default_left":[0,0,0,0,0,0,0,0,0,0,0,0,0],"id":58,"left_children":[1,3,5,7,9,11,-1,-1,-1,-1,-1,-1,-1],"loss_changes":[1.7306186E2,9.107872E1,7.261726E1,8.03691E1,2.0339874E2,4.647989E1,0E0,0E0,0E0,0E0,0E0,0E0,0E0],"parents":[2147483647,0,0,1,1,2,2,3,3,4,4,5,5],"right_children":[2,4,6,8,10,12,-1,-1,-1,-1,-1,-1,-1],"split_conditions":[2.9E1,3.1E1,5E0,3.9E1,5E0,3E0,2.3609412E-1,3.320872E-2,-1.1455599E0,6.776033E-2,3.1320972E0,-8.407202E-1,-2.1849105E0],"split_indices":[24,28,15,9,3,21,0,0,0,0,0,0,0],"split_type":[0,0,0,0,0,0,0,0,0,0,0,0,0],"sum_hessian":[1.023E3,9.92E2,3.1E1,9.7E2,2.2E1,2.4E1,7E0,9.58E2,1.2E1,1.6E1,6E0,1.4E1,1E1],"tree_param":{"num_deleted":"0","num_feature":"32","num_nodes":"13","size_leaf_vector":"1"}},{"base_weights":[-1.4611563E-1,-5.590153E-1,1.3118277E-1,-6.6691625E-1,1.7649237E0,2.0470779E-1,-2.2500446E0,-4.7332865E-1,6.642023E-2,2.3199847E0,-1.0907674E0,-9.7181216E-2,5.1327574E-1,-1.7780907E0,4.584867E-1],"categories":[],"categories_nodes":[],"categories_segments":[],"categories_sizes":[],"default_left":[0,0,0,0,0,0,0,0,0,0,0,0,0,0,0],"id":59,"left_children":[1,3,5,7,9,11,13,-1,-1,-1,-1,-1,-1,-1,-1],"loss_changes":[1.1814759E2,1.04586395E2,1.0836868E2,1.1455737E2,2.548244E2,2.2511063E2,9.78166E1,0E0,0E0,0E0,0E0,0E0,0E0,0E0,0E0],"parents":[2147483647,0,0,1,1,2,2,3,3,4,4,5,5,6,6],"right_children":[2,4,6,8,10,12,14,-1,-1,-1,-1,-1,-1,-1,-1],"split_conditions":[3E0,3.2E1,2.6E1,5E0,3E0,6E0,8E0,-4.7332865E-1,6.642023E-2,2.3199847E0,-1.0907674E0,-9.7181216E-2,5.1327574E-1,-1.7780907E0,4.584867E-1],"split_indices":[1,6,6,25,29,12,28,0,0,0,0,0,0,0,0],"split_type":[0,0,0,0,0,0,0,0,0,0,0,0,0,0,0],"sum_hessian":[1.031E3,4.14E2,6.17E2,3.96E2,1.8E1,5.99E2,1.8E1,2.75E2,1.21E2,1E1,8E0,4.11E2,1.88E2,1.2E1,6E0],"tree_param":{"num_deleted":"0","num_feature":"32","num_nodes":"15","size_leaf_vector":"1"}},{"base_weights":[7.1376406E-2,2.0741779E-1,-9.26457E-1,2.9540655E-1,-9.920238E-1,-3.779443E0,-5.315123E-1,2.1522327E-1,-9.967125E-2,-9.0377074E-1,2.3943074E-1,-2.257499E0,-1.0464041E0,-1.0341526E-1,-2.2410314E0],"categories":[],"categories_nodes":[],"categories_segments":[],"categories_sizes":[],"default_left":[0,0,0,0,0,0,0,0,0,0,0,0,0,0,0],"id":60,"left_children":[1,3,5,7,9,11,13,-1,-1,-1,-1,-1,-1,-1,-1],"loss_changes":[1.4542657E2,9.9632195E1,1.4374883E2,7.626238E1,9.42263E1,1.9969238E1,1.5021541E2,0E0,0E0,0E0,0E0,0E0,0E0,0E0,0E0],"parents":[2147483647,0,0,1,1,2,2,3,3,4,4,5,5,6,6],"right_children":[2,4,6,8,10,12,14,-1,-1,-1,-1,-1,-1,-1,-1],"split_conditions":[1.5E1,1.9E1,2E0,8E0,9E0,7E0,3.4E1,2.1522327E-1,-9.967125E-2,-9.0377074E-1,2.3943074E-1,-2.257499E0,-1.0464041E0,-1.0341526E-1,-2.2410314E0],"split_indices":[10,8,0,28,24,15,28,0,0,0,0,0,0,0,0],"split_type":[0,0,0,0,0,0,0,0,0,0,0,0,0,0,0],"sum_hessian":[1.07E3,9.42E2,1.28E2,8.78E2,6.4E1,1.5E1,1.13E2,6.59E2,2.19E2,3.9E1,2.5E1,8E0,7E0,1.06E2,7E0],"tree_param":{"num_deleted":"0","num_feature":"32","num_nodes":"15","size_leaf_vector":"1"}},{"base_weights":[-1.8426487E-2,3.485342E-1,-2.4465191E-1,5.952524E-1,-1.4208939E0,-8.7972057E-1,5.4323453E-2,1.9940603E-1,1.7288837E0,-2.2741616E-1,-1.915911E0,-5.821114E-1,6.296832E-1,9.784984E-2,-8.9938384E-1],"categories":[],"categories_nodes":[],"categories_segments":[],"categories_sizes":[],"default_left":[0,0,0,0,0,0,0,0,0,0,0,0,0,0,0],"id":61,"left_children":[1,3,5,7,9,11,13,-1,-1,-1,-1,-1,-1,-1,-1],"loss_changes":[8.783893E1,1.7662454E2,1.2430369E2,1.8206297E2,1.2414559E2,1.7866156E2,1.4016974E2,0E0,0E0,0E0,0E0,0E0,0E0,0E0,0E0],"parents":[2147483647,0,0,1,1,2,2,3,3,4,4,5,5,6,6],"right_children":[2,4,6,8,10,12,14,-1,-1,-1,-1,-1,-1,-1,-1],"split_conditions":[3E0,9E0,3E0,1.3E1,1.4E1,1.5E1,2.5E1,1.9940603E-1,1.7288837E0,-2.2741616E-1,-1.915911E0,-5.821114E-1,6.296832E-1,9.784984E-2,-8.9938384E-1],"split_indices":[17,21,21,11,6,22,23,0,0,0,0,0,0,0,0],"split_type":[0,0,0,0,0,0,0,0,0,0,0,0,0,0,0],"sum_hessian":[1.057E3,4.03E2,6.54E2,3.54E2,4.9E1,2.09E2,4.45E2,3.37E2,1.7E1,3.7E1,1.2E1,1.79E2,3E1,4.13E2,3.2E1],"tree_param":{"num_deleted":"0","num_feature":"32","num_nodes":"15","size_leaf_vector":"1"}},{"base_weights":[2.56598E-2,-1.0893898E-1,9.2976356E-1,-2.0562726E-1,1.0804502E0,4.5767226E0,5.226337E-1,-2.108926E-2,-4.952471E-1,2.0312514E0,1.2568431E-2,3.3075194E0,5.698886E-1,-1.7606994E0,3.8997975E-1],"categories":[],"categories_nodes":[],"categories_segments":[],"categories_sizes":[],"default_left":[0,0,0,0,0,0,0,0,0,0,0,0,0,0,0],"id":62,"left_children":[1,3,5,7,9,11,13,-1,-1,-1,-1,-1,-1,-1,-1],"loss_changes":[1.27288185E2,1.04832695E2,1.9995456E2,1.16593445E2,2.3890807E2,1.1175485E2,1.7163853E2,0E0,0E0,0E0,0E0,0E0,0E0,0E0,0E0],"parents":[2147483647,0,0,1,1,2,2,3,3,4,4,5,5,6,6],"right_children":[2,4,6,8,10,12,14,-1,-1,-1,-1,-1,-1,-1,-1],"split_conditions":[1.4E1,2E1,2E0,1.3E1,2.3E1,6E0,2E0,-2.108926E-2,-4.952471E-1,2.0312514E0,1.2568431E-2,3.3075194E0,5.698886E-1,-1.7606994E0,3.8997975E-1],"split_indices":[28,19,18,11,19,29,24,0,0,0,0,0,0,0,0],"split_type":[0,0,0,0,0,0,0,0,0,0,0,0,0,0,0],"sum_hessian":[1.045E3,9.1E2,1.35E2,8.42E2,6.8E1,1.3E1,1.22E2,7.11E2,1.31E2,1.6E1,5.2E1,7E0,6E0,8E0,1.14E2],"tree_param":{"num_deleted":"0","num_feature":"32","num_nodes":"15","size_leaf_vector":"1"}}]},"name":"gbtree"},"learner_model_param":{"base_score":"6.772189E0","boost_from_average":"1","num_class":"0","num_feature":"32","num_target":"1"},"objective":{"name":"reg:squarederror","reg_loss_param":{"scale_pos_weight":"1"}}},"version":[2,1,1]}