{"learner":{"attributes":{"best_iteration":"1","best_score":"6.889441289006707","scikit_learn":"{\"_estimator_type\": \"regressor\"}"},"feature_names":[],"feature_types":[],"gradient_booster":{"model":{"gbtree_model_param":{"num_parallel_tree":"1","num_trees":"52"},"iteration_indptr":[0,1,2,3,4,5,6,7,8,9,10,11,12,13,14,15,16,17,18,19,20,21,22,23,24,25,26,27,28,29,30,31,32,33,34,35,36,37,38,39,40,41,42,43,44,45,46,47,48,49,50,51,52],"tree_info":[0,0,0,0,0,0,0,0,0,0,0,0,0,0,0,0,0,0,0,0,0,0,0,0,0,0,0,0,0,0,0,0,0,0,0,0,0,0,0,0,0,0,0,0,0,0,0,0,0,0,0,0],"trees":[{"base_weights":[-1.2932536E-1,-2.1051608E-1,8.845519E0,4.735654E0,-1.8626054E-1,-2.7635133E-1,9.726187E0,1.415659E-1,1.4261798E0,-4.96812E-2,2.0867951E-2,-1.1237909E-1,4.0113533E-1],"categories":[],"categories_nodes":[],"categories_segments":[],"categories_sizes":[],"default_left":[0,0,0,0,0,0,0,0,0,0,0,0,0],"id":0,"left_children":[1,5,3,-1,11,9,7,-1,-1,-1,-1,-1,-1],"loss_changes":[8.941006E2,7.9522205E2,9.005901E3,0E0,1.8567844E2,6.616451E2,1.0857395E3,0E0,0E0,0E0,0E0,0E0,0E0],"parents":[2147483647,0,0,2,2,1,1,6,6,5,5,4,4],"right_children":[2,6,4,-1,12,10,8,-1,-1,-1,-1,-1,-1],"split_conditions":[2.9E1,3.3E1,2E0,4.735654E0,9E0,4E0,8E0,1.415659E-1,1.4261798E0,-4.96812E-2,2.0867951E-2,-1.1237909E-1,4.0113533E-1],"split_indices":[79,66,20,0,14,84,12,0,0,0,0,0,0],"split_type":[0,0,0,0,0,0,0,0,0,0,0,0,0],"sum_hessian":[1.229E3,1.218E3,1.1E1,1E0,1E1,1.21E3,8E0,6E0,2E0,5.84E2,6.26E2,8E0,2E0],"tree_param":{"num_deleted":"0","num_feature":"86","num_nodes":"13","size_leaf_vector":"1"}},{"base_weights":[5.4176818E-3,-3.7416816E-1,1.8580418E1,3.5806477E0,1.8349213E2,1.761049E1,-1.0602208E-1,-3.1617112E-2,2.1979842E0,-4.518729E-1,7.1363287E0,1.2264988E0,1.621902E-1,-2.7099827E-2,1.5712573E-1],"categories":[],"categories_nodes":[],"categories_segments":[],"categories_sizes":[],"default_left":[0,0,0,0,0,0,0,0,0,0,0,0,0,0,0],"id":1,"left_children":[1,9,3,7,5,-1,-1,-1,-1,13,11,-1,-1,-1,-1],"loss_changes":[8.449903E3,6.840333E2,5.9336164E4,3.9774714E3,6.910298E4,0E0,0E0,0E0,0E0,5.0698395E2,8.281759E2,0E0,0E0,0E0,0E0],"parents":[2147483647,0,0,2,2,4,4,3,3,1,1,10,10,9,9],"right_children":[2,10,4,8,6,-1,-1,-1,-1,14,12,-1,-1,-1,-1],"split_conditions":[2.3E1,3.2E1,1.9E1,1.4E1,2E0,1.761049E1,-1.0602208E-1,-3.1617112E-2,2.1979842E0,1.8E1,3E0,1.2264988E0,1.621902E-1,-2.7099827E-2,1.5712573E-1],"split_indices":[79,53,1,65,0,0,0,0,0,31,41,0,0,0,0],"split_type":[0,0,0,0,0,0,0,0,0,0,0,0,0,0,0],"sum_hessian":[1.198E3,1.174E3,2.4E1,2.2E1,2E0,1E0,1E0,2E1,2E0,1.162E3,1.2E1,2E0,1E1,1.127E3,3.5E1],"tree_param":{"num_deleted":"0","num_feature":"86","num_nodes":"15","size_leaf_vector":"1"}},{"base_weights":[6.471136E-2,-2.8990299E-1,2.0234982E1,1.6770897E1,3.6499426E0,-4.433652E-2,2.1431653E0,-6.230558E-1,1.4478697E0,5.4847296E-2,1.4124234E0,-7.7701E-2,-6.548031E-3],"categories":[],"categories_nodes":[],"categories_segments":[],"categories_sizes":[],"default_left":[0,0,0,0,0,0,0,0,0,0,0,0,0],"id":2,"left_children":[1,7,3,-1,5,-1,-1,11,9,-1,-1,-1,-1],"loss_changes":[8.693816E3,6.911215E2,1.15406164E5,0E0,3.790476E3,0E0,0E0,4.8964072E2,1.6042252E3,0E0,0E0,0E0,0E0],"parents":[2147483647,0,0,2,2,4,4,1,1,8,8,7,7],"right_children":[2,8,4,-1,6,-1,-1,12,10,-1,-1,-1,-1],"split_conditions":[2.3E1,9E0,2E0,1.6770897E1,1.7E1,-4.433652E-2,2.1431653E0,3E0,3.3E1,5.4847296E-2,1.4124234E0,-7.7701E-2,-6.548031E-3],"split_indices":[79,84,35,0,68,0,0,70,54,0,0,0,0],"split_type":[0,0,0,0,0,0,0,0,0,0,0,0,0],"sum_hessian":[1.215E3,1.194E3,2.1E1,1E0,2E1,1.8E1,2E0,1.002E3,1.92E2,1.9E2,2E0,3.26E2,6.76E2],"tree_param":{"num_deleted":"0","num_feature":"86","num_nodes":"13","size_leaf_vector":"1"}},{"base_weights":[1.6538603E-2,-3.304329E-1,2.2012318E1,1.597133E1,4.6149554E0,-7.3697963E-3,2.0431595E0,-3.7264168E-1,1.2290434E1,-2.1185176E-2,2.9377288E-1,3.396576E-1,1.3169392E0],"categories":[],"categories_nodes":[],"categories_segments":[],"categories_sizes":[],"default_left":[0,0,0,0,0,0,0,0,0,0,0,0,0],"id":3,"left_children":[1,7,3,-1,5,-1,-1,9,11,-1,-1,-1,-1],"loss_changes":[9.337439E3,6.393977E2,1.0339792E5,0E0,3.290012E3,0E0,0E0,5.612992E2,3.1103436E2,0E0,0E0,0E0,0E0],"parents":[2147483647,0,0,2,2,4,4,1,1,7,7,8,8],"right_children":[2,8,4,-1,6,-1,-1,10,12,-1,-1,-1,-1],"split_conditions":[2.3E1,5.4E1,2E0,1.597133E1,1.1E1,-7.3697963E-3,2.0431595E0,2.8E1,4E0,-2.1185176E-2,2.9377288E-1,3.396576E-1,1.3169392E0],"split_indices":[79,2,35,0,12,0,0,55,0,0,0,0,0],"split_type":[0,0,0,0,0,0,0,0,0,0,0,0,0],"sum_hessian":[1.223E3,1.204E3,1.9E1,1E0,1.8E1,1.6E1,2E0,1.2E3,4E0,1.187E3,1.3E1,3E0,1E0],"tree_param":{"num_deleted":"0","num_feature":"86","num_nodes":"13","size_leaf_vector":"1"}},{"base_weights":[1.0312446E-1,-1.8441983E-1,1.6706455E1,1.5820982E0,1.5209885E1,-1.3713422E-1,1.9924573E0,-4.3876663E-1,2.150322E0,8.394677E-2,1.185137E0,-2.5642645E-2,1.891417E-1],"categories":[],"categories_nodes":[],"categories_segments":[],"categories_sizes":[],"default_left":[0,0,0,0,0,0,0,0,0,0,0,0,0],"id":4,"left_children":[1,7,3,5,-1,-1,-1,11,9,-1,-1,-1,-1],"loss_changes":[5.889335E3,7.194415E2,9.596435E4,3.591814E3,0E0,0E0,0E0,4.765265E2,1.048291E3,0E0,0E0,0E0,0E0],"parents":[2147483647,0,0,2,2,3,3,1,1,8,8,7,7],"right_children":[2,8,4,6,-1,-1,-1,12,10,-1,-1,-1,-1],"split_conditions":[2.3E1,1.2E1,9E0,1.7E1,1.5209885E1,-1.3713422E-1,1.9924573E0,2.4E1,2.5E1,8.394677E-2,1.185137E0,-2.5642645E-2,1.891417E-1],"split_indices":[79,53,70,68,0,0,0,31,80,0,0,0,0],"split_type":[0,0,0,0,0,0,0,0,0,0,0,0,0],"sum_hessian":[1.233E3,1.212E3,2.1E1,2E1,1E0,1.8E1,2E0,1.093E3,1.19E2,1.17E2,2E0,1.069E3,2.4E1],"tree_param":{"num_deleted":"0","num_feature":"86","num_nodes":"13","size_leaf_vector":"1"}},{"base_weights":[-2.2450196E-2,-3.6132976E-1,1.085471E1,2.4795902E0,1.448474E1,-4.756679E-2,4.80658E-1,-1.051053E0,3.186263E-1,1.8086514E-2,-1.658989E0,-5.2422993E-2,1.2665387E0],"categories":[],"categories_nodes":[],"categories_segments":[],"categories_sizes":[],"default_left":[0,0,0,0,0,0,0,0,0,0,0,0,0],"id":5,"left_children":[1,7,3,5,-1,-1,-1,11,9,-1,-1,-1,-1],"loss_changes":[4.392019E3,5.422649E2,8.827589E4,9.267049E2,0E0,0E0,0E0,7.643596E2,1.235342E3,0E0,0E0,0E0,0E0],"parents":[2147483647,0,0,2,2,3,3,1,1,8,8,7,7],"right_children":[2,8,4,6,-1,-1,-1,12,10,-1,-1,-1,-1],"split_conditions":[1.9E1,4E0,2.1E1,9E0,1.448474E1,-4.756679E-2,4.80658E-1,3.6E1,3.2E1,1.8086514E-2,-1.658989E0,-5.2422993E-2,1.2665387E0],"split_indices":[1,69,79,53,0,0,0,81,73,0,0,0,0],"split_type":[0,0,0,0,0,0,0,0,0,0,0,0,0],"sum_hessian":[1.192E3,1.156E3,3.6E1,3.5E1,1E0,2.4E1,1.1E1,5.74E2,5.82E2,5.81E2,1E0,5.73E2,1E0],"tree_param":{"num_deleted":"0","num_feature":"86","num_nodes":"13","size_leaf_vector":"1"}},{"base_weights":[4.5587216E-2,-2.1115007E-1,1.3963642E1,1.3794169E1,8.429097E-1,1.5636097E0,-2.1327654E-1,-2.5020024E-1,1.521001E1,-2.492353E-2,5.721869E-2,4.5912212E-1,1.2492884E0],"categories":[],"categories_nodes":[],"categories_segments":[],"categories_sizes":[],"default_left":[0,0,0,0,0,0,0,0,0,0,0,0,0],"id":6,"left_children":[1,7,3,-1,5,-1,-1,9,11,-1,-1,-1,-1],"loss_changes":[4.3402593E3,7.153268E2,7.943629E4,0E0,3.5719944E3,0E0,0E0,4.6989337E2,1.7805023E2,0E0,0E0,0E0,0E0],"parents":[2147483647,0,0,2,2,4,4,1,1,7,7,8,8],"right_children":[2,8,4,-1,6,-1,-1,10,12,-1,-1,-1,-1],"split_conditions":[2.3E1,5.4E1,2E0,1.3794169E1,2E0,1.5636097E0,-2.1327654E-1,9E0,4E0,-2.492353E-2,5.721869E-2,4.5912212E-1,1.2492884E0],"split_indices":[79,2,71,0,22,0,0,69,0,0,0,0,0],"split_type":[0,0,0,0,0,0,0,0,0,0,0,0,0],"sum_hessian":[1.214E3,1.192E3,2.2E1,1E0,2.1E1,3E0,1.8E1,1.189E3,3E0,1.001E3,1.88E2,2E0,1E0],"tree_param":{"num_deleted":"0","num_feature":"86","num_nodes":"13","size_leaf_vector":"1"}},{"base_weights":[2.0343375E-1,-5.5030316E-2,1.3980082E1,1.3136521E1,1.516996E0,-1.1667961E-1,1.8718312E0,-8.068905E-2,1.4219122E0,-2.432826E-2,5.612669E-2],"categories":[],"categories_nodes":[],"categories_segments":[],"categories_sizes":[],"default_left":[0,0,0,0,0,0,0,0,0,0,0],"id":7,"left_children":[1,7,3,-1,5,-1,-1,9,-1,-1,-1],"loss_changes":[4.25388E3,8.9355676E2,7.166789E4,0E0,3.148291E3,0E0,0E0,6.326693E2,0E0,0E0,0E0],"parents":[2147483647,0,0,2,2,4,4,1,1,7,7],"right_children":[2,8,4,-1,6,-1,-1,10,-1,-1,-1],"split_conditions":[2.3E1,4E1,2E0,1.3136521E1,1.4E1,-1.1667961E-1,1.8718312E0,7E0,1.4219122E0,-2.432826E-2,5.612669E-2],"split_indices":[79,45,35,0,65,0,0,84,0,0,0],"split_type":[0,0,0,0,0,0,0,0,0,0,0],"sum_hessian":[1.194E3,1.172E3,2.2E1,1E0,2.1E1,1.9E1,2E0,1.171E3,1E0,8.73E2,2.98E2],"tree_param":{"num_deleted":"0","num_feature":"86","num_nodes":"11","size_leaf_vector":"1"}},{"base_weights":[-8.406632E-2,-3.1178302E-1,1.1048116E1,1.12450056E-1,1.2510228E1,1.1119498E0,-2.271876E-1,-9.37957E-1,2.9935193E-1,1.1999339E-2,1.3541213E0,-5.1903274E-2,2.2535327E-1],"categories":[],"categories_nodes":[],"categories_segments":[],"categories_sizes":[],"default_left":[0,0,0,0,0,0,0,0,0,0,0,0,0],"id":8,"left_children":[1,7,3,5,-1,-1,-1,11,9,-1,-1,-1,-1],"loss_changes":[3.0351204E3,4.493691E2,6.592367E4,2.6068994E3,0E0,0E0,0E0,4.944588E2,7.910227E2,0E0,0E0,0E0,0E0],"parents":[2147483647,0,0,2,2,3,3,1,1,8,8,7,7],"right_children":[2,8,4,6,-1,-1,-1,12,10,-1,-1,-1,-1],"split_conditions":[2.3E1,4E0,9E0,2E0,1.2510228E1,1.1119498E0,-2.271876E-1,1.8E1,6.4E1,1.1999339E-2,1.3541213E0,-5.1903274E-2,2.2535327E-1],"split_indices":[79,84,70,22,0,0,0,31,45,0,0,0,0],"split_type":[0,0,0,0,0,0,0,0,0,0,0,0,0],"sum_hessian":[1.198E3,1.174E3,2.4E1,2.3E1,1E0,4E0,1.9E1,5.8E2,5.94E2,5.93E2,1E0,5.65E2,1.5E1],"tree_param":{"num_deleted":"0","num_feature":"86","num_nodes":"13","size_leaf_vector":"1"}},{"base_weights":[-1.10508405E-1,-2.720763E-1,1.1322473E1,1.1913792E1,-3.577659E0,3.2389864E-2,-1.0527188E0,-6.3865906E-1,8.174429E-1,3.277028E-2,9.685483E-1,-3.5571497E-2,2.3542877E-1],"categories":[],"categories_nodes":[],"categories_segments":[],"categories_sizes":[],"default_left":[0,0,0,0,0,0,0,0,0,0,0,0,0],"id":9,"left_children":[1,7,3,-1,5,-1,-1,11,9,-1,-1,-1,-1],"loss_changes":[2.253592E3,4.8084656E2,6.0469527E4,0E0,1.2638174E3,0E0,0E0,5.390975E2,7.6512103E2,0E0,0E0,0E0,0E0],"parents":[2147483647,0,0,2,2,4,4,1,1,8,8,7,7],"right_children":[2,8,4,-1,6,-1,-1,12,10,-1,-1,-1,-1],"split_conditions":[2.3E1,7E0,2E0,1.1913792E1,1.3E1,3.2389864E-2,-1.0527188E0,2.4E1,4E1,3.277028E-2,9.685483E-1,-3.5571497E-2,2.3542877E-1],"split_indices":[79,53,35,0,64,0,0,31,18,0,0,0,0],"split_type":[0,0,0,0,0,0,0,0,0,0,0,0,0],"sum_hessian":[1.221E3,1.204E3,1.7E1,1E0,1.6E1,1.3E1,3E0,9.01E2,3.03E2,3.01E2,2E0,8.84E2,1.7E1],"tree_param":{"num_deleted":"0","num_feature":"86","num_nodes":"13","size_leaf_vector":"1"}},{"base_weights":[-3.697328E-2,-4.644856E-1,4.1145134E0,2.2718346E0,5.382479E1,1.1345792E1,-3.5774258E-1,-3.7518558E-1,-1.9773407E1,-2.1309228E0,-1.4795564E-1,6.5802805E-2,7.2056127E-1,-2.129661E-2,3.4708306E-1],"categories":[],"categories_nodes":[],"categories_segments":[],"categories_sizes":[],"default_left":[0,0,0,0,0,0,0,0,0,0,0,0,0,0,0],"id":10,"left_children":[1,7,3,11,5,-1,-1,13,9,-1,-1,-1,-1,-1,-1],"loss_changes":[2.1291655E3,1.8726644E3,1.0249854E4,1.2338774E3,4.5212297E4,0E0,0E0,5.91609E2,2.0692542E3,0E0,0E0,0E0,0E0,0E0,0E0],"parents":[2147483647,0,0,2,2,4,4,1,1,8,8,3,3,7,7],"right_children":[2,8,4,12,6,-1,-1,14,10,-1,-1,-1,-1,-1,-1],"split_conditions":[1.2E1,3.3E1,1.9E1,1.8E1,2E0,1.1345792E1,-3.5774258E-1,2.9E1,4E0,-2.1309228E0,-1.4795564E-1,6.5802805E-2,7.2056127E-1,-2.129661E-2,3.4708306E-1],"split_indices":[74,79,79,31,0,0,0,53,9,0,0,0,0,0,0],"split_type":[0,0,0,0,0,0,0,0,0,0,0,0,0,0,0],"sum_hessian":[1.2E3,1.088E3,1.12E2,1.08E2,4E0,1E0,3E0,1.083E3,5E0,2E0,3E0,1.01E2,7E0,1.073E3,1E1],"tree_param":{"num_deleted":"0","num_feature":"86","num_nodes":"15","size_leaf_vector":"1"}},{"base_weights":[-1.301514E-2,-1.9201773E-1,1.0718788E1,-6.3628036E-1,1.08048725E1,-2.4978656E-1,3.9117186E0,-6.936931E-1,6.4970803E-1,-3.563996E-2,9.254276E-1,2.8335173E-2,1.2035488E0],"categories":[],"categories_nodes":[],"categories_segments":[],"categories_sizes":[],"default_left":[0,0,0,0,0,0,0,0,0,0,0,0,0],"id":11,"left_children":[1,7,3,5,-1,-1,-1,9,11,-1,-1,-1,-1],"loss_changes":[2.3418901E3,5.0673508E2,4.907052E4,7.21811E3,0E0,0E0,0E0,8.1075665E2,6.0603735E2,0E0,0E0,0E0,0E0],"parents":[2147483647,0,0,2,2,3,3,1,1,7,7,8,8],"right_children":[2,8,4,6,-1,-1,-1,10,12,-1,-1,-1,-1],"split_conditions":[2.2E1,5E0,1.9E1,1.4E1,1.08048725E1,-2.4978656E-1,3.9117186E0,3.6E1,5.4E1,-3.563996E-2,9.254276E-1,2.8335173E-2,1.2035488E0],"split_indices":[79,66,1,65,0,0,0,55,17,0,0,0,0],"split_type":[0,0,0,0,0,0,0,0,0,0,0,0,0],"sum_hessian":[1.22E3,1.2E3,2E1,1.9E1,1E0,1.8E1,1E0,7.52E2,4.48E2,7.5E2,2E0,4.47E2,1E0],"tree_param":{"num_deleted":"0","num_feature":"86","num_nodes":"13","size_leaf_vector":"1"}},{"base_weights":[-1.5365642E-1,-4.649452E-2,-1.3210697E1,-2.206117E-1,1.7467365E1,-2.6229555E-2,1.02897415E1,-3.1276157E0,-3.6682056E1,-4.4191673E-2,2.0672245E-2,-2.6396875E0,-1.2994949E0,4.1403588E-2,-6.2938315E-1],"categories":[],"categories_nodes":[],"categories_segments":[],"categories_sizes":[],"default_left":[0,0,0,0,0,0,0,0,0,0,0,0,0,0,0],"id":12,"left_children":[1,3,7,9,5,-1,-1,13,11,-1,-1,-1,-1,-1,-1],"loss_changes":[1.7188268E3,3.7174707E3,2.360002E3,5.5823816E2,4.292211E4,0E0,0E0,2.838309E2,5.14522E2,0E0,0E0,0E0,0E0,0E0,0E0],"parents":[2147483647,0,0,1,1,4,4,2,2,3,3,8,8,7,7],"right_children":[2,4,8,10,6,-1,-1,14,12,-1,-1,-1,-1,-1,-1],"split_conditions":[2.9E1,2.3E1,4E0,4E0,1.3E1,-2.6229555E-2,1.02897415E1,1.1E1,3E0,-4.4191673E-2,2.0672245E-2,-2.6396875E0,-1.2994949E0,4.1403588E-2,-6.2938315E-1],"split_indices":[79,79,80,84,1,0,0,12,0,0,0,0,0,0,0],"split_type":[0,0,0,0,0,0,0,0,0,0,0,0,0,0,0],"sum_hessian":[1.23E3,1.22E3,1E1,1.208E3,1.2E1,1.1E1,1E0,7E0,3E0,5.81E2,6.27E2,1E0,2E0,5E0,2E0],"tree_param":{"num_deleted":"0","num_feature":"86","num_nodes":"15","size_leaf_vector":"1"}},{"base_weights":[-7.510923E-2,2.6309203E-2,-1.5536853E1,-2.2324985E-1,2.317129E1,3.7952185E-1,9.79917E0,-3.8639772E0,-3.4935844E1,-1.2178703E-2,6.016371E-1,-2.5138383E0,-1.2375394E0,-4.4230063E-2,-7.362304E-1],"categories":[],"categories_nodes":[],"categories_segments":[],"categories_sizes":[],"default_left":[0,0,0,0,0,0,0,0,0,0,0,0,0,0,0],"id":13,"left_children":[1,3,7,9,5,-1,-1,13,11,-1,-1,-1,-1,-1,-1],"loss_changes":[1.9250839E3,7.039043E3,1.8050693E3,4.960932E2,3.602504E4,0E0,0E0,1.6725238E2,4.6607642E2,0E0,0E0,0E0,0E0,0E0,0E0],"parents":[2147483647,0,0,1,1,4,4,2,2,3,3,8,8,7,7],"right_children":[2,4,8,10,6,-1,-1,14,12,-1,-1,-1,-1,-1,-1],"split_conditions":[3.3E1,2.2E1,4E0,5.4E1,1.5E1,3.7952185E-1,9.79917E0,1.2E1,3E0,-1.2178703E-2,6.016371E-1,-2.5138383E0,-1.2375394E0,-4.4230063E-2,-7.362304E-1],"split_indices":[79,79,80,2,1,0,0,1,0,0,0,0,0,0,0],"split_type":[0,0,0,0,0,0,0,0,0,0,0,0,0,0,0],"sum_hessian":[1.226E3,1.218E3,8E0,1.205E3,1.3E1,1.2E1,1E0,5E0,3E0,1.202E3,3E0,1E0,2E0,4E0,1E0],"tree_param":{"num_deleted":"0","num_feature":"86","num_nodes":"15","size_leaf_vector":"1"}},{"base_weights":[1.7312486E-2,-2.1466981E-1,6.882353E0,2.0356185E0,9.331986E0,4.943129E-2,9.7405726E-1,-2.8762004E-1,6.8901453E0,1.4303096E-1,1.2518708E0,-2.6729202E-2,6.559886E-2],"categories":[],"categories_nodes":[],"categories_segments":[],"categories_sizes":[],"default_left":[0,0,0,0,0,0,0,0,0,0,0,0,0],"id":14,"left_children":[1,7,3,5,-1,-1,-1,11,9,-1,-1,-1,-1],"loss_changes":[1.9488224E3,6.1204553E2,3.657936E4,7.1297015E2,0E0,0E0,0E0,5.316797E2,8.9921375E2,0E0,0E0,0E0,0E0],"parents":[2147483647,0,0,2,2,3,3,1,1,8,8,7,7],"right_children":[2,8,4,6,-1,-1,-1,12,10,-1,-1,-1,-1],"split_conditions":[1.9E1,2.9E1,2.1E1,1.2E1,9.331986E0,4.943129E-2,9.7405726E-1,1E1,1E1,1.4303096E-1,1.2518708E0,-2.6729202E-2,6.559886E-2],"split_indices":[1,2,79,57,0,0,0,74,36,0,0,0,0],"split_type":[0,0,0,0,0,0,0,0,0,0,0,0,0],"sum_hessian":[1.223E3,1.183E3,4E1,3.9E1,1E0,3.7E1,2E0,1.171E3,1.2E1,1E1,2E0,1.006E3,1.65E2],"tree_param":{"num_deleted":"0","num_feature":"86","num_nodes":"13","size_leaf_vector":"1"}},{"base_weights":[-2.946235E-1,-4.1535807E-1,3.3943386E0,4.4531223E-1,1.6851727E1,2.7145512E0,4.8358813E-1,-3.318037E-1,-1.2770959E1,-1.5575625E-1,-1.9642675E0,-2.4598844E-2,7.1264774E-1,-4.3484405E-2,1.1049719E-2],"categories":[],"categories_nodes":[],"categories_segments":[],"categories_sizes":[],"default_left":[0,0,0,0,0,0,0,0,0,0,0,0,0,0,0],"id":15,"left_children":[1,7,3,11,5,-1,-1,13,9,-1,-1,-1,-1,-1,-1],"loss_changes":[5.4821814E2,1.2294258E3,1.544878E3,4.4849377E2,1.8712195E3,0E0,0E0,3.8762238E2,2.1540703E3,0E0,0E0,0E0,0E0,0E0,0E0],"parents":[2147483647,0,0,2,2,4,4,1,1,8,8,3,3,7,7],"right_children":[2,8,4,12,6,-1,-1,14,10,-1,-1,-1,-1,-1,-1],"split_conditions":[1.8E1,2.9E1,7E0,2.1E1,2E0,2.7145512E0,4.8358813E-1,4E0,9E0,-1.5575625E-1,-1.9642675E0,-2.4598844E-2,7.1264774E-1,-4.3484405E-2,1.1049719E-2],"split_indices":[31,79,58,52,7,0,0,66,20,0,0,0,0,0,0],"split_type":[0,0,0,0,0,0,0,0,0,0,0,0,0,0,0],"sum_hessian":[1.232E3,1.193E3,3.9E1,3.2E1,7E0,1E0,6E0,1.185E3,8E0,6E0,2E0,3E1,2E0,5.84E2,6.01E2],"tree_param":{"num_deleted":"0","num_feature":"86","num_nodes":"15","size_leaf_vector":"1"}},{"base_weights":[-1.3248341E-1,-3.5200875E-2,-1.3268676E1,-1.06528565E-1,4.3212383E1,3.7414346E0,3.710452E-1,-2.6743836E0,-3.440145E1,-3.9444026E-2,2.7563328E-2,-2.2990665E0,-1.3067095E0,9.38906E-2,-5.742722E-1],"categories":[],"categories_nodes":[],"categories_segments":[],"categories_sizes":[],"default_left":[0,0,0,0,0,0,0,0,0,0,0,0,0,0,0],"id":16,"left_children":[1,3,7,9,5,-1,-1,13,11,-1,-1,-1,-1,-1,-1],"loss_changes":[1.564514E3,3.7469539E3,2.0088027E3,5.9963E2,2.4842937E3,0E0,0E0,2.627674E2,2.7732788E2,0E0,0E0,0E0,0E0,0E0,0E0],"parents":[2147483647,0,0,1,1,4,4,2,2,3,3,8,8,7,7],"right_children":[2,4,8,10,6,-1,-1,14,12,-1,-1,-1,-1,-1,-1],"split_conditions":[3.3E1,2.9E1,1E1,4E0,5E0,3.7414346E0,3.710452E-1,5E0,4E0,-3.9444026E-2,2.7563328E-2,-2.2990665E0,-1.3067095E0,9.38906E-2,-5.742722E-1],"split_indices":[79,79,47,70,0,0,0,10,1,0,0,0,0,0,0],"split_type":[0,0,0,0,0,0,0,0,0,0,0,0,0,0,0],"sum_hessian":[1.226E3,1.217E3,9E0,1.215E3,2E0,1E0,1E0,6E0,3E0,5.92E2,6.23E2,1E0,2E0,4E0,2E0],"tree_param":{"num_deleted":"0","num_feature":"86","num_nodes":"15","size_leaf_vector":"1"}},{"base_weights":[-1.2845878E-1,-3.7898127E-2,-1.1232601E1,-9.897375E-2,3.5630589E0,-1.9809544E0,-3.2763973E1,-1.8267123E-2,7.668062E-2,8.494448E-2,-5.4689294E-1,-2.1894567E0,-1.2444103E0],"categories":[],"categories_nodes":[],"categories_segments":[],"categories_sizes":[],"default_left":[0,0,0,0,0,0,0,0,0,0,0,0,0],"id":17,"left_children":[1,3,5,7,-1,9,11,-1,-1,-1,-1,-1,-1],"loss_changes":[1.2430516E3,5.59544E3,1.9862169E3,5.9508887E2,0E0,2.515623E2,2.5099414E2,0E0,0E0,0E0,0E0,0E0,0E0],"parents":[2147483647,0,0,1,1,2,2,3,3,5,5,6,6],"right_children":[2,4,6,8,-1,10,12,-1,-1,-1,-1,-1,-1],"split_conditions":[3.2E1,2.9E1,4E0,1E1,3.5630589E0,1.1E1,3E0,-1.8267123E-2,7.668062E-2,8.494448E-2,-5.4689294E-1,-2.1894567E0,-1.2444103E0],"split_indices":[79,79,80,84,0,12,0,0,0,0,0,0,0],"split_type":[0,0,0,0,0,0,0,0,0,0,0,0,0],"sum_hessian":[1.238E3,1.228E3,1E1,1.227E3,1E0,7E0,3E0,1.052E3,1.75E2,5E0,2E0,1E0,2E0],"tree_param":{"num_deleted":"0","num_feature":"86","num_nodes":"13","size_leaf_vector":"1"}},{"base_weights":[-3.964125E-2,5.4130416E-2,-1.2800655E1,-1.6385569E-1,1.7620361E1,2.6460293E-1,8.888706E0,-6.2296696E0,-3.571532E1,-1.3007706E-2,1.5640438E-1,3.0555208E-3,-6.997505E-1,-2.0850728E0,-1.31254E0],"categories":[],"categories_nodes":[],"categories_segments":[],"categories_sizes":[],"default_left":[0,0,0,0,0,0,0,0,0,0,0,0,0,0,0],"id":18,"left_children":[1,3,7,9,5,-1,-1,11,13,-1,-1,-1,-1,-1,-1],"loss_changes":[1.4763632E3,4.6860156E3,1.3481517E3,4.5291046E2,3.0533162E4,0E0,0E0,3.7458957E2,1.1934595E2,0E0,0E0,0E0,0E0,0E0,0E0],"parents":[2147483647,0,0,1,1,4,4,2,2,3,3,7,7,8,8],"right_children":[2,4,8,10,6,-1,-1,12,14,-1,-1,-1,-1,-1,-1],"split_conditions":[3.3E1,2.3E1,9E0,1.8E1,1.5E1,2.6460293E-1,8.888706E0,4E0,3E0,-1.3007706E-2,1.5640438E-1,3.0555208E-3,-6.997505E-1,-2.0850728E0,-1.31254E0],"split_indices":[79,79,56,31,1,0,0,12,0,0,0,0,0,0,0],"split_type":[0,0,0,0,0,0,0,0,0,0,0,0,0,0,0],"sum_hessian":[1.232E3,1.223E3,9E0,1.208E3,1.5E1,1.4E1,1E0,7E0,2E0,1.171E3,3.7E1,4E0,3E0,1E0,1E0],"tree_param":{"num_deleted":"0","num_feature":"86","num_nodes":"15","size_leaf_vector":"1"}},{"base_weights":[-1.09211296E-1,-2.4818378E-2,-1.1371169E1,-9.11648E-2,3.973227E1,3.3805723E0,4.0006846E-1,-2.1094713E0,-2.9838789E1,-1.4662798E-2,9.026895E-2,-1.9856651E0,-1.1371117E0,9.088289E-2,-4.8745736E-1],"categories":[],"categories_nodes":[],"categories_segments":[],"categories_sizes":[],"default_left":[0,0,0,0,0,0,0,0,0,0,0,0,0,0,0],"id":19,"left_children":[1,3,7,9,5,-1,-1,13,11,-1,-1,-1,-1,-1,-1],"loss_changes":[1.1500203E3,3.166592E3,1.5340494E3,5.154496E2,1.940792E3,0E0,0E0,1.9690384E2,2.0121509E2,0E0,0E0,0E0,0E0,0E0,0E0],"parents":[2147483647,0,0,1,1,4,4,2,2,3,3,8,8,7,7],"right_children":[2,4,8,10,6,-1,-1,14,12,-1,-1,-1,-1,-1,-1],"split_conditions":[3.3E1,2.9E1,9E0,1.2E1,5E0,3.3805723E0,4.0006846E-1,4E0,3E0,-1.4662798E-2,9.026895E-2,-1.9856651E0,-1.1371117E0,9.088289E-2,-4.8745736E-1],"split_indices":[79,79,20,53,0,0,0,2,0,0,0,0,0,0,0],"split_type":[0,0,0,0,0,0,0,0,0,0,0,0,0,0,0],"sum_hessian":[1.212E3,1.203E3,9E0,1.201E3,2E0,1E0,1E0,6E0,3E0,1.083E3,1.18E2,1E0,2E0,4E0,2E0],"tree_param":{"num_deleted":"0","num_feature":"86","num_nodes":"15","size_leaf_vector":"1"}},{"base_weights":[3.3799704E-2,-3.3372486E-1,2.3091085E0,1.3623939E0,3.3517162E1,8.460627E0,-1.1571294E-1,3.910787E-2,6.472252E-1,-2.7503476E-1,-1.0537525E1,-1.4305261E0,-3.6341615E-2,-1.4231043E-2,1.1473873E0],"categories":[],"categories_nodes":[],"categories_segments":[],"categories_sizes":[],"default_left":[0,0,0,0,0,0,0,0,0,0,0,0,0,0,0],"id":20,"left_children":[1,9,3,7,5,-1,-1,-1,-1,13,11,-1,-1,-1,-1],"loss_changes":[1.0222047E3,6.2819977E2,5.0168545E3,1.0900486E3,2.5898262E4,0E0,0E0,0E0,0E0,5.931576E2,1.1366416E3,0E0,0E0,0E0,0E0],"parents":[2147483647,0,0,2,2,4,4,3,3,1,1,10,10,9,9],"right_children":[2,10,4,8,6,-1,-1,-1,-1,14,12,-1,-1,-1,-1],"split_conditions":[1E1,2.9E1,1.7E1,1.8E1,2E0,8.460627E0,-1.1571294E-1,3.910787E-2,6.472252E-1,4E1,4E0,-1.4305261E0,-3.6341615E-2,-1.4231043E-2,1.1473873E0],"split_indices":[74,79,27,31,0,0,0,0,0,81,9,0,0,0,0],"split_type":[0,0,0,0,0,0,0,0,0,0,0,0,0,0,0],"sum_hessian":[1.222E3,1.052E3,1.7E2,1.65E2,5E0,1E0,4E0,1.58E2,7E0,1.046E3,6E0,2E0,4E0,1.045E3,1E0],"tree_param":{"num_deleted":"0","num_feature":"86","num_nodes":"15","size_leaf_vector":"1"}},{"base_weights":[2.9603278E-3,8.385766E-2,-1.22826605E1,-1.1842068E-1,1.883073E1,3.0049378E-1,8.05726E0,-3.162848E0,-2.7426594E1,-1.7107982E-2,6.4023316E-2,-1.8227955E0,-1.0460385E0,5.5548456E-2,-4.6428302E-1],"categories":[],"categories_nodes":[],"categories_segments":[],"categories_sizes":[],"default_left":[0,0,0,0,0,0,0,0,0,0,0,0,0,0,0],"id":21,"left_children":[1,3,7,9,5,-1,-1,13,11,-1,-1,-1,-1,-1,-1],"loss_changes":[1.2154617E3,4.6180894E3,1.0997795E3,4.2280447E2,2.4427443E4,0E0,0E0,1.4371632E2,1.6779858E2,0E0,0E0,0E0,0E0,0E0,0E0],"parents":[2147483647,0,0,1,1,4,4,2,2,3,3,8,8,7,7],"right_children":[2,4,8,10,6,-1,-1,14,12,-1,-1,-1,-1,-1,-1],"split_conditions":[3.3E1,2.3E1,4E0,1E1,1.5E1,3.0049378E-1,8.05726E0,4E0,3E0,-1.7107982E-2,6.4023316E-2,-1.8227955E0,-1.0460385E0,5.5548456E-2,-4.6428302E-1],"split_indices":[79,79,80,84,1,0,0,6,0,0,0,0,0,0,0],"split_type":[0,0,0,0,0,0,0,0,0,0,0,0,0,0,0],"sum_hessian":[1.225E3,1.217E3,8E0,1.204E3,1.3E1,1.2E1,1E0,5E0,3E0,1.034E3,1.7E2,1E0,2E0,3E0,2E0],"tree_param":{"num_deleted":"0","num_feature":"86","num_nodes":"15","size_leaf_vector":"1"}},{"base_weights":[4.172547E-2,-2.7121225E-1,3.085974E0,1.189079E0,2.4776283E1,7.6731224E0,3.6876246E-1,3.583298E-2,1.1060783E0,-2.0714763E-1,-1.0149909E1,-1.2939358E0,-1.5831673E-1,-4.2313926E-2,2.0234479E-2],"categories":[],"categories_nodes":[],"categories_segments":[],"categories_sizes":[],"default_left":[0,0,0,0,0,0,0,0,0,0,0,0,0,0,0],"id":22,"left_children":[1,9,3,7,5,-1,-1,-1,-1,13,11,-1,-1,-1,-1],"loss_changes":[1.1446143E3,6.874737E2,4.6038257E3,9.878518E2,2.085594E4,0E0,0E0,0E0,0E0,4.6499634E2,8.0711334E2,0E0,0E0,0E0,0E0],"parents":[2147483647,0,0,2,2,4,4,3,3,1,1,10,10,9,9],"right_children":[2,10,4,8,6,-1,-1,-1,-1,14,12,-1,-1,-1,-1],"split_conditions":[1.2E1,3.3E1,1.9E1,2.4E1,2E0,7.6731224E0,3.6876246E-1,3.583298E-2,1.1060783E0,4E0,4E0,-1.2939358E0,-1.5831673E-1,-4.2313926E-2,2.0234479E-2],"split_indices":[53,79,1,80,35,0,0,0,0,69,16,0,0,0,0],"split_type":[0,0,0,0,0,0,0,0,0,0,0,0,0,0,0],"sum_hessian":[1.201E3,1.089E3,1.12E2,1.03E2,9E0,1E0,8E0,1.01E2,2E0,1.082E3,7E0,2E0,5E0,5.21E2,5.61E2],"tree_param":{"num_deleted":"0","num_feature":"86","num_nodes":"15","size_leaf_vector":"1"}},{"base_weights":[4.011436E-2,-1.1215851E-1,1.1969098E1,1.8642446E0,7.3073E0,-1.5023191E-1,3.205227E0,-1.314294E-1,1.0644035E0,-7.964502E-3,4.8807698E-1],"categories":[],"categories_nodes":[],"categories_segments":[],"categories_sizes":[],"default_left":[0,0,0,0,0,0,0,0,0,0,0],"id":23,"left_children":[1,7,3,5,-1,-1,-1,9,-1,-1,-1],"loss_changes":[2.1617485E3,5.0392358E2,2.1390969E4,4.600115E3,0E0,0E0,0E0,4.3155768E2,0E0,0E0,0E0],"parents":[2147483647,0,0,2,2,3,3,1,1,7,7],"right_children":[2,8,4,6,-1,-1,-1,10,-1,-1,-1],"split_conditions":[2.2E1,4E1,1.3E1,1.3E1,7.3073E0,-1.5023191E-1,3.205227E0,3.5E1,1.0644035E0,-7.964502E-3,4.8807698E-1],"split_indices":[79,2,1,11,0,0,0,17,0,0,0],"split_type":[0,0,0,0,0,0,0,0,0,0,0],"sum_hessian":[1.189E3,1.174E3,1.5E1,1.4E1,1E0,1.3E1,1E0,1.173E3,1E0,1.169E3,4E0],"tree_param":{"num_deleted":"0","num_feature":"86","num_nodes":"11","size_leaf_vector":"1"}},{"base_weights":[-6.3479304E-2,-4.1819417E-1,2.033981E0,1.3643317E0,2.517036E1,6.958919E0,-2.3771699E-1,4.8200656E-2,7.7483255E-1,-3.7238833E-1,-1.6394499E1,6.078303E-2,-1.2068261E0,-2.7864696E-2,5.311117E-2],"categories":[],"categories_nodes":[],"categories_segments":[],"categories_sizes":[],"default_left":[0,0,0,0,0,0,0,0,0,0,0,0,0,0,0],"id":24,"left_children":[1,9,3,7,5,-1,-1,-1,-1,13,11,-1,-1,-1,-1],"loss_changes":[9.1559503E2,7.677978E2,2.7533755E3,9.0718066E2,1.8236365E4,0E0,0E0,0E0,0E0,3.3086514E2,4.7673798E2,0E0,0E0,0E0,0E0],"parents":[2147483647,0,0,2,2,4,4,3,3,1,1,10,10,9,9],"right_children":[2,10,4,8,6,-1,-1,-1,-1,14,12,-1,-1,-1,-1],"split_conditions":[1E1,3.3E1,1.5E1,3.3E1,2E0,6.958919E0,-2.3771699E-1,4.8200656E-2,7.7483255E-1,1E1,3E0,6.078303E-2,-1.2068261E0,-2.7864696E-2,5.311117E-2],"split_indices":[67,79,27,54,0,0,0,0,0,68,0,0,0,0,0],"split_type":[0,0,0,0,0,0,0,0,0,0,0,0,0,0,0],"sum_hessian":[1.231E3,1.053E3,1.78E2,1.73E2,5E0,1E0,4E0,1.69E2,4E0,1.05E3,3E0,1E0,2E0,9.19E2,1.31E2],"tree_param":{"num_deleted":"0","num_feature":"86","num_nodes":"15","size_leaf_vector":"1"}},{"base_weights":[-1.367647E-1,-6.097909E-2,-1.0467151E1,-2.4894997E1,1.041854E0,-3.544666E-1,2.6251147E0,4.045329E-2,1.0645828E0,-3.5821944E-2,1.6835354E-2,-1.5630611E0,-8.06793E-1,4.4960052E-1,-4.8324347E-2],"categories":[],"categories_nodes":[],"categories_segments":[],"categories_sizes":[],"default_left":[0,0,0,0,0,0,0,0,0,0,0,0,0,0,0],"id":25,"left_children":[1,5,3,11,13,9,7,-1,-1,-1,-1,-1,-1,-1,-1],"loss_changes":[9.6746796E2,9.684851E2,1.4984341E3,2.4330273E2,8.761137E1,3.1121674E2,4.231924E3,0E0,0E0,0E0,0E0,0E0,0E0,0E0,0E0],"parents":[2147483647,0,0,2,2,1,1,6,6,5,5,3,3,4,4],"right_children":[2,6,4,12,14,10,8,-1,-1,-1,-1,-1,-1,-1,-1],"split_conditions":[3.3E1,1.2E1,5E0,5E0,2E0,5E0,1.9E1,4.045329E-2,1.0645828E0,-3.5821944E-2,1.6835354E-2,-1.5630611E0,-8.06793E-1,4.4960052E-1,-4.8324347E-2],"split_indices":[79,53,9,2,0,66,1,0,0,0,0,0,0,0,0],"split_type":[0,0,0,0,0,0,0,0,0,0,0,0,0,0,0],"sum_hessian":[1.238E3,1.229E3,9E0,4E0,5E0,1.108E3,1.21E2,1.11E2,1E1,7.1E2,3.98E2,2E0,2E0,1E0,4E0],"tree_param":{"num_deleted":"0","num_feature":"86","num_nodes":"15","size_leaf_vector":"1"}},{"base_weights":[-1.2195346E-1,-4.3453395E-2,-1.1797578E1,-2.9507914E0,-2.6486475E1,-2.0493549E-1,5.289915E0,6.59636E-2,6.576392E0,-1.2426134E-2,3.051825E0,3.495718E-3,-7.253431E-1,-1.4885399E0,-8.0334127E-1],"categories":[],"categories_nodes":[],"categories_segments":[],"categories_sizes":[],"default_left":[0,0,0,0,0,0,0,0,0,0,0,0,0,0,0],"id":26,"left_children":[1,5,3,11,13,9,7,-1,-1,-1,-1,-1,-1,-1,-1],"loss_changes":[1.0978702E3,1.0257544E3,1.0346896E3,1.8794672E2,1.2885547E2,4.1273555E3,1.8112518E4,0E0,0E0,0E0,0E0,0E0,0E0,0E0,0E0],"parents":[2147483647,0,0,2,2,1,1,6,6,5,5,3,3,4,4],"right_children":[2,6,4,12,14,10,8,-1,-1,-1,-1,-1,-1,-1,-1],"split_conditions":[3.2E1,1.9E1,8E0,7E0,5E0,2.9E1,2.1E1,6.59636E-2,6.576392E0,-1.2426134E-2,3.051825E0,3.495718E-3,-7.253431E-1,-1.4885399E0,-8.0334127E-1],"split_indices":[79,1,55,3,2,79,79,0,0,0,0,0,0,0,0],"split_type":[0,0,0,0,0,0,0,0,0,0,0,0,0,0,0],"sum_hessian":[1.2E3,1.192E3,8E0,5E0,3E0,1.157E3,3.5E1,3.4E1,1E0,1.156E3,1E0,4E0,1E0,2E0,1E0],"tree_param":{"num_deleted":"0","num_feature":"86","num_nodes":"15","size_leaf_vector":"1"}},{"base_weights":[-1.6830125E-1,-1.0277967E-1,-8.805875E0,-1.561523E-1,3.149005E1,2.9063268E0,8.839354E-2,-5.6776845E-1,-2.5226347E1,-1.4849543E-2,1.2453711E-1,1.9295125E-1,-4.7108266E-1,-1.4175715E0,-7.6504135E-1],"categories":[],"categories_nodes":[],"categories_segments":[],"categories_sizes":[],"default_left":[0,0,0,0,0,0,0,0,0,0,0,0,0,0,0],"id":27,"left_children":[1,3,7,9,5,-1,-1,11,13,-1,-1,-1,-1,-1,-1],"loss_changes":[6.7651953E2,1.9996577E3,1.2131648E3,5.0994363E2,1.7362026E3,0E0,0E0,2.588386E2,1.1646057E2,0E0,0E0,0E0,0E0,0E0,0E0],"parents":[2147483647,0,0,1,1,4,4,2,2,3,3,7,7,8,8],"right_children":[2,4,8,10,6,-1,-1,12,14,-1,-1,-1,-1,-1,-1],"split_conditions":[3.3E1,2.9E1,9E0,1.5E1,5E0,2.9063268E0,8.839354E-2,1.1E1,5E0,-1.4849543E-2,1.2453711E-1,1.9295125E-1,-4.7108266E-1,-1.4175715E0,-7.6504135E-1],"split_indices":[79,79,55,80,0,0,0,12,2,0,0,0,0,0,0],"split_type":[0,0,0,0,0,0,0,0,0,0,0,0,0,0,0],"sum_hessian":[1.198E3,1.189E3,9E0,1.187E3,2E0,1E0,1E0,6E0,3E0,1.124E3,6.3E1,4E0,2E0,2E0,1E0],"tree_param":{"num_deleted":"0","num_feature":"86","num_nodes":"15","size_leaf_vector":"1"}},{"base_weights":[1.3905343E-1,-1.807253E-1,3.0422246E0,1.6097718E0,3.6241585E1,-1.3068467E-1,4.5197043E0,4.1844577E-2,8.5004103E-1,-2.4890408E-1,5.4967413E0,6.898547E-2,9.030243E-1,-1.417195E-2,4.0130556E-1],"categories":[],"categories_nodes":[],"categories_segments":[],"categories_sizes":[],"default_left":[0,0,0,0,0,0,0,0,0,0,0,0,0,0,0],"id":28,"left_children":[1,9,3,7,5,-1,-1,-1,-1,13,11,-1,-1,-1,-1],"loss_changes":[1.1321631E3,4.2414178E2,5.748027E3,1.3742976E3,1.142885E4,0E0,0E0,0E0,0E0,4.5320926E2,7.0437683E2,0E0,0E0,0E0,0E0],"parents":[2147483647,0,0,2,2,4,4,3,3,1,1,10,10,9,9],"right_children":[2,10,4,8,6,-1,-1,-1,-1,14,12,-1,-1,-1,-1],"split_conditions":[1.2E1,2.5E1,2.1E1,1.8E1,4E0,-1.3068467E-1,4.5197043E0,4.1844577E-2,8.5004103E-1,2.9E1,7E0,6.898547E-2,9.030243E-1,-1.417195E-2,4.0130556E-1],"split_indices":[74,54,79,31,11,0,0,0,0,2,68,0,0,0,0],"split_type":[0,0,0,0,0,0,0,0,0,0,0,0,0,0,0],"sum_hessian":[1.219E3,1.098E3,1.21E2,1.16E2,5E0,3E0,2E0,1.11E2,5E0,1.085E3,1.3E1,1E1,3E0,1.079E3,6E0],"tree_param":{"num_deleted":"0","num_feature":"86","num_nodes":"15","size_leaf_vector":"1"}},{"base_weights":[-5.4244407E-2,1.0715773E-3,-9.766225E0,-4.4117846E-2,2.7739977E1,2.552285E0,8.485497E-2,-2.5523401E1,2.0100691E0,-3.3399079E-3,7.494089E-1,-1.4573907E0,-7.2789174E-1,4.9060938E-1,-3.3110727E-2],"categories":[],"categories_nodes":[],"categories_segments":[],"categories_sizes":[],"default_left":[0,0,0,0,0,0,0,0,0,0,0,0,0,0,0],"id":29,"left_children":[1,3,7,9,5,-1,-1,11,13,-1,-1,-1,-1,-1,-1],"loss_changes":[6.640301E2,1.5414153E3,1.3028556E3,4.9775778E2,1.3299587E3,0E0,0E0,1.4755896E2,9.1177284E1,0E0,0E0,0E0,0E0,0E0,0E0],"parents":[2147483647,0,0,1,1,4,4,2,2,3,3,7,7,8,8],"right_children":[2,4,8,10,6,-1,-1,12,14,-1,-1,-1,-1,-1,-1],"split_conditions":[3.3E1,2.9E1,5E0,5.4E1,5E0,2.552285E0,8.485497E-2,5E0,2E0,-3.3399079E-3,7.494089E-1,-1.4573907E0,-7.2789174E-1,4.9060938E-1,-3.3110727E-2],"split_indices":[79,79,9,2,0,0,0,2,0,0,0,0,0,0,0],"split_type":[0,0,0,0,0,0,0,0,0,0,0,0,0,0,0],"sum_hessian":[1.233E3,1.226E3,7E0,1.224E3,2E0,1E0,1E0,3E0,4E0,1.222E3,2E0,2E0,1E0,1E0,3E0],"tree_param":{"num_deleted":"0","num_feature":"86","num_nodes":"15","size_leaf_vector":"1"}},{"base_weights":[-3.3611745E-2,-3.006138E-1,2.2273684E0,7.7906156E-1,1.4112239E1,2.5871444E-1,6.048244E0,1.9260602E-2,1.0435349E0,-1.0346124E0,4.2023525E-2,-5.2216563E-2,9.4524044E-1,-3.724441E-3,1.2583037E-1],"categories":[],"categories_nodes":[],"categories_segments":[],"categories_sizes":[],"default_left":[0,0,0,0,0,0,0,0,0,0,0,0,0,0,0],"id":30,"left_children":[1,9,3,7,5,-1,-1,-1,-1,11,13,-1,-1,-1,-1],"loss_changes":[7.373835E2,2.7504987E2,2.2179863E3,9.0678424E2,1.3688098E4,0E0,0E0,0E0,0E0,4.3679068E2,2.3288982E2,0E0,0E0,0E0,0E0],"parents":[2147483647,0,0,2,2,4,4,3,3,1,1,9,9,10,10],"right_children":[2,10,4,8,6,-1,-1,-1,-1,12,14,-1,-1,-1,-1],"split_conditions":[1.2E1,3E0,1.3E1,2.9E1,9E0,2.5871444E-1,6.048244E0,1.9260602E-2,1.0435349E0,3.2E1,1.7E1,-5.2216563E-2,9.4524044E-1,-3.724441E-3,1.2583037E-1],"split_indices":[53,67,52,80,14,0,0,0,0,40,34,0,0,0,0],"split_type":[0,0,0,0,0,0,0,0,0,0,0,0,0,0,0],"sum_hessian":[1.222E3,1.093E3,1.29E2,1.15E2,1.4E1,1.3E1,1E0,1.13E2,2E0,3.48E2,7.45E2,3.47E2,1E0,7.12E2,3.3E1],"tree_param":{"num_deleted":"0","num_feature":"86","num_nodes":"15","size_leaf_vector":"1"}},{"base_weights":[6.9904126E-2,-2.7478936E-1,2.1410556E0,1.4702302E0,3.9651325E1,5.759889E0,-4.0329587E-2,1.9774796E-2,2.9222882E-1,-6.013002E-1,8.6228E-1,3.5168264E-2,7.1163446E-1,-3.0302934E-2,6.179371E-1],"categories":[],"categories_nodes":[],"categories_segments":[],"categories_sizes":[],"default_left":[0,0,0,0,0,0,0,0,0,0,0,0,0,0,0],"id":31,"left_children":[1,9,3,7,5,-1,-1,-1,-1,13,11,-1,-1,-1,-1],"loss_changes":[8.5557837E2,3.8124615E2,4.2959883E3,8.250513E2,9.880227E3,0E0,0E0,0E0,0E0,3.6900592E2,3.9882736E2,0E0,0E0,0E0,0E0],"parents":[2147483647,0,0,2,2,4,4,3,3,1,1,10,10,9,9],"right_children":[2,10,4,8,6,-1,-1,-1,-1,14,12,-1,-1,-1,-1],"split_conditions":[1E1,7E0,2.1E1,1E1,2E0,5.759889E0,-4.0329587E-2,1.9774796E-2,2.9222882E-1,4E1,3.2E1,3.5168264E-2,7.1163446E-1,-3.0302934E-2,6.179371E-1],"split_indices":[74,80,79,19,0,0,0,0,0,20,43,0,0,0,0],"split_type":[0,0,0,0,0,0,0,0,0,0,0,0,0,0,0],"sum_hessian":[1.198E3,1.027E3,1.71E2,1.68E2,3E0,1E0,2E0,1.37E2,3.1E1,7.98E2,2.29E2,2.27E2,2E0,7.96E2,2E0],"tree_param":{"num_deleted":"0","num_feature":"86","num_nodes":"15","size_leaf_vector":"1"}},{"base_weights":[-2.9278971E-2,-2.9724243E-1,2.4468338E0,1.1388065E0,3.197473E1,-9.861322E-2,3.963023E0,2.4180282E-2,5.900144E-1,-3.663795E-1,7.996019E0,6.37555E-2,1.0135151E0,-1.5064917E-2,-4.4708246E-1],"categories":[],"categories_nodes":[],"categories_segments":[],"categories_sizes":[],"default_left":[0,0,0,0,0,0,0,0,0,0,0,0,0,0,0],"id":32,"left_children":[1,9,3,7,5,-1,-1,-1,-1,13,11,-1,-1,-1,-1],"loss_changes":[8.018224E2,6.242766E2,4.5520273E3,7.998524E2,8.719629E3,0E0,0E0,0E0,0E0,4.8979224E2,7.910047E2,0E0,0E0,0E0,0E0],"parents":[2147483647,0,0,2,2,4,4,3,3,1,1,10,10,9,9],"right_children":[2,10,4,8,6,-1,-1,-1,-1,14,12,-1,-1,-1,-1],"split_conditions":[1.2E1,2.8E1,1.9E1,1.7E1,4E0,-9.861322E-2,3.963023E0,2.4180282E-2,5.900144E-1,3.3E1,7E0,6.37555E-2,1.0135151E0,-1.5064917E-2,-4.4708246E-1],"split_indices":[74,45,79,31,11,0,0,0,0,79,37,0,0,0,0],"split_type":[0,0,0,0,0,0,0,0,0,0,0,0,0,0,0],"sum_hessian":[1.209E3,1.091E3,1.18E2,1.13E2,5E0,3E0,2E0,1.07E2,6E0,1.082E3,9E0,6E0,3E0,1.076E3,6E0],"tree_param":{"num_deleted":"0","num_feature":"86","num_nodes":"15","size_leaf_vector":"1"}},{"base_weights":[-1.482951E-2,-1.1624147E-1,6.1781664E0,6.4768445E-1,5.296341E0,-1.02320574E-1,1.1670429E0,-8.916705E-1,2.3981276E-1,1.01159E-2,1.1063612E0,-5.2602258E-2,2.0584236E-1],"categories":[],"categories_nodes":[],"categories_segments":[],"categories_sizes":[],"default_left":[0,0,0,0,0,0,0,0,0,0,0,0,0],"id":33,"left_children":[1,7,3,5,-1,-1,-1,11,9,-1,-1,-1,-1],"loss_changes":[7.796477E2,3.377726E2,1.1585376E4,1.2686926E3,0E0,0E0,0E0,4.238888E2,5.2798627E2,0E0,0E0,0E0,0E0],"parents":[2147483647,0,0,2,2,3,3,1,1,8,8,7,7],"right_children":[2,8,4,6,-1,-1,-1,12,10,-1,-1,-1,-1],"split_conditions":[2.3E1,3E0,1.5E1,1E1,5.296341E0,-1.02320574E-1,1.1670429E0,1.5E1,6.4E1,1.01159E-2,1.1063612E0,-5.2602258E-2,2.0584236E-1],"split_indices":[79,70,1,11,0,0,0,75,45,0,0,0,0],"split_type":[0,0,0,0,0,0,0,0,0,0,0,0,0],"sum_hessian":[1.243E3,1.223E3,2E1,1.9E1,1E0,1.7E1,2E0,3.85E2,8.38E2,8.37E2,1E0,3.7E2,1.5E1],"tree_param":{"num_deleted":"0","num_feature":"86","num_nodes":"13","size_leaf_vector":"1"}},{"base_weights":[1.5049522E-2,7.942483E-2,-9.708885E0,-4.2216778E-2,1.3364542E1,-2.4791515E-2,3.620004E0,-2.8783016E1,1.702343E0,-1.5557772E-2,4.9426403E-2,-1.1433614E0,-1.8221599E0,4.9503472E-1,-2.0320393E-2],"categories":[],"categories_nodes":[],"categories_segments":[],"categories_sizes":[],"default_left":[0,0,0,0,0,0,0,0,0,0,0,0,0,0,0],"id":34,"left_children":[1,3,7,9,5,-1,-1,11,13,-1,-1,-1,-1,-1,-1],"loss_changes":[7.614656E2,1.9592252E3,1.7457971E3,3.6769983E2,9.567817E3,0E0,0E0,1.25525635E2,9.404759E1,0E0,0E0,0E0,0E0,0E0,0E0],"parents":[2147483647,0,0,1,1,4,4,2,2,3,3,7,7,8,8],"right_children":[2,4,8,10,6,-1,-1,12,14,-1,-1,-1,-1,-1,-1],"split_conditions":[3.3E1,2.3E1,5E0,8E0,9E0,-2.4791515E-2,3.620004E0,4E0,2E0,-1.5557772E-2,4.9426403E-2,-1.1433614E0,-1.8221599E0,4.9503472E-1,-2.0320393E-2],"split_indices":[79,79,9,69,12,0,0,0,0,0,0,0,0,0,0],"split_type":[0,0,0,0,0,0,0,0,0,0,0,0,0,0,0],"sum_hessian":[1.219E3,1.211E3,8E0,1.2E3,1.1E1,9E0,2E0,3E0,5E0,9.5E2,2.5E2,2E0,1E0,1E0,4E0],"tree_param":{"num_deleted":"0","num_feature":"86","num_nodes":"15","size_leaf_vector":"1"}},{"base_weights":[-1.3272868E-2,3.7952796E-2,-8.877143E0,-6.638549E-2,8.94841E0,-7.617302E-2,3.447415E0,-1.4492157E0,-2.7363308E1,-7.8013567E-3,1.3039291E-1,-8.659364E-1,-1.735287E0,1.2547429E-1,-3.6492017E-1],"categories":[],"categories_nodes":[],"categories_segments":[],"categories_sizes":[],"default_left":[0,0,0,0,0,0,0,0,0,0,0,0,0,0,0],"id":35,"left_children":[1,3,7,9,5,-1,-1,13,11,-1,-1,-1,-1,-1,-1],"loss_changes":[5.5315393E2,1.1245609E3,9.563959E2,3.2482587E2,9.36648E3,0E0,0E0,1.2744585E2,1.571134E2,0E0,0E0,0E0,0E0,0E0,0E0],"parents":[2147483647,0,0,1,1,4,4,2,2,3,3,8,8,7,7],"right_children":[2,4,8,10,6,-1,-1,14,12,-1,-1,-1,-1,-1,-1],"split_conditions":[3.5E1,2.3E1,8E0,1.8E1,1.1E1,-7.617302E-2,3.447415E0,4E0,4E0,-7.8013567E-3,1.3039291E-1,-8.659364E-1,-1.735287E0,1.2547429E-1,-3.6492017E-1],"split_indices":[79,79,1,31,12,0,0,1,0,0,0,0,0,0,0],"split_type":[0,0,0,0,0,0,0,0,0,0,0,0,0,0,0],"sum_hessian":[1.215E3,1.208E3,7E0,1.194E3,1.4E1,1.2E1,2E0,5E0,2E0,1.154E3,4E1,1E0,1E0,3E0,2E0],"tree_param":{"num_deleted":"0","num_feature":"86","num_nodes":"15","size_leaf_vector":"1"}},{"base_weights":[7.3846005E-2,-1.9153158E-1,2.5940673E0,1.3714986E0,4.7773083E1,4.706888E0,1.0590594E0,3.303036E-2,6.303405E-1,-2.3859917E-1,8.221427E0,-8.8516725E-3,7.954466E-1,-1.3383346E-2,4.1706264E-1],"categories":[],"categories_nodes":[],"categories_segments":[],"categories_sizes":[],"default_left":[0,0,0,0,0,0,0,0,0,0,0,0,0,0,0],"id":36,"left_children":[1,9,3,7,5,-1,-1,-1,-1,13,11,-1,-1,-1,-1],"loss_changes":[8.002976E2,4.271168E2,6.288532E3,8.9038025E2,3.88673E3,0E0,0E0,0E0,0E0,4.0574316E2,4.2962732E2,0E0,0E0,0E0,0E0],"parents":[2147483647,0,0,2,2,4,4,3,3,1,1,10,10,9,9],"right_children":[2,10,4,8,6,-1,-1,-1,-1,14,12,-1,-1,-1,-1],"split_conditions":[1.2E1,3.3E1,2.1E1,1.8E1,2E0,4.706888E0,1.0590594E0,3.303036E-2,6.303405E-1,3.6E1,5E0,-8.8516725E-3,7.954466E-1,-1.3383346E-2,4.1706264E-1],"split_indices":[74,66,79,31,0,0,0,0,0,20,3,0,0,0,0],"split_type":[0,0,0,0,0,0,0,0,0,0,0,0,0,0,0],"sum_hessian":[1.196E3,1.082E3,1.14E2,1.11E2,3E0,1E0,2E0,1.05E2,6E0,1.076E3,6E0,3E0,3E0,1.071E3,5E0],"tree_param":{"num_deleted":"0","num_feature":"86","num_nodes":"15","size_leaf_vector":"1"}},{"base_weights":[-1.8817805E-1,-1.2064126E-1,-9.257072E0,1.0646798E-1,-2.8039557E1,-1.5291467E-1,1.930499E1,1.8006864E0,3.2152347E-2,-2.083914E-2,4.5986604E-2,2.8019494E-1,-2.6739287E-1,-1.5892726E0,-8.2401407E-1],"categories":[],"categories_nodes":[],"categories_segments":[],"categories_sizes":[],"default_left":[0,0,0,0,0,0,0,0,0,0,0,0,0,0,0],"id":37,"left_children":[1,5,3,11,13,9,7,-1,-1,-1,-1,-1,-1,-1,-1],"loss_changes":[7.4566675E2,7.560205E2,1.5874978E3,1.979111E2,1.6239331E2,3.8383215E2,6.8156525E2,0E0,0E0,0E0,0E0,0E0,0E0,0E0,0E0],"parents":[2147483647,0,0,2,2,1,1,6,6,5,5,3,3,4,4],"right_children":[2,6,4,12,14,10,8,-1,-1,-1,-1,-1,-1,-1,-1],"split_conditions":[3.3E1,2.9E1,9E0,3E0,5E0,8E0,5E0,1.8006864E0,3.2152347E-2,-2.083914E-2,4.5986604E-2,2.8019494E-1,-2.6739287E-1,-1.5892726E0,-8.2401407E-1],"split_indices":[79,79,55,1,2,69,0,0,0,0,0,0,0,0,0],"split_type":[0,0,0,0,0,0,0,0,0,0,0,0,0,0,0],"sum_hessian":[1.22E3,1.211E3,9E0,6E0,3E0,1.209E3,2E0,1E0,1E0,9.64E2,2.45E2,3E0,3E0,2E0,1E0],"tree_param":{"num_deleted":"0","num_feature":"86","num_nodes":"15","size_leaf_vector":"1"}},{"base_weights":[-1.4542419E-1,-8.0359556E-2,-8.816612E0,1.0006711E-1,-2.6705383E1,-1.7673375E-1,8.0857525E0,6.965651E-2,4.4834776E0,-3.445993E-2,1.5491869E-2,2.6683617E-1,-2.5464445E-1,-1.5135018E0,-7.8472847E-1],"categories":[],"categories_nodes":[],"categories_segments":[],"categories_sizes":[],"default_left":[0,0,0,0,0,0,0,0,0,0,0,0,0,0,0],"id":38,"left_children":[1,5,3,11,13,9,7,-1,-1,-1,-1,-1,-1,-1,-1],"loss_changes":[6.817476E2,9.4465814E2,1.4400168E3,1.7949107E2,1.4685303E2,3.2549667E2,7.955881E3,0E0,0E0,0E0,0E0,0E0,0E0,0E0,0E0],"parents":[2147483647,0,0,2,2,1,1,6,6,5,5,3,3,4,4],"right_children":[2,6,4,12,14,10,8,-1,-1,-1,-1,-1,-1,-1,-1],"split_conditions":[3.3E1,2.3E1,9E0,3E0,5E0,4E0,1.5E1,6.965651E-2,4.4834776E0,-3.445993E-2,1.5491869E-2,2.6683617E-1,-2.5464445E-1,-1.5135018E0,-7.8472847E-1],"split_indices":[79,79,55,1,2,70,1,0,0,0,0,0,0,0,0],"split_type":[0,0,0,0,0,0,0,0,0,0,0,0,0,0,0],"sum_hessian":[1.211E3,1.202E3,9E0,6E0,3E0,1.188E3,1.4E1,1.3E1,1E0,5.69E2,6.19E2,3E0,3E0,2E0,1E0],"tree_param":{"num_deleted":"0","num_feature":"86","num_nodes":"15","size_leaf_vector":"1"}},{"base_weights":[-2.9625276E-2,-2.119367E-1,1.7488468E0,1.0036874E0,1.7959875E1,-5.6666315E-1,2.9946373E0,1.6552547E-2,5.838494E-1,-9.298223E-1,1.5851551E-1,5.214934E-3,8.609755E-1,-4.6708163E-2,8.4615123E-1],"categories":[],"categories_nodes":[],"categories_segments":[],"categories_sizes":[],"default_left":[0,0,0,0,0,0,0,0,0,0,0,0,0,0,0],"id":39,"left_children":[1,9,3,7,5,-1,-1,-1,-1,13,11,-1,-1,-1,-1],"loss_changes":[3.9758102E2,2.961224E2,1.373935E3,8.0238477E2,6.7014844E3,0E0,0E0,0E0,0E0,3.5010242E2,6.4253845E2,0E0,0E0,0E0,0E0],"parents":[2147483647,0,0,2,2,4,4,3,3,1,1,10,10,9,9],"right_children":[2,10,4,8,6,-1,-1,-1,-1,14,12,-1,-1,-1,-1],"split_conditions":[1.2E1,3E0,1.9E1,1.8E1,5E0,-5.6666315E-1,2.9946373E0,1.6552547E-2,5.838494E-1,3.5E1,4E1,5.214934E-3,8.609755E-1,-4.6708163E-2,8.4615123E-1],"split_indices":[74,76,79,31,12,0,0,0,0,57,18,0,0,0,0],"split_type":[0,0,0,0,0,0,0,0,0,0,0,0,0,0,0],"sum_hessian":[1.227E3,1.113E3,1.14E2,1.09E2,5E0,3E0,2E0,1.03E2,6E0,3.79E2,7.34E2,7.32E2,2E0,3.78E2,1E0],"tree_param":{"num_deleted":"0","num_feature":"86","num_nodes":"15","size_leaf_vector":"1"}},{"base_weights":[1.0522025E-1,1.6371807E-1,-7.6694384E0,1.0841802E0,-2.5232101E1,1.3624944E-1,1.5687444E0,-4.5147785E-3,1.0192751E-1,1.5935707E-1,-4.7868106E-1,-1.4267216E0,-7.4756455E-1],"categories":[],"categories_nodes":[],"categories_segments":[],"categories_sizes":[],"default_left":[0,0,0,0,0,0,0,0,0,0,0,0,0],"id":40,"left_children":[1,5,3,9,11,7,-1,-1,-1,-1,-1,-1,-1],"loss_changes":[5.481476E2,1.0727714E3,1.3876636E3,1.4961185E2,1.2685828E2,5.54131E2,0E0,0E0,0E0,0E0,0E0,0E0,0E0],"parents":[2147483647,0,0,2,2,1,1,5,5,3,3,4,4],"right_children":[2,6,4,10,12,8,-1,-1,-1,-1,-1,-1,-1],"split_conditions":[3.2E1,2.9E1,9E0,6E0,5E0,1.2E1,1.5687444E0,-4.5147785E-3,1.0192751E-1,1.5935707E-1,-4.7868106E-1,-1.4267216E0,-7.4756455E-1],"split_indices":[79,79,55,0,2,53,0,0,0,0,0,0,0],"split_type":[0,0,0,0,0,0,0,0,0,0,0,0,0],"sum_hessian":[1.208E3,1.199E3,9E0,6E0,3E0,1.198E3,1E0,1.074E3,1.24E2,5E0,1E0,2E0,1E0],"tree_param":{"num_deleted":"0","num_feature":"86","num_nodes":"13","size_leaf_vector":"1"}},{"base_weights":[-1.586653E-2,3.0735377E-2,-8.141728E0,-2.2201848E0,-2.2861975E1,-5.4418385E-1,5.6844485E-1,-2.869964E-2,7.7713597E-1,2.5621332E-2,9.488837E-1,9.523806E-2,-4.1145933E-1,-7.119238E-1,-1.460084E0],"categories":[],"categories_nodes":[],"categories_segments":[],"categories_sizes":[],"default_left":[0,0,0,0,0,0,0,0,0,0,0,0,0,0,0],"id":41,"left_children":[1,5,3,11,13,7,9,-1,-1,-1,-1,-1,-1,-1,-1],"loss_changes":[4.6485754E2,3.7622687E2,6.05985E2,1.3628445E2,1.155011E2,5.6959595E2,3.742233E2,0E0,0E0,0E0,0E0,0E0,0E0,0E0,0E0],"parents":[2147483647,0,0,2,2,1,1,5,5,6,6,3,3,4,4],"right_children":[2,6,4,12,14,8,10,-1,-1,-1,-1,-1,-1,-1,-1],"split_conditions":[3.5E1,4E0,8E0,4E0,4E0,2.9E1,5.4E1,-2.869964E-2,7.7713597E-1,2.5621332E-2,9.488837E-1,9.523806E-2,-4.1145933E-1,-7.119238E-1,-1.460084E0],"split_indices":[79,66,1,1,0,79,17,0,0,0,0,0,0,0,0],"split_type":[0,0,0,0,0,0,0,0,0,0,0,0,0,0,0],"sum_hessian":[1.224E3,1.217E3,7E0,5E0,2E0,5.88E2,6.29E2,5.86E2,2E0,6.28E2,1E0,3E0,2E0,1E0,1E0],"tree_param":{"num_deleted":"0","num_feature":"86","num_nodes":"15","size_leaf_vector":"1"}},{"base_weights":[-3.658458E-2,3.0541109E-2,-6.7965956E0,-4.108936E-2,1.0778008E1,-6.7052944E-4,4.123461E0,2.746833E0,-1.3637134E1,-1.3424205E0,-3.716877E-1,-7.1341773E-3,1.476628E-1,3.1642434E-1,4.667388E-3],"categories":[],"categories_nodes":[],"categories_segments":[],"categories_sizes":[],"default_left":[0,0,0,0,0,0,0,0,0,0,0,0,0,0,0],"id":42,"left_children":[1,3,7,11,5,-1,-1,13,9,-1,-1,-1,-1,-1,-1],"loss_changes":[5.538205E2,9.3022485E2,7.852051E2,4.0759683E2,6.550907E3,0E0,0E0,5.0398838E1,5.876743E2,0E0,0E0,0E0,0E0,0E0,0E0],"parents":[2147483647,0,0,1,1,4,4,2,2,8,8,3,3,7,7],"right_children":[2,4,8,12,6,-1,-1,14,10,-1,-1,-1,-1,-1,-1],"split_conditions":[2.8E1,2.3E1,4E0,1.8E1,1.3E1,-6.7052944E-4,4.123461E0,3E0,3E0,-1.3424205E0,-3.716877E-1,-7.1341773E-3,1.476628E-1,3.1642434E-1,4.667388E-3],"split_indices":[79,79,44,84,1,0,0,0,19,0,0,0,0,0,0],"split_type":[0,0,0,0,0,0,0,0,0,0,0,0,0,0,0],"sum_hessian":[1.218E3,1.206E3,1.2E1,1.198E3,8E0,7E0,1E0,5E0,7E0,2E0,5E0,1.158E3,4E1,2E0,3E0],"tree_param":{"num_deleted":"0","num_feature":"86","num_nodes":"15","size_leaf_vector":"1"}},{"base_weights":[6.3820467E-3,6.6949934E-2,-7.3056374E0,-7.493143E-1,-2.2547993E1,-4.822431E-4,8.175463E0,-2.3546782E-3,3.9268703E0,-1.2823177E-2,4.7618836E-2,2.4068429E-1,-2.4501999E-1,-1.2784185E0,-6.6026175E-1],"categories":[],"categories_nodes":[],"categories_segments":[],"categories_sizes":[],"default_left":[0,0,0,0,0,0,0,0,0,0,0,0,0,0,0],"id":43,"left_children":[1,5,3,11,13,9,7,-1,-1,-1,-1,-1,-1,-1,-1],"loss_changes":[5.390988E2,6.6296045E2,9.954556E2,1.7816772E2,1.04547E2,3.21811E2,6.115619E3,0E0,0E0,0E0,0E0,0E0,0E0,0E0,0E0],"parents":[2147483647,0,0,2,2,1,1,6,6,5,5,3,3,4,4],"right_children":[2,6,4,12,14,10,8,-1,-1,-1,-1,-1,-1,-1,-1],"split_conditions":[2.8E1,2.3E1,9E0,3E0,5E0,8E0,1.3E1,-2.3546782E-3,3.9268703E0,-1.2823177E-2,4.7618836E-2,2.4068429E-1,-2.4501999E-1,-1.2784185E0,-6.6026175E-1],"split_indices":[79,79,55,1,2,74,1,0,0,0,0,0,0,0,0],"split_type":[0,0,0,0,0,0,0,0,0,0,0,0,0,0,0],"sum_hessian":[1.22E3,1.21E3,1E1,7E0,3E0,1.2E3,1E1,9E0,1E0,9.46E2,2.54E2,3E0,4E0,2E0,1E0],"tree_param":{"num_deleted":"0","num_feature":"86","num_nodes":"15","size_leaf_vector":"1"}},{"base_weights":[-2.747386E-2,-3.0248308E-1,1.5629346E0,8.036322E-1,7.2316756E0,1.7463988E-1,3.7396533E0,2.4640836E-2,7.375937E-1,-2.6176187E-1,-1.07057085E1,-6.571227E-2,-9.511413E-1,-4.9562704E-2,5.806785E-3],"categories":[],"categories_nodes":[],"categories_segments":[],"categories_sizes":[],"default_left":[0,0,0,0,0,0,0,0,0,0,0,0,0,0,0],"id":44,"left_children":[1,9,3,7,5,-1,-1,-1,-1,13,11,-1,-1,-1,-1],"loss_changes":[5.281413E2,4.3451196E2,7.6482355E2,6.577643E2,5.3226416E3,0E0,0E0,0E0,0E0,3.062338E2,3.4133322E2,0E0,0E0,0E0,0E0],"parents":[2147483647,0,0,2,2,4,4,3,3,1,1,10,10,9,9],"right_children":[2,10,4,8,6,-1,-1,-1,-1,14,12,-1,-1,-1,-1],"split_conditions":[1E1,2.9E1,1.3E1,2.8E1,1E1,1.7463988E-1,3.7396533E0,2.4640836E-2,7.375937E-1,3E0,8E0,-6.571227E-2,-9.511413E-1,-4.9562704E-2,5.806785E-3],"split_indices":[67,79,37,69,79,0,0,0,0,76,1,0,0,0,0],"split_type":[0,0,0,0,0,0,0,0,0,0,0,0,0,0,0],"sum_hessian":[1.208E3,1.03E3,1.78E2,1.57E2,2.1E1,2E1,1E0,1.54E2,3E0,1.026E3,4E0,2E0,2E0,3.39E2,6.87E2],"tree_param":{"num_deleted":"0","num_feature":"86","num_nodes":"15","size_leaf_vector":"1"}},{"base_weights":[1.7474127E-3,-2.8071892E-1,1.0585848E0,8.0581284E-1,1.3562653E1,2.5272567E0,-6.044852E-1,2.7522627E-2,5.663832E-1,-3.4784198E-1,4.9297853E0,6.23695E-1,-4.143951E-2,-1.8468058E-2,4.1944107E-1],"categories":[],"categories_nodes":[],"categories_segments":[],"categories_sizes":[],"default_left":[0,0,0,0,0,0,0,0,0,0,0,0,0,0,0],"id":45,"left_children":[1,9,3,7,5,-1,-1,-1,-1,13,11,-1,-1,-1,-1],"loss_changes":[3.580564E2,3.300948E2,7.972555E2,6.2556506E2,5.1822324E3,0E0,0E0,0E0,0E0,3.3612143E2,5.69304E2,0E0,0E0,0E0,0E0],"parents":[2147483647,0,0,2,2,4,4,3,3,1,1,10,10,9,9],"right_children":[2,10,4,8,6,-1,-1,-1,-1,14,12,-1,-1,-1,-1],"split_conditions":[8E0,2.8E1,2.2E1,2.1E1,4E0,2.5272567E0,-6.044852E-1,2.7522627E-2,5.663832E-1,3.3E1,4E0,6.23695E-1,-4.143951E-2,-1.8468058E-2,4.1944107E-1],"split_indices":[74,45,79,42,2,0,0,0,0,65,77,0,0,0,0],"split_type":[0,0,0,0,0,0,0,0,0,0,0,0,0,0,0],"sum_hessian":[1.199E3,9.46E2,2.53E2,2.48E2,5E0,2E0,3E0,2.43E2,5E0,9.34E2,1.2E1,5E0,7E0,9.3E2,4E0],"tree_param":{"num_deleted":"0","num_feature":"86","num_nodes":"15","size_leaf_vector":"1"}},{"base_weights":[-7.645939E-2,-4.4198528E-1,8.1949383E-1,6.279721E-1,3.377314E1,-6.933398E-3,2.8909546E-1,2.380487E0,8.31933E-1,-4.0745386E-1,-1.5016984E1,-2.966272E-2,4.9996138E-2,-1.191357E0,-2.3260747E-1],"categories":[],"categories_nodes":[],"categories_segments":[],"categories_sizes":[],"default_left":[0,0,0,0,0,0,0,0,0,0,0,0,0,0,0],"id":46,"left_children":[1,9,3,5,7,-1,-1,-1,-1,11,13,-1,-1,-1,-1],"loss_changes":[3.9227502E2,4.2573212E2,2.184298E3,1.4513313E3,5.1620874E2,0E0,0E0,0E0,0E0,2.6535083E2,1.9719531E2,0E0,0E0,0E0,0E0],"parents":[2147483647,0,0,2,2,3,3,4,4,1,1,9,9,10,10],"right_children":[2,10,4,6,8,-1,-1,-1,-1,12,14,-1,-1,-1,-1],"split_conditions":[6E0,4E1,2.3E1,1.2E1,5E0,-6.933398E-3,2.8909546E-1,2.380487E0,8.31933E-1,1E1,9E0,-2.966272E-2,4.9996138E-2,-1.191357E0,-2.3260747E-1],"split_indices":[58,74,31,53,0,0,0,0,0,75,0,0,0,0,0],"split_type":[0,0,0,0,0,0,0,0,0,0,0,0,0,0,0],"sum_hessian":[1.198E3,8.51E2,3.47E2,3.45E2,2E0,3.02E2,4.3E1,1E0,1E0,8.49E2,2E0,7.4E2,1.09E2,1E0,1E0],"tree_param":{"num_deleted":"0","num_feature":"86","num_nodes":"15","size_leaf_vector":"1"}},{"base_weights":[9.832152E-3,-8.7782286E-2,3.2004883E0,2.2681876E-1,7.8614774E0,1.8900129E-1,8.373501E-1,-2.7263686E-1,1.5666625E0,2.4039213E-2,6.209695E-1,-2.4267642E-2,4.453857E-2,1.9723728E-1,-5.8597982E-2],"categories":[],"categories_nodes":[],"categories_segments":[],"categories_sizes":[],"default_left":[0,0,0,0,0,0,0,0,0,0,0,0,0,0,0],"id":47,"left_children":[1,7,3,13,5,-1,-1,11,9,-1,-1,-1,-1,-1,-1],"loss_changes":[3.7768997E2,3.591365E2,4.9762036E2,1.25723335E2,5.2573987E2,0E0,0E0,3.0143167E2,1.4342045E3,0E0,0E0,0E0,0E0,0E0,0E0],"parents":[2147483647,0,0,2,2,4,4,1,1,8,8,7,7,3,3],"right_children":[2,8,4,14,6,-1,-1,12,10,-1,-1,-1,-1,-1,-1],"split_conditions":[1.8E1,1.2E1,6E0,3E0,8E0,1.8900129E-1,8.373501E-1,9E0,1.4E1,2.4039213E-2,6.209695E-1,-2.4267642E-2,4.453857E-2,1.9723728E-1,-5.8597982E-2],"split_indices":[84,85,4,61,67,0,0,69,14,0,0,0,0,0,0],"split_type":[0,0,0,0,0,0,0,0,0,0,0,0,0,0,0],"sum_hessian":[1.211E3,1.175E3,3.6E1,2.2E1,1.4E1,1E1,4E0,1.057E3,1.18E2,1.08E2,1E1,8.84E2,1.73E2,6E0,1.6E1],"tree_param":{"num_deleted":"0","num_feature":"86","num_nodes":"15","size_leaf_vector":"1"}},{"base_weights":[-1.2111613E-1,-7.075909E-2,-6.308412E0,-2.893633E-1,-2.0297144E1,-9.6054494E-2,1.5402329E1,1.3672119E0,9.349642E-2,-6.498906E-2,4.446155E-3,1.1692938E-1,-3.4458143E-1,-1.1519612E0,-5.912366E-1],"categories":[],"categories_nodes":[],"categories_segments":[],"categories_sizes":[],"default_left":[0,0,0,0,0,0,0,0,0,0,0,0,0,0,0],"id":48,"left_children":[1,5,3,11,13,9,7,-1,-1,-1,-1,-1,-1,-1,-1],"loss_changes":[3.8591113E2,4.7965036E2,8.385581E2,1.3396019E2,8.544275E1,2.9524637E2,3.5173776E2,0E0,0E0,0E0,0E0,0E0,0E0,0E0,0E0],"parents":[2147483647,0,0,2,2,1,1,6,6,5,5,3,3,4,4],"right_children":[2,6,4,12,14,10,8,-1,-1,-1,-1,-1,-1,-1,-1],"split_conditions":[3.3E1,2.9E1,9E0,1.1E1,5E0,2E0,5E0,1.3672119E0,9.349642E-2,-6.498906E-2,4.446155E-3,1.1692938E-1,-3.4458143E-1,-1.1519612E0,-5.912366E-1],"split_indices":[79,79,55,12,2,82,0,0,0,0,0,0,0,0,0],"split_type":[0,0,0,0,0,0,0,0,0,0,0,0,0,0,0],"sum_hessian":[1.242E3,1.232E3,1E1,7E0,3E0,1.23E3,2E0,1E0,1E0,1.6E2,1.07E3,5E0,2E0,2E0,1E0],"tree_param":{"num_deleted":"0","num_feature":"86","num_nodes":"15","size_leaf_vector":"1"}},{"base_weights":[-4.766224E-3,-1.855379E-1,1.7838773E0,6.268732E-1,1.3684309E1,3.4655336E-1,3.3972728E0,2.0525752E-2,9.768125E-1,-2.1948303E-1,9.234918E0,-1.181171E-2,3.6178082E-1,1.0256068E-1,7.7404755E-1],"categories":[],"categories_nodes":[],"categories_segments":[],"categories_sizes":[],"default_left":[0,0,0,0,0,0,0,0,0,0,0,0,0,0,0],"id":49,"left_children":[1,9,3,7,5,-1,-1,-1,-1,11,13,-1,-1,-1,-1],"loss_changes":[3.9808356E2,3.5632907E2,1.5534935E3,3.982015E2,3.6804336E3,0E0,0E0,0E0,0E0,2.4479788E2,1.9528766E2,0E0,0E0,0E0,0E0],"parents":[2147483647,0,0,2,2,4,4,3,3,1,1,9,9,10,10],"right_children":[2,10,4,8,6,-1,-1,-1,-1,12,14,-1,-1,-1,-1],"split_conditions":[1.2E1,3.5E1,1.3E1,2.8E1,1.2E1,3.4655336E-1,3.3972728E0,2.0525752E-2,9.768125E-1,3.6E1,8E0,-1.181171E-2,3.6178082E-1,1.0256068E-1,7.7404755E-1],"split_indices":[53,17,52,2,12,0,0,0,0,40,3,0,0,0,0],"split_type":[0,0,0,0,0,0,0,0,0,0,0,0,0,0,0],"sum_hessian":[1.232E3,1.119E3,1.13E2,1.03E2,1E1,9E0,1E0,1.02E2,1E0,1.115E3,4E0,1.111E3,4E0,2E0,2E0],"tree_param":{"num_deleted":"0","num_feature":"86","num_nodes":"15","size_leaf_vector":"1"}},{"base_weights":[-3.96951E-2,3.3629648E-3,-5.842337E0,-9.757589E-2,3.1182592E0,3.6346757E-1,2.3039501E-2,-3.7215877E0,-1.0794591E0,-1.4696644E-2,4.815983E-2,-1.0441143E-1,-3.9252523E-1],"categories":[],"categories_nodes":[],"categories_segments":[],"categories_sizes":[],"default_left":[0,0,0,0,0,0,0,0,0,0,0,0,0],"id":50,"left_children":[1,3,7,9,5,-1,-1,11,-1,-1,-1,-1,-1],"loss_changes":[3.052916E2,3.806303E2,3.1623477E2,2.73156E2,4.49763E2,0E0,0E0,5.353969E1,0E0,0E0,0E0,0E0,0E0],"parents":[2147483647,0,0,1,1,4,4,2,2,3,3,7,7],"right_children":[2,4,8,10,6,-1,-1,12,-1,-1,-1,-1,-1],"split_conditions":[2.9E1,1.8E1,7E0,9E0,4E0,3.6346757E-1,2.3039501E-2,1.1E1,-1.0794591E0,-1.4696644E-2,4.815983E-2,-1.0441143E-1,-3.9252523E-1],"split_indices":[61,84,1,69,35,0,0,27,0,0,0,0,0],"split_type":[0,0,0,0,0,0,0,0,0,0,0,0,0],"sum_hessian":[1.218E3,1.209E3,9E0,1.171E3,3.8E1,1.4E1,2.4E1,8E0,1E0,9.84E2,1.87E2,6E0,2E0],"tree_param":{"num_deleted":"0","num_feature":"86","num_nodes":"13","size_leaf_vector":"1"}},{"base_weights":[9.494024E-2,-7.798411E-1,5.1291674E-1,-8.398507E-1,1.0792469E0,2.3595366E-1,2.890927E0,8.82531E-2,9.394016E-1,-3.750106E-2,-1.027995E0,9.90351E-3,9.966868E-1],"categories":[],"categories_nodes":[],"categories_segments":[],"categories_sizes":[],"default_left":[0,0,0,0,0,0,0,0,0,0,0,0,0],"id":51,"left_children":[1,3,5,9,-1,11,7,-1,-1,-1,-1,-1,-1],"loss_changes":[4.4566827E2,5.500186E2,5.42841E2,4.302353E2,0E0,4.2772748E2,1.4999253E3,0E0,0E0,0E0,0E0,0E0,0E0],"parents":[2147483647,0,0,1,1,2,2,6,6,3,3,5,5],"right_children":[2,4,6,10,-1,12,8,-1,-1,-1,-1,-1,-1],"split_conditions":[3E0,2.9E1,1.2E1,3.7E1,1.0792469E0,6.4E1,1.4E1,8.82531E-2,9.394016E-1,-3.750106E-2,-1.027995E0,9.90351E-3,9.966868E-1],"split_indices":[85,80,74,10,0,45,50,0,0,0,0,0,0],"split_type":[0,0,0,0,0,0,0,0,0,0,0,0,0],"sum_hessian":[1.219E3,3.94E2,8.25E2,3.93E2,1E0,7.39E2,8.6E1,8.1E1,5E0,3.92E2,1E0,7.38E2,1E0],"tree_param":{"num_deleted":"0","num_feature":"86","num_nodes":"13","size_leaf_vector":"1"}}]},"name":"gbtree"},"learner_model_param":{"base_score":"5.5029354E0","boost_from_average":"1","num_class":"0","num_feature":"86","num_target":"1"},"objective":{"name":"reg:squarederror","reg_loss_param":{"scale_pos_weight":"1"}}},"version":[2,1,1]}