{"learner":{"attributes":{"best_iteration":"0","best_score":"12.789100364104076","scikit_learn":"{\"_estimator_type\": \"regressor\"}"},"feature_names":[],"feature_types":[],"gradient_booster":{"model":{"gbtree_model_param":{"num_parallel_tree":"1","num_trees":"51"},"iteration_indptr":[0,1,2,3,4,5,6,7,8,9,10,11,12,13,14,15,16,17,18,19,20,21,22,23,24,25,26,27,28,29,30,31,32,33,34,35,36,37,38,39,40,41,42,43,44,45,46,47,48,49,50,51],"tree_info":[0,0,0,0,0,0,0,0,0,0,0,0,0,0,0,0,0,0,0,0,0,0,0,0,0,0,0,0,0,0,0,0,0,0,0,0,0,0,0,0,0,0,0,0,0,0,0,0,0,0,0],"trees":[{"base_weights":[5.287953E-2,-3.397283E-1,3.516437E1,7.424289E0,1.2345475E2,3.311819E1,-2.834178E-1,-3.637036E-1,9.028443E0,-2.7617422E-1,2.1482417E-1],"categories":[],"categories_nodes":[],"categories_segments":[],"categories_sizes":[],"default_left":[0,0,0,0,0,0,0,0,0,0,0],"id":0,"left_children":[1,7,3,5,-1,-1,-1,9,-1,-1,-1],"loss_changes":[1.6275193E4,7.092181E2,1.134763E5,8.622818E3,0E0,0E0,0E0,4.7355023E2,0E0,0E0,0E0],"parents":[2147483647,0,0,2,2,3,3,1,1,7,7],"right_children":[2,8,4,6,-1,-1,-1,10,-1,-1,-1],"split_conditions":[2.3E1,1.05E2,1.2E1,2E0,1.2345475E2,3.311819E1,-2.834178E-1,6E0,9.028443E0,-2.7617422E-1,2.1482417E-1],"split_indices":[115,16,39,14,0,0,0,121,0,0,0],"split_type":[0,0,0,0,0,0,0,0,0,0,0],"sum_hessian":[1.179E3,1.166E3,1.3E1,1.2E1,1E0,1E0,1.1E1,1.165E3,1E0,8.15E2,3.5E2],"tree_param":{"num_deleted":"0","num_feature":"122","num_nodes":"11","size_leaf_vector":"1"}},{"base_weights":[-3.908127E-1,-2.6797166E-1,-2.7941938E1,-1.2547576E0,-4.224187E1,-1.6694228E-1,-2.8388449E1,9.8346907E-1,-4.1572712E1,-7.1486615E-2,4.5081854E0],"categories":[],"categories_nodes":[],"categories_segments":[],"categories_sizes":[],"default_left":[0,0,0,0,0,0,0,0,0,0,0],"id":1,"left_children":[1,5,3,-1,-1,9,7,-1,-1,-1,-1],"loss_changes":[3.8543713E3,3.2184133E3,1.1201576E4,0E0,0E0,5.1243805E2,1.1378287E4,0E0,0E0,0E0,0E0],"parents":[2147483647,0,0,2,2,1,1,6,6,5,5],"right_children":[2,6,4,-1,-1,10,8,-1,-1,-1,-1],"split_conditions":[3.6E1,3.7E1,8E0,-1.2547576E0,-4.224187E1,6.4E1,8E0,9.8346907E-1,-4.1572712E1,-7.1486615E-2,4.5081854E0],"split_indices":[97,49,3,0,0,10,6,0,0,0,0],"split_type":[0,0,0,0,0,0,0,0,0,0,0],"sum_hessian":[1.144E3,1.139E3,5E0,4E0,1E0,1.135E3,4E0,3E0,1E0,1.132E3,3E0],"tree_param":{"num_deleted":"0","num_feature":"122","num_nodes":"11","size_leaf_vector":"1"}},{"base_weights":[1.685423E-2,-2.7513805E-1,9.732297E0,2.5784123E0,8.21732E1,-2.0457189E-1,-1.9730865E1,2.3677054E-1,-2.7663324E1,1.0893629E-1,6.5899415E0,-1.0453083E-1,1.3985403E0],"categories":[],"categories_nodes":[],"categories_segments":[],"categories_sizes":[],"default_left":[0,0,0,0,0,0,0,0,0,0,0,0,0],"id":2,"left_children":[1,5,3,9,-1,11,7,-1,-1,-1,-1,-1,-1],"loss_changes":[3.3109736E3,1.5404908E3,5.4126848E4,1.1945225E3,0E0,4.264911E2,4.897335E3,0E0,0E0,0E0,0E0,0E0,0E0],"parents":[2147483647,0,0,2,2,1,1,6,6,3,3,5,5],"right_children":[2,6,4,10,-1,12,8,-1,-1,-1,-1,-1,-1],"split_conditions":[1.9E1,3.7E1,1.3E1,1.2E1,8.21732E1,2.4E1,4E0,2.3677054E-1,-2.7663324E1,1.0893629E-1,6.5899415E0,-1.0453083E-1,1.3985403E0],"split_indices":[37,49,110,88,0,9,2,0,0,0,0,0,0],"split_type":[0,0,0,0,0,0,0,0,0,0,0,0,0],"sum_hessian":[1.165E3,1.131E3,3.4E1,3.3E1,1E0,1.127E3,4E0,3E0,1E0,2.9E1,4E0,1.103E3,2.4E1],"tree_param":{"num_deleted":"0","num_feature":"122","num_nodes":"13","size_leaf_vector":"1"}},{"base_weights":[-9.6342295E-2,2.181949E-3,-9.692139E0,-2.7883825E0,-2.8576517E1,-3.917615E-1,2.0584595E0,5.3439444E-1,5.0034895E0,-1.1362534E-1,-3.0986998E0,-3.6460465E-1,-1.3033357E0],"categories":[],"categories_nodes":[],"categories_segments":[],"categories_sizes":[],"default_left":[0,0,0,0,0,0,0,0,0,0,0,0,0],"id":3,"left_children":[1,5,3,11,-1,9,7,-1,-1,-1,-1,-1,-1],"loss_changes":[1.1215433E3,9.472509E2,5.8629194E3,1.44134445E1,0E0,5.700513E2,1.2314681E3,0E0,0E0,0E0,0E0,0E0,0E0],"parents":[2147483647,0,0,2,2,1,1,6,6,5,5,3,3],"right_children":[2,6,4,12,-1,10,8,-1,-1,-1,-1,-1,-1],"split_conditions":[2.8E1,9E0,1.4E1,5E0,-2.8576517E1,2.8E1,1.7E1,5.3439444E-1,5.0034895E0,-1.1362534E-1,-3.0986998E0,-3.6460465E-1,-1.3033357E0],"split_indices":[83,110,1,52,0,87,67,0,0,0,0,0,0],"split_type":[0,0,0,0,0,0,0,0,0,0,0,0,0],"sum_hessian":[1.18E3,1.168E3,1.2E1,1.1E1,1E0,9.8E2,1.88E2,1.8E2,8E0,9.72E2,8E0,4E0,7E0],"tree_param":{"num_deleted":"0","num_feature":"122","num_nodes":"13","size_leaf_vector":"1"}},{"base_weights":[-2.1489805E-1,-1.4611179E-1,-1.9923079E1,7.322282E-1,-2.7987497E1,-9.0324946E-2,-1.0776973E1,-5.4644614E-1,-1.9015392E1,-5.4529235E-2,3.1909068E0,-3.6649626E-2,1.02356E0],"categories":[],"categories_nodes":[],"categories_segments":[],"categories_sizes":[],"default_left":[0,0,0,0,0,0,0,0,0,0,0,0,0],"id":4,"left_children":[1,5,3,11,-1,9,7,-1,-1,-1,-1,-1,-1],"loss_changes":[1.5805941E3,6.878427E2,5.019328E3,7.248189E0,0E0,6.753993E2,2.368155E3,0E0,0E0,0E0,0E0,0E0,0E0],"parents":[2147483647,0,0,2,2,1,1,6,6,5,5,3,3],"right_children":[2,6,4,12,-1,10,8,-1,-1,-1,-1,-1,-1],"split_conditions":[4E1,3.6E1,1.3E1,4E0,-2.7987497E1,2.9E1,2.5E1,-5.4644614E-1,-1.9015392E1,-5.4529235E-2,3.1909068E0,-3.6649626E-2,1.02356E0],"split_indices":[31,97,1,1,0,115,1,0,0,0,0,0,0],"split_type":[0,0,0,0,0,0,0,0,0,0,0,0,0],"sum_hessian":[1.175E3,1.171E3,4E0,3E0,1E0,1.165E3,6E0,5E0,1E0,1.157E3,8E0,2E0,1E0],"tree_param":{"num_deleted":"0","num_feature":"122","num_nodes":"13","size_leaf_vector":"1"}},{"base_weights":[-2.048334E-4,7.874518E-2,-8.110748E0,4.2069727E-1,-1.6167236E1,-2.0441589E-1,2.7573996E0,4.141548E-1,1.0365034E1,-4.4507086E-2,-2.3703504E0,3.406327E0,-7.7128E-1],"categories":[],"categories_nodes":[],"categories_segments":[],"categories_sizes":[],"default_left":[0,0,0,0,0,0,0,0,0,0,0,0,0],"id":5,"left_children":[1,5,3,11,-1,9,7,-1,-1,-1,-1,-1,-1],"loss_changes":[7.3429126E2,8.572044E2,3.5805498E3,2.2319554E2,0E0,5.1621643E2,4.5325933E3,0E0,0E0,0E0,0E0,0E0,0E0],"parents":[2147483647,0,0,2,2,1,1,6,6,5,5,3,3],"right_children":[2,6,4,12,-1,10,8,-1,-1,-1,-1,-1,-1],"split_conditions":[3.3E1,1.2E1,1.4E1,2E0,-1.6167236E1,2.7E1,1.6E1,4.141548E-1,1.0365034E1,-4.4507086E-2,-2.3703504E0,3.406327E0,-7.7128E-1],"split_indices":[4,110,14,52,0,55,63,0,0,0,0,0,0],"split_type":[0,0,0,0,0,0,0,0,0,0,0,0,0],"sum_hessian":[1.139E3,1.128E3,1.1E1,9E0,2E0,1.02E3,1.08E2,1.02E2,6E0,1.008E3,1.2E1,2E0,7E0],"tree_param":{"num_deleted":"0","num_feature":"122","num_nodes":"13","size_leaf_vector":"1"}},{"base_weights":[1.6274938E-1,-8.752235E-2,2.7033274E0,7.343882E-1,3.478432E1,5.105122E1,4.0143366E0,-3.1482542E-1,1.6508647E0,-9.1483253E-1,3.1034636E-1,-3.0130836E-1,-7.243994E0,4.170205E-1,-4.4292215E-2],"categories":[],"categories_nodes":[],"categories_segments":[],"categories_sizes":[],"default_left":[0,0,0,0,0,0,0,0,0,0,0,0,0,0,0],"id":6,"left_children":[1,9,3,7,5,-1,-1,-1,-1,11,13,-1,-1,-1,-1],"loss_changes":[7.4493115E2,3.506291E2,6.6128687E3,6.368295E2,1.5377184E4,0E0,0E0,0E0,0E0,4.0542798E2,2.7291818E2,0E0,0E0,0E0,0E0],"parents":[2147483647,0,0,2,2,4,4,3,3,1,1,9,9,10,10],"right_children":[2,10,4,8,6,-1,-1,-1,-1,12,14,-1,-1,-1,-1],"split_conditions":[1.2E1,3E0,1.9E1,7E0,2E0,5.105122E1,4.0143366E0,-3.1482542E-1,1.6508647E0,2.8E1,3E0,-3.0130836E-1,-7.243994E0,4.170205E-1,-4.4292215E-2],"split_indices":[89,120,37,94,0,0,0,0,0,115,34,0,0,0,0],"split_type":[0,0,0,0,0,0,0,0,0,0,0,0,0,0,0],"sum_hessian":[1.169E3,1.064E3,1.05E2,9.9E1,6E0,1E0,5E0,7E1,2.9E1,3.46E2,7.18E2,3.45E2,1E0,2.4E2,4.78E2],"tree_param":{"num_deleted":"0","num_feature":"122","num_nodes":"15","size_leaf_vector":"1"}},{"base_weights":[-1.2616692E-1,-1.500016E-1,1.2891814E1,-4.0167263E-1,1.5199219E0,-1.2851974E-1,-6.5109024E0,4.8474753E-1,7.668423E0,-3.169036E-1,9.387771E0],"categories":[],"categories_nodes":[],"categories_segments":[],"categories_sizes":[],"default_left":[0,0,0,0,0,0,0,0,0,0,0],"id":7,"left_children":[1,3,9,5,7,-1,-1,-1,-1,-1,-1],"loss_changes":[3.491943E2,4.8184866E2,4.0485596E2,6.692288E2,4.3158868E2,0E0,0E0,0E0,0E0,0E0,0E0],"parents":[2147483647,0,0,1,1,3,3,4,4,2,2],"right_children":[2,4,10,6,8,-1,-1,-1,-1,-1,-1],"split_conditions":[3.7E1,1E1,5E0,3.5E1,2.1E1,-1.2851974E-1,-6.5109024E0,4.8474753E-1,7.668423E0,-3.169036E-1,9.387771E0],"split_indices":[49,120,1,36,105,0,0,0,0,0,0],"split_type":[0,0,0,0,0,0,0,0,0,0,0],"sum_hessian":[1.15E3,1.148E3,2E0,9.98E2,1.5E2,9.96E2,2E0,1.49E2,1E0,1E0,1E0],"tree_param":{"num_deleted":"0","num_feature":"122","num_nodes":"11","size_leaf_vector":"1"}},{"base_weights":[-3.833921E-2,-8.3277434E-2,8.321569E0,6.692774E0,2.6715224E0,-3.5549304E-1,7.235738E-1,-8.7480806E-2,-1.3262641E0,2.3268467E-1,6.246812E0,-4.65927E-1,1.4838363E0],"categories":[],"categories_nodes":[],"categories_segments":[],"categories_sizes":[],"default_left":[0,0,0,0,0,0,0,0,0,0,0,0,0],"id":8,"left_children":[1,5,3,-1,11,7,9,-1,-1,-1,-1,-1,-1],"loss_changes":[4.2557596E2,2.5018939E2,3.4756326E2,0E0,2.6809813E1,3.1021213E2,3.0400073E2,0E0,0E0,0E0,0E0,0E0,0E0],"parents":[2147483647,0,0,2,2,1,1,5,5,6,6,4,4],"right_children":[2,6,4,-1,12,8,10,-1,-1,-1,-1,-1,-1],"split_conditions":[3.6E1,7E0,4E0,6.692774E0,2E0,1.9E1,3.7E1,-8.7480806E-2,-1.3262641E0,2.3268467E-1,6.246812E0,-4.65927E-1,1.4838363E0],"split_indices":[56,38,1,0,9,14,49,0,0,0,0,0,0],"split_type":[0,0,0,0,0,0,0,0,0,0,0,0,0],"sum_hessian":[1.146E3,1.14E3,6E0,2E0,4E0,8.53E2,2.87E2,8.27E2,2.6E1,2.86E2,1E0,1E0,3E0],"tree_param":{"num_deleted":"0","num_feature":"122","num_nodes":"13","size_leaf_vector":"1"}},{"base_weights":[-6.822737E-2,-2.713421E-2,-1.174187E1,2.2508256E0,-1.8438347E1,-6.777902E-1,5.909564E-1,2.333074E-1,-6.8119636E0,3.2190385E0,-3.763173E0,-2.8536734E-1,1.0082446E0],"categories":[],"categories_nodes":[],"categories_segments":[],"categories_sizes":[],"default_left":[0,0,0,0,0,0,0,0,0,0,0,0,0],"id":9,"left_children":[1,5,3,9,-1,11,7,-1,-1,-1,-1,-1,-1],"loss_changes":[5.5458527E2,4.694234E2,2.3328335E3,2.7505786E2,0E0,2.6028696E2,8.15643E2,0E0,0E0,0E0,0E0,0E0,0E0],"parents":[2147483647,0,0,2,2,1,1,6,6,3,3,5,5],"right_children":[2,6,4,10,-1,12,8,-1,-1,-1,-1,-1,-1],"split_conditions":[3.7E1,4E0,1.5E1,1.4E1,-1.8438347E1,1.5E1,3.6E1,2.333074E-1,-6.8119636E0,3.2190385E0,-3.763173E0,-2.8536734E-1,1.0082446E0],"split_indices":[49,106,2,5,0,111,51,0,0,0,0,0,0],"split_type":[0,0,0,0,0,0,0,0,0,0,0,0,0],"sum_hessian":[1.171E3,1.167E3,4E0,3E0,1E0,5.69E2,5.98E2,5.96E2,2E0,2E0,1E0,5.49E2,2E1],"tree_param":{"num_deleted":"0","num_feature":"122","num_nodes":"13","size_leaf_vector":"1"}},{"base_weights":[1.824376E-1,-4.27049E-1,7.556912E-1,-3.3473283E-1,-1.2768555E1,-1.2269248E1,-1.677045E0,4.533639E-1,3.312951E0,3.0605462E-1,1.3472011E1,-1.4067177E-1,2.8446553E0,1.476073E-1,3.2542748E0],"categories":[],"categories_nodes":[],"categories_segments":[],"categories_sizes":[],"default_left":[0,0,0,0,0,0,0,0,0,0,0,0,0,0,0],"id":10,"left_children":[1,3,7,11,5,-1,-1,13,9,-1,-1,-1,-1,-1,-1],"loss_changes":[3.9924124E2,6.218972E2,4.530411E2,2.8793515E2,6.8131744E2,0E0,0E0,1.5782462E2,5.261624E3,0E0,0E0,0E0,0E0,0E0,0E0],"parents":[2147483647,0,0,1,1,4,4,2,2,8,8,3,3,7,7],"right_children":[2,4,8,12,6,-1,-1,14,10,-1,-1,-1,-1,-1,-1],"split_conditions":[4E0,3E1,1.2E1,3.6E1,4E0,-1.2269248E1,-1.677045E0,2.6E1,1.9E1,3.0605462E-1,1.3472011E1,-1.4067177E-1,2.8446553E0,1.476073E-1,3.2542748E0],"split_indices":[113,34,110,56,16,0,0,77,115,0,0,0,0,0,0],"split_type":[0,0,0,0,0,0,0,0,0,0,0,0,0,0,0],"sum_hessian":[1.142E3,5.53E2,5.89E2,5.49E2,4E0,1E0,3E0,5.27E2,6.2E1,5.8E1,4E0,5.45E2,4E0,5.25E2,2E0],"tree_param":{"num_deleted":"0","num_feature":"122","num_nodes":"15","size_leaf_vector":"1"}},{"base_weights":[1.6148546E-1,8.4185936E-2,5.6984143E0,2.9457254E1,1.8873641E-1,-1.1325593E0,1.6232185E1,-1.2225517E0,2.7484512E-1,3.011787E-4,3.7721398E-1,-4.6517292E-1,3.995908E0],"categories":[],"categories_nodes":[],"categories_segments":[],"categories_sizes":[],"default_left":[0,0,0,0,0,0,0,0,0,0,0,0,0],"id":11,"left_children":[1,7,3,-1,5,-1,-1,11,9,-1,-1,-1,-1],"loss_changes":[4.9895312E2,2.8796194E2,6.8210894E3,0E0,2.373303E3,0E0,0E0,1.6858344E2,2.1903076E2,0E0,0E0,0E0,0E0],"parents":[2147483647,0,0,2,2,4,4,1,1,8,8,7,7],"right_children":[2,8,4,-1,6,-1,-1,12,10,-1,-1,-1,-1],"split_conditions":[2.3E1,2E0,2E0,2.9457254E1,8E0,-1.1325593E0,1.6232185E1,2E1,7E0,3.011787E-4,3.7721398E-1,-4.6517292E-1,3.995908E0],"split_indices":[115,117,24,0,21,0,0,62,120,0,0,0,0],"split_type":[0,0,0,0,0,0,0,0,0,0,0,0,0],"sum_hessian":[1.174E3,1.158E3,1.6E1,1E0,1.5E1,1.4E1,1E0,1.47E2,1.011E3,7.52E2,2.59E2,1.46E2,1E0],"tree_param":{"num_deleted":"0","num_feature":"122","num_nodes":"13","size_leaf_vector":"1"}},{"base_weights":[-1.4629647E-1,-6.651587E-1,3.4931594E-1,-5.986201E-1,-9.956675E0,2.5429627E-1,5.9191566E0,1.7238106E1,2.883325E-1,-2.702534E-1,-6.5640426E0,-1.9653267E-1,-4.2692623E0,6.9393605E-1,-7.8729505E-4],"categories":[],"categories_nodes":[],"categories_segments":[],"categories_sizes":[],"default_left":[0,0,0,0,0,0,0,0,0,0,0,0,0,0,0],"id":12,"left_children":[1,3,5,11,9,13,7,-1,-1,-1,-1,-1,-1,-1,-1],"loss_changes":[3.0520477E2,3.5186148E2,3.1691162E2,2.7155115E2,3.0898688E2,2.626843E2,2.1679387E3,0E0,0E0,0E0,0E0,0E0,0E0,0E0,0E0],"parents":[2147483647,0,0,1,1,2,2,6,6,4,4,3,3,5,5],"right_children":[2,4,6,12,10,14,8,-1,-1,-1,-1,-1,-1,-1,-1],"split_conditions":[4E0,3.3E1,2.2E1,6.4E1,3E0,2E0,2E0,1.7238106E1,2.883325E-1,-2.702534E-1,-6.5640426E0,-1.9653267E-1,-4.2692623E0,6.9393605E-1,-7.8729505E-4],"split_indices":[111,16,78,3,25,77,12,0,0,0,0,0,0,0,0],"split_type":[0,0,0,0,0,0,0,0,0,0,0,0,0,0,0],"sum_hessian":[1.186E3,5.8E2,6.06E2,5.76E2,4E0,5.96E2,1E1,1E0,9E0,2E0,2E0,5.74E2,2E0,7.8E1,5.18E2],"tree_param":{"num_deleted":"0","num_feature":"122","num_nodes":"15","size_leaf_vector":"1"}},{"base_weights":[2.7980454E-2,-4.6980894E-1,5.069029E-1,2.5612712E0,2.0810932E-1,5.331865E-1,3.6268182E0,-4.236733E-1,-1.3066419E1,-1.6744062E-1,4.706185E0,3.4901634E-2,2.029425E0,-5.9184804E0,-2.8653562E0],"categories":[],"categories_nodes":[],"categories_segments":[],"categories_sizes":[],"default_left":[0,0,0,0,0,0,0,0,0,0,0,0,0,0,0],"id":13,"left_children":[1,7,3,5,11,-1,-1,9,13,-1,-1,-1,-1,-1,-1],"loss_changes":[2.808873E2,3.2684088E2,3.6723267E2,6.084498E2,3.1419116E2,0E0,0E0,3.904267E2,1.4858246E1,0E0,0E0,0E0,0E0,0E0,0E0],"parents":[2147483647,0,0,2,2,3,3,1,1,7,7,4,4,8,8],"right_children":[2,8,4,6,12,-1,-1,10,14,-1,-1,-1,-1,-1,-1],"split_conditions":[4E0,4E1,2E0,1.2E1,2.6E1,5.331865E-1,3.6268182E0,2.9E1,5E0,-1.6744062E-1,4.706185E0,3.4901634E-2,2.029425E0,-5.9184804E0,-2.8653562E0],"split_indices":[105,74,43,57,38,0,0,115,0,0,0,0,0,0,0],"split_type":[0,0,0,0,0,0,0,0,0,0,0,0,0,0,0],"sum_hessian":[1.178E3,5.77E2,6.01E2,7.6E1,5.25E2,6.7E1,9E0,5.75E2,2E0,5.73E2,2E0,5.15E2,1E1,1E0,1E0],"tree_param":{"num_deleted":"0","num_feature":"122","num_nodes":"15","size_leaf_vector":"1"}},{"base_weights":[-4.3229304E-2,1.9369647E-2,-6.68338E0,-3.0372279E-2,1.9101452E1,1.9723236E1,-0E0,-1.56072E0,-1.5353251E1,3.8170645E-3,-1.6956217E0,6.603752E-1,-1.5096582E0,-4.480167E0,-7.6634946E0],"categories":[],"categories_nodes":[],"categories_segments":[],"categories_sizes":[],"default_left":[0,0,0,0,0,0,0,0,0,0,0,0,0,0,0],"id":14,"left_children":[1,3,7,9,5,-1,-1,11,13,-1,-1,-1,-1,-1,-1],"loss_changes":[4.9207736E2,1.1155842E3,4.79391E2,2.3076268E2,2.1764531E3,0E0,0E0,6.7569435E1,3.2413696E1,0E0,0E0,0E0,0E0,0E0,0E0],"parents":[2147483647,0,0,1,1,4,4,2,2,3,3,7,7,8,8],"right_children":[2,4,8,10,6,-1,-1,12,14,-1,-1,-1,-1,-1,-1],"split_conditions":[2.4E1,2.3E1,5E0,3.2E1,2E0,1.9723236E1,-0E0,3E0,1E1,3.8170645E-3,-1.6956217E0,6.603752E-1,-1.5096582E0,-4.480167E0,-7.6634946E0],"split_indices":[115,115,27,8,0,0,0,6,5,0,0,0,0,0,0],"split_type":[0,0,0,0,0,0,0,0,0,0,0,0,0,0,0],"sum_hessian":[1.174E3,1.163E3,1.1E1,1.16E3,3E0,1E0,2E0,7E0,4E0,1.15E3,1E1,3E0,4E0,3E0,1E0],"tree_param":{"num_deleted":"0","num_feature":"122","num_nodes":"15","size_leaf_vector":"1"}},{"base_weights":[-1.1225266E-2,-3.9890096E-2,1.0868784E1,-3.0115253E-1,5.8115315E-1,1.6779903E-1,4.376818E0,-9.843726E-2,-6.149649E0,4.59717E0,1.9572899E0],"categories":[],"categories_nodes":[],"categories_segments":[],"categories_sizes":[],"default_left":[0,0,0,0,0,0,0,0,0,0,0],"id":15,"left_children":[1,3,9,7,5,-1,-1,-1,-1,-1,-1],"loss_changes":[3.6271146E2,1.9147194E2,1.9616333E1,3.0905594E2,4.2932205E2,0E0,0E0,0E0,0E0,0E0,0E0],"parents":[2147483647,0,0,1,1,4,4,3,3,2,2],"right_children":[2,4,10,8,6,-1,-1,-1,-1,-1,-1],"split_conditions":[4E1,6E0,5E0,3.6E1,3.2E1,1.6779903E-1,4.376818E0,-9.843726E-2,-6.149649E0,4.59717E0,1.9572899E0],"split_indices":[16,115,0,31,84,0,0,0,0,0,0],"split_type":[0,0,0,0,0,0,0,0,0,0,0],"sum_hessian":[1.184E3,1.181E3,3E0,8.32E2,3.49E2,3.46E2,3E0,8.31E2,1E0,2E0,1E0],"tree_param":{"num_deleted":"0","num_feature":"122","num_nodes":"11","size_leaf_vector":"1"}},{"base_weights":[-4.154235E-2,-6.0281403E-2,1.0301667E1,-2.3874456E-2,-8.307294E0,-2.0432279E-2,6.658012E0,-1.7859987E0,-4.457509E0,2.0223033E0,4.85987E0],"categories":[],"categories_nodes":[],"categories_segments":[],"categories_sizes":[],"default_left":[0,0,0,0,0,0,0,0,0,0,0],"id":16,"left_children":[1,3,9,5,7,-1,-1,-1,-1,-1,-1],"loss_changes":[2.2039227E2,3.453269E2,1.62706E1,7.3354376E2,5.65589E1,0E0,0E0,0E0,0E0,0E0,0E0],"parents":[2147483647,0,0,1,1,3,3,4,4,2,2],"right_children":[2,4,10,6,8,-1,-1,-1,-1,-1,-1],"split_conditions":[6.4E1,3.3E1,4E0,2.9E1,5E0,-2.0432279E-2,6.658012E0,-1.7859987E0,-4.457509E0,2.0223033E0,4.85987E0],"split_indices":[86,115,3,115,7,0,0,0,0,0,0],"split_type":[0,0,0,0,0,0,0,0,0,0,0],"sum_hessian":[1.169E3,1.167E3,2E0,1.162E3,5E0,1.16E3,2E0,3E0,2E0,1E0,1E0],"tree_param":{"num_deleted":"0","num_feature":"122","num_nodes":"11","size_leaf_vector":"1"}},{"base_weights":[6.0964413E-2,-8.9869493E-1,2.174542E-1,1.7649844E-1,8.285044E0,-1.022042E0,8.613086E0,-9.501216E-2,2.0442863E-1,-5.747197E-1,-2.6912654E-2,2.2406957E0,5.2035117E0,1.9420779E0,3.7786477E0],"categories":[],"categories_nodes":[],"categories_segments":[],"categories_sizes":[],"default_left":[0,0,0,0,0,0,0,0,0,0,0,0,0,0,0],"id":17,"left_children":[1,5,3,7,11,9,13,-1,-1,-1,-1,-1,-1,-1,-1],"loss_changes":[1.7696368E2,1.8952437E2,3.3048947E2,1.8135378E2,4.5246002E1,9.225383E1,2.1194458E-1,0E0,0E0,0E0,0E0,0E0,0E0,0E0,0E0],"parents":[2147483647,0,0,2,2,1,1,3,3,5,5,4,4,6,6],"right_children":[2,6,4,8,12,10,14,-1,-1,-1,-1,-1,-1,-1,-1],"split_conditions":[2E0,2.9E1,2.9E1,4E0,7E0,5E0,3E0,-9.501216E-2,2.0442863E-1,-5.747197E-1,-2.6912654E-2,2.2406957E0,5.2035117E0,1.9420779E0,3.7786477E0],"split_indices":[115,28,41,89,0,14,1,0,0,0,0,0,0,0,0],"split_type":[0,0,0,0,0,0,0,0,0,0,0,0,0,0,0],"sum_hessian":[1.181E3,1.65E2,1.016E3,1.011E3,5E0,1.63E2,2E0,4.79E2,5.32E2,9.9E1,6.4E1,4E0,1E0,1E0,1E0],"tree_param":{"num_deleted":"0","num_feature":"122","num_nodes":"15","size_leaf_vector":"1"}},{"base_weights":[5.8229245E-2,-1.0621316E-1,1.1965542E0,5.4249253E0,5.393095E-1,9.5899683E-1,1.0167909E1,1.1958073E-1,4.4988914E0,-1.291635E-1,2.6309056E0,-1.9039191E-2,-9.248012E-1],"categories":[],"categories_nodes":[],"categories_segments":[],"categories_sizes":[],"default_left":[0,0,0,0,0,0,0,0,0,0,0,0,0],"id":18,"left_children":[1,9,3,5,7,-1,-1,-1,-1,11,-1,-1,-1],"loss_changes":[2.2249976E2,1.7504634E2,4.1322418E2,1.2461348E3,3.1030307E2,0E0,0E0,0E0,0E0,1.9169626E2,0E0,0E0,0E0],"parents":[2147483647,0,0,2,2,3,3,4,4,1,1,9,9],"right_children":[2,10,4,6,8,-1,-1,-1,-1,12,-1,-1,-1],"split_conditions":[1E1,3.6E1,2E0,8E0,2.1E1,9.5899683E-1,1.0167909E1,1.1958073E-1,4.4988914E0,1.9E1,2.6309056E0,-1.9039191E-2,-9.248012E-1],"split_indices":[103,110,36,40,64,0,0,0,0,59,0,0,0],"split_type":[0,0,0,0,0,0,0,0,0,0,0,0,0],"sum_hessian":[1.185E3,1.035E3,1.5E2,2E1,1.3E2,1.8E1,2E0,1.28E2,2E0,1.032E3,3E0,1.002E3,3E1],"tree_param":{"num_deleted":"0","num_feature":"122","num_nodes":"13","size_leaf_vector":"1"}},{"base_weights":[-7.4576917E-3,-5.678439E-1,2.7269432E-1,2.9129988E-1,-4.5424094E0,5.5956995E-1,2.481953E-2,-2.4506454E-1,-1.5358672E0,-1.11598186E-1,6.6384845E0,-6.7637193E-1,7.4828155E-2],"categories":[],"categories_nodes":[],"categories_segments":[],"categories_sizes":[],"default_left":[0,0,0,0,0,0,0,0,0,0,0,0,0],"id":19,"left_children":[1,7,3,5,-1,-1,-1,9,11,-1,-1,-1,-1],"loss_changes":[1.8356517E2,1.20771484E2,1.8266081E2,2.2103513E2,0E0,0E0,0E0,3.8442398E2,6.5325E1,0E0,0E0,0E0,0E0],"parents":[2147483647,0,0,2,2,3,3,1,1,7,7,8,8],"right_children":[2,8,4,6,-1,-1,-1,10,12,-1,-1,-1,-1],"split_conditions":[3E0,7E0,3.7E1,2E0,-4.5424094E0,5.5956995E-1,2.481953E-2,3.5E1,6E0,-1.11598186E-1,6.6384845E0,-6.7637193E-1,7.4828155E-2],"split_indices":[112,12,77,11,0,0,0,81,106,0,0,0,0],"split_type":[0,0,0,0,0,0,0,0,0,0,0,0,0],"sum_hessian":[1.168E3,3.9E2,7.78E2,7.77E2,1E0,1.13E2,6.64E2,2.93E2,9.7E1,2.92E2,1E0,8E1,1.7E1],"tree_param":{"num_deleted":"0","num_feature":"122","num_nodes":"13","size_leaf_vector":"1"}},{"base_weights":[5.816509E-3,3.7281804E-2,-5.9368978E0,-0E0,-1.1705393E1,1.7045727E-2,7.519641E0,-1.22804254E-1,1.3041484E-1,-1.2639468E0,6.1760706E-1,3.311888E0,1.0357636E0,-4.759561E0,-2.4964404E0],"categories":[],"categories_nodes":[],"categories_segments":[],"categories_sizes":[],"default_left":[0,0,0,0,0,0,0,0,0,0,0,0,0,0,0],"id":20,"left_children":[1,5,3,9,13,7,11,-1,-1,-1,-1,-1,-1,-1,-1],"loss_changes":[2.1502382E2,1.7150986E2,2.0524538E2,1.9801289E1,7.255493E0,1.4900027E2,1.699614E1,0E0,0E0,0E0,0E0,0E0,0E0,0E0,0E0],"parents":[2147483647,0,0,2,2,1,1,5,5,3,3,6,6,4,4],"right_children":[2,6,4,10,14,8,12,-1,-1,-1,-1,-1,-1,-1,-1],"split_conditions":[3.6E1,3.5E1,4E0,3E0,9E0,4E0,6E0,-1.22804254E-1,1.3041484E-1,-1.2639468E0,6.1760706E-1,3.311888E0,1.0357636E0,-4.759561E0,-2.4964404E0],"split_indices":[49,12,32,5,10,98,1,0,0,0,0,0,0,0,0],"split_type":[0,0,0,0,0,0,0,0,0,0,0,0,0,0,0],"sum_hessian":[1.169E3,1.163E3,6E0,3E0,3E0,1.16E3,3E0,5.69E2,5.91E2,1E0,2E0,2E0,1E0,2E0,1E0],"tree_param":{"num_deleted":"0","num_feature":"122","num_nodes":"15","size_leaf_vector":"1"}},{"base_weights":[1.9040972E-2,3.0610374E-1,-4.6346563E-1,2.4401122E-1,5.2153573E0,-2.766486E-1,6.0782027E0,7.910569E-2,4.747049E0,-3.925046E-1,-6.388142E0,-9.4900765E-2,-1.1876783E0,-8.767947E-1,-4.141749E0],"categories":[],"categories_nodes":[],"categories_segments":[],"categories_sizes":[],"default_left":[0,0,0,0,0,0,0,0,0,0,0,0,0,0,0],"id":21,"left_children":[1,3,9,7,5,-1,-1,-1,-1,11,13,-1,-1,-1,-1],"loss_changes":[1.6211475E2,2.2067297E2,1.7906174E2,1.8379617E2,6.6213464E2,0E0,0E0,0E0,0E0,1.562814E2,9.512273E1,0E0,0E0,0E0,0E0],"parents":[2147483647,0,0,1,1,4,4,3,3,2,2,9,9,10,10],"right_children":[2,4,10,8,6,-1,-1,-1,-1,12,14,-1,-1,-1,-1],"split_conditions":[5E0,2.3E1,3.2E1,3.6E1,4E0,-2.766486E-1,6.0782027E0,7.910569E-2,4.747049E0,1.6E1,1.1E1,-9.4900765E-2,-1.1876783E0,-8.767947E-1,-4.141749E0],"split_indices":[0,115,9,12,13,0,0,0,0,69,1,0,0,0,0],"split_type":[0,0,0,0,0,0,0,0,0,0,0,0,0,0,0],"sum_hessian":[1.171E3,7.35E2,4.36E2,7.26E2,9E0,6E0,3E0,7.25E2,1E0,4.31E2,5E0,4.14E2,1.7E1,3E0,2E0],"tree_param":{"num_deleted":"0","num_feature":"122","num_nodes":"15","size_leaf_vector":"1"}},{"base_weights":[-1.0855343E-2,5.206921E-2,-2.4509218E0,6.914309E-2,-8.914243E0,1.0464653E-1,-1.917871E-1,-1.9614036E0,-8.530914E0,-4.7814817E0,-1.146387E0,-9.410009E-1,-0E0,-1.8262802E0,-3.8379254E0],"categories":[],"categories_nodes":[],"categories_segments":[],"categories_sizes":[],"default_left":[0,0,0,0,0,0,0,0,0,0,0,0,0,0,0],"id":22,"left_children":[1,3,7,5,9,-1,-1,11,13,-1,-1,-1,-1,-1,-1],"loss_changes":[1.7743211E2,1.656626E2,7.9160645E1,1.5485428E2,4.1200806E1,0E0,0E0,3.823458E1,3.236023E0,0E0,0E0,0E0,0E0,0E0,0E0],"parents":[2147483647,0,0,1,1,3,3,2,2,4,4,7,7,8,8],"right_children":[2,4,8,6,10,-1,-1,12,14,-1,-1,-1,-1,-1,-1],"split_conditions":[2E1,6.4E1,1.5E1,7E0,3E0,1.0464653E-1,-1.917871E-1,7E0,2.5E1,-4.7814817E0,-1.146387E0,-9.410009E-1,-0E0,-1.8262802E0,-3.8379254E0],"split_indices":[99,78,56,41,0,0,0,112,4,0,0,0,0,0,0],"split_type":[0,0,0,0,0,0,0,0,0,0,0,0,0,0,0],"sum_hessian":[1.146E3,1.117E3,2.9E1,1.115E3,2E0,8.14E2,3.01E2,2.7E1,2E0,1E0,1E0,2E1,7E0,1E0,1E0],"tree_param":{"num_deleted":"0","num_feature":"122","num_nodes":"15","size_leaf_vector":"1"}},{"base_weights":[-4.9396425E-2,-7.090196E-2,2.734297E0,-2.8291145E-1,5.898205E-1,1.6702777E-1,3.8131955E0,-1.260735E-1,7.9973465E-1],"categories":[],"categories_nodes":[],"categories_segments":[],"categories_sizes":[],"default_left":[0,0,0,0,0,0,0,0,0],"id":23,"left_children":[1,3,-1,7,5,-1,-1,-1,-1],"loss_changes":[1.8601868E2,1.5882056E2,0E0,1.6095712E2,3.212189E2,0E0,0E0,0E0,0E0],"parents":[2147483647,0,0,1,1,4,4,3,3],"right_children":[2,4,-1,8,6,-1,-1,-1,-1],"split_conditions":[3.5E1,7E0,2.734297E0,1.8E1,2.9E1,1.6702777E-1,3.8131955E0,-1.260735E-1,7.9973465E-1],"split_indices":[16,51,0,67,7,0,0,0,0],"split_type":[0,0,0,0,0,0,0,0,0],"sum_hessian":[1.138E3,1.135E3,3E0,8.6E2,2.75E2,2.72E2,3E0,8.36E2,2.4E1],"tree_param":{"num_deleted":"0","num_feature":"122","num_nodes":"9","size_leaf_vector":"1"}},{"base_weights":[-6.488941E-2,-2.733063E-2,-2.9181607E0,-6.7338395E-1,2.757087E-1,-2.691249E-1,3.4607568E0,-8.52093E-3,4.5170644E-1,1.8577313E0,-3.5640876E0,-1.4455543E0,-2.6237693E-2],"categories":[],"categories_nodes":[],"categories_segments":[],"categories_sizes":[],"default_left":[0,0,0,0,0,0,0,0,0,0,0,0,0],"id":24,"left_children":[1,3,9,5,7,-1,-1,-1,-1,-1,11,-1,-1],"loss_changes":[1.2412876E2,2.2736754E2,7.953725E1,3.3868192E2,2.3806432E2,0E0,0E0,0E0,0E0,0E0,2.3354095E1,0E0,0E0],"parents":[2147483647,0,0,1,1,3,3,4,4,2,2,10,10],"right_children":[2,4,10,6,8,-1,-1,-1,-1,-1,12,-1,-1],"split_conditions":[2.4E1,3E0,2E0,2.6E1,7E0,-2.691249E-1,3.4607568E0,-8.52093E-3,4.5170644E-1,1.8577313E0,7E0,-1.4455543E0,-2.6237693E-2],"split_indices":[108,14,64,32,116,0,0,0,0,0,6,0,0],"split_type":[0,0,0,0,0,0,0,0,0,0,0,0,0],"sum_hessian":[1.175E3,1.16E3,1.5E1,3.71E2,7.89E2,3.68E2,3E0,6.07E2,1.82E2,1E0,1.4E1,1.2E1,2E0],"tree_param":{"num_deleted":"0","num_feature":"122","num_nodes":"13","size_leaf_vector":"1"}},{"base_weights":[-4.2200737E-2,-7.329319E-3,-4.052849E0,-2.3354264E-2,3.1202605E0,-2.0584356E-2,9.927391E-1,-3.3707113E0,-3.2192357E0,-1.2942919E0,-1.3367434E-1],"categories":[],"categories_nodes":[],"categories_segments":[],"categories_sizes":[],"default_left":[0,0,0,0,0,0,0,0,0,0,0],"id":25,"left_children":[1,3,7,5,-1,-1,-1,9,-1,-1,-1],"loss_changes":[1.6312654E2,1.6097781E2,2.5402939E1,1.14306305E2,0E0,0E0,0E0,5.4108963E0,0E0,0E0,0E0],"parents":[2147483647,0,0,1,1,3,3,2,2,7,7],"right_children":[2,4,8,6,-1,-1,-1,10,-1,-1,-1],"split_conditions":[2.7E1,6.4E1,1.5E1,2.9E1,3.1202605E0,-2.0584356E-2,9.927391E-1,1.5E1,-3.2192357E0,-1.2942919E0,-1.3367434E-1],"split_indices":[86,10,28,17,0,0,0,8,0,0,0],"split_type":[0,0,0,0,0,0,0,0,0,0,0],"sum_hessian":[1.184E3,1.174E3,1E1,1.172E3,2E0,1.158E3,1.4E1,9E0,1E0,8E0,1E0],"tree_param":{"num_deleted":"0","num_feature":"122","num_nodes":"11","size_leaf_vector":"1"}},{"base_weights":[4.808563E-2,1.4902472E-1,-1.4936908E0,-1.0005217E0,-7.702769E0,-5.1046104E0,-9.973504E-1,1.2907821E-1,2.4555895E0,1.5030581E-1,-1.3215514E-1,-4.418937E-1,2.265048E0],"categories":[],"categories_nodes":[],"categories_segments":[],"categories_sizes":[],"default_left":[0,0,0,0,0,0,0,0,0,0,0,0,0],"id":26,"left_children":[1,7,3,11,5,-1,-1,9,-1,-1,-1,-1,-1],"loss_changes":[1.7754982E2,1.41648E2,2.0879448E2,1.1807631E2,1.5367776E2,0E0,0E0,1.600958E2,0E0,0E0,0E0,0E0,0E0],"parents":[2147483647,0,0,2,2,4,4,1,1,7,7,3,3],"right_children":[2,8,4,12,6,-1,-1,10,-1,-1,-1,-1,-1],"split_conditions":[1.5E1,3.6E1,1.6E1,2.3E1,7E0,-5.1046104E0,-9.973504E-1,5E0,2.4555895E0,1.5030581E-1,-1.3215514E-1,-4.418937E-1,2.265048E0],"split_indices":[61,53,63,17,1,0,0,62,0,0,0,0,0],"split_type":[0,0,0,0,0,0,0,0,0,0,0,0,0],"sum_hessian":[1.146E3,1.076E3,7E1,6.5E1,5E0,2E0,3E0,1.073E3,3E0,6.76E2,3.97E2,6.3E1,2E0],"tree_param":{"num_deleted":"0","num_feature":"122","num_nodes":"13","size_leaf_vector":"1"}},{"base_weights":[-8.445797E-2,2.1053378E-2,-1.0026635E0,-4.3856797E-1,-4.1542773E0,-2.3734193E-1,2.4492934E0,-3.7981853E0,-9.747125E-1,-8.348375E-1,1.6619457E-1,-1.8751681E-1,1.6876365E-1,-2.7021974E-1,-3.5603569E0],"categories":[],"categories_nodes":[],"categories_segments":[],"categories_sizes":[],"default_left":[0,0,0,0,0,0,0,0,0,0,0,0,0,0,0],"id":27,"left_children":[1,9,3,5,7,-1,-1,-1,-1,13,11,-1,-1,-1,-1],"loss_changes":[1.1288901E2,1.2867766E2,2.105405E2,1.7199878E2,1.5630927E2,0E0,0E0,0E0,0E0,8.9894936E1,1.9305594E2,0E0,0E0,0E0,0E0],"parents":[2147483647,0,0,2,2,3,3,4,4,1,1,10,10,9,9],"right_children":[2,10,4,6,8,-1,-1,-1,-1,14,12,-1,-1,-1,-1],"split_conditions":[1.2E1,2E0,1.2E1,2.2E1,3E0,-2.3734193E-1,2.4492934E0,-3.7981853E0,-9.747125E-1,4E1,3E0,-1.8751681E-1,1.6876365E-1,-2.7021974E-1,-3.5603569E0],"split_indices":[12,51,56,25,14,0,0,0,0,16,104,0,0,0,0],"split_type":[0,0,0,0,0,0,0,0,0,0,0,0,0,0,0],"sum_hessian":[1.159E3,1.039E3,1.2E2,1.02E2,1.8E1,9.9E1,3E0,3E0,1.5E1,1.5E2,8.89E2,2.74E2,6.15E2,1.49E2,1E0],"tree_param":{"num_deleted":"0","num_feature":"122","num_nodes":"15","size_leaf_vector":"1"}},{"base_weights":[-1.0060952E-1,6.5636003E-1,-2.3322509E-1,-1.9912149E-1,-6.8089294E0,5.063863E-1,8.840458E0,3.0076438E-1,-7.829593E-1,-1.4286502E-1,1.5139502E-1,3.9942598E0,1.0574844E0,-1.7698823E0,-3.1797867E0],"categories":[],"categories_nodes":[],"categories_segments":[],"categories_sizes":[],"default_left":[0,0,0,0,0,0,0,0,0,0,0,0,0,0,0],"id":28,"left_children":[1,5,3,9,13,7,11,-1,-1,-1,-1,-1,-1,-1,-1],"loss_changes":[1.17409035E2,2.0769952E2,2.1947972E2,1.2797754E2,8.897736E0,1.5998497E2,3.3485855E1,0E0,0E0,0E0,0E0,0E0,0E0,0E0,0E0],"parents":[2147483647,0,0,2,2,1,1,5,5,3,3,6,6,4,4],"right_children":[2,6,4,10,14,8,12,-1,-1,-1,-1,-1,-1,-1,-1],"split_conditions":[2E0,1.6E1,2.8E1,7E0,5E0,9E0,3E0,3.0076438E-1,-7.829593E-1,-1.4286502E-1,1.5139502E-1,3.9942598E0,1.0574844E0,-1.7698823E0,-3.1797867E0],"split_indices":[41,103,115,109,7,75,2,0,0,0,0,0,0,0,0],"split_type":[0,0,0,0,0,0,0,0,0,0,0,0,0,0,0],"sum_hessian":[1.172E3,1.74E2,9.98E2,9.93E2,5E0,1.71E2,3E0,1.52E2,1.9E1,7.49E2,2.44E2,2E0,1E0,3E0,2E0],"tree_param":{"num_deleted":"0","num_feature":"122","num_nodes":"15","size_leaf_vector":"1"}},{"base_weights":[5.988115E-2,2.96041E-1,-3.434146E-1,2.5094032E-1,8.482641E0,-4.4969916E-2,3.5507974E-1,4.30442E0,-7.440165E-1,-3.7209305E-1,3.8943748E0,8.5034356E-2,-3.272639E-1],"categories":[],"categories_nodes":[],"categories_segments":[],"categories_sizes":[],"default_left":[0,0,0,0,0,0,0,0,0,0,0,0,0],"id":29,"left_children":[1,3,9,5,7,-1,-1,-1,-1,11,-1,-1,-1],"loss_changes":[1.1370144E2,2.72981E2,1.372131E2,2.1452753E2,1.6658292E2,0E0,0E0,0E0,0E0,1.4958582E2,0E0,0E0,0E0],"parents":[2147483647,0,0,1,1,3,3,4,4,2,2,9,9],"right_children":[2,4,10,6,8,-1,-1,-1,-1,12,-1,-1,-1],"split_conditions":[5E0,2.9E1,6.4E1,5E0,1.5E1,-4.4969916E-2,3.5507974E-1,4.30442E0,-7.440165E-1,4E0,3.8943748E0,8.5034356E-2,-3.272639E-1],"split_indices":[66,115,77,93,5,0,0,0,0,3,0,0,0],"split_type":[0,0,0,0,0,0,0,0,0,0,0,0,0],"sum_hessian":[1.194E3,7.54E2,4.4E2,7.5E2,4E0,4.99E2,2.51E2,3E0,1E0,4.39E2,1E0,2.08E2,2.31E2],"tree_param":{"num_deleted":"0","num_feature":"122","num_nodes":"13","size_leaf_vector":"1"}},{"base_weights":[1.340578E-1,3.0752957E-1,-4.0554813E-1,2.9235783E-1,4.3970804E0,9.942235E-4,3.4999403E-1,-9.643024E-2,-1.9108409E0,-6.4148374E-2,3.2875535E0,-7.6374555E-1,3.1127195E0],"categories":[],"categories_nodes":[],"categories_segments":[],"categories_sizes":[],"default_left":[0,0,0,0,0,0,0,0,0,0,0,0,0],"id":30,"left_children":[1,3,7,5,-1,-1,-1,9,11,-1,-1,-1,-1],"loss_changes":[1.0956561E2,1.5543001E2,1.309433E2,1.785813E2,0E0,0E0,0E0,1.835862E2,1.26480835E2,0E0,0E0,0E0,0E0],"parents":[2147483647,0,0,1,1,3,3,2,2,7,7,8,8],"right_children":[2,4,8,6,-1,-1,-1,10,12,-1,-1,-1,-1],"split_conditions":[7E0,6.4E1,1E1,6E0,4.3970804E0,9.942235E-4,3.4999403E-1,2.5E1,1.8E1,-6.4148374E-2,3.2875535E0,-7.6374555E-1,3.1127195E0],"split_indices":[87,114,98,82,0,0,0,36,94,0,0,0,0],"split_type":[0,0,0,0,0,0,0,0,0,0,0,0,0],"sum_hessian":[1.171E3,8.87E2,2.84E2,8.86E2,1E0,6.27E2,2.59E2,2.36E2,4.8E1,2.34E2,2E0,4.7E1,1E0],"tree_param":{"num_deleted":"0","num_feature":"122","num_nodes":"13","size_leaf_vector":"1"}},{"base_weights":[-7.375268E-3,4.1871507E-2,-2.9778295E0,2.186046E-2,7.2684565E0,-3.647062E-2,2.8814772E-1,-3.7526898E0,-0E0,-5.331793E-1,-1.5901921E0,3.1722562E0,1.050838E0,-2.6758385E-1,2.2545378E-1],"categories":[],"categories_nodes":[],"categories_segments":[],"categories_sizes":[],"default_left":[0,0,0,0,0,0,0,0,0,0,0,0,0,0,0],"id":31,"left_children":[1,3,7,5,11,-1,-1,9,13,-1,-1,-1,-1,-1,-1],"loss_changes":[1.709072E2,1.5998697E2,4.3049255E1,1.1306765E2,1.3696655E1,0E0,0E0,2.126062E1,2.0170505E0,0E0,0E0,0E0,0E0,0E0,0E0],"parents":[2147483647,0,0,1,1,3,3,2,2,7,7,4,4,8,8],"right_children":[2,4,8,6,12,-1,-1,10,14,-1,-1,-1,-1,-1,-1],"split_conditions":[2.5E1,3.6E1,7E0,1E1,6E0,-3.647062E-2,2.8814772E-1,3E0,4E0,-5.331793E-1,-1.5901921E0,3.1722562E0,1.050838E0,-2.6758385E-1,2.2545378E-1],"split_indices":[0,7,108,55,0,0,0,40,13,0,0,0,0,0,0],"split_type":[0,0,0,0,0,0,0,0,0,0,0,0,0,0,0],"sum_hessian":[1.156E3,1.137E3,1.9E1,1.134E3,3E0,9.79E2,1.55E2,1.5E1,4E0,4E0,1.1E1,2E0,1E0,2E0,2E0],"tree_param":{"num_deleted":"0","num_feature":"122","num_nodes":"15","size_leaf_vector":"1"}},{"base_weights":[6.459128E-3,2.033485E-1,-4.8179623E-1,6.162299E-1,-2.1412939E-1,6.7685336E-2,7.9705805E-1,-5.1856685E-1,3.6958156E0,-3.458742E-2,-6.6824883E-1,-3.466932E-2,-9.027756E-1],"categories":[],"categories_nodes":[],"categories_segments":[],"categories_sizes":[],"default_left":[0,0,0,0,0,0,0,0,0,0,0,0,0],"id":32,"left_children":[1,3,7,5,11,-1,-1,9,-1,-1,-1,-1,-1],"loss_changes":[1.10874214E2,1.4229356E2,1.2747872E2,2.8754993E2,1.0946316E2,0E0,0E0,1.8943002E2,0E0,0E0,0E0,0E0,0E0],"parents":[2147483647,0,0,1,1,3,3,2,2,7,7,4,4],"right_children":[2,4,8,6,12,-1,-1,10,-1,-1,-1,-1,-1],"split_conditions":[6E0,4E0,3.6E1,7E0,1.7E1,6.7685336E-2,7.9705805E-1,8E0,3.6958156E0,-3.458742E-2,-6.6824883E-1,-3.466932E-2,-9.027756E-1],"split_indices":[53,84,33,69,41,0,0,78,0,0,0,0,0],"split_type":[0,0,0,0,0,0,0,0,0,0,0,0,0],"sum_hessian":[1.155E3,8.24E2,3.31E2,4.15E2,4.09E2,3.3E2,8.5E1,3.3E2,1E0,2.53E2,7.7E1,3.9E2,1.9E1],"tree_param":{"num_deleted":"0","num_feature":"122","num_nodes":"13","size_leaf_vector":"1"}},{"base_weights":[3.458632E-2,-6.4526037E-3,1.9101987E0,-9.347683E-1,3.0280964E0,-2.7554842E-2,4.7611237E0,1.7147845E0,-0E0,7.1800165E-3,-5.48129E-1,3.0845451E0,6.3713324E-1],"categories":[],"categories_nodes":[],"categories_segments":[],"categories_sizes":[],"default_left":[0,0,0,0,0,0,0,0,0,0,0,0,0],"id":33,"left_children":[1,5,3,-1,7,9,11,-1,-1,-1,-1,-1,-1],"loss_changes":[9.368493E1,1.15446236E2,1.3339783E2,0E0,1.1459206E2,8.639381E1,5.2085625E1,0E0,0E0,0E0,0E0,0E0,0E0],"parents":[2147483647,0,0,2,2,1,1,4,4,5,5,6,6],"right_children":[2,6,4,-1,8,10,12,-1,-1,-1,-1,-1,-1],"split_conditions":[1.8E1,3.6E1,3E0,-9.347683E-1,1E1,1.9E1,4E0,1.7147845E0,-0E0,7.1800165E-3,-5.48129E-1,3.0845451E0,6.3713324E-1],"split_indices":[120,56,81,0,108,18,1,0,0,0,0,0,0],"split_type":[0,0,0,0,0,0,0,0,0,0,0,0,0],"sum_hessian":[1.202E3,1.176E3,2.6E1,5E0,2.1E1,1.171E3,5E0,1.3E1,8E0,1.135E3,3.6E1,2E0,3E0],"tree_param":{"num_deleted":"0","num_feature":"122","num_nodes":"13","size_leaf_vector":"1"}},{"base_weights":[-8.075789E-2,-6.364816E-2,-1.7113065E0,-9.802241E-2,3.8245926E0,1.9324791E-1,5.746634E0,-3.936691E-2,2.5209372E0],"categories":[],"categories_nodes":[],"categories_segments":[],"categories_sizes":[],"default_left":[0,0,0,0,0,0,0,0,0],"id":34,"left_children":[1,3,-1,7,5,-1,-1,-1,-1],"loss_changes":[9.228283E1,1.5346957E2,0E0,1.0792347E2,3.9938898E2,0E0,0E0,0E0,0E0],"parents":[2147483647,0,0,1,1,4,4,3,3],"right_children":[2,4,-1,8,6,-1,-1,-1,-1],"split_conditions":[3.3E1,2.3E1,-1.7113065E0,3.7E1,1.1E1,1.9324791E-1,5.746634E0,-3.936691E-2,2.5209372E0],"split_indices":[115,115,0,113,48,0,0,0,0],"split_type":[0,0,0,0,0,0,0,0,0],"sum_hessian":[1.169E3,1.165E3,4E0,1.155E3,1E1,8E0,2E0,1.153E3,2E0],"tree_param":{"num_deleted":"0","num_feature":"122","num_nodes":"9","size_leaf_vector":"1"}},{"base_weights":[9.305237E-2,2.867227E-1,-3.5108352E-1,-4.1284382E-1,2.3142438E0,3.1202576E-1,-6.243541E0,1.0482697E-1,4.044821E0,-6.529446E-2,-5.6578857E-1,-1.5182117E0,-3.223653E0],"categories":[],"categories_nodes":[],"categories_segments":[],"categories_sizes":[],"default_left":[0,0,0,0,0,0,0,0,0,0,0,0,0],"id":35,"left_children":[1,5,3,9,-1,7,11,-1,-1,-1,-1,-1,-1],"loss_changes":[1.0052388E2,1.3117618E2,1.4734982E2,9.405343E1,0E0,1.3079034E2,6.781311E0,0E0,0E0,0E0,0E0,0E0,0E0],"parents":[2147483647,0,0,2,2,1,1,5,5,3,3,6,6],"right_children":[2,6,4,10,-1,8,12,-1,-1,-1,-1,-1,-1],"split_conditions":[6E0,5.4E1,3.3E1,1.1E1,2.3142438E0,6.4E1,7E0,1.0482697E-1,4.044821E0,-6.529446E-2,-5.6578857E-1,-1.5182117E0,-3.223653E0],"split_indices":[70,12,110,71,0,101,2,0,0,0,0,0,0],"split_type":[0,0,0,0,0,0,0,0,0,0,0,0,0],"sum_hessian":[1.169E3,8.15E2,3.54E2,3.51E2,3E0,8.12E2,3E0,8.11E2,1E0,2.95E2,5.6E1,2E0,1E0],"tree_param":{"num_deleted":"0","num_feature":"122","num_nodes":"13","size_leaf_vector":"1"}},{"base_weights":[-1.1836923E-1,-3.0743557E-1,3.4669703E-1,-2.3434971E-1,-2.4967096E0,-9.2246756E-2,2.2828755E0,4.5475283E-1,-2.4551697E0,1.3531493E-1,2.0663772E0,-5.337355E-1,-1.7849466E0,-1.5852602E0,-4.7311184E-1],"categories":[],"categories_nodes":[],"categories_segments":[],"categories_sizes":[],"default_left":[0,0,0,0,0,0,0,0,0,0,0,0,0,0,0],"id":36,"left_children":[1,3,7,5,11,-1,-1,9,13,-1,-1,-1,-1,-1,-1],"loss_changes":[1.0066496E2,1.2871872E2,9.877223E1,1.3789542E2,6.1238144E1,0E0,0E0,1.19095E2,2.34618E1,0E0,0E0,0E0,0E0,0E0,0E0],"parents":[2147483647,0,0,1,1,3,3,2,2,7,7,4,4,8,8],"right_children":[2,4,8,6,12,-1,-1,10,14,-1,-1,-1,-1,-1,-1],"split_conditions":[6E0,1.7E1,1.9E1,3.3E1,6E0,-9.2246756E-2,2.2828755E0,2.3E1,3E0,1.3531493E-1,2.0663772E0,-5.337355E-1,-1.7849466E0,-1.5852602E0,-4.7311184E-1],"split_indices":[68,114,99,4,38,0,0,94,92,0,0,0,0,0,0],"split_type":[0,0,0,0,0,0,0,0,0,0,0,0,0,0,0],"sum_hessian":[1.145E3,8.15E2,3.3E2,7.89E2,2.6E1,7.86E2,3E0,3.18E2,1.2E1,3.14E2,4E0,1.9E1,7E0,4E0,8E0],"tree_param":{"num_deleted":"0","num_feature":"122","num_nodes":"15","size_leaf_vector":"1"}},{"base_weights":[7.000807E-4,-2.8476498E-1,2.7247697E-1,-4.957053E-1,1.215473E0,8.461771E-3,1.6295989E0,7.613789E-1,-1.2069642E-1,1.6334055E-1,8.5000557E-1,-5.8855396E-2,2.4659936E0,6.1209574E-2,-2.691714E-1],"categories":[],"categories_nodes":[],"categories_segments":[],"categories_sizes":[],"default_left":[0,0,0,0,0,0,0,0,0,0,0,0,0,0,0],"id":37,"left_children":[1,3,7,13,5,-1,-1,9,11,-1,-1,-1,-1,-1,-1],"loss_changes":[9.1005806E1,1.8031244E2,1.1612403E2,8.9626175E1,2.8079288E2,0E0,0E0,1.3051138E2,1.0452523E2,0E0,0E0,0E0,0E0,0E0,0E0],"parents":[2147483647,0,0,1,1,4,4,2,2,7,7,8,8,3,3],"right_children":[2,4,8,14,6,-1,-1,10,12,-1,-1,-1,-1,-1,-1],"split_conditions":[4E0,1.1E1,4E0,2E0,6E0,8.461771E-3,1.6295989E0,9E0,2.6E1,1.6334055E-1,8.5000557E-1,-5.8855396E-2,2.4659936E0,6.1209574E-2,-2.691714E-1],"split_indices":[43,115,39,43,32,0,0,104,115,0,0,0,0,0,0],"split_type":[0,0,0,0,0,0,0,0,0,0,0,0,0,0,0],"sum_hessian":[1.173E3,5.71E2,6.02E2,5.01E2,7E1,5.2E1,1.8E1,2.69E2,3.33E2,2.28E2,4.1E1,3.31E2,2E0,1.42E2,3.59E2],"tree_param":{"num_deleted":"0","num_feature":"122","num_nodes":"15","size_leaf_vector":"1"}},{"base_weights":[1.0304221E-1,1.2640227E-1,-3.1773608E0,1.8403828E-1,-1.08556E0,7.395298E-1,-5.63626E-1,7.526368E-2,-8.470832E-1,-3.8862088E0,4.0674958E-1,-1.5599169E0,-7.7076566E-1],"categories":[],"categories_nodes":[],"categories_segments":[],"categories_sizes":[],"default_left":[0,0,0,0,0,0,0,0,0,0,0,0,0],"id":38,"left_children":[1,3,9,7,5,-1,-1,-1,-1,11,-1,-1,-1],"loss_changes":[8.744484E1,8.028607E1,2.663253E1,8.1518456E1,8.428497E1,0E0,0E0,0E0,0E0,1.8184586E0,0E0,0E0,0E0],"parents":[2147483647,0,0,1,1,4,4,3,3,2,2,9,9],"right_children":[2,4,10,8,6,-1,-1,-1,-1,12,-1,-1,-1],"split_conditions":[2.9E1,1.6E1,1E1,2.4E1,2E0,7.395298E-1,-5.63626E-1,7.526368E-2,-8.470832E-1,6E0,4.0674958E-1,-1.5599169E0,-7.7076566E-1],"split_indices":[121,82,11,119,46,0,0,0,0,34,0,0,0],"split_type":[0,0,0,0,0,0,0,0,0,0,0,0,0],"sum_hessian":[1.165E3,1.157E3,8E0,1.105E3,5.2E1,7E0,4.5E1,1.093E3,1.2E1,7E0,1E0,5E0,2E0],"tree_param":{"num_deleted":"0","num_feature":"122","num_nodes":"13","size_leaf_vector":"1"}},{"base_weights":[7.762209E-2,4.82305E-2,2.4514189E0,9.423578E0,4.5693454E-1,3.6921952E-2,4.182855E0,-3.418487E-1,2.478439E0,2.0515494E-2,-1.172545E0,4.842628E0,2.3565128E0],"categories":[],"categories_nodes":[],"categories_segments":[],"categories_sizes":[],"default_left":[0,0,0,0,0,0,0,0,0,0,0,0,0],"id":39,"left_children":[1,5,3,11,7,9,-1,-1,-1,-1,-1,-1,-1],"loss_changes":[8.010699E1,1.469225E2,1.8920615E2,1.8543884E1,1.073733E2,8.00394E1,0E0,0E0,0E0,0E0,0E0,0E0,0E0],"parents":[2147483647,0,0,2,2,1,1,4,4,5,5,3,3],"right_children":[2,6,4,12,8,10,-1,-1,-1,-1,-1,-1,-1],"split_conditions":[2.6E1,6.4E1,3E0,2E0,1.3E1,3.2E1,4.182855E0,-3.418487E-1,2.478439E0,2.0515494E-2,-1.172545E0,4.842628E0,2.3565128E0],"split_indices":[32,81,19,2,27,26,0,0,0,0,0,0,0],"split_type":[0,0,0,0,0,0,0,0,0,0,0,0,0],"sum_hessian":[1.17E3,1.156E3,1.4E1,3E0,1.1E1,1.155E3,1E0,9E0,2E0,1.148E3,7E0,1E0,2E0],"tree_param":{"num_deleted":"0","num_feature":"122","num_nodes":"13","size_leaf_vector":"1"}},{"base_weights":[-1.0490463E-1,-8.9858025E-2,-8.282093E0,3.1396933E-2,-6.8794E-1,6.8896953E-3,3.6310978E0,-1.8255782E-1,-1.1469984E0,-4.066516E0,-1.4265447E0],"categories":[],"categories_nodes":[],"categories_segments":[],"categories_sizes":[],"default_left":[0,0,0,0,0,0,0,0,0,0,0],"id":40,"left_children":[1,3,9,5,7,-1,-1,-1,-1,-1,-1],"loss_changes":[1.3759688E2,8.438333E1,1.6122711E1,1.1097524E2,8.348027E1,0E0,0E0,0E0,0E0,0E0,0E0],"parents":[2147483647,0,0,1,1,3,3,4,4,2,2],"right_children":[2,4,10,6,8,-1,-1,-1,-1,-1,-1],"split_conditions":[6.4E1,9E0,3E0,6.4E1,1.5E1,6.8896953E-3,3.6310978E0,-1.8255782E-1,-1.1469984E0,-4.066516E0,-1.4265447E0],"split_indices":[81,20,0,48,110,0,0,0,0,0,0],"split_type":[0,0,0,0,0,0,0,0,0,0,0],"sum_hessian":[1.16E3,1.158E3,2E0,9.62E2,1.96E2,9.61E2,1E0,1.84E2,1.2E1,1E0,1E0],"tree_param":{"num_deleted":"0","num_feature":"122","num_nodes":"11","size_leaf_vector":"1"}},{"base_weights":[-6.1014894E-2,-1.1380746E-1,1.506007E0,-1.2889853E-1,2.8100197E0,-2.1084983E0,2.344098E0,1.1498653E0,-7.971663E-1,-7.7701464E-2,2.3621176E-1,-1.0577397E0,-2.4555773E-1],"categories":[],"categories_nodes":[],"categories_segments":[],"categories_sizes":[],"default_left":[0,0,0,0,0,0,0,0,0,0,0,0,0],"id":41,"left_children":[1,3,5,9,-1,11,7,-1,-1,-1,-1,-1,-1],"loss_changes":[9.670239E1,1.3423668E2,1.1570086E2,8.246922E1,0E0,6.473152E0,1.3119023E2,0E0,0E0,0E0,0E0,0E0,0E0],"parents":[2147483647,0,0,1,1,2,2,6,6,3,3,5,5],"right_children":[2,4,6,10,-1,12,8,-1,-1,-1,-1,-1,-1],"split_conditions":[1.9E1,6.4E1,2E0,1.2E1,2.8100197E0,7E0,9E0,1.1498653E0,-7.971663E-1,-7.7701464E-2,2.3621176E-1,-1.0577397E0,-2.4555773E-1],"split_indices":[44,86,82,121,0,11,4,0,0,0,0,0,0],"split_type":[0,0,0,0,0,0,0,0,0,0,0,0,0],"sum_hessian":[1.179E3,1.141E3,3.8E1,1.139E3,2E0,7E0,3.1E1,2.6E1,5E0,1.023E3,1.16E2,4E0,3E0],"tree_param":{"num_deleted":"0","num_feature":"122","num_nodes":"13","size_leaf_vector":"1"}},{"base_weights":[-4.596289E-2,-5.9915423E-2,5.0616508E0,-7.281957E-2,4.636602E0,-2.1927958E-2,-2.056502E0,3.2371843E0,6.6750073E-1,2.9687028E0,1.0285664E0],"categories":[],"categories_nodes":[],"categories_segments":[],"categories_sizes":[],"default_left":[0,0,0,0,0,0,0,0,0,0,0],"id":42,"left_children":[1,3,9,5,7,-1,-1,-1,-1,-1,-1],"loss_changes":[8.0000496E1,6.766799E1,1.3708618E1,6.798886E1,3.0313622E1,0E0,0E0,0E0,0E0,0E0,0E0],"parents":[2147483647,0,0,1,1,3,3,4,4,2,2],"right_children":[2,4,10,6,8,-1,-1,-1,-1,-1,-1],"split_conditions":[6.4E1,6.4E1,2E0,1.05E2,3E0,-2.1927958E-2,-2.056502E0,3.2371843E0,6.6750073E-1,2.9687028E0,1.0285664E0],"split_indices":[69,38,5,48,0,0,0,0,0,0,0],"split_type":[0,0,0,0,0,0,0,0,0,0,0],"sum_hessian":[1.165E3,1.162E3,3E0,1.159E3,3E0,1.157E3,2E0,1E0,2E0,1E0,2E0],"tree_param":{"num_deleted":"0","num_feature":"122","num_nodes":"11","size_leaf_vector":"1"}},{"base_weights":[8.933777E-3,-1.8673341E-1,3.5207012E-1,8.0466586E-1,-3.672983E-1,4.0062416E-1,-4.6387202E-1,-7.0699775E-1,8.176287E-2,-7.505201E-2,3.1826156E-1,-3.2141754E-1,4.9525434E-1,-7.955125E-2,-1.2155546E0],"categories":[],"categories_nodes":[],"categories_segments":[],"categories_sizes":[],"default_left":[0,0,0,0,0,0,0,0,0,0,0,0,0,0,0],"id":43,"left_children":[1,7,3,5,13,-1,-1,11,9,-1,-1,-1,-1,-1,-1],"loss_changes":[7.866243E1,1.0432006E2,1.3899915E2,1.8282283E2,6.938221E1,0E0,0E0,1.084889E2,1.18548935E2,0E0,0E0,0E0,0E0,0E0,0E0],"parents":[2147483647,0,0,2,2,3,3,1,1,8,8,7,7,4,4],"right_children":[2,8,4,6,14,-1,-1,12,10,-1,-1,-1,-1,-1,-1],"split_conditions":[5E0,3E0,5E0,1E1,2E1,4.0062416E-1,-4.6387202E-1,1.1E1,6E0,-7.505201E-2,3.1826156E-1,-3.2141754E-1,4.9525434E-1,-7.955125E-2,-1.2155546E0],"split_indices":[102,41,13,10,108,0,0,62,106,0,0,0,0,0,0],"split_type":[0,0,0,0,0,0,0,0,0,0,0,0,0,0,0],"sum_hessian":[1.17E3,7.44E2,4.26E2,2.62E2,1.64E2,2.27E2,3.5E1,2.54E2,4.9E2,3.6E2,1.3E2,2.32E2,2.2E1,1.57E2,7E0],"tree_param":{"num_deleted":"0","num_feature":"122","num_nodes":"15","size_leaf_vector":"1"}},{"base_weights":[-2.0072687E-2,3.9669033E-2,-1.299954E0,3.6432836E0,-1.8424559E0,1.16291486E-1,-9.471367E-1,-7.217768E-2,-1.149265E0,2.4483147E0,-3.696696E-1,-5.9431065E-2,1.3628216E-1,-7.894729E-1,1.10883966E-1],"categories":[],"categories_nodes":[],"categories_segments":[],"categories_sizes":[],"default_left":[0,0,0,0,0,0,0,0,0,0,0,0,0,0,0],"id":44,"left_children":[1,5,3,9,13,11,7,-1,-1,-1,-1,-1,-1,-1,-1],"loss_changes":[8.924082E1,8.305553E1,1.3887758E2,8.1936775E1,4.1030823E1,7.881903E1,1.3329388E2,0E0,0E0,0E0,0E0,0E0,0E0,0E0,0E0],"parents":[2147483647,0,0,2,2,1,1,6,6,3,3,5,5,4,4],"right_children":[2,6,4,10,14,12,8,-1,-1,-1,-1,-1,-1,-1,-1],"split_conditions":[1.6E1,1.3E1,2E0,3E0,1.1E1,4E0,1E1,-7.217768E-2,-1.149265E0,2.4483147E0,-3.696696E-1,-5.9431065E-2,1.3628216E-1,-7.894729E-1,1.10883966E-1],"split_indices":[100,99,52,4,78,68,35,0,0,0,0,0,0,0,0],"split_type":[0,0,0,0,0,0,0,0,0,0,0,0,0,0,0],"sum_hessian":[1.157E3,1.105E3,5.2E1,5E0,4.7E1,1.026E3,7.9E1,6E1,1.9E1,3E0,2E0,4.98E2,5.28E2,4E1,7E0],"tree_param":{"num_deleted":"0","num_feature":"122","num_nodes":"15","size_leaf_vector":"1"}},{"base_weights":[1.0274079E-2,-1.3593545E-4,2.1580787E0,-8.230091E-2,1.0719883E0,2.391403E-1,-7.091652E-2,1.2401406E0,2.0994222E-1],"categories":[],"categories_nodes":[],"categories_segments":[],"categories_sizes":[],"default_left":[0,0,0,0,0,0,0,0,0],"id":45,"left_children":[1,3,-1,5,7,-1,-1,-1,-1],"loss_changes":[7.660819E1,1.0036005E2,0E0,9.551133E1,9.180699E1,0E0,0E0,0E0,0E0],"parents":[2147483647,0,0,1,1,3,3,4,4],"right_children":[2,4,-1,6,8,-1,-1,-1,-1],"split_conditions":[6.4E1,1.3E1,2.1580787E0,2E0,2E0,2.391403E-1,-7.091652E-2,1.2401406E0,2.0994222E-1],"split_indices":[46,96,0,77,43,0,0,0,0],"split_type":[0,0,0,0,0,0,0,0,0],"sum_hessian":[1.148E3,1.146E3,2E0,1.065E3,8.1E1,1.43E2,9.22E2,1.3E1,6.8E1],"tree_param":{"num_deleted":"0","num_feature":"122","num_nodes":"9","size_leaf_vector":"1"}},{"base_weights":[1.4431128E-2,2.8423062E-1,-2.2779194E-1,1.9769618E-1,3.5338879E0,-3.1015205E-1,2.5962398E0,1.1601078E-1,1.7846177E0,-1.8939298E-2,-3.207438E-1,5.453188E-2,1.3706454E0,1.6075737E0,-3.8826899E-3],"categories":[],"categories_nodes":[],"categories_segments":[],"categories_sizes":[],"default_left":[0,0,0,0,0,0,0,0,0,0,0,0,0,0,0],"id":46,"left_children":[1,3,5,11,13,9,7,-1,-1,-1,-1,-1,-1,-1,-1],"loss_changes":[7.571882E1,1.5208916E2,1.4031284E2,8.2869934E1,5.3437744E1,9.021489E1,9.162444E1,0E0,0E0,0E0,0E0,0E0,0E0,0E0,0E0],"parents":[2147483647,0,0,1,1,2,2,6,6,5,5,3,3,4,4],"right_children":[2,4,6,12,14,10,8,-1,-1,-1,-1,-1,-1,-1,-1],"split_conditions":[4E0,1.7E1,2.1E1,2.5E1,1E1,6E0,7E0,1.1601078E-1,1.7846177E0,-1.8939298E-2,-3.207438E-1,5.453188E-2,1.3706454E0,1.6075737E0,-3.8826899E-3],"split_indices":[16,51,60,10,54,76,71,0,0,0,0,0,0,0,0],"split_type":[0,0,0,0,0,0,0,0,0,0,0,0,0,0,0],"sum_hessian":[1.158E3,5.49E2,6.09E2,5.35E2,1.4E1,5.92E2,1.7E1,9E0,8E0,4.15E2,1.77E2,5.29E2,6E0,1.1E1,3E0],"tree_param":{"num_deleted":"0","num_feature":"122","num_nodes":"15","size_leaf_vector":"1"}},{"base_weights":[2.6280042E-2,2.1026483E-1,-3.7124625E-1,3.0954334E-1,-1.0347322E0,1.5983578E-2,3.0539098E-1,-1.15338765E-1,-1.0715481E0,1.2663889E-1,-2.6869056E-1,-1.397765E0,-2.710171E-1,-4.3792358E-1,8.754343E-1],"categories":[],"categories_nodes":[],"categories_segments":[],"categories_sizes":[],"default_left":[0,0,0,0,0,0,0,0,0,0,0,0,0,0,0],"id":47,"left_children":[1,3,7,5,13,-1,-1,9,11,-1,-1,-1,-1,-1,-1],"loss_changes":[8.4532074E1,9.747589E1,6.469353E1,1.0711621E2,4.122473E1,0E0,0E0,8.222286E1,8.218079E1,0E0,0E0,0E0,0E0,0E0,0E0],"parents":[2147483647,0,0,1,1,3,3,2,2,7,7,8,8,4,4],"right_children":[2,4,8,6,14,-1,-1,10,12,-1,-1,-1,-1,-1,-1],"split_conditions":[6E0,1.3E1,8E0,5E0,2E1,1.5983578E-2,3.0539098E-1,5E0,2E0,1.2663889E-1,-2.6869056E-1,-1.397765E0,-2.710171E-1,-4.3792358E-1,8.754343E-1],"split_indices":[7,94,50,1,16,0,0,38,33,0,0,0,0,0,0],"split_type":[0,0,0,0,0,0,0,0,0,0,0,0,0,0,0],"sum_hessian":[1.157E3,7.92E2,3.65E2,7.34E2,5.8E1,4.98E2,2.36E2,2.68E2,9.7E1,1.54E2,1.14E2,9E0,8.8E1,5.5E1,3E0],"tree_param":{"num_deleted":"0","num_feature":"122","num_nodes":"15","size_leaf_vector":"1"}},{"base_weights":[6.649931E-2,-3.0782053E-1,2.4224366E-1,-1.0032612E0,3.7648942E-2,-5.620436E-2,6.2985665E-1,-4.5148936E-1,3.050279E-1,-4.27713E-1,3.622296E-1,1.664794E-1,-5.1088476E-1,-2.6959944E-1,9.234983E-1],"categories":[],"categories_nodes":[],"categories_segments":[],"categories_sizes":[],"default_left":[0,0,0,0,0,0,0,0,0,0,0,0,0,0,0],"id":48,"left_children":[1,3,9,7,5,-1,-1,-1,-1,13,11,-1,-1,-1,-1],"loss_changes":[7.864632E1,9.21396E1,6.548735E1,6.55061E1,8.8252655E1,0E0,0E0,0E0,0E0,1.24575134E2,1.3593831E2,0E0,0E0,0E0,0E0],"parents":[2147483647,0,0,1,1,4,4,3,3,2,2,10,10,9,9],"right_children":[2,4,10,8,6,-1,-1,-1,-1,14,12,-1,-1,-1,-1],"split_conditions":[3E0,3E0,2E0,7E0,1E1,-5.620436E-2,6.2985665E-1,-4.5148936E-1,3.050279E-1,1E1,1.5E1,1.664794E-1,-5.1088476E-1,-2.6959944E-1,9.234983E-1],"split_indices":[121,14,60,32,103,0,0,0,0,109,103,0,0,0,0],"split_type":[0,0,0,0,0,0,0,0,0,0,0,0,0,0,0],"sum_hessian":[1.196E3,3.81E2,8.15E2,1.27E2,2.54E2,2.28E2,2.6E1,1.11E2,1.6E1,1.23E2,6.92E2,6.53E2,3.9E1,1.11E2,1.2E1],"tree_param":{"num_deleted":"0","num_feature":"122","num_nodes":"15","size_leaf_vector":"1"}},{"base_weights":[-5.7395086E-2,-2.8355133E-2,-2.431275E0,1.7255263E-1,-3.6671796E-1,9.336803E-2,-4.6665305E-1,-2.8830224E-1,2.3382276E-3,-4.0310497E0,-1.8028887E-1,-2.369584E0,-7.9416806E-1,4.8837614E-1,-3.9562878E-1],"categories":[],"categories_nodes":[],"categories_segments":[],"categories_sizes":[],"default_left":[0,0,0,0,0,0,0,0,0,0,0,0,0,0,0],"id":49,"left_children":[1,3,9,5,7,-1,-1,-1,-1,11,13,-1,-1,-1,-1],"loss_changes":[8.012535E1,7.966173E1,4.8013084E1,9.984722E1,7.382713E1,0E0,0E0,0E0,0E0,3.215718E1,8.820099E0,0E0,0E0,0E0,0E0],"parents":[2147483647,0,0,1,1,3,3,4,4,2,2,9,9,10,10],"right_children":[2,4,10,6,8,-1,-1,-1,-1,12,14,-1,-1,-1,-1],"split_conditions":[2.4E1,5E0,4E0,1.5E1,4E0,9.336803E-2,-4.6665305E-1,-2.8830224E-1,2.3382276E-3,5E0,4E0,-2.369584E0,-7.9416806E-1,4.8837614E-1,-3.9562878E-1],"split_indices":[74,92,103,5,71,0,0,0,0,17,0,0,0,0,0],"split_type":[0,0,0,0,0,0,0,0,0,0,0,0,0,0,0],"sum_hessian":[1.184E3,1.17E3,1.4E1,7.33E2,4.37E2,6.91E2,4.2E1,1.99E2,2.38E2,8E0,6E0,3E0,5E0,2E0,4E0],"tree_param":{"num_deleted":"0","num_feature":"122","num_nodes":"15","size_leaf_vector":"1"}},{"base_weights":[-6.057467E-2,1.4354369E-1,-6.7560405E-1,1.21905744E-1,2.1807463E0,1.7376656E-2,5.035069E-1,-4.2246783E-1,-1.716012E0,-3.5717475E-1,8.894868E-2,-4.567795E-1,-1.3714752E0],"categories":[],"categories_nodes":[],"categories_segments":[],"categories_sizes":[],"default_left":[0,0,0,0,0,0,0,0,0,0,0,0,0],"id":50,"left_children":[1,3,7,5,-1,-1,-1,9,11,-1,-1,-1,-1],"loss_changes":[1.4809528E2,1.1134486E2,7.610243E1,8.25114E1,0E0,0E0,0E0,9.4567505E1,4.8847992E1,0E0,0E0,0E0,0E0],"parents":[2147483647,0,0,1,1,3,3,2,2,7,7,8,8],"right_children":[2,4,8,6,-1,-1,-1,10,12,-1,-1,-1,-1],"split_conditions":[7E0,3.2E1,9E0,1.4E1,2.1807463E0,1.7376656E-2,5.035069E-1,5E0,1.2E1,-3.5717475E-1,8.894868E-2,-4.567795E-1,-1.3714752E0],"split_indices":[54,109,90,10,0,0,0,50,85,0,0,0,0],"split_type":[0,0,0,0,0,0,0,0,0,0,0,0,0],"sum_hessian":[1.177E3,8.83E2,2.94E2,8.8E2,3E0,8.34E2,4.6E1,2.37E2,5.7E1,1.27E2,1.1E2,4.8E1,9E0],"tree_param":{"num_deleted":"0","num_feature":"122","num_nodes":"13","size_leaf_vector":"1"}}]},"name":"gbtree"},"learner_model_param":{"base_score":"5.4071617E0","boost_from_average":"1","num_class":"0","num_feature":"122","num_target":"1"},"objective":{"name":"reg:squarederror","reg_loss_param":{"scale_pos_weight":"1"}}},"version":[2,1,1]}