{"learner":{"attributes":{"best_iteration":"0","best_score":"6.950658272255888","scikit_learn":"{\"_estimator_type\": \"regressor\"}"},"feature_names":[],"feature_types":[],"gradient_booster":{"model":{"gbtree_model_param":{"num_parallel_tree":"1","num_trees":"51"},"iteration_indptr":[0,1,2,3,4,5,6,7,8,9,10,11,12,13,14,15,16,17,18,19,20,21,22,23,24,25,26,27,28,29,30,31,32,33,34,35,36,37,38,39,40,41,42,43,44,45,46,47,48,49,50,51],"tree_info":[0,0,0,0,0,0,0,0,0,0,0,0,0,0,0,0,0,0,0,0,0,0,0,0,0,0,0,0,0,0,0,0,0,0,0,0,0,0,0,0,0,0,0,0,0,0,0,0,0,0,0],"trees":[{"base_weights":[9.86151E-3,-3.057638E-1,2.0295885E1,-5.839308E-1,1.4604431E0,9.811802E0,4.424086E0,-8.2071614E-1,7.2886014E-1,8.026537E-1,1.17979965E1,2.6395566E0,-8.59449E-2,-8.505353E-1,9.816421E0,6.3173896E-1,5.144471E-1,6.602736E-1,7.2695804E-1,3.1722101E1,1.7940403E0,5.031821E0,-2.1478786E0,-2.9062364E-2,2.8798638E-2,3.913106E-2,7.0039415E-1,1.4952382E-2,3.8162768E-1,2.7965852E-3,1.768625E-1,1.550438E0,6.090442E-1,-3.279149E-2,2.9224485E-1,1.2487504E-2,1.9398487E-1,-6.640292E-2,6.286123E-2],"categories":[],"categories_nodes":[],"categories_segments":[],"categories_sizes":[],"default_left":[0,0,0,0,0,0,0,0,0,0,0,0,0,0,0,0,0,0,0,0,0,0,0,0,0,0,0,0,0,0,0,0,0,0,0,0,0,0,0],"id":0,"left_children":[1,3,5,7,9,-1,11,13,15,17,19,-1,21,23,25,27,-1,29,-1,31,33,35,37,-1,-1,-1,-1,-1,-1,-1,-1,-1,-1,-1,-1,-1,-1,-1,-1],"loss_changes":[9.614741E3,7.259708E2,1.265695E5,3.9697928E2,1.3641931E3,0E0,9.384067E3,3.4141803E2,3.4664697E2,7.0463684E2,2.3858403E3,0E0,2.21141E2,4.9304315E2,4.0566464E2,1.8815517E2,0E0,6.2098975E2,0E0,9.163721E2,2.2317746E2,5.945407E1,2.2813873E1,0E0,0E0,0E0,0E0,0E0,0E0,0E0,0E0,0E0,0E0,0E0,0E0,0E0,0E0,0E0,0E0],"parents":[2147483647,0,0,1,1,2,2,3,3,4,4,6,6,7,7,8,8,9,9,10,10,12,12,13,13,14,14,15,15,17,17,19,19,20,20,21,21,22,22],"right_children":[2,4,6,8,10,-1,12,14,16,18,20,-1,22,24,26,28,-1,30,-1,32,34,36,38,-1,-1,-1,-1,-1,-1,-1,-1,-1,-1,-1,-1,-1,-1,-1,-1],"split_conditions":[2.3E1,1E1,2E0,9E0,1.8E1,9.811802E0,2E0,3.6E1,3.5E1,2.9E1,2.5E1,2.6395566E0,3E0,1.1E1,6E0,3.5E1,5.144471E-1,1.4E1,7.2695804E-1,2E0,1.4E1,2E0,1.3E1,-2.9062364E-2,2.8798638E-2,3.913106E-2,7.0039415E-1,1.4952382E-2,3.8162768E-1,2.7965852E-3,1.768625E-1,1.550438E0,6.090442E-1,-3.279149E-2,2.9224485E-1,1.2487504E-2,1.9398487E-1,-6.640292E-2,6.286123E-2],"split_indices":[105,100,97,95,57,0,4,64,46,0,57,0,98,110,0,43,0,101,0,2,5,60,2,0,0,0,0,0,0,0,0,0,0,0,0,0,0,0,0],"split_type":[0,0,0,0,0,0,0,0,0,0,0,0,0,0,0,0,0,0,0,0,0,0,0,0,0,0,0,0,0,0,0,0,0,0,0,0,0,0,0],"sum_hessian":[1.501E3,1.478E3,2.3E1,1.277E3,2.01E2,1E0,2.2E1,1.082E3,1.95E2,1.89E2,1.2E1,1E0,2.1E1,1.079E3,3E0,1.94E2,1E0,1.88E2,1E0,4E0,8E0,6E0,1.5E1,9.61E2,1.18E2,2E0,1E0,1.93E2,1E0,1.72E2,1.6E1,1E0,3E0,6E0,2E0,2E0,4E0,1.4E1,1E0],"tree_param":{"num_deleted":"0","num_feature":"112","num_nodes":"39","size_leaf_vector":"1"}},{"base_weights":[6.831445E-3,-3.0046114E-1,1.9757526E1,-5.6556463E-1,1.3447375E0,4.3071322E0,9.551163E0,-1.1688654E0,4.2176668E-2,7.128954E-1,1.1484378E1,5.1397274E1,-4.057013E-1,-1.5364611E0,2.0198435E-1,-5.451259E-3,8.074216E-1,5.5057615E-1,1.090339E1,3.0878977E1,1.7456093E0,2.56944E0,1.6396372E-1,4.6031237E0,-2.0901165E0,-4.3077994E-2,1.590582E-1,1.6377694E-3,5.0078136E-1,-1.8592873E-3,2.6755294E-1,8.574718E-4,1.4676683E-1,7.9021886E-2,7.0764714E-1,1.5092524E0,5.9280086E-1,-3.1916056E-2,2.844584E-1,1.9492713E-1,1.2154794E-2,-6.88532E-2,2.585646E-2],"categories":[],"categories_nodes":[],"categories_segments":[],"categories_sizes":[],"default_left":[0,0,0,0,0,0,0,0,0,0,0,0,0,0,0,0,0,0,0,0,0,0,0,0,0,0,0,0,0,0,0,0,0,0,0,0,0,0,0,0,0,0,0],"id":1,"left_children":[1,3,5,7,9,11,-1,13,15,17,19,21,23,25,27,29,-1,31,33,35,37,-1,-1,39,41,-1,-1,-1,-1,-1,-1,-1,-1,-1,-1,-1,-1,-1,-1,-1,-1,-1,-1],"loss_changes":[9.113983E3,6.444745E2,1.1993386E5,4.6697934E2,1.3108579E3,4.8943066E3,0E0,3.2228186E2,9.1725E2,3.1687494E2,2.2606938E3,4.0387373E3,1.6833347E2,2.8417883E2,3.4826642E2,4.04575E2,0E0,4.856797E2,3.6558905E2,8.6812524E2,2.114601E2,0E0,0E0,5.4278297E1,2.2660202E1,0E0,0E0,0E0,0E0,0E0,0E0,0E0,0E0,0E0,0E0,0E0,0E0,0E0,0E0,0E0,0E0,0E0,0E0],"parents":[2147483647,0,0,1,1,2,2,3,3,4,4,5,5,7,7,8,8,9,9,10,10,11,11,12,12,13,13,14,14,15,15,17,17,18,18,19,19,20,20,23,23,24,24],"right_children":[2,4,6,8,10,12,-1,14,16,18,20,22,24,26,28,30,-1,32,34,36,38,-1,-1,40,42,-1,-1,-1,-1,-1,-1,-1,-1,-1,-1,-1,-1,-1,-1,-1,-1,-1,-1],"split_conditions":[2.3E1,1E1,1.3E1,4E0,1.8E1,2E0,9.551163E0,7E0,6.4E1,2.3E1,2.5E1,3E0,3E0,2.5E1,3.7E1,2.7E1,8.074216E-1,1.4E1,1.9E1,2E0,1.4E1,2.56944E0,1.6396372E-1,1E1,1.3E1,-4.3077994E-2,1.590582E-1,1.6377694E-3,5.0078136E-1,-1.8592873E-3,2.6755294E-1,8.574718E-4,1.4676683E-1,7.9021886E-2,7.0764714E-1,1.5092524E0,5.9280086E-1,-3.1916056E-2,2.844584E-1,1.9492713E-1,1.2154794E-2,-6.88532E-2,2.585646E-2],"split_indices":[105,100,78,110,57,22,0,95,71,106,57,0,98,80,46,54,0,101,0,2,5,0,0,15,19,0,0,0,0,0,0,0,0,0,0,0,0,0,0,0,0,0,0],"split_type":[0,0,0,0,0,0,0,0,0,0,0,0,0,0,0,0,0,0,0,0,0,0,0,0,0,0,0,0,0,0,0,0,0,0,0,0,0,0,0,0,0,0,0],"sum_hessian":[1.501E3,1.478E3,2.3E1,1.273E3,2.05E2,2.2E1,1E0,6.39E2,6.34E2,1.93E2,1.2E1,2E0,2E1,5.04E2,1.35E2,6.33E2,1E0,1.9E2,3E0,4E0,8E0,1E0,1E0,5E0,1.5E1,4.99E2,5E0,1.34E2,1E0,6.29E2,4E0,1.72E2,1.8E1,2E0,1E0,1E0,3E0,6E0,2E0,3E0,2E0,1.3E1,2E0],"tree_param":{"num_deleted":"0","num_feature":"112","num_nodes":"43","size_leaf_vector":"1"}},{"base_weights":[1.585426E-2,-2.841598E-1,1.9233738E1,-5.488839E-1,1.3900579E0,4.1935673E0,9.297447E0,-7.8339815E-1,7.691764E-1,1.2607754E0,7.1836114E-1,1.0773714E-2,4.5794037E1,-1.0365609E0,1.2592807E0,6.398372E-1,1.2915668E1,6.2626487E-1,1.1179108E1,4.7697554E0,-2.0153592E0,2.5011857E0,-5.5498503E-2,-3.69397E-2,-1.0419687E-2,2.8078755E-2,6.8183833E-1,8.984224E-2,6.0411E-3,4.8747864E-1,1.9533278E-1,1.3090658E-2,6.8884933E-1,1.4691608E0,1.9110438E-1,1.8381384E-1,1.1830954E-2,-6.309919E-2,6.0504537E-2],"categories":[],"categories_nodes":[],"categories_segments":[],"categories_sizes":[],"default_left":[0,0,0,0,0,0,0,0,0,0,0,0,0,0,0,0,0,0,0,0,0,0,0,0,0,0,0,0,0,0,0,0,0,0,0,0,0,0,0],"id":2,"left_children":[1,3,5,7,9,11,-1,13,15,17,-1,19,21,23,25,27,29,31,33,35,37,-1,-1,-1,-1,-1,-1,-1,-1,-1,-1,-1,-1,-1,-1,-1,-1,-1,-1],"loss_changes":[8.629334E3,6.526773E2,1.1364592E5,3.9318854E2,6.564626E2,3.819811E3,0E0,5.584658E2,2.988226E2,1.2562383E3,0E0,1.9352585E2,4.610123E3,2.1447913E2,5.964575E2,2.1327112E2,5.3867065E1,6.395722E2,2.102947E3,5.3281815E1,2.0779072E1,0E0,0E0,0E0,0E0,0E0,0E0,0E0,0E0,0E0,0E0,0E0,0E0,0E0,0E0,0E0,0E0,0E0,0E0],"parents":[2147483647,0,0,1,1,2,2,3,3,4,4,5,5,7,7,8,8,9,9,11,11,12,12,13,13,14,14,15,15,16,16,17,17,18,18,19,19,20,20],"right_children":[2,4,6,8,10,12,-1,14,16,18,-1,20,22,24,26,28,30,32,34,36,38,-1,-1,-1,-1,-1,-1,-1,-1,-1,-1,-1,-1,-1,-1,-1,-1,-1,-1],"split_conditions":[2.3E1,1E1,1.5E1,9E0,3.5E1,1.7E1,9.297447E0,1.1E1,2.8E1,1.8E1,7.1836114E-1,3E0,4E0,5E0,3.5E1,2E0,5E0,2.9E1,2E0,1E1,1.2E1,2.5011857E0,-5.5498503E-2,-3.69397E-2,-1.0419687E-2,2.8078755E-2,6.8183833E-1,8.984224E-2,6.0411E-3,4.8747864E-1,1.9533278E-1,1.3090658E-2,6.8884933E-1,1.4691608E0,1.9110438E-1,1.8381384E-1,1.1830954E-2,-6.309919E-2,6.0504537E-2],"split_indices":[105,100,27,95,6,94,0,110,25,57,0,98,2,103,49,33,0,0,106,15,32,0,0,0,0,0,0,0,0,0,0,0,0,0,0,0,0,0,0],"split_type":[0,0,0,0,0,0,0,0,0,0,0,0,0,0,0,0,0,0,0,0,0,0,0,0,0,0,0,0,0,0,0,0,0,0,0,0,0,0,0],"sum_hessian":[1.496E3,1.473E3,2.3E1,1.272E3,2.01E2,2.2E1,1E0,1.08E3,1.92E2,2E2,1E0,2E1,2E0,9.61E2,1.19E2,1.9E2,2E0,1.88E2,1.2E1,6E0,1.4E1,1E0,1E0,6.26E2,3.35E2,1.18E2,1E0,2.5E1,1.65E2,1E0,1E0,1.87E2,1E0,1E0,1.1E1,4E0,2E0,1.3E1,1E0],"tree_param":{"num_deleted":"0","num_feature":"112","num_nodes":"39","size_leaf_vector":"1"}},{"base_weights":[1.5649272E-3,-2.8003365E-1,9.147492E0,-3.8924593E-1,3.0745964E0,1.6084535E0,9.05047E0,-4.0828276E-1,6.992787E-1,1.3195356E0,2.1422012E1,-5.2566385E-1,1.1230707E1,-4.3512058E-1,1.2121999E1,-2.6773444E-1,1.6427412E1,1.4301343E0,1.0570415E1,1.5224646E0,-1.9983671E0,2.5280489E1,2.7397242E0,-1.4450431E-2,6.670352E-2,1.4642549E-1,6.705508E-1,-1.6459705E-2,1.5715449E-1,1.880309E-1,6.859305E-1,3.4462556E-1,2.47743E-1,-1.5104662E-2,1.952667E-1,-6.365271E-2,4.1134935E-2,5.5713654E-1,7.3024094E-1,1.8420474E-1,-0E0],"categories":[],"categories_nodes":[],"categories_segments":[],"categories_sizes":[],"default_left":[0,0,0,0,0,0,0,0,0,0,0,0,0,0,0,0,0,0,0,0,0,0,0,0,0,0,0,0,0,0,0,0,0,0,0,0,0,0,0,0,0],"id":3,"left_children":[1,3,5,7,9,11,-1,13,-1,15,17,19,21,23,25,27,29,-1,31,33,35,37,39,-1,-1,-1,-1,-1,-1,-1,-1,-1,-1,-1,-1,-1,-1,-1,-1,-1,-1],"loss_changes":[3.8805178E3,5.34722E2,1.1173416E5,7.1014703E2,1.4766102E3,9.058894E2,0E0,4.73151E2,0E0,1.01064795E3,1.3786478E3,1.0872007E2,9.4894147E2,4.364146E2,2.5190765E2,8.030851E1,3.3985144E2,0E0,3.8333435E0,1.8261624E2,2.869394E1,1.3967529E1,5.7735287E1,0E0,0E0,0E0,0E0,0E0,0E0,0E0,0E0,0E0,0E0,0E0,0E0,0E0,0E0,0E0,0E0,0E0,0E0],"parents":[2147483647,0,0,1,1,2,2,3,3,4,4,5,5,7,7,9,9,10,10,11,11,12,12,13,13,14,14,15,15,16,16,18,18,19,19,20,20,21,21,22,22],"right_children":[2,4,6,8,10,12,-1,14,-1,16,18,20,22,24,26,28,30,-1,32,34,36,38,40,-1,-1,-1,-1,-1,-1,-1,-1,-1,-1,-1,-1,-1,-1,-1,-1,-1,-1],"split_conditions":[1.9E1,1.8E1,2.1E1,1.05E2,1.3E1,1.1E1,9.05047E0,6.4E1,6.992787E-1,1.4E1,2E0,4E0,5E0,1.7E1,6E0,1.7E1,5E0,1.4301343E0,1.6E1,8E0,1.1E1,5E0,4E0,-1.4450431E-2,6.670352E-2,1.4642549E-1,6.705508E-1,-1.6459705E-2,1.5715449E-1,1.880309E-1,6.859305E-1,3.4462556E-1,2.47743E-1,-1.5104662E-2,1.952667E-1,-6.365271E-2,4.1134935E-2,5.5713654E-1,7.3024094E-1,1.8420474E-1,-0E0],"split_indices":[27,57,105,6,0,79,0,0,0,109,2,0,13,91,2,86,1,0,0,19,39,4,16,0,0,0,0,0,0,0,0,0,0,0,0,0,0,0,0,0,0],"split_type":[0,0,0,0,0,0,0,0,0,0,0,0,0,0,0,0,0,0,0,0,0,0,0,0,0,0,0,0,0,0,0,0,0,0,0,0,0,0,0,0,0],"sum_hessian":[1.506E3,1.461E3,4.5E1,1.415E3,4.6E1,4.4E1,1E0,1.414E3,1E0,4.2E1,4E0,3.6E1,8E0,1.411E3,3E0,3.8E1,4E0,1E0,3E0,1.5E1,2.1E1,3E0,5E0,1.362E3,4.9E1,2E0,1E0,3.6E1,2E0,2E0,2E0,1E0,2E0,1.1E1,4E0,1.9E1,2E0,1E0,2E0,2E0,3E0],"tree_param":{"num_deleted":"0","num_feature":"112","num_nodes":"41","size_leaf_vector":"1"}},{"base_weights":[-2.6552128E-3,-2.8865945E-1,1.832531E1,-3.9856285E-1,2.974056E0,4.0776258E0,8.810055E0,-7.742689E-1,2.2559854E-1,5.658644E-1,1.2098899E1,2.4329727E0,-7.86768E-2,-8.306287E-1,1.165493E1,1.7970867E-1,6.527384E-1,2.3925347E-2,5.423368E-1,1.3921442E0,7.600454E0,4.6141768E0,-1.9705464E0,-2.2960315E-2,6.4432806E-1,8.2034394E-2,5.3723264E-1,3.5665291E-3,3.304609E-1,-1.8604267E-2,1.24764904E-1,2.3557173E-2,5.596384E-1,1.7754556E-1,1.1900753E-2,-6.1068445E-2,5.9281163E-2],"categories":[],"categories_nodes":[],"categories_segments":[],"categories_sizes":[],"default_left":[0,0,0,0,0,0,0,0,0,0,0,0,0,0,0,0,0,0,0,0,0,0,0,0,0,0,0,0,0,0,0,0,0,0,0,0,0],"id":4,"left_children":[1,3,5,7,9,11,-1,13,15,17,19,-1,21,23,25,27,-1,29,-1,-1,31,33,35,-1,-1,-1,-1,-1,-1,-1,-1,-1,-1,-1,-1,-1,-1],"loss_changes":[7.848704E3,5.2839307E2,1.01977555E5,3.3474792E2,1.0522703E3,7.972701E3,0E0,6.220002E2,5.9019006E2,4.0218494E2,1.7856461E3,0E0,1.8601102E2,6.268717E2,2.8544635E2,2.98963E2,0E0,1.24605385E2,0E0,0E0,8.027128E2,4.934893E1,1.9821236E1,0E0,0E0,0E0,0E0,0E0,0E0,0E0,0E0,0E0,0E0,0E0,0E0,0E0,0E0],"parents":[2147483647,0,0,1,1,2,2,3,3,4,4,5,5,7,7,8,8,9,9,10,10,12,12,13,13,14,14,15,15,17,17,20,20,21,21,22,22],"right_children":[2,4,6,8,10,12,-1,14,16,18,20,-1,22,24,26,28,-1,30,-1,-1,32,34,36,-1,-1,-1,-1,-1,-1,-1,-1,-1,-1,-1,-1,-1,-1],"split_conditions":[2.3E1,1.8E1,1.5E1,5E0,7E0,2E0,8.810055E0,3.6E1,1.05E2,3.2E1,4E0,2.4329727E0,3E0,3.6E1,3E0,4E1,6.527384E-1,1.3E1,5.423368E-1,1.3921442E0,5E0,5E0,1.3E1,-2.2960315E-2,6.4432806E-1,8.2034394E-2,5.3723264E-1,3.5665291E-3,3.304609E-1,-1.8604267E-2,1.24764904E-1,2.3557173E-2,5.596384E-1,1.7754556E-1,1.1900753E-2,-6.1068445E-2,5.9281163E-2],"split_indices":[105,57,27,106,84,4,0,46,0,10,11,0,98,64,23,17,0,110,0,0,8,44,2,0,0,0,0,0,0,0,0,0,0,0,0,0,0],"split_type":[0,0,0,0,0,0,0,0,0,0,0,0,0,0,0,0,0,0,0,0,0,0,0,0,0,0,0,0,0,0,0,0,0,0,0,0,0],"sum_hessian":[1.498E3,1.475E3,2.3E1,1.427E3,4.8E1,2.2E1,1E0,8.91E2,5.36E2,3.8E1,1E1,1E0,2.1E1,8.87E2,4E0,5.35E2,1E0,3.7E1,1E0,1E0,9E0,6E0,1.5E1,8.86E2,1E0,2E0,2E0,5.33E2,2E0,3.2E1,5E0,6E0,3E0,4E0,2E0,1.4E1,1E0],"tree_param":{"num_deleted":"0","num_feature":"112","num_nodes":"37","size_leaf_vector":"1"}},{"base_weights":[-1.7236748E-3,-2.7102262E-1,8.693953E0,-3.349504E-1,8.934355E0,1.6181304E0,1.6026097E2,-6.4487904E-1,8.81841E-1,2.3683434E0,4.020559E-3,-4.7510022E-1,1.0795036E1,8.576026E0,-3.0671591E-2,-9.0788674E-1,4.366302E-1,6.1253506E-1,1.0442646E1,-2.1357057E0,2.0253816E-1,1.4953088E0,-1.9631361E0,2.422217E1,2.6784651E0,-2.9978389E-2,2.135863E-2,9.106389E-3,5.766343E-1,1.4156869E-2,6.3539916E-1,4.5776486E-2,6.651944E-1,-2.8052958E-2,-6.7542836E-2,-1.4420608E-2,1.9066894E-1,-6.323804E-2,4.1693363E-2,7.681666E-1,5.8202857E-1,1.799086E-1,-0E0],"categories":[],"categories_nodes":[],"categories_segments":[],"categories_sizes":[],"default_left":[0,0,0,0,0,0,0,0,0,0,0,0,0,0,0,0,0,0,0,0,0,0,0,0,0,0,0,0,0,0,0,0,0,0,0,0,0,0,0,0,0,0,0],"id":5,"left_children":[1,3,5,7,9,11,13,15,17,-1,19,21,23,-1,-1,25,27,29,31,33,-1,35,37,39,41,-1,-1,-1,-1,-1,-1,-1,-1,-1,-1,-1,-1,-1,-1,-1,-1,-1,-1],"loss_changes":[3.5085688E3,8.539114E2,4.823254E4,5.4451636E2,7.1026387E3,8.282606E2,5.208538E4,3.2749698E2,7.521268E2,0E0,1.4718309E2,1.0275237E2,8.666214E2,0E0,0E0,3.382107E2,4.5151E2,5.414963E2,1.00413574E3,2.2328587E0,0E0,1.7358115E2,2.8609505E1,1.9107056E1,5.5002895E1,0E0,0E0,0E0,0E0,0E0,0E0,0E0,0E0,0E0,0E0,0E0,0E0,0E0,0E0,0E0,0E0,0E0,0E0],"parents":[2147483647,0,0,1,1,2,2,3,3,4,4,5,5,6,6,7,7,8,8,10,10,11,11,12,12,15,15,16,16,17,17,18,18,19,19,21,21,22,22,23,23,24,24],"right_children":[2,4,6,8,10,12,14,16,18,-1,20,22,24,-1,-1,26,28,30,32,34,-1,36,38,40,42,-1,-1,-1,-1,-1,-1,-1,-1,-1,-1,-1,-1,-1,-1,-1,-1,-1,-1],"split_conditions":[1.9E1,2.9E1,1.3E1,8E0,2E0,1.1E1,3E0,8E0,1.8E1,2.3683434E0,5E0,4E0,5E0,8.576026E0,-3.0671591E-2,1E1,3.6E1,1.05E2,4E0,4E0,2.0253816E-1,8E0,9E0,2E0,4E0,-2.9978389E-2,2.135863E-2,9.106389E-3,5.766343E-1,1.4156869E-2,6.3539916E-1,4.5776486E-2,6.651944E-1,-2.8052958E-2,-6.7542836E-2,-1.4420608E-2,1.9066894E-1,-6.323804E-2,4.1693363E-2,7.681666E-1,5.8202857E-1,1.799086E-1,-0E0],"split_indices":[27,105,100,106,4,79,6,111,6,0,13,0,13,0,0,110,46,0,43,19,0,19,50,3,33,0,0,0,0,0,0,0,0,0,0,0,0,0,0,0,0,0,0],"split_type":[0,0,0,0,0,0,0,0,0,0,0,0,0,0,0,0,0,0,0,0,0,0,0,0,0,0,0,0,0,0,0,0,0,0,0,0,0,0,0,0,0,0,0],"sum_hessian":[1.499E3,1.454E3,4.5E1,1.444E3,1E1,4.3E1,2E0,1.151E3,2.93E2,1E0,9E0,3.5E1,8E0,1E0,1E0,9.26E2,2.25E2,2.85E2,8E0,7E0,2E0,1.5E1,2E1,3E0,5E0,8.23E2,1.03E2,2.24E2,1E0,2.84E2,1E0,5E0,3E0,2E0,5E0,1.1E1,4E0,1.8E1,2E0,1E0,2E0,2E0,3E0],"tree_param":{"num_deleted":"0","num_feature":"112","num_nodes":"43","size_leaf_vector":"1"}},{"base_weights":[1.40665695E-2,-2.584925E-1,1.8255123E1,-5.0670373E-1,1.2832778E0,8.348214E0,4.153504E0,-5.2889067E-1,1.339511E1,1.1503557E0,7.4545413E-1,1.2567692E-1,4.220074E1,-1.1859157E0,9.14922E-2,6.185205E-1,8.9839295E-2,1.0410341E0,6.1175126E-1,-1.3611237E0,5.745907E0,-5.122182E-2,2.3054311E0,-3.6102604E-2,8.1573226E-2,-8.058375E-5,2.7458465E-1,2.53522E-2,5.15356E-1,5.1058035E-2,-5.870228E-2,5.733036E-2,1.8362854E-1],"categories":[],"categories_nodes":[],"categories_segments":[],"categories_sizes":[],"default_left":[0,0,0,0,0,0,0,0,0,0,0,0,0,0,0,0,0,0,0,0,0,0,0,0,0,0,0,0,0,0,0,0,0],"id":6,"left_children":[1,3,5,7,9,-1,11,13,15,17,-1,19,21,23,25,-1,-1,27,-1,29,31,-1,-1,-1,-1,-1,-1,-1,-1,-1,-1,-1,-1],"loss_changes":[7.431557E3,5.631593E2,9.120344E4,3.8851276E2,7.154891E2,0E0,3.2104346E3,5.1625745E2,1.9034647E2,4.7746597E2,0E0,1.5976128E2,3.9183145E3,4.298794E2,6.2863837E2,0E0,0E0,3.3611234E2,0E0,4.110354E1,1.43007965E1,0E0,0E0,0E0,0E0,0E0,0E0,0E0,0E0,0E0,0E0,0E0,0E0],"parents":[2147483647,0,0,1,1,2,2,3,3,4,4,6,6,7,7,8,8,9,9,11,11,12,12,13,13,14,14,17,17,19,19,20,20],"right_children":[2,4,6,8,10,-1,12,14,16,18,-1,20,22,24,26,-1,-1,28,-1,30,32,-1,-1,-1,-1,-1,-1,-1,-1,-1,-1,-1,-1],"split_conditions":[2.3E1,1E1,2E0,6.4E1,3.5E1,8.348214E0,1.7E1,4E0,3.75E2,3.7E1,7.4545413E-1,1.1E1,2E0,1.5E1,2.4E1,6.185205E-1,8.9839295E-2,3.5E1,6.1175126E-1,3E0,2E0,-5.122182E-2,2.3054311E0,-3.6102604E-2,8.1573226E-2,-8.058375E-5,2.7458465E-1,2.53522E-2,5.15356E-1,5.1058035E-2,-5.870228E-2,5.733036E-2,1.8362854E-1],"split_indices":[105,110,14,0,2,0,94,96,0,81,0,23,0,101,57,0,0,11,0,98,0,0,0,0,0,0,0,0,0,0,0,0,0],"split_type":[0,0,0,0,0,0,0,0,0,0,0,0,0,0,0,0,0,0,0,0,0,0,0,0,0,0,0,0,0,0,0,0,0],"sum_hessian":[1.494E3,1.472E3,2.2E1,1.268E3,2.04E2,1E0,2.1E1,1.266E3,2E0,2.03E2,1E0,1.9E1,2E0,6.15E2,6.51E2,1E0,1E0,2.02E2,1E0,1.5E1,4E0,1E0,1E0,5.92E2,2.3E1,6.45E2,6E0,2.01E2,1E0,3E0,1.2E1,1E0,3E0],"tree_param":{"num_deleted":"0","num_feature":"112","num_nodes":"33","size_leaf_vector":"1"}},{"base_weights":[1.3885729E-2,-2.505603E-1,1.6908478E1,-4.8994458E-1,1.2672793E0,8.126452E0,3.7658303E0,-7.089107E-1,7.2232884E-1,7.213449E-1,7.98385E0,4.4942856E1,-3.5392776E-1,-1.1076578E0,1.6885115E-2,6.0034865E-1,1.2293537E1,5.7569504E-1,7.25652E-1,1.3476275E0,4.917148E0,2.2441897E0,1.4527318E-1,-8.032961E-1,2.120391E-1,-4.166726E-2,-4.7521214E-3,-8.6129253E-4,5.016661E-1,8.851186E-2,5.1594707E-3,4.6144068E-1,1.8821892E-1,1.180653E-2,6.6077137E-1,6.020902E-1,9.45158E-2,4.4292957E-2,-6.028532E-2],"categories":[],"categories_nodes":[],"categories_segments":[],"categories_sizes":[],"default_left":[0,0,0,0,0,0,0,0,0,0,0,0,0,0,0,0,0,0,0,0,0,0,0,0,0,0,0,0,0,0,0,0,0,0,0,0,0,0,0],"id":7,"left_children":[1,3,5,7,9,-1,11,13,15,17,19,21,23,25,27,29,31,33,-1,-1,35,-1,-1,37,-1,-1,-1,-1,-1,-1,-1,-1,-1,-1,-1,-1,-1,-1,-1],"loss_changes":[6.66928E3,5.336035E2,8.676276E4,3.3685397E2,7.3156824E2,0E0,3.742303E3,3.1133948E2,2.7114966E2,7.06487E2,1.9404312E3,3.0725032E3,7.3093216E1,2.910193E2,3.5480655E2,2.1134024E2,4.667914E1,5.897916E2,0E0,0E0,3.3471066E2,0E0,0E0,6.808017E1,0E0,0E0,0E0,0E0,0E0,0E0,0E0,0E0,0E0,0E0,0E0,0E0,0E0,0E0,0E0],"parents":[2147483647,0,0,1,1,2,2,3,3,4,4,6,6,7,7,8,8,9,9,10,10,11,11,12,12,13,13,14,14,15,15,16,16,17,17,20,20,23,23],"right_children":[2,4,6,8,10,-1,12,14,16,18,20,22,24,26,28,30,32,34,-1,-1,36,-1,-1,38,-1,-1,-1,-1,-1,-1,-1,-1,-1,-1,-1,-1,-1,-1,-1],"split_conditions":[2.3E1,1E1,2E0,9E0,1.3E1,8.126452E0,2E0,5E0,2.8E1,4E1,2E0,3E0,1.6E1,5E0,4E1,2E0,3E0,3.3E1,7.25652E-1,1.3476275E0,2E0,2.2441897E0,1.4527318E-1,4E0,2.120391E-1,-4.166726E-2,-4.7521214E-3,-8.6129253E-4,5.016661E-1,8.851186E-2,5.1594707E-3,4.6144068E-1,1.8821892E-1,1.180653E-2,6.6077137E-1,6.020902E-1,9.45158E-2,4.4292957E-2,-6.028532E-2],"split_indices":[105,100,14,95,0,0,22,92,25,11,6,0,10,110,20,33,1,6,0,0,12,0,0,54,0,0,0,0,0,0,0,0,0,0,0,0,0,0,0],"split_type":[0,0,0,0,0,0,0,0,0,0,0,0,0,0,0,0,0,0,0,0,0,0,0,0,0,0,0,0,0,0,0,0,0,0,0,0,0,0,0],"sum_hessian":[1.492E3,1.469E3,2.3E1,1.269E3,2E2,1E0,2.2E1,1.075E3,1.94E2,1.85E2,1.5E1,2E0,2E1,6.94E2,3.81E2,1.92E2,2E0,1.84E2,1E0,1E0,1.4E1,1E0,1E0,1.9E1,1E0,4.67E2,2.27E2,3.8E2,1E0,2.5E1,1.67E2,1E0,1E0,1.83E2,1E0,1E0,1.3E1,7E0,1.2E1],"tree_param":{"num_deleted":"0","num_feature":"112","num_nodes":"39","size_leaf_vector":"1"}},{"base_weights":[1.6580362E-2,-2.3702973E-1,1.7105366E1,-7.5770664E-1,2.520319E-1,3.7332954E0,7.9105825E0,-1.2517712E0,5.7572025E-1,2.0252673E-1,1.2716254E1,-8.2215756E-2,3.997413E1,-1.3060045E0,1.2762622E1,4.398674E-1,7.0637584E-1,1.6548426E-1,7.477861E-1,4.1010067E-2,1.8183748E1,-1.3413767E0,1.7516083E-1,2.1845756E0,-4.9017042E-2,-4.5169163E-2,5.8249943E-3,5.8609635E-1,8.855966E-2,8.417495E-3,6.4321876E-1,-4.7449665E-3,3.2146525E-2,3.679077E-1,5.9562707E-1,-4.6638276E-2,1.1990633E-1],"categories":[],"categories_nodes":[],"categories_segments":[],"categories_sizes":[],"default_left":[0,0,0,0,0,0,0,0,0,0,0,0,0,0,0,0,0,0,0,0,0,0,0,0,0,0,0,0,0,0,0,0,0,0,0,0,0],"id":8,"left_children":[1,3,5,7,9,11,-1,13,15,17,19,21,23,25,27,29,-1,31,-1,-1,33,35,-1,-1,-1,-1,-1,-1,-1,-1,-1,-1,-1,-1,-1,-1,-1],"loss_changes":[6.521669E3,3.7748712E2,8.200524E4,4.7316428E2,4.6876697E2,2.9128347E3,0E0,3.960263E2,6.7592303E2,7.7730884E2,1.795737E2,1.5781427E2,3.5206396E3,3.0596216E2,1.6819229E2,5.6451904E2,0E0,2.7068423E2,0E0,0E0,2.714508E1,3.7158073E1,0E0,0E0,0E0,0E0,0E0,0E0,0E0,0E0,0E0,0E0,0E0,0E0,0E0,0E0,0E0],"parents":[2147483647,0,0,1,1,2,2,3,3,4,4,5,5,7,7,8,8,9,9,10,10,11,11,12,12,13,13,14,14,15,15,17,17,20,20,21,21],"right_children":[2,4,6,8,10,12,-1,14,16,18,20,22,24,26,28,30,-1,32,-1,-1,34,36,-1,-1,-1,-1,-1,-1,-1,-1,-1,-1,-1,-1,-1,-1,-1],"split_conditions":[2.3E1,4E0,1.5E1,6E0,3.7E1,1.3E1,7.9105825E0,3.6E1,3.5E1,6.4E1,3E0,1.1E1,2E0,7E0,3.75E2,4E1,7.0637584E-1,8E0,7.477861E-1,4.1010067E-2,5E0,1.3E1,1.7516083E-1,2.1845756E0,-4.9017042E-2,-4.5169163E-2,5.8249943E-3,5.8609635E-1,8.855966E-2,8.417495E-3,6.4321876E-1,-4.7449665E-3,3.2146525E-2,3.679077E-1,5.9562707E-1,-4.6638276E-2,1.1990633E-1],"split_indices":[105,96,27,110,81,91,0,0,2,71,8,23,4,99,0,6,0,100,0,0,0,48,0,0,0,0,0,0,0,0,0,0,0,0,0,0,0],"split_type":[0,0,0,0,0,0,0,0,0,0,0,0,0,0,0,0,0,0,0,0,0,0,0,0,0,0,0,0,0,0,0,0,0,0,0,0,0],"sum_hessian":[1.504E3,1.482E3,2.2E1,7.18E2,7.64E2,2.1E1,1E0,5.24E2,1.94E2,7.61E2,3E0,1.9E1,2E0,5.22E2,2E0,1.93E2,1E0,7.6E2,1E0,1E0,2E0,1.6E1,3E0,1E0,1E0,4.17E2,1.05E2,1E0,1E0,1.92E2,1E0,5.71E2,1.89E2,1E0,1E0,1.5E1,1E0],"tree_param":{"num_deleted":"0","num_feature":"112","num_nodes":"37","size_leaf_vector":"1"}},{"base_weights":[-7.7619054E-3,-2.5871193E-1,1.6018202E1,-3.5317582E-1,2.5966601E0,7.7004466E0,3.5638554E0,-9.685006E-1,2.339787E-1,1.3403796E0,3.0672197E1,1.2342679E-2,3.887045E1,-1.342616E0,-1.9628064E-1,1.9160083E-1,1.038637E1,3.437368E-1,2.260093E1,1.3109756E0,3.1803864E-1,4.1487026E0,-1.7468002E0,-4.9798865E-2,2.1265447E0,-3.693612E-2,4.4930908E-1,-4.880822E-2,7.993618E-3,4.249789E-3,6.2613237E-1,-1.08572766E-1,4.7310138E-1,-2.1553442E-3,4.8811635E-1,6.876118E-1,5.113039E-1,1.586072E-1,1.2477696E-2,-5.455625E-2,4.997791E-2],"categories":[],"categories_nodes":[],"categories_segments":[],"categories_sizes":[],"default_left":[0,0,0,0,0,0,0,0,0,0,0,0,0,0,0,0,0,0,0,0,0,0,0,0,0,0,0,0,0,0,0,0,0,0,0,0,0,0,0,0,0],"id":9,"left_children":[1,3,5,7,9,-1,11,13,15,17,19,21,23,25,27,29,31,33,35,-1,-1,37,39,-1,-1,-1,-1,-1,-1,-1,-1,-1,-1,-1,-1,-1,-1,-1,-1,-1,-1],"loss_changes":[6.0012476E3,3.9605063E2,7.7906766E4,5.142705E2,1.6511423E3,0E0,2.7514185E3,2.0047046E2,3.1103934E2,9.4890045E2,6.762915E2,1.4610764E2,3.3428916E3,3.3288245E2,1.8363751E2,5.439548E2,3.210349E2,3.3082007E2,9.632446E0,0E0,0E0,3.817566E1,1.49869E1,0E0,0E0,0E0,0E0,0E0,0E0,0E0,0E0,0E0,0E0,0E0,0E0,0E0,0E0,0E0,0E0,0E0,0E0],"parents":[2147483647,0,0,1,1,2,2,3,3,4,4,6,6,7,7,8,8,9,9,10,10,11,11,12,12,13,13,14,14,15,15,16,16,17,17,18,18,21,21,22,22],"right_children":[2,4,6,8,10,-1,12,14,16,18,20,22,24,26,28,30,32,34,36,-1,-1,38,40,-1,-1,-1,-1,-1,-1,-1,-1,-1,-1,-1,-1,-1,-1,-1,-1,-1,-1],"split_conditions":[2.3E1,1.8E1,2E0,4E0,1.3E1,7.7004466E0,1.7E1,5E0,3.7E1,2.8E1,2E0,3E0,2E0,3.5E1,3E0,4E1,2E0,1.7E1,9E0,1.3109756E0,3.1803864E-1,5E0,1.1E1,-4.9798865E-2,2.1265447E0,-3.693612E-2,4.4930908E-1,-4.880822E-2,7.993618E-3,4.249789E-3,6.2613237E-1,-1.08572766E-1,4.7310138E-1,-2.1553442E-3,4.8811635E-1,6.876118E-1,5.113039E-1,1.586072E-1,1.2477696E-2,-5.455625E-2,4.997791E-2],"split_indices":[105,57,14,110,0,0,94,92,81,80,2,98,0,46,63,6,2,15,1,0,0,44,23,0,0,0,0,0,0,0,0,0,0,0,0,0,0,0,0,0,0],"split_type":[0,0,0,0,0,0,0,0,0,0,0,0,0,0,0,0,0,0,0,0,0,0,0,0,0,0,0,0,0,0,0,0,0,0,0,0,0,0,0,0,0],"sum_hessian":[1.493E3,1.47E3,2.3E1,1.423E3,4.7E1,1E0,2.2E1,6.95E2,7.28E2,4.5E1,2E0,2E1,2E0,4.68E2,2.27E2,7.25E2,3E0,4.3E1,2E0,1E0,1E0,6E0,1.4E1,1E0,1E0,4.67E2,1E0,5.3E1,1.74E2,7.24E2,1E0,1E0,2E0,4.2E1,1E0,1E0,1E0,4E0,2E0,1.3E1,1E0],"tree_param":{"num_deleted":"0","num_feature":"112","num_nodes":"41","size_leaf_vector":"1"}},{"base_weights":[7.5885165E-4,-2.4288644E-1,1.7049252E1,-4.7185767E-1,1.2005222E0,7.4958935E0,3.7862895E0,-1.0850617E0,1.2386686E-1,9.940323E-1,2.1579689E1,-3.981272E-1,4.143623E1,-1.1289371E0,1.2442599E1,3.54599E-2,9.466245E0,8.9017576E-1,5.6723744E-1,6.6934615E-1,4.7515014E-1,-1.5271572E0,5.1707363E0,2.0700555E0,1.3254799E-1,-3.784615E-2,2.8501427E-2,8.718834E-2,5.704144E-1,1.5323299E-4,4.977217E-1,1.2761508E0,4.5957837E-2,-2.1194352E-2,3.782667E-2,-5.2196592E-2,1.1250794E-1,4.8650302E-2,1.7994176E-1],"categories":[],"categories_nodes":[],"categories_segments":[],"categories_sizes":[],"default_left":[0,0,0,0,0,0,0,0,0,0,0,0,0,0,0,0,0,0,0,0,0,0,0,0,0,0,0,0,0,0,0,0,0,0,0,0,0,0,0],"id":10,"left_children":[1,3,5,7,9,-1,11,13,15,17,19,21,23,25,27,29,31,33,-1,-1,-1,35,37,-1,-1,-1,-1,-1,-1,-1,-1,-1,-1,-1,-1,-1,-1,-1,-1],"loss_changes":[6.192627E3,4.853595E2,7.333223E4,4.634008E2,8.4110535E2,0E0,3.1603018E3,3.687326E2,5.291333E2,4.1351852E2,1.4987671E1,1.1251355E2,2.6168625E3,3.9299524E2,1.5848563E2,3.4818738E2,1.7707256E3,1.7521368E2,0E0,0E0,0E0,3.6266388E1,1.3914146E1,0E0,0E0,0E0,0E0,0E0,0E0,0E0,0E0,0E0,0E0,0E0,0E0,0E0,0E0,0E0,0E0],"parents":[2147483647,0,0,1,1,2,2,3,3,4,4,6,6,7,7,8,8,9,9,10,10,11,11,12,12,13,13,14,14,15,15,16,16,17,17,21,21,22,22],"right_children":[2,4,6,8,10,-1,12,14,16,18,20,22,24,26,28,30,32,34,-1,-1,-1,36,38,-1,-1,-1,-1,-1,-1,-1,-1,-1,-1,-1,-1,-1,-1,-1,-1],"split_conditions":[2.3E1,1E1,2E0,4E0,3.5E1,7.4958935E0,9E0,3.6E1,2.4E1,3.7E1,9E0,1.1E1,2E0,9E0,6E0,3.7E1,5E0,3E0,5.6723744E-1,6.6934615E-1,4.7515014E-1,1.2E1,2E0,2.0700555E0,1.3254799E-1,-3.784615E-2,2.8501427E-2,8.718834E-2,5.704144E-1,1.5323299E-4,4.977217E-1,1.2761508E0,4.5957837E-2,-2.1194352E-2,3.782667E-2,-5.2196592E-2,1.1250794E-1,4.8650302E-2,1.7994176E-1],"split_indices":[105,110,14,96,11,0,11,0,57,81,1,23,4,95,2,74,15,94,0,0,0,32,0,0,0,0,0,0,0,0,0,0,0,0,0,0,0,0,0],"split_type":[0,0,0,0,0,0,0,0,0,0,0,0,0,0,0,0,0,0,0,0,0,0,0,0,0,0,0,0,0,0,0,0,0,0,0,0,0,0,0],"sum_hessian":[1.49E3,1.469E3,2.1E1,1.268E3,2.01E2,1E0,2E1,6.25E2,6.43E2,1.99E2,2E0,1.8E1,2E0,6.23E2,2E0,6.37E2,6E0,1.98E2,1E0,1E0,1E0,1.5E1,3E0,1E0,1E0,5.51E2,7.2E1,1E0,1E0,6.36E2,1E0,1E0,5E0,4.7E1,1.51E2,1.4E1,1E0,1E0,2E0],"tree_param":{"num_deleted":"0","num_feature":"112","num_nodes":"39","size_leaf_vector":"1"}},{"base_weights":[-2.045781E-2,-2.9093882E-1,4.3107853E0,-1.0354251E0,7.753896E-2,1.2737348E0,9.01177E1,-1.0872617E0,6.087428E-1,4.557333E-4,1.034662E1,8.429388E-1,1.899365E1,7.296773E0,-4.7797665E-2,-1.2419301E0,2.9847703E0,-2.155641E-2,5.521694E-1,2.0150666E0,-5.2685213E-1,-1.2209414E-1,3.8921387E0,3.5512674E-1,6.5156573E-1,-3.499634E-2,2.33217E-1,5.0314475E-2,5.424064E-1,-5.53271E-3,4.3709435E-2,1.5105355E-1,-4.8339814E-2,-1.28486585E-2,5.8214843E-1,1.0449324E-2,3.2118702E-1],"categories":[],"categories_nodes":[],"categories_segments":[],"categories_sizes":[],"default_left":[0,0,0,0,0,0,0,0,0,0,0,0,0,0,0,0,0,0,0,0,0,0,0,0,0,0,0,0,0,0,0,0,0,0,0,0,0],"id":11,"left_children":[1,3,5,7,9,11,13,15,-1,17,19,21,23,-1,-1,25,27,29,-1,-1,31,33,35,-1,-1,-1,-1,-1,-1,-1,-1,-1,-1,-1,-1,-1,-1],"loss_changes":[1.7541279E3,3.8699863E2,2.2914979E4,5.722145E2,7.443425E2,6.44754E2,5.0596047E4,2.9316327E2,0E0,4.2992764E2,4.971584E3,2.4502571E2,5.2004333E1,0E0,0E0,3.012735E2,3.1967374E2,2.870986E2,0E0,0E0,4.6854736E1,4.9079083E2,5.6665393E2,0E0,0E0,0E0,0E0,0E0,0E0,0E0,0E0,0E0,0E0,0E0,0E0,0E0,0E0],"parents":[2147483647,0,0,1,1,2,2,3,3,4,4,5,5,6,6,7,7,9,9,10,10,11,11,12,12,15,15,16,16,17,17,20,20,21,21,22,22],"right_children":[2,4,6,8,10,12,14,16,-1,18,20,22,24,-1,-1,26,28,30,-1,-1,32,34,36,-1,-1,-1,-1,-1,-1,-1,-1,-1,-1,-1,-1,-1,-1],"split_conditions":[1.4E1,3E0,1.9E1,3.6E1,2.9E1,1.9E1,6E0,1.5E1,6.087428E-1,4E1,2E0,6E0,5E0,7.296773E0,-4.7797665E-2,2.2E1,9E0,1.2E1,5.521694E-1,2.0150666E0,2E0,2.1E1,1E1,3.5512674E-1,6.5156573E-1,-3.499634E-2,2.33217E-1,5.0314475E-2,5.424064E-1,-5.53271E-3,4.3709435E-2,1.5105355E-1,-4.8339814E-2,-1.28486585E-2,5.8214843E-1,1.0449324E-2,3.2118702E-1],"split_indices":[100,96,105,6,105,81,8,95,0,44,4,53,1,0,0,74,9,111,0,0,2,101,89,0,0,0,0,0,0,0,0,0,0,0,0,0,0],"split_type":[0,0,0,0,0,0,0,0,0,0,0,0,0,0,0,0,0,0,0,0,0,0,0,0,0,0,0,0,0,0,0,0,0,0,0,0,0],"sum_hessian":[1.498E3,1.41E3,8.8E1,4.67E2,9.43E2,8.5E1,3E0,4.66E2,1E0,9.36E2,7E0,8.3E1,2E0,1E0,2E0,4.49E2,1.7E1,9.35E2,1E0,1E0,6E0,6.3E1,2E1,1E0,1E0,4.46E2,3E0,1.6E1,1E0,8.41E2,9.4E1,1E0,5E0,6.2E1,1E0,1.4E1,6E0],"tree_param":{"num_deleted":"0","num_feature":"112","num_nodes":"37","size_leaf_vector":"1"}},{"base_weights":[1.7505648E-2,-2.1262707E-1,7.6207533E0,-4.7584027E-1,1.4258376E0,1.5756718E0,7.102943E0,-7.008473E-1,7.208766E-1,9.1027296E-1,8.862099E0,6.564028E-1,2.0260225E1,-1.3696991E0,-3.2961017E-1,6.398942E-1,4.3751657E-1,5.3522915E-1,1.2240611E1,1.2423985E0,5.687634E0,-1.0911841E0,6.889334E0,3.462332E-1,7.27952E-1,-4.4215064E-2,1.1268253E-3,-9.658131E-3,5.5763674E-1,8.738932E-2,6.3784756E-3,1.0826983E-2,6.342576E-1,1.9615387E0,-6.432202E-4,-6.6775572E-3,3.1142485E-1,3.013735E-1,-4.005559E-2,8.851958E-2,5.1467633E-1],"categories":[],"categories_nodes":[],"categories_segments":[],"categories_sizes":[],"default_left":[0,0,0,0,0,0,0,0,0,0,0,0,0,0,0,0,0,0,0,0,0,0,0,0,0,0,0,0,0,0,0,0,0,0,0,0,0,0,0,0,0],"id":12,"left_children":[1,3,5,7,9,11,-1,13,15,17,19,21,23,25,27,29,-1,31,33,-1,35,37,39,-1,-1,-1,-1,-1,-1,-1,-1,-1,-1,-1,-1,-1,-1,-1,-1,-1,-1],"loss_changes":[2.6209207E3,6.2644116E2,6.862142E4,3.3712637E2,7.685841E2,7.343186E2,0E0,2.6136218E2,2.4742073E2,7.9625507E2,1.5413042E3,4.4789288E2,9.1923645E1,1.515357E2,4.5280725E2,2.0717244E2,0E0,5.442582E2,4.5201836E3,0E0,4.2763165E2,1.594948E2,3.934804E2,0E0,0E0,0E0,0E0,0E0,0E0,0E0,0E0,0E0,0E0,0E0,0E0,0E0,0E0,0E0,0E0,0E0,0E0],"parents":[2147483647,0,0,1,1,2,2,3,3,4,4,5,5,7,7,8,8,9,9,10,10,11,11,12,12,13,13,14,14,15,15,17,17,18,18,20,20,21,21,22,22],"right_children":[2,4,6,8,10,12,-1,14,16,18,20,22,24,26,28,30,-1,32,34,-1,36,38,40,-1,-1,-1,-1,-1,-1,-1,-1,-1,-1,-1,-1,-1,-1,-1,-1,-1,-1],"split_conditions":[1.9E1,1E1,2.1E1,9E0,1.3E1,1.3E1,7.102943E0,3E0,3.5E1,1.7E1,2E0,9E0,3E0,7E0,5.4E1,2E0,4.3751657E-1,2.9E1,2E0,1.2423985E0,6E0,2E0,1E1,3.462332E-1,7.27952E-1,-4.4215064E-2,1.1268253E-3,-9.658131E-3,5.5763674E-1,8.738932E-2,6.3784756E-3,1.0826983E-2,6.342576E-1,1.9615387E0,-6.432202E-4,-6.6775572E-3,3.1142485E-1,3.013735E-1,-4.005559E-2,8.851958E-2,5.1467633E-1],"split_indices":[27,100,105,95,0,83,0,96,46,37,6,79,0,105,5,33,0,75,1,0,46,59,20,0,0,0,0,0,0,0,0,0,0,0,0,0,0,0,0,0,0],"split_type":[0,0,0,0,0,0,0,0,0,0,0,0,0,0,0,0,0,0,0,0,0,0,0,0,0,0,0,0,0,0,0,0,0,0,0,0,0,0,0,0,0],"sum_hessian":[1.497E3,1.453E3,4.4E1,1.252E3,2.01E2,4.3E1,1E0,1.054E3,1.98E2,1.88E2,1.3E1,4.1E1,2E0,3.76E2,6.78E2,1.97E2,1E0,1.82E2,6E0,1E0,1.2E1,3.2E1,9E0,1E0,1E0,3.13E2,6.3E1,6.77E2,1E0,2.6E1,1.71E2,1.81E2,1E0,1E0,5E0,6E0,6E0,1E0,3.1E1,7E0,2E0],"tree_param":{"num_deleted":"0","num_feature":"112","num_nodes":"41","size_leaf_vector":"1"}},{"base_weights":[-8.649214E-3,-2.30281E-1,7.161822E0,-4.9164236E-1,1.3831962E0,1.4050897E0,6.9142604E0,-1.1330737E0,-1.5784433E-1,1.0610518E0,1.1914552E1,8.1272304E-1,7.0861477E-1,-1.1804024E0,3.8387632E0,-1.8308328E-1,5.4282373E-1,7.8740233E-1,1.151476E1,1.9094329E0,-2.3426877E-2,3.5775363E-1,5.238299E-1,-5.467939E-2,-1.6841188E-2,-4.001902E-3,4.2589444E-1,-5.977919E-3,2.8970397E-1,1.3457486E-2,1.7454825E-1,5.823918E-1,1.2198316E-1,-6.514363E-2,2.5085694E-1,-7.0129232E-3,3.4278068E-1],"categories":[],"categories_nodes":[],"categories_segments":[],"categories_sizes":[],"default_left":[0,0,0,0,0,0,0,0,0,0,0,0,0,0,0,0,0,0,0,0,0,0,0,0,0,0,0,0,0,0,0,0,0,0,0,0,0],"id":13,"left_children":[1,3,5,7,9,11,-1,13,15,17,19,21,-1,23,25,27,-1,29,31,-1,33,35,-1,-1,-1,-1,-1,-1,-1,-1,-1,-1,-1,-1,-1,-1,-1],"loss_changes":[2.3855867E3,6.1424207E2,6.512312E4,2.682282E2,6.8599133E2,6.488726E2,0E0,1.0043317E2,4.2214304E2,5.6099506E2,4.2833564E3,3.6350806E2,0E0,2.0188025E2,1.9654889E2,3.667317E2,0E0,3.1157574E2,3.5161932E2,0E0,1.12448944E2,3.2742416E2,0E0,0E0,0E0,0E0,0E0,0E0,0E0,0E0,0E0,0E0,0E0,0E0,0E0,0E0,0E0],"parents":[2147483647,0,0,1,1,2,2,3,3,4,4,5,5,7,7,8,8,9,9,10,10,11,11,13,13,14,14,15,15,17,17,18,18,20,20,21,21],"right_children":[2,4,6,8,10,12,-1,14,16,18,20,22,-1,24,26,28,-1,30,32,-1,34,36,-1,-1,-1,-1,-1,-1,-1,-1,-1,-1,-1,-1,-1,-1,-1],"split_conditions":[1.9E1,1E1,2.1E1,3E0,1.7E1,1.3E1,6.9142604E0,2.8E1,5.4E1,2E1,2E0,4E1,7.0861477E-1,3E0,7E0,3E1,5.4282373E-1,1.8E1,5E0,1.9094329E0,5E0,2.1E1,5.238299E-1,-5.467939E-2,-1.6841188E-2,-4.001902E-3,4.2589444E-1,-5.977919E-3,2.8970397E-1,1.3457486E-2,1.7454825E-1,5.823918E-1,1.2198316E-1,-6.514363E-2,2.5085694E-1,-7.0129232E-3,3.4278068E-1],"split_indices":[27,100,105,102,37,109,0,84,5,106,1,44,0,110,7,28,0,57,39,0,1,79,0,0,0,0,0,0,0,0,0,0,0,0,0,0,0],"split_type":[0,0,0,0,0,0,0,0,0,0,0,0,0,0,0,0,0,0,0,0,0,0,0,0,0,0,0,0,0,0,0,0,0,0,0,0,0],"sum_hessian":[1.502E3,1.457E3,4.5E1,1.254E3,2.03E2,4.4E1,1E0,4.29E2,8.25E2,1.97E2,6E0,4.3E1,1E0,4.25E2,4E0,8.24E2,1E0,1.92E2,5E0,1E0,5E0,4.2E1,1E0,1.65E2,2.6E2,3E0,1E0,8.21E2,3E0,1.83E2,9E0,2E0,3E0,4E0,1E0,4E1,2E0],"tree_param":{"num_deleted":"0","num_feature":"112","num_nodes":"37","size_leaf_vector":"1"}},{"base_weights":[2.5181153E-3,-3.5537237E-1,3.392518E0,-8.2483506E-1,1.0147715E-1,1.674601E0,2.8929474E1,-8.730083E-1,9.7659E0,7.5877145E-2,4.630906E-1,1.0922232E0,1.4051062E1,6.730592E0,8.6946017E-1,-8.9813536E-1,4.14581E-1,-7.650762E-2,1.6171915E1,-1.9129786E-1,1.459263E0,5.940432E-1,1.3291147E1,1.8587108E0,2.8395824E0,-8.3748214E-2,7.6026096E0,-2.8315267E-2,5.1089816E-2,3.464141E-1,5.0991493E-1,8.652094E-3,-1.7614158E-2,3.4469426E-2,5.2840424E-1,8.869207E-3,4.3570516E-1,-1.3136094E-2,9.087833E-1,3.2552022E-1,-8.903992E-2,1.1545433E-1,2.4382514E-1],"categories":[],"categories_nodes":[],"categories_segments":[],"categories_sizes":[],"default_left":[0,0,0,0,0,0,0,0,0,0,0,0,0,0,0,0,0,0,0,0,0,0,0,0,0,0,0,0,0,0,0,0,0,0,0,0,0,0,0,0,0,0,0],"id":14,"left_children":[1,3,5,7,9,11,13,15,17,19,-1,21,23,-1,25,27,-1,-1,29,31,33,35,37,-1,39,-1,41,-1,-1,-1,-1,-1,-1,-1,-1,-1,-1,-1,-1,-1,-1,-1,-1],"loss_changes":[1.8168689E3,2.9054724E2,6.267176E3,3.3904254E2,2.9897467E2,9.6269543E2,5.6283113E4,2.7090845E2,2.4618869E2,2.5344345E2,0E0,7.750383E2,3.7212917E3,0E0,2.1685889E2,3.0101575E2,0E0,0E0,1.0684692E1,1.3838023E2,3.3995355E2,5.0316574E2,1.4362494E3,0E0,2.9065002E2,0E0,1.2023254E1,0E0,0E0,0E0,0E0,0E0,0E0,0E0,0E0,0E0,0E0,0E0,0E0,0E0,0E0,0E0,0E0],"parents":[2147483647,0,0,1,1,2,2,3,3,4,4,5,5,6,6,7,7,8,8,9,9,11,11,12,12,14,14,15,15,18,18,19,19,20,20,21,21,22,22,24,24,26,26],"right_children":[2,4,6,8,10,12,14,16,18,20,-1,22,24,-1,26,28,-1,-1,30,32,34,36,38,-1,40,-1,42,-1,-1,-1,-1,-1,-1,-1,-1,-1,-1,-1,-1,-1,-1,-1,-1],"split_conditions":[1.2E1,4E0,1.5E1,3.6E1,4E1,1.5E1,3E0,3.7E1,3E0,1E1,4.630906E-1,1.8E1,3E0,6.730592E0,6E0,1.4E1,4.14581E-1,-7.650762E-2,5E0,4E0,2E1,1.8E1,1.2E1,1.8587108E0,3E0,-8.3748214E-2,4E0,-2.8315267E-2,5.1089816E-2,3.464141E-1,5.0991493E-1,8.652094E-3,-1.7614158E-2,3.4469426E-2,5.2840424E-1,8.869207E-3,4.3570516E-1,-1.3136094E-2,9.087833E-1,3.2552022E-1,-8.903992E-2,1.1545433E-1,2.4382514E-1],"split_indices":[100,92,78,81,20,37,34,83,1,111,0,57,5,0,20,86,0,0,0,49,46,110,62,0,63,0,1,0,0,0,0,0,0,0,0,0,0,0,0,0,0,0,0],"split_type":[0,0,0,0,0,0,0,0,0,0,0,0,0,0,0,0,0,0,0,0,0,0,0,0,0,0,0,0,0,0,0,0,0,0,0,0,0,0,0,0,0,0,0],"sum_hessian":[1.497E3,1.354E3,1.43E2,6.68E2,6.86E2,1.34E2,9E0,6.65E2,3E0,6.85E2,1E0,1.28E2,6E0,1E0,8E0,6.64E2,1E0,1E0,2E0,5.74E2,1.11E2,1.23E2,5E0,1E0,5E0,5E0,3E0,6.28E2,3.6E1,1E0,1E0,2.73E2,3.01E2,1.1E2,1E0,1.21E2,2E0,3E0,2E0,2E0,3E0,1E0,2E0],"tree_param":{"num_deleted":"0","num_feature":"112","num_nodes":"43","size_leaf_vector":"1"}},{"base_weights":[-2.1492643E-2,-2.3416997E-1,1.3642178E1,-9.506077E-1,1.0563412E-1,3.0448194E0,6.5518007E0,-1.0012141E0,1.0908174E1,-1.9131131E-1,1.6949697E0,3.6438305E1,-2.942606E-1,-1.0317041E0,3.5107338E-1,4.0356815E-1,1.722688E-1,-2.2156939E-1,1.2422913E1,1.5659248E0,5.777979E-1,1.8093363E0,1.2693964E-1,3.6714144E0,-1.6307249E0,-4.8918214E-2,-1.5793834E-2,-2.697235E-2,3.4057242E-3,-2.283868E-2,6.902591E-1,2.9642161E-2,2.4179369E-1,1.3119702E-1,-2.8778763E-2,-5.446657E-2,2.4416257E-2],"categories":[],"categories_nodes":[],"categories_segments":[],"categories_sizes":[],"default_left":[0,0,0,0,0,0,0,0,0,0,0,0,0,0,0,0,0,0,0,0,0,0,0,0,0,0,0,0,0,0,0,0,0,0,0,0,0],"id":15,"left_children":[1,3,5,7,9,11,-1,13,15,17,19,21,23,25,-1,-1,-1,27,29,31,-1,-1,-1,33,35,-1,-1,-1,-1,-1,-1,-1,-1,-1,-1,-1,-1],"loss_changes":[4.362035E3,3.602352E2,5.639143E4,2.83705E2,4.7367416E2,2.4612058E3,0E0,2.0193933E2,3.2539658E1,3.2004462E2,4.0134637E2,1.9707957E3,1.0565018E2,1.6601361E2,0E0,0E0,0E0,2.3194736E2,3.6232404E2,5.343745E2,0E0,0E0,0E0,3.0242455E1,1.5796574E1,0E0,0E0,0E0,0E0,0E0,0E0,0E0,0E0,0E0,0E0,0E0,0E0],"parents":[2147483647,0,0,1,1,2,2,3,3,4,4,5,5,7,7,8,8,9,9,10,10,11,11,12,12,13,13,17,17,18,18,19,19,23,23,24,24],"right_children":[2,4,6,8,10,12,-1,14,16,18,20,22,24,26,-1,-1,-1,28,30,32,-1,-1,-1,34,36,-1,-1,-1,-1,-1,-1,-1,-1,-1,-1,-1,-1],"split_conditions":[2.3E1,3E0,1.3E1,3.5E1,1E1,2E0,6.5518007E0,3.5E1,3E0,6.4E1,3.6E1,3E0,3E0,3E0,3.5107338E-1,4.0356815E-1,1.722688E-1,3E0,3E0,1.4E1,5.777979E-1,1.8093363E0,1.2693964E-1,7E0,1.3E1,-4.8918214E-2,-1.5793834E-2,-2.697235E-2,3.4057242E-3,-2.283868E-2,6.902591E-1,2.9642161E-2,2.4179369E-1,1.3119702E-1,-2.8778763E-2,-5.446657E-2,2.4416257E-2],"split_indices":[105,94,78,46,110,22,0,28,1,71,75,0,98,108,0,0,0,93,0,17,0,0,0,2,19,0,0,0,0,0,0,0,0,0,0,0,0],"split_type":[0,0,0,0,0,0,0,0,0,0,0,0,0,0,0,0,0,0,0,0,0,0,0,0,0,0,0,0,0,0,0,0,0,0,0,0,0],"sum_hessian":[1.502E3,1.479E3,2.3E1,4.76E2,1.003E3,2.2E1,1E0,4.74E2,2E0,8.45E2,1.58E2,2E0,2E1,4.73E2,1E0,1E0,1E0,8.43E2,2E0,1.57E2,1E0,1E0,1E0,5E0,1.5E1,1.68E2,3.05E2,2.59E2,5.84E2,1E0,1E0,1.48E2,9E0,4E0,1E0,1.3E1,2E0],"tree_param":{"num_deleted":"0","num_feature":"112","num_nodes":"37","size_leaf_vector":"1"}},{"base_weights":[1.8635053E-3,-2.0395657E-1,6.811704E0,-2.1955442E-1,5.916011E-1,1.4629518E0,7.969402E1,-2.6742682E-1,6.66878E0,6.111012E-1,4.789001E-1,6.3777595E0,-1.6217534E-1,-7.840325E-1,2.1835443E-1,1.7612733E0,2.4434296E-2,-3.2980643E-2,6.719232E-1,-3.0922517E-2,1.684723E-2,-2.6138524E-2,2.351633E-2,3.9639804E-3,1.425546E-1,-4.6055276E-2,1.6650446E-1,-1.0225512E-2,3.3741188E-1],"categories":[],"categories_nodes":[],"categories_segments":[],"categories_sizes":[],"default_left":[0,0,0,0,0,0,0,0,0,0,0,0,0,0,0,0,0,0,0,0,0,0,0,0,0,0,0,0,0],"id":16,"left_children":[1,3,5,7,-1,9,11,13,15,17,-1,-1,19,21,23,-1,25,27,-1,-1,-1,-1,-1,-1,-1,-1,-1,-1,-1],"loss_changes":[2.1023699E3,5.0258917E2,1.7137541E4,4.781759E2,0E0,5.710193E2,3.820755E4,3.6250064E2,3.9248484E3,6.2146576E2,0E0,0E0,1.6940447E0,2.2608102E2,2.654045E2,0E0,9.8676926E1,1.6575024E2,0E0,0E0,0E0,0E0,0E0,0E0,0E0,0E0,0E0,0E0,0E0],"parents":[2147483647,0,0,1,1,2,2,3,3,5,5,6,6,7,7,8,8,9,9,12,12,13,13,14,14,16,16,17,17],"right_children":[2,4,6,8,-1,10,12,14,16,18,-1,-1,20,22,24,-1,26,28,-1,-1,-1,-1,-1,-1,-1,-1,-1,-1,-1],"split_conditions":[1.9E1,1.05E2,9E0,2.9E1,5.916011E-1,1.2E1,3E0,4E0,2E0,1.2E1,4.789001E-1,6.3777595E0,4E0,1.1E1,2.4E1,1.7612733E0,5E0,2.1E1,6.719232E-1,-3.0922517E-2,1.684723E-2,-2.6138524E-2,2.351633E-2,3.9639804E-3,1.425546E-1,-4.6055276E-2,1.6650446E-1,-1.0225512E-2,3.3741188E-1],"split_indices":[27,6,90,105,0,50,13,95,4,109,0,0,1,103,57,0,13,38,0,0,0,0,0,0,0,0,0,0,0],"split_type":[0,0,0,0,0,0,0,0,0,0,0,0,0,0,0,0,0,0,0,0,0,0,0,0,0,0,0,0,0],"sum_hessian":[1.499E3,1.455E3,4.4E1,1.454E3,1E0,4.1E1,3E0,1.444E3,1E1,3.9E1,2E0,1E0,2E0,7E2,7.44E2,1E0,9E0,3.8E1,1E0,1E0,1E0,6.27E2,7.3E1,7.34E2,1E1,7E0,2E0,3.7E1,1E0],"tree_param":{"num_deleted":"0","num_feature":"112","num_nodes":"29","size_leaf_vector":"1"}},{"base_weights":[3.501304E-3,-1.9727212E-1,1.2928398E1,-7.405296E-1,3.18519E-1,2.8861508E0,6.2083416E0,-7.6520467E-1,4.4683427E-1,-4.5496005E-1,9.774154E-1,-2.837709E-1,3.4593094E1,-7.9732597E-1,1.0632173E1,-5.1592636E-1,2.6698455E-1,9.191037E-1,6.5407425E-1,3.5094478E0,-1.5627079E0,1.7144871E0,1.2346233E-1,-2.7900416E-2,1.2511563E-2,3.9274248E-1,1.6838703E-1,-1.9993782E-2,5.9554484E-2,2.216565E-2,5.07938E-1,1.2542187E-1,-2.731996E-2,-5.2314617E-2,2.4061117E-2],"categories":[],"categories_nodes":[],"categories_segments":[],"categories_sizes":[],"default_left":[0,0,0,0,0,0,0,0,0,0,0,0,0,0,0,0,0,0,0,0,0,0,0,0,0,0,0,0,0,0,0,0,0,0,0],"id":17,"left_children":[1,3,5,7,9,11,-1,13,-1,15,17,19,21,23,25,27,-1,29,-1,31,33,-1,-1,-1,-1,-1,-1,-1,-1,-1,-1,-1,-1,-1,-1],"loss_changes":[3.9028835E3,4.1479636E2,5.0633387E4,3.0746063E2,3.869313E2,2.2188691E3,0E0,2.616324E2,0E0,2.2034839E2,5.56464E2,9.6689766E1,1.7616672E3,2.2428818E2,3.0459396E1,2.2087881E2,0E0,6.592049E2,0E0,2.7636211E1,1.48228035E1,0E0,0E0,0E0,0E0,0E0,0E0,0E0,0E0,0E0,0E0,0E0,0E0,0E0,0E0],"parents":[2147483647,0,0,1,1,2,2,3,3,4,4,5,5,7,7,9,9,10,10,11,11,12,12,13,13,14,14,15,15,17,17,19,19,20,20],"right_children":[2,4,6,8,10,12,-1,14,-1,16,18,20,22,24,26,28,-1,30,-1,32,34,-1,-1,-1,-1,-1,-1,-1,-1,-1,-1,-1,-1,-1,-1],"split_conditions":[2.3E1,4E0,1.3E1,3.7E1,4E0,9E0,6.2083416E0,4E1,4.4683427E-1,2.2E1,3.7E1,3E0,2E0,8E0,5E0,1.2E1,2.6698455E-1,3.3E1,6.5407425E-1,7E0,1.3E1,1.7144871E0,1.2346233E-1,-2.7900416E-2,1.2511563E-2,3.9274248E-1,1.6838703E-1,-1.9993782E-2,5.9554484E-2,2.216565E-2,5.07938E-1,1.2542187E-1,-2.731996E-2,-5.2314617E-2,2.4061117E-2],"split_indices":[105,110,78,74,83,11,0,46,0,59,71,98,1,111,0,0,0,11,0,2,19,0,0,0,0,0,0,0,0,0,0,0,0,0,0],"split_type":[0,0,0,0,0,0,0,0,0,0,0,0,0,0,0,0,0,0,0,0,0,0,0,0,0,0,0,0,0,0,0,0,0,0,0],"sum_hessian":[1.503E3,1.48E3,2.3E1,7.21E2,7.59E2,2.2E1,1E0,7.2E2,1E0,3.49E2,4.1E2,2E1,2E0,7.18E2,2E0,3.47E2,2E0,4.09E2,1E0,5E0,1.5E1,1E0,1E0,6.01E2,1.17E2,1E0,1E0,3.2E2,2.7E1,4.07E2,2E0,4E0,1E0,1.3E1,2E0],"tree_param":{"num_deleted":"0","num_feature":"112","num_nodes":"35","size_leaf_vector":"1"}},{"base_weights":[9.197643E-3,-1.8579708E-1,6.3177533E0,-2.0096032E-1,5.7529706E-1,1.1593875E2,1.1988376E0,-3.9717096E-1,1.0426303E0,6.0434237E0,1.2923945E-1,3.6060882E-1,1.8227938E1,-9.018775E-1,1.2687112E-1,3.908728E-1,4.294555E0,-2.7101272E-1,1.2743058E1,6.366995E-1,3.2919005E-1,-3.163206E-2,1.1737783E-2,-2.038235E-2,1.4087251E-2,7.646978E-3,4.611911E-1,6.5723024E-2,1.6689436E0,-1.9090341E-2,4.349646E-1,1.9697712E-1,4.766364E-1],"categories":[],"categories_nodes":[],"categories_segments":[],"categories_sizes":[],"default_left":[0,0,0,0,0,0,0,0,0,0,0,0,0,0,0,0,0,0,0,0,0,0,0,0,0,0,0,0,0,0,0,0,0],"id":18,"left_children":[1,3,5,7,-1,9,11,13,15,-1,-1,17,19,21,23,25,27,29,31,-1,-1,-1,-1,-1,-1,-1,-1,-1,-1,-1,-1,-1,-1],"loss_changes":[1.8464713E3,4.7471802E2,2.5229908E4,3.546563E2,0E0,2.4508158E4,6.100384E2,3.32357E2,4.1869873E2,0E0,0E0,3.2328076E2,5.7196777E1,2.4202203E2,2.1929788E2,2.878411E2,3.508542E3,2.8304364E2,4.893512E1,0E0,0E0,0E0,0E0,0E0,0E0,0E0,0E0,0E0,0E0,0E0,0E0,0E0,0E0],"parents":[2147483647,0,0,1,1,2,2,3,3,5,5,6,6,7,7,8,8,11,11,12,12,13,13,14,14,15,15,16,16,17,17,18,18],"right_children":[2,4,6,8,-1,10,12,14,16,-1,-1,18,20,22,24,26,28,30,32,-1,-1,-1,-1,-1,-1,-1,-1,-1,-1,-1,-1,-1,-1],"split_conditions":[1.9E1,1.05E2,2E0,1E1,5.7529706E-1,4E0,1.3E1,4E0,1.2E1,6.0434237E0,1.2923945E-1,2.1E1,4E0,8E0,3E0,2.9E1,1.7E1,2.9E1,7E0,6.366995E-1,3.2919005E-1,-3.163206E-2,1.1737783E-2,-2.038235E-2,1.4087251E-2,7.646978E-3,4.611911E-1,6.5723024E-2,1.6689436E0,-1.9090341E-2,4.349646E-1,1.9697712E-1,4.766364E-1],"split_indices":[27,6,26,93,0,1,83,95,100,0,0,110,2,111,91,74,37,61,1,0,0,0,0,0,0,0,0,0,0,0,0,0,0],"split_type":[0,0,0,0,0,0,0,0,0,0,0,0,0,0,0,0,0,0,0,0,0,0,0,0,0,0,0,0,0,0,0,0,0],"sum_hessian":[1.5E3,1.455E3,4.5E1,1.454E3,1E0,2E0,4.3E1,1.256E3,1.98E2,1E0,1E0,4.1E1,2E0,6.4E2,6.16E2,1.65E2,3.3E1,3.9E1,2E0,1E0,1E0,5.29E2,1.11E2,1.91E2,4.25E2,1.64E2,1E0,3.2E1,1E0,3.8E1,1E0,1E0,1E0],"tree_param":{"num_deleted":"0","num_feature":"112","num_nodes":"33","size_leaf_vector":"1"}},{"base_weights":[1.8882455E-2,-3.251187E-1,2.1790135E0,-3.4184575E-1,5.6001496E-1,8.562227E-1,2.8069162E1,-6.0975176E-1,7.5216603E-1,6.811779E-1,1.7680628E1,6.572721E0,5.882887E0,-8.753505E-1,1.0646644E0,6.913307E-1,4.234103E-1,4.1489214E-1,6.841809E0,3.8961926E-1,5.471054E-1,1.62461E0,-2.1984053E-1,-2.7028084E-2,4.6873074E-2,1.0946952E-2,1.1875617E-1,1.6503079E-2,5.068764E-1,8.676619E-3,4.4894004E-1,7.185373E-2,5.1185393E-1,-4.9451873E-2,1.21887155E-1],"categories":[],"categories_nodes":[],"categories_segments":[],"categories_sizes":[],"default_left":[0,0,0,0,0,0,0,0,0,0,0,0,0,0,0,0,0,0,0,0,0,0,0,0,0,0,0,0,0,0,0,0,0,0,0],"id":19,"left_children":[1,3,5,7,-1,9,11,13,15,17,19,21,-1,23,25,27,-1,29,31,-1,-1,-1,33,-1,-1,-1,-1,-1,-1,-1,-1,-1,-1,-1,-1],"loss_changes":[1.1142761E3,4.5609338E2,7.049078E3,3.786507E2,0E0,5.734143E2,4.125758E4,4.6159177E2,2.297589E2,3.1676324E2,8.403137E0,3.329326E3,0E0,3.2035327E2,3.1332202E2,3.3710684E2,0E0,2.7139944E2,4.0457986E2,0E0,0E0,0E0,6.1910286E1,0E0,0E0,0E0,0E0,0E0,0E0,0E0,0E0,0E0,0E0,0E0,0E0],"parents":[2147483647,0,0,1,1,2,2,3,3,5,5,6,6,7,7,8,8,9,9,10,10,11,11,13,13,14,14,15,15,17,17,18,18,22,22],"right_children":[2,4,6,8,-1,10,12,14,16,18,20,22,-1,24,26,28,-1,30,32,-1,-1,-1,34,-1,-1,-1,-1,-1,-1,-1,-1,-1,-1,-1,-1],"split_conditions":[1E1,1.05E2,2.3E1,8E0,5.6001496E-1,2.1E1,1.1E1,9E0,3.7E1,1.7E1,3E0,2E0,5.882887E0,1.5E1,9E0,3.7E1,4.234103E-1,2.4E1,8E0,3.8961926E-1,5.471054E-1,1.62461E0,6E0,-2.7028084E-2,4.6873074E-2,1.0946952E-2,1.1875617E-1,1.6503079E-2,5.068764E-1,8.676619E-3,4.4894004E-1,7.185373E-2,5.1185393E-1,-4.9451873E-2,1.21887155E-1],"split_indices":[93,6,105,111,0,54,63,95,10,110,3,25,0,110,2,5,0,74,15,0,0,0,42,0,0,0,0,0,0,0,0,0,0,0,0],"split_type":[0,0,0,0,0,0,0,0,0,0,0,0,0,0,0,0,0,0,0,0,0,0,0,0,0,0,0,0,0,0,0,0,0,0,0],"sum_hessian":[1.499E3,1.293E3,2.06E2,1.292E3,1E0,1.96E2,1E1,1.038E3,2.54E2,1.94E2,2E0,9E0,1E0,8.96E2,1.42E2,2.53E2,1E0,1.86E2,8E0,1E0,1E0,1E0,8E0,8.52E2,4.4E1,1.19E2,2.3E1,2.52E2,1E0,1.85E2,1E0,6E0,2E0,6E0,2E0],"tree_param":{"num_deleted":"0","num_feature":"112","num_nodes":"35","size_leaf_vector":"1"}},{"base_weights":[4.89274E-4,-1.6858995E-1,5.745295E0,-1.8291129E-1,5.451387E-1,1.0994253E2,6.421275E-1,-3.9959985E-1,1.1644515E0,1.2652431E-1,5.7266145E0,-5.2591604E-1,7.483471E0,-8.5532296E-1,4.083025E-2,6.847555E-1,7.5884185E0,2.2575178E0,-1.4975768E0,3.012049E0,4.3528908E-1,-2.4087675E-2,2.2707155E-1,4.0446033E-4,4.3113405E-1,1.0451709E-2,4.9942064E-1,1.1761057E0,1.269906E-1,-3.2690097E-2,2.478794E-1,3.935711E-2,-5.0619643E-2,1.261474E-1,-5.0971583E-2],"categories":[],"categories_nodes":[],"categories_segments":[],"categories_sizes":[],"default_left":[0,0,0,0,0,0,0,0,0,0,0,0,0,0,0,0,0,0,0,0,0,0,0,0,0,0,0,0,0,0,0,0,0,0,0],"id":20,"left_children":[1,3,5,7,-1,9,11,13,15,-1,-1,17,19,21,23,25,27,29,31,33,-1,-1,-1,-1,-1,-1,-1,-1,-1,-1,-1,-1,-1,-1,-1],"loss_changes":[1.4610571E3,4.259418E2,2.28448E4,4.25815E2,0E0,2.1971445E4,3.2912534E2,2.5246571E2,6.2076843E2,0E0,0E0,9.454054E1,2.3221976E2,2.6457336E2,2.6092105E2,9.900028E2,1.4356871E3,2.2171886E2,3.0739372E1,3.4296963E1,0E0,0E0,0E0,0E0,0E0,0E0,0E0,0E0,0E0,0E0,0E0,0E0,0E0,0E0,0E0],"parents":[2147483647,0,0,1,1,2,2,3,3,5,5,6,6,7,7,8,8,11,11,12,12,13,13,14,14,15,15,16,16,17,17,18,18,19,19],"right_children":[2,4,6,8,-1,10,12,14,16,-1,-1,18,20,22,24,26,28,30,32,34,-1,-1,-1,-1,-1,-1,-1,-1,-1,-1,-1,-1,-1,-1,-1],"split_conditions":[1.9E1,1.05E2,2E0,1E1,5.451387E-1,2E0,1E1,4E0,1.3E1,1.2652431E-1,5.7266145E0,3E0,9E0,3.6E1,4E1,2.9E1,2E0,8E0,2E0,7E0,4.3528908E-1,-2.4087675E-2,2.2707155E-1,4.0446033E-4,4.3113405E-1,1.0451709E-2,4.9942064E-1,1.1761057E0,1.269906E-1,-3.2690097E-2,2.478794E-1,3.935711E-2,-5.0619643E-2,1.261474E-1,-5.0971583E-2],"split_indices":[27,6,26,100,0,2,79,108,0,0,0,25,7,66,20,105,9,19,31,1,0,0,0,0,0,0,0,0,0,0,0,0,0,0,0],"split_type":[0,0,0,0,0,0,0,0,0,0,0,0,0,0,0,0,0,0,0,0,0,0,0,0,0,0,0,0,0,0,0,0,0,0,0],"sum_hessian":[1.503E3,1.46E3,4.3E1,1.459E3,1E0,2E0,4.1E1,1.257E3,2.02E2,1E0,1E0,3.5E1,6E0,6.18E2,6.39E2,1.88E2,1.4E1,9E0,2.6E1,4E0,2E0,6.15E2,3E0,6.38E2,1E0,1.85E2,3E0,1E0,1.3E1,6E0,3E0,3E0,2.3E1,3E0,1E0],"tree_param":{"num_deleted":"0","num_feature":"112","num_nodes":"35","size_leaf_vector":"1"}},{"base_weights":[1.7421555E-2,-2.8867525E-1,2.8749254E0,-4.656267E-1,6.8441033E-1,1.0987196E0,5.250672E1,-8.346807E-1,2.0052348E-1,2.7394086E-1,3.4278283E0,5.6196856E-1,1.1258552E1,5.5744934E0,1.317832E1,-8.899085E-1,7.201164E0,1.616961E-1,4.1968143E-1,1.9834623E-1,3.633112E-1,5.1828396E-1,2.8015282E0,1.0857433E-1,4.113566E0,1.1448638E0,5.92315E0,1.5681875E0,-5.3673636E-2,-3.3630144E-2,-3.8176002E-3,9.991281E-2,3.277946E-1,3.5928622E-2,-1.0831056E-2,9.553538E-4,1.9483604E-1,2.7468564E-2,1.8073075E-1,-2.777643E-3,2.219905E-1,5.023767E-1,1.1160159E-2,3.315718E-1,-1.3493112E-2],"categories":[],"categories_nodes":[],"categories_segments":[],"categories_sizes":[],"default_left":[0,0,0,0,0,0,0,0,0,0,0,0,0,0,0,0,0,0,0,0,0,0,0,0,0,0,0,0,0,0,0,0,0,0,0,0,0,0,0,0,0,0,0,0,0],"id":21,"left_children":[1,3,5,7,9,11,13,15,17,19,21,23,25,-1,27,29,31,33,-1,35,-1,-1,37,39,41,-1,43,-1,-1,-1,-1,-1,-1,-1,-1,-1,-1,-1,-1,-1,-1,-1,-1,-1,-1],"loss_changes":[1.310799E3,2.3292978E2,1.277188E4,2.8162506E2,2.3347057E2,7.6103906E2,3.0668988E4,3.2583258E2,2.4234961E2,1.7943678E2,2.6518546E2,2.1330983E2,1.1690385E3,0E0,2.780646E3,2.01242E2,8.4240204E1,2.7313855E2,0E0,2.0608351E2,0E0,0E0,1.8108737E2,2.0727893E2,8.104938E2,0E0,2.5280988E2,0E0,0E0,0E0,0E0,0E0,0E0,0E0,0E0,0E0,0E0,0E0,0E0,0E0,0E0,0E0,0E0,0E0,0E0],"parents":[2147483647,0,0,1,1,2,2,3,3,4,4,5,5,6,6,7,7,8,8,9,9,10,10,11,11,12,12,14,14,15,15,16,16,17,17,19,19,22,22,23,23,24,24,26,26],"right_children":[2,4,6,8,10,12,14,16,18,20,22,24,26,-1,28,30,32,34,-1,36,-1,-1,38,40,42,-1,44,-1,-1,-1,-1,-1,-1,-1,-1,-1,-1,-1,-1,-1,-1,-1,-1,-1,-1],"split_conditions":[1.2E1,9E0,2.1E1,5E0,1.2E1,1.8E1,3E0,2.9E1,4E1,3.5E1,2E0,1.3E1,2E0,5.5744934E0,3E0,5E0,1.2E1,3E0,4.1968143E-1,2E1,3.633112E-1,5.1828396E-1,8E0,1.6E1,2E0,1.1448638E0,6E0,1.5681875E0,-5.3673636E-2,-3.3630144E-2,-3.8176002E-3,9.991281E-2,3.277946E-1,3.5928622E-2,-1.0831056E-2,9.553538E-4,1.9483604E-1,2.7468564E-2,1.8073075E-1,-2.777643E-3,2.219905E-1,5.023767E-1,1.1160159E-2,3.315718E-1,-1.3493112E-2],"split_indices":[100,95,105,92,52,57,23,101,20,43,106,101,6,0,6,110,12,66,0,103,0,0,8,92,31,0,16,0,0,0,0,0,0,0,0,0,0,0,0,0,0,0,0,0,0],"split_type":[0,0,0,0,0,0,0,0,0,0,0,0,0,0,0,0,0,0,0,0,0,0,0,0,0,0,0,0,0,0,0,0,0,0,0,0,0,0,0,0,0,0,0,0,0],"sum_hessian":[1.498E3,1.353E3,1.45E2,1.145E3,2.08E2,1.4E2,5E0,7.37E2,4.08E2,1.81E2,2.7E1,1.33E2,7E0,1E0,4E0,7.32E2,5E0,4.07E2,1E0,1.8E2,1E0,1E0,2.6E1,1.18E2,1.5E1,1E0,6E0,1E0,3E0,4.9E2,2.42E2,3E0,2E0,1.32E2,2.75E2,1.76E2,4E0,1.8E1,8E0,1.15E2,3E0,3E0,1.2E1,3E0,3E0],"tree_param":{"num_deleted":"0","num_feature":"112","num_nodes":"45","size_leaf_vector":"1"}},{"base_weights":[2.2113536E-2,-2.800605E-1,2.8866925E0,-9.232748E-1,3.7424747E-2,1.5252227E0,4.03754E1,-4.972524E-1,-1.9094344E0,-1.272121E-1,1.5718981E0,1.0190896E0,1.0958938E1,5.4264135E0,-4.8763007E-1,-5.923846E-1,5.3156977E0,-2.0615697E0,4.7072034E0,-1.4526437E-1,3.834525E-1,7.275373E-1,6.8994355E0,4.9681395E-1,1.1854376E1,3.0839672E1,2.938274E0,6.4343065E-2,-1.5236758E0,-2.582617E-2,2.539117E-2,-0E0,1.7668413E-1,-5.8297727E-2,2.5192441E-2,-2.1661226E-2,2.0209023E-1,-4.6522003E-3,6.161989E-1,1.0430231E-2,2.3646285E-1,9.049307E-2,4.634717E-1,-1.4800235E-2,5.998472E-2,1.5265303E0,7.220952E-2,5.234867E-1,1.1144518E0,-1.313325E-2,2.1835572E-1,-8.213368E-2,-1.7101496E-2],"categories":[],"categories_nodes":[],"categories_segments":[],"categories_sizes":[],"default_left":[0,0,0,0,0,0,0,0,0,0,0,0,0,0,0,0,0,0,0,0,0,0,0,0,0,0,0,0,0,0,0,0,0,0,0,0,0,0,0,0,0,0,0,0,0,0,0,0,0,0,0,0,0],"id":22,"left_children":[1,3,5,7,9,11,13,15,17,19,21,23,25,-1,27,29,31,33,35,37,-1,39,41,43,45,47,49,-1,51,-1,-1,-1,-1,-1,-1,-1,-1,-1,-1,-1,-1,-1,-1,-1,-1,-1,-1,-1,-1,-1,-1,-1,-1],"loss_changes":[1.2972142E3,2.768886E2,7.2900513E3,1.8772104E2,2.2943439E2,6.564224E2,3.332016E4,1.7214471E2,1.3541757E2,2.1113356E2,3.9429285E2,7.388021E2,1.1097019E3,0E0,1.185814E1,1.7771227E2,3.365802E1,4.7826965E1,4.877233E1,5.423751E2,0E0,2.0624551E2,4.359137E2,2.299039E2,2.4751821E3,2.2771985E2,9.143437E1,0E0,3.3456292E0,0E0,0E0,0E0,0E0,0E0,0E0,0E0,0E0,0E0,0E0,0E0,0E0,0E0,0E0,0E0,0E0,0E0,0E0,0E0,0E0,0E0,0E0,0E0,0E0],"parents":[2147483647,0,0,1,1,2,2,3,3,4,4,5,5,6,6,7,7,8,8,9,9,10,10,11,11,12,12,14,14,15,15,16,16,17,17,18,18,19,19,21,21,22,22,23,23,24,24,25,25,26,26,28,28],"right_children":[2,4,6,8,10,12,14,16,18,20,22,24,26,-1,28,30,32,34,36,38,-1,40,42,44,46,48,50,-1,52,-1,-1,-1,-1,-1,-1,-1,-1,-1,-1,-1,-1,-1,-1,-1,-1,-1,-1,-1,-1,-1,-1,-1,-1],"split_conditions":[1.2E1,3E0,1.8E1,6E0,1.2E1,1.7E1,3E0,2.5E1,1.6E1,6.4E1,1.1E1,1.5E1,2.5E1,5.4264135E0,4E0,7E0,2E0,1.9E1,3E0,3.5E1,3.834525E-1,2.5E1,6E0,5E0,2E0,7E0,5E0,6.4343065E-2,6E0,-2.582617E-2,2.539117E-2,-0E0,1.7668413E-1,-5.8297727E-2,2.5192441E-2,-2.1661226E-2,2.0209023E-1,-4.6522003E-3,6.161989E-1,1.0430231E-2,2.3646285E-1,9.049307E-2,4.634717E-1,-1.4800235E-2,5.998472E-2,1.5265303E0,7.220952E-2,5.234867E-1,1.1144518E0,-1.313325E-2,2.1835572E-1,-8.213368E-2,-1.7101496E-2],"split_indices":[100,96,27,8,111,57,5,36,43,91,32,37,57,0,0,105,1,52,0,71,0,40,21,4,1,0,3,0,2,0,0,0,0,0,0,0,0,0,0,0,0,0,0,0,0,0,0,0,0,0,0,0,0],"split_type":[0,0,0,0,0,0,0,0,0,0,0,0,0,0,0,0,0,0,0,0,0,0,0,0,0,0,0,0,0,0,0,0,0,0,0,0,0,0,0,0,0,0,0,0,0,0,0,0,0,0,0,0,0],"sum_hessian":[1.498E3,1.355E3,1.43E2,4.48E2,9.07E2,1.38E2,5E0,3.13E2,1.35E2,8.19E2,8.8E1,1.31E2,7E0,1E0,4E0,3.08E2,5E0,1.32E2,3E0,8.18E2,1E0,7.6E1,1.2E1,1.25E2,6E0,2E0,5E0,1E0,3E0,2.48E2,6E1,1E0,4E0,1.27E2,5E0,1E0,2E0,8.17E2,1E0,7.3E1,3E0,9E0,3E0,7.8E1,4.7E1,1E0,5E0,1E0,1E0,3E0,2E0,1E0,2E0],"tree_param":{"num_deleted":"0","num_feature":"112","num_nodes":"53","size_leaf_vector":"1"}},{"base_weights":[-9.24053E-3,-3.033601E-1,2.719489E0,-4.9184552E-1,8.783852E-1,1.5092827E0,2.6526861E1,-1.160171E0,-1.4295566E-1,7.9222566E-1,4.3904033E-1,1.1582022E0,1.7205921E1,5.2822676E0,-2.1310887E0,-1.1985968E0,3.689873E-1,-6.562714E-1,3.2482257E-1,4.7419113E-1,6.3019714E0,3.6332488E-1,5.462173E0,1.4859798E0,-5.3474177E-2,-0E0,-1.1433296E-1,-3.5257366E-2,4.4440594E-2,-2.1415303E-2,7.228178E-2,-1.2541659E-2,2.6148135E-2,2.0527031E-2,-5.5084035E-2,3.2360315E-1,6.3820735E-2,-2.4863E-3,2.2992447E-1,6.357472E-2,3.5077652E-1,2.193842E-2,-4.2114966E-2],"categories":[],"categories_nodes":[],"categories_segments":[],"categories_sizes":[],"default_left":[0,0,0,0,0,0,0,0,0,0,0,0,0,0,0,0,0,0,0,0,0,0,0,0,0,0,0,0,0,0,0,0,0,0,0,0,0,0,0,0,0,0,0],"id":23,"left_children":[1,3,5,7,9,11,13,15,17,19,-1,21,23,-1,25,27,-1,29,31,33,35,37,39,-1,-1,41,-1,-1,-1,-1,-1,-1,-1,-1,-1,-1,-1,-1,-1,-1,-1,-1,-1],"loss_changes":[1.1961517E3,2.997353E2,4.171914E3,2.7044656E2,2.4427448E2,7.5664526E2,3.4402742E4,2.264314E2,1.8328052E2,3.2102777E2,0E0,4.606695E2,2.2286719E3,0E0,2.7745966E1,1.3710107E2,0E0,1.7713062E2,2.072209E2,1.2942088E2,2.2428143E2,4.3047925E2,4.9299854E2,0E0,0E0,3.8504522E0,0E0,0E0,0E0,0E0,0E0,0E0,0E0,0E0,0E0,0E0,0E0,0E0,0E0,0E0,0E0,0E0,0E0],"parents":[2147483647,0,0,1,1,2,2,3,3,4,4,5,5,6,6,7,7,8,8,9,9,11,11,12,12,14,14,15,15,17,17,18,18,19,19,20,20,21,21,22,22,25,25],"right_children":[2,4,6,8,10,12,14,16,18,20,-1,22,24,-1,26,28,-1,30,32,34,36,38,40,-1,-1,42,-1,-1,-1,-1,-1,-1,-1,-1,-1,-1,-1,-1,-1,-1,-1,-1,-1],"split_conditions":[1.2E1,1E1,1.7E1,3E0,3.7E1,2.9E1,3E0,4E1,4E0,1.4E1,4.3904033E-1,7E0,2E0,5.2822676E0,5E0,1.4E1,3.689873E-1,1.5E1,4E0,1.2E1,6E0,1.4E1,8E0,1.4859798E0,-5.3474177E-2,8E0,-1.1433296E-1,-3.5257366E-2,4.4440594E-2,-2.1415303E-2,7.228178E-2,-1.2541659E-2,2.6148135E-2,2.0527031E-2,-5.5084035E-2,3.2360315E-1,6.3820735E-2,-2.4863E-3,2.2992447E-1,6.357472E-2,3.5077652E-1,2.193842E-2,-4.2114966E-2],"split_indices":[100,110,53,93,81,105,23,46,106,17,0,53,1,0,9,86,0,95,79,26,61,49,80,0,0,2,0,0,0,0,0,0,0,0,0,0,0,0,0,0,0,0,0],"split_type":[0,0,0,0,0,0,0,0,0,0,0,0,0,0,0,0,0,0,0,0,0,0,0,0,0,0,0,0,0,0,0,0,0,0,0,0,0,0,0,0,0,0,0],"sum_hessian":[1.491E3,1.346E3,1.45E2,1.161E3,1.85E2,1.38E2,7E0,3.98E2,7.63E2,1.84E2,1E0,1.35E2,3E0,1E0,6E0,3.97E2,1E0,3.64E2,3.99E2,1.74E2,1E1,1.14E2,2.1E1,1E0,2E0,3E0,3E0,3.81E2,1.6E1,3.49E2,1.5E1,1.8E2,2.19E2,1.56E2,1.8E1,4E0,6E0,1.08E2,6E0,1.5E1,6E0,2E0,1E0],"tree_param":{"num_deleted":"0","num_feature":"112","num_nodes":"43","size_leaf_vector":"1"}},{"base_weights":[8.368471E-3,-1.6056496E-1,5.4631243E0,-1.742042E-1,5.16017E-1,1.2443634E0,9.5788704E1,-3.723946E-1,1.0572798E0,-4.6342838E-1,7.7147317E0,5.1419497E0,-3.216684E-2,-7.305852E-1,2.6393545E-1,7.0735747E-1,7.0791173E0,-8.421368E-1,3.142955E-1,1.785378E1,2.5983427E0,-5.1983025E-2,-1.4010799E-2,-2.6476232E-3,3.2886997E-2,1.1983183E-2,4.4754642E-1,6.3242704E-1,2.192968E-2,2.93192E-1,-3.259461E-2,6.0076684E-1,4.1095418E-1,1.23345345E-1,-3.5700332E-2],"categories":[],"categories_nodes":[],"categories_segments":[],"categories_sizes":[],"default_left":[0,0,0,0,0,0,0,0,0,0,0,0,0,0,0,0,0,0,0,0,0,0,0,0,0,0,0,0,0,0,0,0,0,0,0],"id":24,"left_children":[1,3,5,7,-1,9,11,13,15,17,19,-1,-1,21,23,25,27,29,-1,31,33,-1,-1,-1,-1,-1,-1,-1,-1,-1,-1,-1,-1,-1,-1],"loss_changes":[1.3805668E3,3.8169324E2,1.712952E4,3.540069E2,0E0,4.76723E2,1.8840236E4,2.850072E2,4.219322E2,1.552559E2,4.6272766E2,0E0,0E0,1.9995251E2,1.5814784E2,7.856213E2,1.1373579E3,1.4529787E2,0E0,2.4612122E1,4.8373447E1,0E0,0E0,0E0,0E0,0E0,0E0,0E0,0E0,0E0,0E0,0E0,0E0,0E0,0E0],"parents":[2147483647,0,0,1,1,2,2,3,3,5,5,6,6,7,7,8,8,9,9,10,10,13,13,14,14,15,15,16,16,17,17,19,19,20,20],"right_children":[2,4,6,8,-1,10,12,14,16,18,20,-1,-1,22,24,26,28,30,-1,32,34,-1,-1,-1,-1,-1,-1,-1,-1,-1,-1,-1,-1,-1,-1],"split_conditions":[1.9E1,1.05E2,1.3E1,1E1,5.16017E-1,1E1,3E0,5E0,1.8E1,2.3E1,5E0,5.1419497E0,-3.216684E-2,2E0,7E0,2.9E1,2.5E1,2E0,3.142955E-1,4E0,4E0,-5.1983025E-2,-1.4010799E-2,-2.6476232E-3,3.2886997E-2,1.1983183E-2,4.4754642E-1,6.3242704E-1,2.192968E-2,2.93192E-1,-3.259461E-2,6.0076684E-1,4.1095418E-1,1.23345345E-1,-3.5700332E-2],"split_indices":[27,6,100,100,0,79,0,106,57,38,13,0,0,110,41,105,57,59,0,0,17,0,0,0,0,0,0,0,0,0,0,0,0,0,0],"split_type":[0,0,0,0,0,0,0,0,0,0,0,0,0,0,0,0,0,0,0,0,0,0,0,0,0,0,0,0,0,0,0,0,0,0,0],"sum_hessian":[1.497E3,1.452E3,4.5E1,1.451E3,1E0,4.3E1,2E0,1.25E3,2.01E2,3.4E1,9E0,1E0,1E0,8E2,4.5E2,1.9E2,1.1E1,3.3E1,1E0,3E0,6E0,1.16E2,6.84E2,3.27E2,1.23E2,1.87E2,3E0,3E0,8E0,1E0,3.2E1,1E0,2E0,4E0,2E0],"tree_param":{"num_deleted":"0","num_feature":"112","num_nodes":"35","size_leaf_vector":"1"}},{"base_weights":[-4.842459E-4,-1.6724525E-1,5.4934616E0,-3.7234035E-1,1.1071773E0,1.2973572E0,9.324148E1,-8.122702E-1,5.3415027E-2,6.6223377E-1,7.032909E0,5.138018E-1,1.6817951E1,5.0053596E0,-3.1312358E-2,-8.5632896E-1,8.091388E0,-2.2133626E-2,7.9995747E0,2.6022549E0,-1.868987E-1,4.484205E0,1.0619403E0,-2.7805242E-1,1.0329054E1,3.059466E-1,5.848082E-1,-2.357418E-2,3.9082298E-1,1.4098065E-1,3.5955775E-1,7.932817E-3,-2.4014587E-2,-3.5710204E-2,2.6475096E-1,4.491646E-2,1.4346176E0,-8.845867E-3,4.834631E-1,1.5617444E-2,2.8527102E-1,1.0954144E-1,-2.5895415E-2,4.000049E-1,2.1739492E-2],"categories":[],"categories_nodes":[],"categories_segments":[],"categories_sizes":[],"default_left":[0,0,0,0,0,0,0,0,0,0,0,0,0,0,0,0,0,0,0,0,0,0,0,0,0,0,0,0,0,0,0,0,0,0,0,0,0,0,0,0,0,0,0,0,0],"id":25,"left_children":[1,3,5,7,9,11,13,15,17,19,21,23,25,-1,-1,27,29,31,33,35,37,39,-1,41,43,-1,-1,-1,-1,-1,-1,-1,-1,-1,-1,-1,-1,-1,-1,-1,-1,-1,-1,-1,-1],"loss_changes":[1.3686047E3,3.7911298E2,1.6182943E4,2.3428473E2,5.283736E2,5.072484E2,1.785361E4,2.398187E2,3.828406E2,3.0855853E2,1.1573535E3,3.1300983E2,4.6236633E1,0E0,0E0,2.4185352E2,4.1139786E1,1.7598366E2,1.0878253E2,2.6714268E3,3.388534E2,3.116532E2,0E0,1.1130318E2,1.2939557E2,0E0,0E0,0E0,0E0,0E0,0E0,0E0,0E0,0E0,0E0,0E0,0E0,0E0,0E0,0E0,0E0,0E0,0E0,0E0,0E0],"parents":[2147483647,0,0,1,1,2,2,3,3,4,4,5,5,6,6,7,7,8,8,9,9,10,10,11,11,12,12,15,15,16,16,17,17,18,18,19,19,20,20,21,21,23,23,24,24],"right_children":[2,4,6,8,10,12,14,16,18,20,22,24,26,-1,-1,28,30,32,34,36,38,40,-1,42,44,-1,-1,-1,-1,-1,-1,-1,-1,-1,-1,-1,-1,-1,-1,-1,-1,-1,-1,-1,-1],"split_conditions":[1.9E1,1E1,1.3E1,4E0,1.3E1,1.3E1,3E0,3.6E1,2.4E1,3E0,1.4E1,1.2E1,3E0,5.0053596E0,-3.1312358E-2,3.2E1,2E0,7E0,2E0,1.8E1,2.9E1,8E0,1.0619403E0,2E0,7E0,3.059466E-1,5.848082E-1,-2.357418E-2,3.9082298E-1,1.4098065E-1,3.5955775E-1,7.932817E-3,-2.4014587E-2,-3.5710204E-2,2.6475096E-1,4.491646E-2,1.4346176E0,-8.845867E-3,4.834631E-1,1.5617444E-2,2.8527102E-1,1.0954144E-1,-2.5895415E-2,4.000049E-1,2.1739492E-2],"split_indices":[27,100,100,108,0,83,0,66,69,31,49,50,0,0,0,76,0,44,1,105,75,46,0,53,3,0,0,0,0,0,0,0,0,0,0,0,0,0,0,0,0,0,0,0,0],"split_type":[0,0,0,0,0,0,0,0,0,0,0,0,0,0,0,0,0,0,0,0,0,0,0,0,0,0,0,0,0,0,0,0,0,0,0,0,0,0,0,0,0,0,0,0,0],"sum_hessian":[1.495E3,1.451E3,4.4E1,1.25E3,2.01E2,4.2E1,2E0,6.15E2,6.35E2,1.87E2,1.4E1,4E1,2E0,1E0,1E0,6.12E2,3E0,6.29E2,6E0,5.7E1,1.3E2,1.3E1,1E0,3.7E1,3E0,1E0,1E0,6.11E2,1E0,2E0,1E0,4.61E2,1.68E2,1E0,5E0,5.6E1,1E0,1.29E2,1E0,8E0,5E0,5E0,3.2E1,2E0,1E0],"tree_param":{"num_deleted":"0","num_feature":"112","num_nodes":"45","size_leaf_vector":"1"}},{"base_weights":[2.8626064E-2,-1.3123664E-1,5.176527E0,-3.2802132E-1,1.0815547E0,1.1562247E0,6.1277733E1,-6.8148357E-1,3.0775174E-1,6.509696E-1,6.8463297E0,-3.6463752E-2,1.2520858E1,4.872398E0,2.8684887E-1,-7.0655066E-1,9.202934E0,2.5758052E-1,3.015667E-1,-1.6297917E-1,2.6227667E0,1.033731E0,4.3649297E0,-3.4593913E-1,2.9781947E-1,1.6919823E1,-1.3227928E-2,1.2025441E-1,-9.953557E-2,-1.9611873E-2,2.6856902E-1,4.7275624E-1,1.2212571E-2,-1.04570445E-2,3.201391E-2,-8.0164075E-3,4.7062045E-1,1.4764158E-2,3.941917E-1,9.12799E-3,2.8736815E-1,1.066176E-1,-2.75357E-2,5.692734E-1,3.8934737E-1],"categories":[],"categories_nodes":[],"categories_segments":[],"categories_sizes":[],"default_left":[0,0,0,0,0,0,0,0,0,0,0,0,0,0,0,0,0,0,0,0,0,0,0,0,0,0,0,0,0,0,0,0,0,0,0,0,0,0,0,0,0,0,0,0,0],"id":26,"left_children":[1,3,5,7,9,11,13,15,17,19,21,23,25,-1,27,29,31,33,-1,35,37,-1,39,41,-1,43,-1,-1,-1,-1,-1,-1,-1,-1,-1,-1,-1,-1,-1,-1,-1,-1,-1,-1,-1],"loss_changes":[1.2297164E3,3.454273E2,1.0137632E4,2.800824E2,4.998643E2,5.719255E2,2.215507E4,1.9676938E2,2.4269641E2,3.0224442E2,1.0966183E3,1.2932283E2,2.3277942E2,0E0,3.4162247E1,2.3297708E2,1.4514987E2,2.7048788E2,0E0,3.2034464E2,1.3779246E3,0E0,3.319986E2,1.0923317E2,0E0,2.1759033E1,0E0,0E0,0E0,0E0,0E0,0E0,0E0,0E0,0E0,0E0,0E0,0E0,0E0,0E0,0E0,0E0,0E0,0E0,0E0],"parents":[2147483647,0,0,1,1,2,2,3,3,4,4,5,5,6,6,7,7,8,8,9,9,10,10,11,11,12,12,14,14,15,15,16,16,17,17,19,19,20,20,22,22,23,23,25,25],"right_children":[2,4,6,8,10,12,14,16,18,20,22,24,26,-1,28,30,32,34,-1,36,38,-1,40,42,-1,44,-1,-1,-1,-1,-1,-1,-1,-1,-1,-1,-1,-1,-1,-1,-1,-1,-1,-1,-1],"split_conditions":[1.9E1,1E1,1.4E1,5E0,1.3E1,1.2E1,4E0,5.4E1,4E1,7E0,2E0,2.3E1,7E0,4.872398E0,7E0,6.4E1,3E0,5E0,3.015667E-1,2E1,1.1E1,1.033731E0,5E0,2E0,2.9781947E-1,4E0,-1.3227928E-2,1.2025441E-1,-9.953557E-2,-1.9611873E-2,2.6856902E-1,4.7275624E-1,1.2212571E-2,-1.04570445E-2,3.201391E-2,-8.0164075E-3,4.7062045E-1,1.4764158E-2,3.941917E-1,9.12799E-3,2.8736815E-1,1.066176E-1,-2.75357E-2,5.692734E-1,3.8934737E-1],"split_indices":[27,100,40,106,0,78,1,5,17,73,6,38,3,0,3,76,0,95,0,75,94,0,4,53,0,0,0,0,0,0,0,0,0,0,0,0,0,0,0,0,0,0,0,0,0],"split_type":[0,0,0,0,0,0,0,0,0,0,0,0,0,0,0,0,0,0,0,0,0,0,0,0,0,0,0,0,0,0,0,0,0,0,0,0,0,0,0,0,0,0,0,0,0],"sum_hessian":[1.493E3,1.448E3,4.5E1,1.246E3,2.02E2,4.2E1,3E0,8.01E2,4.45E2,1.88E2,1.4E1,3.8E1,4E0,1E0,2E0,7.99E2,2E0,4.43E2,2E0,1.33E2,5.5E1,1E0,1.3E1,3.7E1,1E0,3E0,1E0,1E0,1E0,7.97E2,2E0,1E0,1E0,2.62E2,1.81E2,1.32E2,1E0,4.7E1,8E0,8E0,5E0,5E0,3.2E1,1E0,2E0],"tree_param":{"num_deleted":"0","num_feature":"112","num_nodes":"45","size_leaf_vector":"1"}},{"base_weights":[-2.6963519E-2,-3.2536077E-1,1.1443413E0,-6.455057E-1,4.9493453E-1,4.6409395E-1,1.6348433E1,-1.1698511E0,-6.2674925E-2,1.5210205E-1,3.6255744E0,2.4787274E-1,5.9461784E0,2.8214083E0,4.742968E0,-1.2215914E0,1.0338503E1,-1.6578439E-1,8.176702E0,9.4633505E-2,4.5811895E-1,2.439703E0,1.0214679E1,1.8182734E-1,4.906452E-1,1.3860375E0,1.3053806E0,-3.4177873E-2,1.7158575E1,8.515153E-3,-3.998681E-2,1.5304872E-1,3.9243186E-1,-6.973995E-3,3.313894E-1,1.8991936E-2,1.0062711E0,-2.313523E-2,2.4879625E-2,-3.9718743E-2,1.07437156E-1,1.9491135E-1,3.8640773E-1,3.0884768E-3,4.8869696E-1,-2.5007587E-2,1.762218E-1,-3.827527E-2,8.434818E-2,5.541513E-1,3.5475448E-1],"categories":[],"categories_nodes":[],"categories_segments":[],"categories_sizes":[],"default_left":[0,0,0,0,0,0,0,0,0,0,0,0,0,0,0,0,0,0,0,0,0,0,0,0,0,0,0,0,0,0,0,0,0,0,0,0,0,0,0,0,0,0,0,0,0,0,0,0,0,0,0],"id":27,"left_children":[1,3,5,7,9,11,13,15,17,19,21,23,25,27,-1,29,31,33,35,37,-1,39,41,43,-1,-1,45,47,49,-1,-1,-1,-1,-1,-1,-1,-1,-1,-1,-1,-1,-1,-1,-1,-1,-1,-1,-1,-1,-1,-1],"loss_changes":[5.2340906E2,3.1359467E2,3.140711E3,2.622636E2,3.587809E2,3.4366617E2,2.8308703E4,2.6735645E2,3.4414474E2,2.9135217E2,2.5516513E2,3.311353E2,2.3341218E3,4.9504474E2,0E0,1.9065045E2,3.5524582E1,4.7837268E2,1.09373E3,2.4178654E2,0E0,1.7434155E2,5.698639E1,3.3091608E2,0E0,0E0,1.197971E2,4.4306915E1,1.9260132E1,0E0,0E0,0E0,0E0,0E0,0E0,0E0,0E0,0E0,0E0,0E0,0E0,0E0,0E0,0E0,0E0,0E0,0E0,0E0,0E0,0E0,0E0],"parents":[2147483647,0,0,1,1,2,2,3,3,4,4,5,5,6,6,7,7,8,8,9,9,10,10,11,11,12,12,13,13,15,15,16,16,17,17,18,18,19,19,21,21,22,22,23,23,26,26,27,27,28,28],"right_children":[2,4,6,8,10,12,14,16,18,20,22,24,26,28,-1,30,32,34,36,38,-1,40,42,44,-1,-1,46,48,50,-1,-1,-1,-1,-1,-1,-1,-1,-1,-1,-1,-1,-1,-1,-1,-1,-1,-1,-1,-1,-1,-1],"split_conditions":[8E0,6E0,2E1,4E0,1.3E1,1.7E1,1E1,3.5E1,2.1E1,2.9E1,1.5E1,3.6E1,2E0,7E0,4.742968E0,2E0,2E0,3.5E1,1.2E1,4E0,4.5811895E-1,3E0,5E0,5.4E1,4.906452E-1,1.3860375E0,5E0,5E0,7E0,8.515153E-3,-3.998681E-2,1.5304872E-1,3.9243186E-1,-6.973995E-3,3.313894E-1,1.8991936E-2,1.0062711E0,-2.313523E-2,2.4879625E-2,-3.9718743E-2,1.07437156E-1,1.9491135E-1,3.8640773E-1,3.0884768E-3,4.8869696E-1,-2.5007587E-2,1.762218E-1,-3.827527E-2,8.434818E-2,5.541513E-1,3.5475448E-1],"split_indices":[94,103,27,96,86,91,46,84,57,28,60,6,1,46,0,32,2,46,0,93,0,108,15,0,0,0,101,55,1,0,0,0,0,0,0,0,0,0,0,0,0,0,0,0,0,0,0,0,0,0,0],"split_type":[0,0,0,0,0,0,0,0,0,0,0,0,0,0,0,0,0,0,0,0,0,0,0,0,0,0,0,0,0,0,0,0,0,0,0,0,0,0,0,0,0,0,0,0,0,0,0,0,0,0,0],"sum_hessian":[1.498E3,1.194E3,3.04E2,8.59E2,3.35E2,2.91E2,1.3E1,4.52E2,4.07E2,3.02E2,3.3E1,2.8E2,1.1E1,1.2E1,1E0,4.5E2,2E0,4.02E2,5E0,3.01E2,1E0,2.8E1,5E0,2.79E2,1E0,1E0,1E1,1E1,2E0,6.8E1,3.82E2,1E0,1E0,3.99E2,3E0,4E0,1E0,1.4E2,1.61E2,8E0,2E1,3E0,2E0,2.78E2,1E0,7E0,3E0,7E0,3E0,1E0,1E0],"tree_param":{"num_deleted":"0","num_feature":"112","num_nodes":"51","size_leaf_vector":"1"}},{"base_weights":[1.7650511E-2,-1.3489218E-1,4.923263E0,-1.4756976E-1,4.7761178E-1,4.3671566E-1,5.078958E1,-3.3380172E-1,1.0174326E0,-7.960182E-1,6.4490156E0,4.6169767E0,9.797946E0,-6.678768E-1,2.5463644E-1,-1.3159822E-1,2.8796027E0,2.8072384E-1,-1.146513E0,3.3714368E0,3.743407E-1,1.5668896E1,-4.7144067E-2,-1.9128626E-2,1.8315467E-1,-7.399224E-3,3.621549E-2,-3.5148185E-2,6.985087E-2,2.0583743E-2,1.4281602E-1,1.320833E-1,-3.5918824E-2,1.356686E-1,1.8813675E-2,2.9009348E-1,5.3943086E-1],"categories":[],"categories_nodes":[],"categories_segments":[],"categories_sizes":[],"default_left":[0,0,0,0,0,0,0,0,0,0,0,0,0,0,0,0,0,0,0,0,0,0,0,0,0,0,0,0,0,0,0,0,0,0,0,0,0],"id":28,"left_children":[1,3,5,7,-1,9,11,13,15,17,19,-1,21,23,25,27,29,-1,31,33,-1,35,-1,-1,-1,-1,-1,-1,-1,-1,-1,-1,-1,-1,-1,-1,-1],"loss_changes":[1.1167262E3,3.2649408E2,9.250791E3,3.133717E2,0E0,3.0510596E2,1.9982775E4,2.4502852E2,4.2637567E2,1.3285052E2,1.591405E2,0E0,2.0706E2,2.852906E2,2.640416E2,3.9947482E2,3.9385358E2,0E0,3.9010178E1,2.1566982E1,0E0,3.5945312E1,0E0,0E0,0E0,0E0,0E0,0E0,0E0,0E0,0E0,0E0,0E0,0E0,0E0,0E0,0E0],"parents":[2147483647,0,0,1,1,2,2,3,3,5,5,6,6,7,7,8,8,9,9,10,10,12,12,13,13,14,14,15,15,16,16,18,18,19,19,21,21],"right_children":[2,4,6,8,-1,10,12,14,16,18,20,-1,22,24,26,28,30,-1,32,34,-1,36,-1,-1,-1,-1,-1,-1,-1,-1,-1,-1,-1,-1,-1,-1,-1],"split_conditions":[1.9E1,1.05E2,1.2E1,1E1,4.7761178E-1,1E1,4E0,5E0,5E0,2E0,1E1,4.6169767E0,8E0,3.6E1,6E0,7E0,5E0,2.8072384E-1,2E0,3E0,3.743407E-1,5E0,-4.7144067E-2,-1.9128626E-2,1.8315467E-1,-7.399224E-3,3.621549E-2,-3.5148185E-2,6.985087E-2,2.0583743E-2,1.4281602E-1,1.320833E-1,-3.5918824E-2,1.356686E-1,1.8813675E-2,2.9009348E-1,5.3943086E-1],"split_indices":[27,6,83,100,0,79,1,106,78,59,20,0,18,46,95,73,55,0,24,17,0,1,0,0,0,0,0,0,0,0,0,0,0,0,0,0,0],"split_type":[0,0,0,0,0,0,0,0,0,0,0,0,0,0,0,0,0,0,0,0,0,0,0,0,0,0,0,0,0,0,0,0,0,0,0,0,0],"sum_hessian":[1.491E3,1.446E3,4.5E1,1.445E3,1E0,4.1E1,4E0,1.246E3,1.99E2,3.4E1,7E0,1E0,3E0,7.95E2,4.51E2,1.23E2,7.6E1,1E0,3.3E1,5E0,2E0,2E0,1E0,7.9E2,5E0,3.04E2,1.47E2,8.6E1,3.7E1,4.1E1,3.5E1,1E0,3.2E1,3E0,2E0,1E0,1E0],"tree_param":{"num_deleted":"0","num_feature":"112","num_nodes":"37","size_leaf_vector":"1"}},{"base_weights":[1.2707765E-2,-2.080364E-1,2.1282368E0,-4.8249346E-1,4.5483315E-1,9.350821E-1,2.5089315E1,-1.2067386E0,-9.3426645E-2,2.6777244E-1,5.976295E0,3.055622E-1,5.0141325E0,4.494332E0,1.0626004E0,-1.3248811E0,2.6227427E0,-1.8239851E-1,5.9794235E0,-4.0963423E-2,1.6359359E0,1.3473636E0,2.2323477E0,1.5328977E-1,4.719216E-1,5.782094E-1,1.1949189E1,-1.2063766E0,3.3538687E-1,-3.7050173E-2,1.3954571E-1,6.033363E-1,9.869322E-3,-1.9778147E-2,1.0157342E-2,9.7574675E-1,5.6458678E-2,-2.3149922E-3,3.7315422E-1,1.9790426E-1,2.9384654E-2,-4.3667823E-2,1.3421413E-1,3.895782E-2,-2.8350338E-2,1.4496936E-1,-3.2506853E-2,1.3308635E-1,4.572329E-1,-3.8686867E-3,-3.7950486E-2],"categories":[],"categories_nodes":[],"categories_segments":[],"categories_sizes":[],"default_left":[0,0,0,0,0,0,0,0,0,0,0,0,0,0,0,0,0,0,0,0,0,0,0,0,0,0,0,0,0,0,0,0,0,0,0,0,0,0,0,0,0,0,0,0,0,0,0,0,0,0,0],"id":29,"left_children":[1,3,5,7,9,11,13,15,17,19,21,23,25,-1,27,29,31,33,35,37,39,-1,41,43,-1,45,47,49,-1,-1,-1,-1,-1,-1,-1,-1,-1,-1,-1,-1,-1,-1,-1,-1,-1,-1,-1,-1,-1,-1,-1],"loss_changes":[7.018182E2,2.4743185E2,3.8849495E3,2.7080722E2,4.097932E2,3.45577E2,2.4050592E4,1.5177267E2,3.370599E2,1.6295361E2,2.1526042E3,3.055279E2,5.51322E2,0E0,1.589582E2,1.3058911E2,4.4517856E2,1.9362857E2,1.0549142E3,1.97972E2,2.1794809E2,0E0,1.3025131E2,1.8383015E2,0E0,9.662709E1,2.4693109E2,8.1453276E-1,0E0,0E0,0E0,0E0,0E0,0E0,0E0,0E0,0E0,0E0,0E0,0E0,0E0,0E0,0E0,0E0,0E0,0E0,0E0,0E0,0E0,0E0,0E0],"parents":[2147483647,0,0,1,1,2,2,3,3,4,4,5,5,6,6,7,7,8,8,9,9,10,10,11,11,12,12,14,14,15,15,16,16,17,17,18,18,19,19,20,20,22,22,23,23,25,25,26,26,27,27],"right_children":[2,4,6,8,10,12,14,16,18,20,22,24,26,-1,28,30,32,34,36,38,40,-1,42,44,-1,46,48,50,-1,-1,-1,-1,-1,-1,-1,-1,-1,-1,-1,-1,-1,-1,-1,-1,-1,-1,-1,-1,-1,-1,-1],"split_conditions":[1.2E1,6E0,1.7E1,3E0,1.7E1,1.2E1,2E0,1.4E1,2.1E1,9E0,2E0,6.4E1,7E0,4.494332E0,3.2E1,2.9E1,3E0,4E0,2E0,2.9E1,2E0,1.3473636E0,4E0,4E0,4.719216E-1,4E0,6E0,2E0,3.3538687E-1,-3.7050173E-2,1.3954571E-1,6.033363E-1,9.869322E-3,-1.9778147E-2,1.0157342E-2,9.7574675E-1,5.6458678E-2,-2.3149922E-3,3.7315422E-1,1.9790426E-1,2.9384654E-2,-4.3667823E-2,1.3421413E-1,3.895782E-2,-2.8350338E-2,1.4496936E-1,-3.2506853E-2,1.3308635E-1,4.572329E-1,-3.8686867E-3,-3.7950486E-2],"split_indices":[79,103,53,96,91,6,14,101,57,59,25,0,84,0,1,28,20,92,9,76,79,0,6,7,0,96,8,10,0,0,0,0,0,0,0,0,0,0,0,0,0,0,0,0,0,0,0,0,0,0,0],"split_type":[0,0,0,0,0,0,0,0,0,0,0,0,0,0,0,0,0,0,0,0,0,0,0,0,0,0,0,0,0,0,0,0,0,0,0,0,0,0,0,0,0,0,0,0,0,0,0,0,0,0,0],"sum_hessian":[1.502E3,1.36E3,1.42E2,9.62E2,3.98E2,1.35E2,7E0,3.36E2,6.26E2,3.85E2,1.3E1,1.17E2,1.8E1,1E0,6E0,3.26E2,1E1,6.17E2,9E0,3.14E2,7.1E1,1E0,1.2E1,1.16E2,1E0,1.1E1,7E0,5E0,1E0,3.23E2,3E0,1E0,9E0,3.1E2,3.07E2,1E0,8E0,3.13E2,1E0,6E0,6.5E1,5E0,7E0,5.6E1,6E1,3E0,8E0,3E0,4E0,1E0,4E0],"tree_param":{"num_deleted":"0","num_feature":"112","num_nodes":"51","size_leaf_vector":"1"}},{"base_weights":[3.8509695E-3,-2.1339296E-1,2.0960016E0,-3.7962276E-1,8.4518814E-1,5.537692E-1,2.4677216E1,-8.153709E-1,8.257319E-2,3.5199206E0,3.6367965E-1,2.3704038E0,-7.013647E-1,4.374945E0,7.162561E0,-8.6816144E-1,7.0415583E0,-1.8904386E-2,5.246034E0,1.6332705E0,2.7865936E1,3.9115036E0,-6.890597E-2,4.9762726E0,-8.788427E-1,-9.233431E-1,4.300099E-1,1.5434895E1,2.1457145E0,-2.6180468E-2,3.9830353E-2,6.502426E-2,3.080397E-1,-2.2707742E-3,1.3757345E-1,9.4982713E-1,5.8161385E-2,8.522587E-2,-6.84058E-2,1.6790292E-1,1.3115723E0,5.4657564E-2,3.348739E-1,-5.0719413E-3,4.359004E-1,7.311537E-2,2.9676318E-1,-5.5505976E-2,-2.1020806E-4,-6.136634E-3,-7.0758745E-2,5.1295567E-1,3.58126E-1,1.18013196E-1,-3.10223E-2],"categories":[],"categories_nodes":[],"categories_segments":[],"categories_sizes":[],"default_left":[0,0,0,0,0,0,0,0,0,0,0,0,0,0,0,0,0,0,0,0,0,0,0,0,0,0,0,0,0,0,0,0,0,0,0,0,0,0,0,0,0,0,0,0,0,0,0,0,0,0,0,0,0,0,0],"id":30,"left_children":[1,3,5,7,9,11,13,15,17,19,21,23,25,-1,27,29,31,33,35,37,39,41,43,45,47,49,-1,51,53,-1,-1,-1,-1,-1,-1,-1,-1,-1,-1,-1,-1,-1,-1,-1,-1,-1,-1,-1,-1,-1,-1,-1,-1,-1,-1],"loss_changes":[6.81242E2,2.3869594E2,4.905359E3,2.3639491E2,2.3618048E2,3.013409E2,2.1888676E4,2.4929852E2,2.99215E2,1.2800763E3,2.4021587E2,4.5813925E2,2.8775684E2,0E0,3.284628E2,1.5771136E2,7.977905E1,1.8945116E2,1.0153696E3,1.6983615E2,9.0525793E2,2.7041995E2,2.7197284E2,4.0896503E2,2.4625982E1,9.1527466E1,0E0,1.4771912E1,3.8276867E1,0E0,0E0,0E0,0E0,0E0,0E0,0E0,0E0,0E0,0E0,0E0,0E0,0E0,0E0,0E0,0E0,0E0,0E0,0E0,0E0,0E0,0E0,0E0,0E0,0E0,0E0],"parents":[2147483647,0,0,1,1,2,2,3,3,4,4,5,5,6,6,7,7,8,8,9,9,10,10,11,11,12,12,14,14,15,15,16,16,17,17,18,18,19,19,20,20,21,21,22,22,23,23,24,24,25,25,27,27,28,28],"right_children":[2,4,6,8,10,12,14,16,18,20,22,24,26,-1,28,30,32,34,36,38,40,42,44,46,48,50,-1,52,54,-1,-1,-1,-1,-1,-1,-1,-1,-1,-1,-1,-1,-1,-1,-1,-1,-1,-1,-1,-1,-1,-1,-1,-1,-1,-1],"split_conditions":[1.2E1,1E1,1.9E1,4E0,2E0,4E0,2E0,2.9E1,2.2E1,9E0,2E0,4E0,2.6E1,4.374945E0,3E0,1.5E1,1.2E1,2.9E1,2E0,6E0,6E0,1.7E1,2.9E1,6E0,4E0,6E0,4.300099E-1,4E0,5E0,-2.6180468E-2,3.9830353E-2,6.502426E-2,3.080397E-1,-2.2707742E-3,1.3757345E-1,9.4982713E-1,5.8161385E-2,8.522587E-2,-6.84058E-2,1.6790292E-1,1.3115723E0,5.4657564E-2,3.348739E-1,-5.0719413E-3,4.359004E-1,7.311537E-2,2.9676318E-1,-5.5505976E-2,-2.1020806E-4,-6.136634E-3,-7.0758745E-2,5.1295567E-1,3.58126E-1,1.18013196E-1,-3.10223E-2],"split_indices":[79,93,27,95,48,40,14,101,57,44,31,7,75,0,19,110,3,28,24,6,3,110,74,100,17,26,0,0,11,0,0,0,0,0,0,0,0,0,0,0,0,0,0,0,0,0,0,0,0,0,0,0,0,0,0],"split_type":[0,0,0,0,0,0,0,0,0,0,0,0,0,0,0,0,0,0,0,0,0,0,0,0,0,0,0,0,0,0,0,0,0,0,0,0,0,0,0,0,0,0,0,0,0,0,0,0,0,0,0,0,0,0,0],"sum_hessian":[1.498E3,1.357E3,1.41E2,1.173E3,1.84E2,1.32E2,9E0,6.04E2,5.69E2,2.8E1,1.56E2,5.4E1,7.8E1,1E0,8E0,6E2,4E0,5.58E2,1.1E1,2.6E1,2E0,1.7E1,1.39E2,3E1,2.4E1,7.7E1,1E0,3E0,5E0,5.73E2,2.7E1,2E0,2E0,5.51E2,7E0,1E0,1E1,1.9E1,7E0,1E0,1E0,1.4E1,3E0,1.38E2,1E0,2.2E1,8E0,1E1,1.4E1,5.5E1,2.2E1,1E0,2E0,3E0,2E0],"tree_param":{"num_deleted":"0","num_feature":"112","num_nodes":"55","size_leaf_vector":"1"}},{"base_weights":[6.26836E-3,-2.035303E-1,2.0066297E0,-2.4385184E-1,4.694557E0,5.14275E-1,2.4022526E1,-8.719024E-1,6.959778E-2,8.428567E0,-1.7917461E0,3.8786322E-1,4.5150232E-1,4.2587295E0,6.9725533E0,-9.049804E-1,3.633021E-1,-8.7276906E-2,1.318727E0,5.4624753E0,1.2296461E1,-8.935812E-2,-1.3237922E-1,2.5235087E-1,4.7645646E-1,1.502598E1,2.0873854E0,-2.7996026E-2,6.6122055E-2,-1.578194E-2,1.0031992E-2,2.0266451E-2,5.1659954E-1,7.814129E-2,1.6656972E-1,3.62944E-1,2.5273997E-1,-2.4851447E-2,1.2363925E-2,3.3672387E-3,4.3761164E-1,4.9932957E-1,3.4858426E-1,1.1486575E-1,-3.019576E-2],"categories":[],"categories_nodes":[],"categories_segments":[],"categories_sizes":[],"default_left":[0,0,0,0,0,0,0,0,0,0,0,0,0,0,0,0,0,0,0,0,0,0,0,0,0,0,0,0,0,0,0,0,0,0,0,0,0,0,0,0,0,0,0,0,0],"id":31,"left_children":[1,3,5,7,9,11,13,15,17,19,21,23,-1,-1,25,27,-1,29,31,33,35,-1,37,39,-1,41,43,-1,-1,-1,-1,-1,-1,-1,-1,-1,-1,-1,-1,-1,-1,-1,-1,-1,-1],"loss_changes":[6.277852E2,2.663131E2,4.660589E3,2.6435474E2,2.6801324E2,2.7184662E2,2.0740898E4,2.1138327E2,1.7563506E2,7.634012E1,9.603369E0,3.0826892E2,0E0,0E0,3.1128638E2,2.1469064E2,0E0,1.8516678E2,1.0052019E3,5.8531036E0,5.479828E0,0E0,1.0501775E0,2.6348883E2,0E0,1.3842834E1,3.6285572E1,0E0,0E0,0E0,0E0,0E0,0E0,0E0,0E0,0E0,0E0,0E0,0E0,0E0,0E0,0E0,0E0,0E0,0E0],"parents":[2147483647,0,0,1,1,2,2,3,3,4,4,5,5,6,6,7,7,8,8,9,9,10,10,11,11,14,14,15,15,17,17,18,18,19,19,20,20,22,22,23,23,25,25,26,26],"right_children":[2,4,6,8,10,12,14,16,18,20,22,24,-1,-1,26,28,-1,30,32,34,36,-1,38,40,-1,42,44,-1,-1,-1,-1,-1,-1,-1,-1,-1,-1,-1,-1,-1,-1,-1,-1,-1,-1],"split_conditions":[1.2E1,2.8E1,1.9E1,3E0,6E0,2.5E1,2E0,3.7E1,1.1E1,1E1,7E0,2E1,4.5150232E-1,4.2587295E0,5E0,1.5E1,3.633021E-1,4E0,1.7E1,5E0,1E1,-8.935812E-2,6E0,3.6E1,4.7645646E-1,2E0,6E0,-2.7996026E-2,6.6122055E-2,-1.578194E-2,1.0031992E-2,2.0266451E-2,5.1659954E-1,7.814129E-2,1.6656972E-1,3.62944E-1,2.5273997E-1,-2.4851447E-2,1.2363925E-2,3.3672387E-3,4.3761164E-1,4.9932957E-1,3.4858426E-1,1.1486575E-1,-3.019576E-2],"split_indices":[79,84,27,96,23,106,61,76,68,16,6,22,0,0,13,95,0,92,37,9,1,0,2,5,0,3,33,0,0,0,0,0,0,0,0,0,0,0,0,0,0,0,0,0,0],"split_type":[0,0,0,0,0,0,0,0,0,0,0,0,0,0,0,0,0,0,0,0,0,0,0,0,0,0,0,0,0,0,0,0,0,0,0,0,0,0,0,0,0,0,0,0,0],"sum_hessian":[1.495E3,1.353E3,1.42E2,1.342E3,1.1E1,1.33E2,9E0,4.47E2,8.95E2,7E0,4E0,1.32E2,1E0,1E0,8E0,4.46E2,1E0,7.95E2,1E2,4E0,3E0,2E0,2E0,1.31E2,1E0,3E0,5E0,4.28E2,1.8E1,3.81E2,4.14E2,9.7E1,3E0,1E0,3E0,2E0,1E0,1E0,1E0,1.3E2,1E0,1E0,2E0,3E0,2E0],"tree_param":{"num_deleted":"0","num_feature":"112","num_nodes":"45","size_leaf_vector":"1"}},{"base_weights":[-1.4302108E-2,-1.4992501E-1,9.060694E0,-6.3626426E-1,3.142139E-1,2.052917E0,4.1456013E0,-1.2770671E0,-2.7795863E-1,2.9005963E-1,4.8606545E-1,1.2630091E0,-2.1083504E-1,-1.3371272E0,6.289628E0,-3.312831E-1,7.79697E0,2.6817173E-1,4.3950865E-1,-8.536337E-1,1.4584728E-1,-3.972361E-2,4.493311E-2,1.9220774E-3,3.2780367E-1,5.9610247E-3,-2.1814954E-2,3.1615707E-1,-2.3902617E-3,-8.96465E-3,2.1001019E-2,-3.825028E-2,9.7711265E-2],"categories":[],"categories_nodes":[],"categories_segments":[],"categories_sizes":[],"default_left":[0,0,0,0,0,0,0,0,0,0,0,0,0,0,0,0,0,0,0,0,0,0,0,0,0,0,0,0,0,0,0,0,0],"id":32,"left_children":[1,3,5,7,9,11,-1,13,15,17,-1,-1,19,21,23,25,27,29,-1,31,-1,-1,-1,-1,-1,-1,-1,-1,-1,-1,-1,-1,-1],"loss_changes":[1.8394357E3,3.327929E2,2.2491475E4,1.6499551E2,3.217243E2,2.1594717E3,0E0,1.16290375E2,1.9742422E2,2.628388E2,0E0,0E0,7.1981476E1,1.1536984E2,7.201817E1,1.2353734E2,9.803143E1,2.3508768E2,0E0,4.648873E1,0E0,0E0,0E0,0E0,0E0,0E0,0E0,0E0,0E0,0E0,0E0,0E0,0E0],"parents":[2147483647,0,0,1,1,2,2,3,3,4,4,5,5,7,7,8,8,9,9,12,12,13,13,14,14,15,15,16,16,17,17,19,19],"right_children":[2,4,6,8,10,12,-1,14,16,18,-1,-1,20,22,24,26,28,30,-1,32,-1,-1,-1,-1,-1,-1,-1,-1,-1,-1,-1,-1,-1],"split_conditions":[2.3E1,4E0,1.5E1,3E0,6.4E1,2E0,4.1456013E0,2.8E1,3.5E1,1.05E2,4.8606545E-1,1.2630091E0,1.6E1,1.5E1,5E0,4E0,5E0,4E0,4.3950865E-1,1.1E1,1.4584728E-1,-3.972361E-2,4.493311E-2,1.9220774E-3,3.2780367E-1,5.9610247E-3,-2.1814954E-2,3.1615707E-1,-2.3902617E-3,-8.96465E-3,2.1001019E-2,-3.825028E-2,9.7711265E-2],"split_indices":[105,110,27,102,71,4,0,19,79,0,0,0,10,99,4,8,12,83,0,23,0,0,0,0,0,0,0,0,0,0,0,0,0],"split_type":[0,0,0,0,0,0,0,0,0,0,0,0,0,0,0,0,0,0,0,0,0,0,0,0,0,0,0,0,0,0,0,0,0],"sum_hessian":[1.496E3,1.474E3,2.2E1,7.2E2,7.54E2,2.1E1,1E0,2.58E2,4.62E2,7.53E2,1E0,1E0,2E1,2.56E2,2E0,4.59E2,3E0,7.52E2,1E0,1.8E1,2E0,2.44E2,1.2E1,1E0,1E0,2.14E2,2.45E2,2E0,1E0,3.47E2,4.05E2,1.6E1,2E0],"tree_param":{"num_deleted":"0","num_feature":"112","num_nodes":"33","size_leaf_vector":"1"}},{"base_weights":[6.004926E-3,-1.2772389E-1,4.324973E0,-1.3947852E-1,4.4424823E-1,1.0175376E0,7.5116516E1,-3.7737536E-1,5.9440386E-1,3.641565E-1,1.4268616E1,4.035478E0,-2.7266823E-2,-3.9659604E-1,1.0004034E1,2.751634E-1,3.1753848E0,-2.9267484E-1,8.735994E0,2.8175312E-1,4.7315368E-1,-1.8822968E-2,1.085381E-2,9.982389E-2,4.2783365E-1,-4.658684E-4,7.940254E-2,4.028622E-1,4.8295613E-2,9.184232E-2,-2.3101516E-2,3.348052E-1,2.454081E-2],"categories":[],"categories_nodes":[],"categories_segments":[],"categories_sizes":[],"default_left":[0,0,0,0,0,0,0,0,0,0,0,0,0,0,0,0,0,0,0,0,0,0,0,0,0,0,0,0,0,0,0,0,0],"id":33,"left_children":[1,3,5,7,-1,9,11,13,15,17,19,-1,-1,21,23,25,27,29,31,-1,-1,-1,-1,-1,-1,-1,-1,-1,-1,-1,-1,-1,-1],"loss_changes":[8.654884E2,2.8255286E2,1.0521605E4,2.5328561E2,0E0,3.6932205E2,1.1622553E4,2.1675352E2,2.9179742E2,2.2722977E2,1.8782715E1,0E0,0E0,2.7033847E2,7.112027E1,2.498894E2,6.314305E2,8.053621E1,8.630202E1,0E0,0E0,0E0,0E0,0E0,0E0,0E0,0E0,0E0,0E0,0E0,0E0,0E0,0E0],"parents":[2147483647,0,0,1,1,2,2,3,3,5,5,6,6,7,7,8,8,9,9,10,10,13,13,14,14,15,15,16,16,17,17,18,18],"right_children":[2,4,6,8,-1,10,12,14,16,18,20,-1,-1,22,24,26,28,30,32,-1,-1,-1,-1,-1,-1,-1,-1,-1,-1,-1,-1,-1,-1],"split_conditions":[1.9E1,1.05E2,1.3E1,7E0,4.4424823E-1,1.3E1,3E0,6.4E1,1.2E1,1.2E1,3E0,4.035478E0,-2.7266823E-2,6E0,6E0,1.3E1,2E0,2E0,7E0,2.8175312E-1,4.7315368E-1,-1.8822968E-2,1.085381E-2,9.982389E-2,4.2783365E-1,-4.658684E-4,7.940254E-2,4.028622E-1,4.8295613E-2,9.184232E-2,-2.3101516E-2,3.348052E-1,2.454081E-2],"split_indices":[27,6,100,103,0,83,0,0,100,50,0,0,0,111,2,86,22,39,4,0,0,0,0,0,0,0,0,0,0,0,0,0,0],"split_type":[0,0,0,0,0,0,0,0,0,0,0,0,0,0,0,0,0,0,0,0,0,0,0,0,0,0,0,0,0,0,0,0,0],"sum_hessian":[1.497E3,1.452E3,4.5E1,1.451E3,1E0,4.3E1,2E0,1.096E3,3.55E2,4.1E1,2E0,1E0,1E0,1.094E3,2E0,3.16E2,3.9E1,3.8E1,3E0,1E0,1E0,7.91E2,3.03E2,1E0,1E0,2.85E2,3.1E1,4E0,3.5E1,5E0,3.3E1,2E0,1E0],"tree_param":{"num_deleted":"0","num_feature":"112","num_nodes":"33","size_leaf_vector":"1"}},{"base_weights":[7.403179E-3,-1.23358406E-1,8.416982E0,-3.0047917E-1,9.944467E-1,3.92828E0,2.0701668E0,-7.1331924E-1,9.432081E-2,8.540665E-1,3.9780477E-1,2.5154541E1,-2.3491836E-1,-7.5257164E-1,3.035241E-1,-5.4362136E-1,5.7204413E-1,7.618192E-1,9.854909E0,1.218757E0,1.1623444E-1,3.4097786E0,-1.4643279E0,-2.659378E-2,5.1110373E-3,-1.6164396E-2,4.3244725E-1,1.4007462E-2,4.8296538E-1,1.826324E-2,4.2514083E-1,1.6573668E-1,3.539743E-1,1.1970438E-1,-1.7806513E-2,-5.5075083E-2,3.3628037E-3],"categories":[],"categories_nodes":[],"categories_segments":[],"categories_sizes":[],"default_left":[0,0,0,0,0,0,0,0,0,0,0,0,0,0,0,0,0,0,0,0,0,0,0,0,0,0,0,0,0,0,0,0,0,0,0,0,0],"id":34,"left_children":[1,3,5,7,9,-1,11,13,15,17,-1,19,21,23,-1,25,27,29,31,-1,-1,33,35,-1,-1,-1,-1,-1,-1,-1,-1,-1,-1,-1,-1,-1,-1],"loss_changes":[1.6522836E3,2.924851E2,2.0202287E4,2.0810226E2,3.90631E2,0E0,1.1761046E3,2.9355035E2,1.9871297E2,1.6384901E2,0E0,8.421288E2,8.927559E1,1.4256775E2,0E0,2.826984E2,3.087272E2,2.3170605E2,2.03759E1,0E0,0E0,2.2622116E1,1.4632927E1,0E0,0E0,0E0,0E0,0E0,0E0,0E0,0E0,0E0,0E0,0E0,0E0,0E0,0E0],"parents":[2147483647,0,0,1,1,2,2,3,3,4,4,6,6,7,7,8,8,9,9,11,11,12,12,13,13,15,15,16,16,17,17,18,18,21,21,22,22],"right_children":[2,4,6,8,10,-1,12,14,16,18,-1,20,22,24,-1,26,28,30,32,-1,-1,34,36,-1,-1,-1,-1,-1,-1,-1,-1,-1,-1,-1,-1,-1,-1],"split_conditions":[2.3E1,1E1,2E0,4E0,3.5E1,3.92828E0,2E0,3.5E1,4E0,2.7E1,3.9780477E-1,4E0,3E0,7E0,3.035241E-1,3.2E1,2.4E1,3.5E1,3E0,1.218757E0,1.1623444E-1,5E0,6E0,-2.659378E-2,5.1110373E-3,-1.6164396E-2,4.3244725E-1,1.4007462E-2,4.8296538E-1,1.826324E-2,4.2514083E-1,1.6573668E-1,3.539743E-1,1.1970438E-1,-1.7806513E-2,-5.5075083E-2,3.3628037E-3],"split_indices":[105,110,97,88,11,0,22,79,96,50,0,2,98,99,0,6,40,5,3,0,0,1,62,0,0,0,0,0,0,0,0,0,0,0,0,0,0],"split_type":[0,0,0,0,0,0,0,0,0,0,0,0,0,0,0,0,0,0,0,0,0,0,0,0,0,0,0,0,0,0,0,0,0,0,0,0,0],"sum_hessian":[1.501E3,1.478E3,2.3E1,1.276E3,2.02E2,1E0,2.2E1,6.24E2,6.52E2,2E2,2E0,2E0,2E1,6.22E2,2E0,2.79E2,3.73E2,1.98E2,2E0,1E0,1E0,5E0,1.5E1,4.95E2,1.27E2,2.78E2,1E0,3.72E2,1E0,1.97E2,1E0,1E0,1E0,4E0,1E0,1.1E1,4E0],"tree_param":{"num_deleted":"0","num_feature":"112","num_nodes":"37","size_leaf_vector":"1"}},{"base_weights":[1.0577654E-2,-1.1896328E-1,9.134952E0,-5.337661E-1,2.7053168E-1,2.3858888E0,3.8239298E0,-6.835373E-1,2.208875E0,1.6980152E0,4.9597222E-2,2.9461372E-1,2.104806E1,-8.0411124E-1,3.0838563E0,1.2355865E0,8.388089E0,2.2278745E-1,4.775782E0,2.8764728E-2,3.6057255E-1,4.380613E0,-1.2624977E0,1.1863822E0,-5.9348483E-2,-2.2076743E-2,3.571498E-1,2.0145742E-2,6.693829E-1,2.0159097E-2,4.2375237E-1,2.934662E-1,1.1690972E-1,-4.7314907E-3,2.4238537E-1,9.531291E-2,4.4810808E-1,-1.1217397E-2,1.7630305E-2,6.239167E-2,1.292562E-1,6.218745E-3,-5.2096687E-2],"categories":[],"categories_nodes":[],"categories_segments":[],"categories_sizes":[],"default_left":[0,0,0,0,0,0,0,0,0,0,0,0,0,0,0,0,0,0,0,0,0,0,0,0,0,0,0,0,0,0,0,0,0,0,0,0,0,0,0,0,0,0,0],"id":35,"left_children":[1,3,5,7,9,11,-1,13,15,17,19,21,23,25,27,29,31,33,35,37,-1,39,41,-1,-1,-1,-1,-1,-1,-1,-1,-1,-1,-1,-1,-1,-1,-1,-1,-1,-1,-1,-1],"loss_changes":[1.7736455E3,2.388467E2,1.8959295E4,2.9380994E2,2.3996375E2,7.763867E2,0E0,3.0798672E2,2.2052922E2,4.6212006E2,1.820676E2,1.1523175E2,1.0989723E3,2.0260126E2,1.0696375E3,2.217319E2,4.867343E1,2.4593633E2,4.740995E2,1.8654796E2,0E0,3.1370163E0,1.3712883E1,0E0,0E0,0E0,0E0,0E0,0E0,0E0,0E0,0E0,0E0,0E0,0E0,0E0,0E0,0E0,0E0,0E0,0E0,0E0,0E0],"parents":[2147483647,0,0,1,1,2,2,3,3,4,4,5,5,7,7,8,8,9,9,10,10,11,11,12,12,13,13,14,14,15,15,16,16,17,17,18,18,19,19,21,21,22,22],"right_children":[2,4,6,8,10,12,-1,14,16,18,20,22,24,26,28,30,32,34,36,38,-1,40,42,-1,-1,-1,-1,-1,-1,-1,-1,-1,-1,-1,-1,-1,-1,-1,-1,-1,-1,-1,-1],"split_conditions":[2.3E1,4E0,1.5E1,1.4E1,2E0,1E1,3.8239298E0,1.8E1,1.2E1,6E0,3.7E1,3E0,7E0,3.75E2,1E1,1.7E1,1E1,1.7E1,1.4E1,5E0,3.6057255E-1,2E0,4E0,1.1863822E0,-5.9348483E-2,-2.2076743E-2,3.571498E-1,2.0145742E-2,6.693829E-1,2.0159097E-2,4.2375237E-1,2.934662E-1,1.1690972E-1,-4.7314907E-3,2.4238537E-1,9.531291E-2,4.4810808E-1,-1.1217397E-2,1.7630305E-2,6.239167E-2,1.292562E-1,6.218745E-3,-5.2096687E-2],"split_indices":[105,92,27,86,31,70,0,57,3,106,20,98,3,91,62,74,24,101,101,105,0,16,30,0,0,0,0,0,0,0,0,0,0,0,0,0,0,0,0,0,0,0,0],"split_type":[0,0,0,0,0,0,0,0,0,0,0,0,0,0,0,0,0,0,0,0,0,0,0,0,0,0,0,0,0,0,0,0,0,0,0,0,0,0,0,0,0,0,0],"sum_hessian":[1.499E3,1.478E3,2.1E1,7.16E2,7.62E2,2E1,1E0,6.79E2,3.7E1,1.02E2,6.6E2,1.8E1,2E0,6.58E2,2.1E1,3.2E1,5E0,6.9E1,3.3E1,6.59E2,1E0,5E0,1.3E1,1E0,1E0,6.57E2,1E0,1.9E1,2E0,3.1E1,1E0,3E0,2E0,6.6E1,3E0,3E1,3E0,3.85E2,2.74E2,1E0,4E0,4E0,9E0],"tree_param":{"num_deleted":"0","num_feature":"112","num_nodes":"43","size_leaf_vector":"1"}},{"base_weights":[-1.9454479E-3,-2.1113354E-1,1.9831051E0,-6.2665933E-1,2.004386E-1,7.6714957E-1,3.5461357E1,-6.543552E-1,8.578844E0,1.2717381E-1,4.6484933E0,6.063542E-1,1.1564656E1,3.7223513E0,9.282855E0,-7.193918E-1,6.5457993E0,1.4028433E-1,3.1142825E-1,8.567535E-2,6.9854603E0,1.3749263E0,1.3289736E1,-5.4604983E-1,2.792708E0,2.2251096E-1,3.8830835E-1,1.1548672E0,-5.408093E-2,-2.3760105E-2,1.4040449E-2,3.2267082E-1,2.5016824E-2,-7.756408E-3,1.8036213E-2,1.0827287E-1,2.6179725E-1,1.2701802E-1,-5.2222464E-2,2.3883298E-1,4.0969452E-1,-2.0862803E-2,1.630203E-1,5.633522E-2,9.054576E-1],"categories":[],"categories_nodes":[],"categories_segments":[],"categories_sizes":[],"default_left":[0,0,0,0,0,0,0,0,0,0,0,0,0,0,0,0,0,0,0,0,0,0,0,0,0,0,0,0,0,0,0,0,0,0,0,0,0,0,0,0,0,0,0,0,0],"id":36,"left_children":[1,3,5,7,9,11,13,15,17,19,21,23,25,-1,27,29,31,-1,-1,33,35,37,39,41,43,-1,-1,-1,-1,-1,-1,-1,-1,-1,-1,-1,-1,-1,-1,-1,-1,-1,-1,-1,-1],"loss_changes":[6.229312E2,2.3233255E2,5.813925E3,1.7076349E2,2.2127571E2,2.3707294E2,1.3568602E4,3.1445587E2,1.6710587E1,1.8952394E2,3.0822534E2,3.4314444E2,1.3863129E1,0E0,1.5458865E3,1.41195E2,1.8353668E2,0E0,0E0,1.4782599E2,2.9966782E1,9.066347E1,2.0916443E1,1.3774065E2,9.927465E2,0E0,0E0,0E0,0E0,0E0,0E0,0E0,0E0,0E0,0E0,0E0,0E0,0E0,0E0,0E0,0E0,0E0,0E0,0E0,0E0],"parents":[2147483647,0,0,1,1,2,2,3,3,4,4,5,5,6,6,7,7,8,8,9,9,10,10,11,11,12,12,14,14,15,15,16,16,19,19,20,20,21,21,22,22,23,23,24,24],"right_children":[2,4,6,8,10,12,14,16,18,20,22,24,26,-1,28,30,32,-1,-1,34,36,38,40,42,44,-1,-1,-1,-1,-1,-1,-1,-1,-1,-1,-1,-1,-1,-1,-1,-1,-1,-1,-1,-1],"split_conditions":[1.2E1,4E0,2.1E1,3.5E1,2.4E1,3.2E1,2E0,2.5E1,5E0,2.7E1,5E0,5E0,3E0,3.7223513E0,2E0,9E0,5E0,1.4028433E-1,3.1142825E-1,5E0,5E0,4E0,2E0,1.7E1,1.3E1,2.2251096E-1,3.8830835E-1,1.1548672E0,-5.408093E-2,-2.3760105E-2,1.4040449E-2,3.2267082E-1,2.5016824E-2,-7.756408E-3,1.8036213E-2,1.0827287E-1,2.6179725E-1,1.2701802E-1,-5.2222464E-2,2.3883298E-1,4.0969452E-1,-2.0862803E-2,1.630203E-1,5.633522E-2,9.054576E-1],"split_indices":[100,110,105,66,16,48,14,80,3,54,84,78,2,0,1,99,58,0,0,83,18,48,4,105,49,0,0,0,0,0,0,0,0,0,0,0,0,0,0,0,0,0,0,0,0],"split_type":[0,0,0,0,0,0,0,0,0,0,0,0,0,0,0,0,0,0,0,0,0,0,0,0,0,0,0,0,0,0,0,0,0,0,0,0,0,0,0,0,0,0,0,0,0],"sum_hessian":[1.501E3,1.358E3,1.43E2,6.76E2,6.82E2,1.38E2,5E0,6.74E2,2E0,6.71E2,1.1E1,1.36E2,2E0,1E0,4E0,6.68E2,6E0,1E0,1E0,6.67E2,4E0,8E0,3E0,8.9E1,4.7E1,1E0,1E0,1E0,3E0,5.88E2,8E1,3E0,3E0,4.07E2,2.6E2,2E0,2E0,4E0,4E0,1E0,2E0,8.6E1,3E0,4.6E1,1E0],"tree_param":{"num_deleted":"0","num_feature":"112","num_nodes":"45","size_leaf_vector":"1"}},{"base_weights":[9.993636E-3,-1.1028906E-1,7.7149925E0,-1.2830447E-1,8.625807E0,3.6234713E0,1.8577062E0,-6.8633497E-1,1.3732815E-1,5.0227513E0,4.1569957E-1,1.1241895E0,-5.8792032E-2,-8.650955E-1,3.1591907E0,-1.0132829E0,3.07441E-1,1.634092E-1,9.880776E-2,-1.086462E0,4.252819E0,-2.4093466E-2,4.0961048E-1,4.6441827E-2,4.41322E-1,-3.4783166E-2,1.6117363E-1,6.0860636E-3,7.971377E-2,9.4688796E-2,-3.714119E-2,5.0409015E-2,1.3277036E-1],"categories":[],"categories_nodes":[],"categories_segments":[],"categories_sizes":[],"default_left":[0,0,0,0,0,0,0,0,0,0,0,0,0,0,0,0,0,0,0,0,0,0,0,0,0,0,0,0,0,0,0,0,0],"id":37,"left_children":[1,3,5,7,9,-1,11,13,15,17,-1,-1,19,21,23,25,27,-1,-1,29,31,-1,-1,-1,-1,-1,-1,-1,-1,-1,-1,-1,-1],"loss_changes":[1.3870994E3,2.2993915E2,1.7201902E4,2.1786523E2,7.037479E1,0E0,1.7044183E3,3.253923E2,1.9461371E2,7.60334E-1,0E0,0E0,9.245601E1,2.6473212E2,3.948318E2,2.5904813E2,1.842153E2,0E0,0E0,2.3473536E1,5.324173E0,0E0,0E0,0E0,0E0,0E0,0E0,0E0,0E0,0E0,0E0,0E0,0E0],"parents":[2147483647,0,0,1,1,2,2,3,3,4,4,6,6,7,7,8,8,9,9,12,12,13,13,14,14,15,15,16,16,19,19,20,20],"right_children":[2,4,6,8,10,-1,12,14,16,18,-1,-1,20,22,24,26,28,-1,-1,30,32,-1,-1,-1,-1,-1,-1,-1,-1,-1,-1,-1,-1],"split_conditions":[2.3E1,6.4E1,2E0,3E0,4E0,3.6234713E0,2E0,1.5E1,2E0,1.05E2,4.1569957E-1,1.1241895E0,1.1E1,3.6E1,1.1E1,1.2E1,1.9E1,1.634092E-1,9.880776E-2,2E0,2E0,-2.4093466E-2,4.0961048E-1,4.6441827E-2,4.41322E-1,-3.4783166E-2,1.6117363E-1,6.0860636E-3,7.971377E-2,9.4688796E-2,-3.714119E-2,5.0409015E-2,1.3277036E-1],"split_indices":[105,0,14,96,3,0,4,95,107,0,0,0,23,6,109,111,57,0,0,72,0,0,0,0,0,0,0,0,0,0,0,0,0],"split_type":[0,0,0,0,0,0,0,0,0,0,0,0,0,0,0,0,0,0,0,0,0,0,0,0,0,0,0,0,0,0,0,0,0],"sum_hessian":[1.495E3,1.472E3,2.3E1,1.469E3,3E0,1E0,2.2E1,4.74E2,9.95E2,2E0,1E0,1E0,2.1E1,4.53E2,2.1E1,1.28E2,8.67E2,1E0,1E0,1.7E1,4E0,4.52E2,1E0,1.9E1,2E0,1.23E2,5E0,8.42E2,2.5E1,1E0,1.6E1,1E0,3E0],"tree_param":{"num_deleted":"0","num_feature":"112","num_nodes":"33","size_leaf_vector":"1"}},{"base_weights":[-1.485459E-4,-2.0169191E-1,1.5670815E0,-2.3448612E-1,4.56051E0,5.0866884E-1,2.0465206E1,-1.2526183E0,-6.956192E-2,1.0943266E0,-0E0,1.9939393E0,-5.211113E-1,3.527218E0,6.410546E0,-1.3232939E0,3.0299383E-1,-1.6981113E-1,1.6265085E0,-1.7443305E0,1.379132E-1,1.4209481E0,8.933462E0,-6.75505E-1,3.6627015E-1,1.3475553E1,2.1195805E0,-4.7224738E-2,-9.90797E-3,-9.209877E-3,1.9270279E-2,2.8971074E-2,3.3091524E-1,-5.873003E-2,-1.9556625E-2,1.3317002E-2,2.005036E-1,8.711273E-2,3.3762196E-1,-3.3873532E-2,2.3115447E-2,4.4946602E-1,3.115032E-1,1.141224E-1,-2.6934797E-2],"categories":[],"categories_nodes":[],"categories_segments":[],"categories_sizes":[],"default_left":[0,0,0,0,0,0,0,0,0,0,0,0,0,0,0,0,0,0,0,0,0,0,0,0,0,0,0,0,0,0,0,0,0,0,0,0,0,0,0,0,0,0,0,0,0],"id":38,"left_children":[1,3,5,7,9,11,13,15,17,-1,19,21,23,-1,25,27,-1,29,31,33,-1,35,37,39,-1,41,43,-1,-1,-1,-1,-1,-1,-1,-1,-1,-1,-1,-1,-1,-1,-1,-1,-1,-1],"loss_changes":[4.713107E2,2.0573898E2,3.3961099E3,2.2036987E2,1.4996538E3,2.4656656E2,1.4082803E4,1.6088998E2,1.9200835E2,0E0,7.170044E1,2.6026447E2,2.0607559E2,0E0,2.3934634E2,7.6508514E1,0E0,1.6626595E2,3.6476468E2,2.148018E0,0E0,3.4066458E2,1.0160068E2,8.5825134E1,0E0,1.1278809E1,3.4367752E1,0E0,0E0,0E0,0E0,0E0,0E0,0E0,0E0,0E0,0E0,0E0,0E0,0E0,0E0,0E0,0E0,0E0,0E0],"parents":[2147483647,0,0,1,1,2,2,3,3,4,4,5,5,6,6,7,7,8,8,10,10,11,11,12,12,14,14,15,15,17,17,18,18,19,19,21,21,22,22,23,23,25,25,26,26],"right_children":[2,4,6,8,10,12,14,16,18,-1,20,22,24,-1,26,28,-1,30,32,34,-1,36,38,40,-1,42,44,-1,-1,-1,-1,-1,-1,-1,-1,-1,-1,-1,-1,-1,-1,-1,-1,-1,-1],"split_conditions":[1.1E1,2.9E1,1.9E1,2E0,2E0,4E0,2E0,3.5E1,1.5E1,1.0943266E0,5E0,1E1,5.4E1,3.527218E0,5E0,5E0,3.0299383E-1,9E0,1.6E1,1.1E1,1.379132E-1,1.1E1,4E0,7E0,3.6627015E-1,4E0,6E0,-4.7224738E-2,-9.90797E-3,-9.209877E-3,1.9270279E-2,2.8971074E-2,3.3091524E-1,-5.873003E-2,-1.9556625E-2,1.3317002E-2,2.005036E-1,8.711273E-2,3.3762196E-1,-3.3873532E-2,2.3115447E-2,4.4946602E-1,3.115032E-1,1.141224E-1,-2.6934797E-2],"split_indices":[79,105,27,108,1,40,15,46,110,0,13,42,11,0,13,78,0,111,100,39,0,46,11,109,0,0,33,0,0,0,0,0,0,0,0,0,0,0,0,0,0,0,0,0,0],"split_type":[0,0,0,0,0,0,0,0,0,0,0,0,0,0,0,0,0,0,0,0,0,0,0,0,0,0,0,0,0,0,0,0,0,0,0,0,0,0,0,0,0,0,0,0,0],"sum_hessian":[1.493E3,1.323E3,1.7E2,1.314E3,9E0,1.61E2,9E0,1.83E2,1.131E3,1E0,8E0,6.6E1,9.5E1,1E0,8E0,1.82E2,1E0,1.068E3,6.3E1,6E0,2E0,6.1E1,5E0,9.4E1,1E0,3E0,5E0,1.24E2,5.8E1,8.93E2,1.75E2,6E1,3E0,4E0,2E0,5.3E1,8E0,2E0,3E0,6.8E1,2.6E1,1E0,2E0,3E0,2E0],"tree_param":{"num_deleted":"0","num_feature":"112","num_nodes":"45","size_leaf_vector":"1"}},{"base_weights":[1.4794773E-2,-4.2713812E-1,4.3355215E-1,-4.939929E-1,4.3767295E0,1.3900894E-1,2.6386054E0,-9.23485E-1,1.2742402E-2,8.795324E-1,1.163555E0,1.5472625E0,-8.5785724E-2,1.0006772E0,3.0735043E1,-9.6537393E-1,4.0400752E-1,7.880337E-1,-6.6888404E-1,-2.2459307E0,5.473442E0,7.250255E-1,4.5781827E0,-1.55635E-1,8.008178E0,2.9950437E-1,6.9726806E0,3.433521E0,6.0909166E0,-3.2168295E-2,1.290008E-2,5.6353E-2,-1.1762611E-3,-1.9488435E-2,2.574582E-1,5.984851E-3,-1.0576486E-1,5.5618297E-2,1.7449799E-1,1.609817E-3,3.2843882E-1,5.5851895E-1,9.893244E-2,-5.948029E-3,1.667953E-1,1.065257E0,-0E0,2.6447428E-3,4.0741217E-1,2.9987913E-1,-3.9077796E-2,3.539976E-1,-2.6217164E-2],"categories":[],"categories_nodes":[],"categories_segments":[],"categories_sizes":[],"default_left":[0,0,0,0,0,0,0,0,0,0,0,0,0,0,0,0,0,0,0,0,0,0,0,0,0,0,0,0,0,0,0,0,0,0,0,0,0,0,0,0,0,0,0,0,0,0,0,0,0,0,0,0,0],"id":39,"left_children":[1,3,5,7,9,11,13,15,17,-1,19,21,23,25,27,29,-1,31,33,35,37,39,41,43,45,47,49,-1,51,-1,-1,-1,-1,-1,-1,-1,-1,-1,-1,-1,-1,-1,-1,-1,-1,-1,-1,-1,-1,-1,-1,-1,-1],"loss_changes":[2.7852283E2,2.34311E2,5.0148425E2,1.5732289E2,9.1024115E2,2.1620094E2,4.1814155E3,2.5993268E2,1.7495068E2,0E0,1.3307304E2,2.3317097E2,3.3083493E2,3.5864215E2,1.2026723E4,1.3476947E2,0E0,1.7075607E2,1.0769842E2,2.1934017E1,1.2510757E1,5.66453E2,2.8058682E2,2.4843306E2,1.2774885E3,2.2765575E2,3.2485556E2,0E0,2.053095E2,0E0,0E0,0E0,0E0,0E0,0E0,0E0,0E0,0E0,0E0,0E0,0E0,0E0,0E0,0E0,0E0,0E0,0E0,0E0,0E0,0E0,0E0,0E0,0E0],"parents":[2147483647,0,0,1,1,2,2,3,3,4,4,5,5,6,6,7,7,8,8,10,10,11,11,12,12,13,13,14,14,15,15,17,17,18,18,19,19,20,20,21,21,22,22,23,23,24,24,25,25,26,26,28,28],"right_children":[2,4,6,8,10,12,14,16,18,-1,20,22,24,26,28,30,-1,32,34,36,38,40,42,44,46,48,50,-1,52,-1,-1,-1,-1,-1,-1,-1,-1,-1,-1,-1,-1,-1,-1,-1,-1,-1,-1,-1,-1,-1,-1,-1,-1],"split_conditions":[4E0,2.4E1,1.2E1,4E0,2E0,2E0,2E1,3.3E1,4E0,8.795324E-1,1E1,7E0,2.9E1,1.4E1,3E0,8E0,4.0400752E-1,4E0,3E1,3E0,4E0,1.7E1,2E0,2.5E1,3E0,2.9E1,1.5E1,3.433521E0,4E0,-3.2168295E-2,1.290008E-2,5.6353E-2,-1.1762611E-3,-1.9488435E-2,2.574582E-1,5.984851E-3,-1.0576486E-1,5.5618297E-2,1.7449799E-1,1.609817E-3,3.2843882E-1,5.5851895E-1,9.893244E-2,-5.948029E-3,1.667953E-1,1.065257E0,-0E0,2.6447428E-3,4.0741217E-1,2.9987913E-1,-3.9077796E-2,3.539976E-1,-2.6217164E-2],"split_indices":[83,57,79,92,24,31,27,74,1,0,55,72,105,6,0,99,0,110,12,27,3,101,40,104,0,5,66,0,13,0,0,0,0,0,0,0,0,0,0,0,0,0,0,0,0,0,0,0,0,0,0,0,0],"split_type":[0,0,0,0,0,0,0,0,0,0,0,0,0,0,0,0,0,0,0,0,0,0,0,0,0,0,0,0,0,0,0,0,0,0,0,0,0,0,0,0,0,0,0,0,0,0,0,0,0,0,0,0,0],"sum_hessian":[1.505E3,7.32E2,7.73E2,7.22E2,1E1,6.82E2,9.1E1,3.91E2,3.31E2,1E0,9E0,9.4E1,5.88E2,8.6E1,5E0,3.9E2,1E0,1.55E2,1.76E2,5E0,4E0,7.4E1,2E1,5.83E2,5E0,7.7E1,9E0,1E0,4E0,3.35E2,5.5E1,6E1,9.5E1,1.75E2,1E0,2E0,3E0,1E0,3E0,7E1,4E0,1E0,1.9E1,5.77E2,6E0,1E0,4E0,7.6E1,1E0,6E0,3E0,2E0,2E0],"tree_param":{"num_deleted":"0","num_feature":"112","num_nodes":"53","size_leaf_vector":"1"}},{"base_weights":[2.265995E-3,-9.979935E-2,3.390859E0,-1.1443832E-1,1.0431079E1,5.78269E-1,6.217437E1,-3.1243324E-1,6.6808116E-1,1.6861854E-1,3.8179514E-1,-3.549946E-1,4.5674734E0,3.3423135E0,-2.3757935E-2,-8.422887E-2,-1.0485641E0,-2.4226108E-1,1.2795738E0,-6.856752E-1,2.7506664E-1,1.5331953E0,9.543367E0,-3.4197709E-3,1.6849297E-1,-3.117918E-2,9.2013985E-2,1.4361044E-2,-3.697058E-2,3.0690575E-2,3.3534598E-1,2.774931E-1,-2.7789284E-2,8.708095E-2,-2.551865E-2,2.9449287E-1,1.6939425E-1],"categories":[],"categories_nodes":[],"categories_segments":[],"categories_sizes":[],"default_left":[0,0,0,0,0,0,0,0,0,0,0,0,0,0,0,0,0,0,0,0,0,0,0,0,0,0,0,0,0,0,0,0,0,0,0,0,0],"id":40,"left_children":[1,3,5,7,9,11,13,15,17,-1,-1,19,21,-1,-1,23,25,27,29,31,-1,33,35,-1,-1,-1,-1,-1,-1,-1,-1,-1,-1,-1,-1,-1,-1],"loss_changes":[5.205017E2,2.228191E2,7.2626343E3,2.2566956E2,2.7121796E1,1.572589E2,7.9826567E3,1.9513916E2,1.6387766E2,0E0,0E0,1.1781525E2,1.1852319E2,0E0,0E0,2.4690071E2,1.4551447E2,1.05169655E2,2.5720624E2,1.27563095E2,0E0,2.1980207E1,1.0252991E1,0E0,0E0,0E0,0E0,0E0,0E0,0E0,0E0,0E0,0E0,0E0,0E0,0E0,0E0],"parents":[2147483647,0,0,1,1,2,2,3,3,4,4,5,5,6,6,7,7,8,8,11,11,12,12,15,15,16,16,17,17,18,18,19,19,21,21,22,22],"right_children":[2,4,6,8,10,12,14,16,18,-1,-1,20,22,-1,-1,24,26,28,30,32,-1,34,36,-1,-1,-1,-1,-1,-1,-1,-1,-1,-1,-1,-1,-1,-1],"split_conditions":[1.9E1,6.4E1,1.3E1,8E0,3E0,1E1,5E0,7E0,4E0,1.6861854E-1,3.8179514E-1,2.3E1,8E0,3.3423135E0,-2.3757935E-2,2.9E1,2.2E1,6E0,2.9E1,2E0,2.7506664E-1,4E0,1.1E1,-3.4197709E-3,1.6849297E-1,-3.117918E-2,9.2013985E-2,1.4361044E-2,-3.697058E-2,3.0690575E-2,3.3534598E-1,2.774931E-1,-2.7789284E-2,8.708095E-2,-2.551865E-2,2.9449287E-1,1.6939425E-1],"split_indices":[27,6,100,106,1,79,3,27,110,0,0,38,47,0,0,105,25,107,69,59,0,18,0,0,0,0,0,0,0,0,0,0,0,0,0,0,0],"split_type":[0,0,0,0,0,0,0,0,0,0,0,0,0,0,0,0,0,0,0,0,0,0,0,0,0,0,0,0,0,0,0,0,0,0,0,0,0],"sum_hessian":[1.503E3,1.459E3,4.4E1,1.457E3,2E0,4.2E1,2E0,1.163E3,2.94E2,1E0,1E0,3.4E1,8E0,1E0,1E0,8.88E2,2.75E2,1.18E2,1.76E2,3.3E1,1E0,5E0,3E0,8.82E2,6E0,2.68E2,7E0,7E1,4.8E1,1.74E2,2E0,1E0,3.2E1,3E0,2E0,2E0,1E0],"tree_param":{"num_deleted":"0","num_feature":"112","num_nodes":"37","size_leaf_vector":"1"}},{"base_weights":[-2.9350094E-2,-1.3873199E-1,6.936633E0,-7.1509314E-1,1.3876535E-1,3.2535288E0,1.6768275E0,-9.287399E-1,4.2730913E-1,1.1367623E-1,8.308293E0,-7.943083E-3,1.8575983E1,-9.590398E-1,2.926589E-1,1.2864342E0,-1.9247372E0,-1.1176816E-1,1.3158702E0,3.9844528E-1,4.8707533E0,3.043457E0,-1.3310354E0,-3.718109E-2,1.0324838E0,-2.667031E-2,1.788225E-1,8.1607355E-3,1.0389625E-1,5.7918854E-2,-5.749577E-2,-2.434903E-2,5.6283204E-3,3.1156603E-2,3.4006318E-1,9.667654E-2,1.5744081E-1,1.0804398E-1,-4.663902E-2,-9.680536E-3,-6.064915E-2],"categories":[],"categories_nodes":[],"categories_segments":[],"categories_sizes":[],"default_left":[0,0,0,0,0,0,0,0,0,0,0,0,0,0,0,0,0,0,0,0,0,0,0,0,0,0,0,0,0,0,0,0,0,0,0,0,0,0,0,0,0],"id":41,"left_children":[1,3,5,7,9,-1,11,13,15,17,19,21,23,25,-1,27,29,31,33,-1,35,37,39,-1,-1,-1,-1,-1,-1,-1,-1,-1,-1,-1,-1,-1,-1,-1,-1,-1,-1],"loss_changes":[1.1339291E3,2.3474948E2,1.3866388E4,1.1652809E2,2.0118956E2,0E0,6.3033655E2,1.4272699E2,1.5144914E2,2.6775333E2,6.3732483E1,8.044409E1,8.1141956E2,1.18407074E2,0E0,1.3951538E2,1.8587982E1,2.1429546E2,2.6404245E2,0E0,4.92527E-1,2.9260227E1,1.2190525E1,0E0,0E0,0E0,0E0,0E0,0E0,0E0,0E0,0E0,0E0,0E0,0E0,0E0,0E0,0E0,0E0,0E0,0E0],"parents":[2147483647,0,0,1,1,2,2,3,3,4,4,6,6,7,7,8,8,9,9,10,10,11,11,12,12,13,13,15,15,16,16,17,17,18,18,20,20,21,21,22,22],"right_children":[2,4,6,8,10,-1,12,14,16,18,20,22,24,26,-1,28,30,32,34,-1,36,38,40,-1,-1,-1,-1,-1,-1,-1,-1,-1,-1,-1,-1,-1,-1,-1,-1,-1,-1],"split_conditions":[2.3E1,3E0,2E0,8E0,6.4E1,3.2535288E0,1.7E1,3.5E1,7E0,1E1,5E0,3E0,2E0,4E1,2.926589E-1,7E0,2E0,3E0,3.3E1,3.9844528E-1,2E0,1.3E1,4E0,-3.718109E-2,1.0324838E0,-2.667031E-2,1.788225E-1,8.1607355E-3,1.0389625E-1,5.7918854E-2,-5.749577E-2,-2.434903E-2,5.6283204E-3,3.1156603E-2,3.4006318E-1,9.667654E-2,1.5744081E-1,1.0804398E-1,-4.663902E-2,-9.680536E-3,-6.064915E-2],"split_indices":[105,94,14,99,0,0,94,46,83,110,10,98,0,59,0,103,3,111,11,0,1,18,14,0,0,0,0,0,0,0,0,0,0,0,0,0,0,0,0,0,0],"split_type":[0,0,0,0,0,0,0,0,0,0,0,0,0,0,0,0,0,0,0,0,0,0,0,0,0,0,0,0,0,0,0,0,0,0,0,0,0,0,0,0,0],"sum_hessian":[1.49E3,1.467E3,2.3E1,4.77E2,9.9E2,1E0,2.2E1,4.02E2,7.5E1,9.87E2,3E0,2E1,2E0,4.01E2,1E0,5.5E1,2E1,8.31E2,1.56E2,1E0,2E0,6E0,1.4E1,1E0,1E0,3.99E2,2E0,4E1,1.5E1,1E0,1.9E1,2.39E2,5.92E2,1.54E2,2E0,1E0,1E0,5E0,1E0,7E0,7E0],"tree_param":{"num_deleted":"0","num_feature":"112","num_nodes":"41","size_leaf_vector":"1"}},{"base_weights":[-6.0794097E-3,-2.2979765E-1,1.3693136E0,-3.978612E-1,7.7473295E-1,6.6777724E-1,1.4034856E1,