{"learner":{"attributes":{"best_iteration":"0","best_score":"6.8333849226214225","scikit_learn":"{\"_estimator_type\": \"regressor\"}"},"feature_names":[],"feature_types":[],"gradient_booster":{"model":{"gbtree_model_param":{"num_parallel_tree":"1","num_trees":"51"},"iteration_indptr":[0,1,2,3,4,5,6,7,8,9,10,11,12,13,14,15,16,17,18,19,20,21,22,23,24,25,26,27,28,29,30,31,32,33,34,35,36,37,38,39,40,41,42,43,44,45,46,47,48,49,50,51],"tree_info":[0,0,0,0,0,0,0,0,0,0,0,0,0,0,0,0,0,0,0,0,0,0,0,0,0,0,0,0,0,0,0,0,0,0,0,0,0,0,0,0,0,0,0,0,0,0,0,0,0,0,0],"trees":[{"base_weights":[-2.5083137E-1,-1.2813708E0,2.1213792E-1,-1.6323253E0,5.3183618E0,-1.4006351E-1,2.0635006E0,-1.8642011E0,-3.2345198E-2,4.016324E0,6.5314116E0,-5.307194E-1,5.319701E-1,1.3748795E0,1.0634029E1,-4.4645593E-1,-2.6835805E-1,3.341713E-1,-2.7468544E-1,1.2161758E0,-6.554146E-1,-1.20578475E-1,4.4491878E0,6.7939416E-2,1.3127459E0,-1.2740964E-1,9.076662E-1,2.2654067E-1,5.726485E0],"categories":[],"categories_nodes":[],"categories_segments":[],"categories_sizes":[],"default_left":[0,0,0,0,0,0,0,0,0,0,0,0,0,0,0,0,0,0,0,0,0,0,0,0,0,0,0,0,0],"id":0,"left_children":[1,3,5,7,9,11,13,15,17,19,-1,21,23,25,27,-1,-1,-1,-1,-1,-1,-1,-1,-1,-1,-1,-1,-1,-1],"loss_changes":[6.4028406E2,9.636133E2,6.038072E2,1.4654529E2,7.0607184E2,2.0425491E2,8.734143E2,5.3552612E1,1.0400035E2,2.554318E2,0E0,4.775381E2,3.4064008E2,8.0300006E2,1.7545848E3,0E0,0E0,0E0,0E0,0E0,0E0,0E0,0E0,0E0,0E0,0E0,0E0,0E0,0E0],"parents":[2147483647,0,0,1,1,2,2,3,3,4,4,5,5,6,6,7,7,8,8,9,9,11,11,12,12,13,13,14,14],"right_children":[2,4,6,8,10,12,14,16,18,20,-1,22,24,26,28,-1,-1,-1,-1,-1,-1,-1,-1,-1,-1,-1,-1,-1,-1],"split_conditions":[3E0,1.5E1,1E1,9E0,4E1,7E0,1.7E1,5E0,4E0,9E0,6.5314116E0,3.7E1,1.8E1,5E0,7E0,-4.4645593E-1,-2.6835805E-1,3.341713E-1,-2.7468544E-1,1.2161758E0,-6.554146E-1,-1.20578475E-1,4.4491878E0,6.7939416E-2,1.3127459E0,-1.2740964E-1,9.076662E-1,2.2654067E-1,5.726485E0],"split_indices":[26,25,30,3,5,26,21,34,7,4,0,14,4,8,33,0,0,0,0,0,0,0,0,0,0,0,0,0,0],"split_type":[0,0,0,0,0,0,0,0,0,0,0,0,0,0,0,0,0,0,0,0,0,0,0,0,0,0,0,0,0],"sum_hessian":[1.342E3,4.16E2,9.26E2,3.95E2,2.1E1,7.78E2,1.48E2,3.45E2,5E1,2E1,1E0,4.92E2,2.86E2,1.37E2,1.1E1,2.37E2,1.08E2,2.2E1,2.8E1,1.6E1,4E0,4.91E2,1E0,2.76E2,1E1,8.2E1,5.5E1,7E0,4E0],"tree_param":{"num_deleted":"0","num_feature":"42","num_nodes":"29","size_leaf_vector":"1"}},{"base_weights":[2.6082115E-2,-2.517946E-1,1.2716192E1,-6.537404E-1,2.0377662E0,2.2200628E-1,5.8478E1,-1.2643298E0,-3.6371063E-2,1.5384468E0,4.9434743E0,6.374576E0,-1.5893205E0,-3.437257E0,7.6721596E1,-2.81132E-1,2.6571538E0,-5.900194E-2,3.0671358E-1,2.4543919E-1,1.4995584E0,5.328612E-1,3.3471634E0,5.4884005E-1,1.5315874E0,1.5199274E0,-4.494895E-1,-4.2024562E-1,-9.191399E-1],"categories":[],"categories_nodes":[],"categories_segments":[],"categories_sizes":[],"default_left":[0,0,0,0,0,0,0,0,0,0,0,0,0,0,0,0,0,0,0,0,0,0,0,0,0,0,0,0,0],"id":1,"left_children":[1,3,5,7,9,11,13,15,17,19,21,23,25,27,-1,-1,-1,-1,-1,-1,-1,-1,-1,-1,-1,-1,-1,-1,-1],"loss_changes":[4.6089023E3,1.1770519E3,1.6012832E4,4.1013358E2,2.77076E2,2.4531503E2,1.1439828E5,5.876678E2,1.9891426E2,3.3628363E2,7.412289E2,1.7419342E1,8.360217E1,6.740341E0,0E0,0E0,0E0,0E0,0E0,0E0,0E0,0E0,0E0,0E0,0E0,0E0,0E0,0E0,0E0],"parents":[2147483647,0,0,1,1,2,2,3,3,4,4,5,5,6,6,7,7,8,8,9,9,10,10,11,11,12,12,13,13],"right_children":[2,4,6,8,10,12,14,16,18,20,22,24,26,28,-1,-1,-1,-1,-1,-1,-1,-1,-1,-1,-1,-1,-1,-1,-1],"split_conditions":[2.2E1,1E1,1.3E1,4E0,9E0,3E0,1.5E1,2.9E1,1E1,1.7E1,1.9E1,3E0,2E0,5E0,7.6721596E1,-2.81132E-1,2.6571538E0,-5.900194E-2,3.0671358E-1,2.4543919E-1,1.4995584E0,5.328612E-1,3.3471634E0,5.4884005E-1,1.5315874E0,1.5199274E0,-4.494895E-1,-4.2024562E-1,-9.191399E-1],"split_indices":[35,40,23,36,0,28,8,27,31,9,5,6,1,36,0,0,0,0,0,0,0,0,0,0,0,0,0,0,0],"split_type":[0,0,0,0,0,0,0,0,0,0,0,0,0,0,0,0,0,0,0,0,0,0,0,0,0,0,0,0,0],"sum_hessian":[1.307E3,1.279E3,2.8E1,1.088E3,1.91E2,2.2E1,6E0,5.47E2,5.41E2,1.63E2,2.8E1,5E0,1.7E1,5E0,1E0,5.44E2,3E0,4.65E2,7.6E1,1.53E2,1E1,2.3E1,5E0,1E0,4E0,1E0,1.6E1,2E0,3E0],"tree_param":{"num_deleted":"0","num_feature":"42","num_nodes":"29","size_leaf_vector":"1"}},{"base_weights":[9.377618E-2,-3.8320363E-1,1.9045632E0,-7.131803E-1,1.0583363E0,8.490791E-1,8.625022E0,-9.734848E-1,1.4118846E-1,2.3938048E0,-2.5049224E-1,7.126508E-1,1.1692589E1,9.802471E-1,9.7617645E1,-2.0894219E-1,3.0290234E0,-2.5283387E-1,2.1099004E-1,4.5058802E-1,5.425047E0,-9.706141E-2,4.3310223E0,-1.2618214E-3,6.5320534E-1,3.4711608E-1,6.6279073E0,3.1766455E0,2.4777558E-2,1.831705E-1,6.0746437E1],"categories":[],"categories_nodes":[],"categories_segments":[],"categories_sizes":[],"default_left":[0,0,0,0,0,0,0,0,0,0,0,0,0,0,0,0,0,0,0,0,0,0,0,0,0,0,0,0,0,0,0],"id":2,"left_children":[1,3,5,7,9,11,13,15,17,19,21,23,25,27,29,-1,-1,-1,-1,-1,-1,-1,-1,-1,-1,-1,-1,-1,-1,-1,-1],"loss_changes":[1.1599717E3,5.0565002E2,1.9861311E3,1.9237506E2,3.4609973E2,3.5795844E2,2.5856293E4,2.39875E2,2.3561052E2,5.6116425E2,4.447841E2,4.129289E2,6.0107495E2,4.2778452E2,5.5909117E4,0E0,0E0,0E0,0E0,0E0,0E0,0E0,0E0,0E0,0E0,0E0,0E0,0E0,0E0,0E0,0E0],"parents":[2147483647,0,0,1,1,2,2,3,3,4,4,5,5,6,6,7,7,8,8,9,9,10,10,11,11,12,12,13,13,14,14],"right_children":[2,4,6,8,10,12,14,16,18,20,22,24,26,28,30,-1,-1,-1,-1,-1,-1,-1,-1,-1,-1,-1,-1,-1,-1,-1,-1],"split_conditions":[8E0,8E0,1.3E1,7E0,4E0,3E1,2.1E1,3.75E2,4E0,3.3E1,3.7E1,8E0,6E0,2E0,1.1E1,-2.0894219E-1,3.0290234E0,-2.5283387E-1,2.1099004E-1,4.5058802E-1,5.425047E0,-9.706141E-2,4.3310223E0,-1.2618214E-3,6.5320534E-1,3.4711608E-1,6.6279073E0,3.1766455E0,2.4777558E-2,1.831705E-1,6.0746437E1],"split_indices":[24,41,26,29,4,29,35,21,38,28,36,34,4,8,12,0,0,0,0,0,0,0,0,0,0,0,0,0,0,0,0],"split_type":[0,0,0,0,0,0,0,0,0,0,0,0,0,0,0,0,0,0,0,0,0,0,0,0,0,0,0,0,0,0,0],"sum_hessian":[1.343E3,1.063E3,2.8E2,8.65E2,1.98E2,2.42E2,3.8E1,6.63E2,2.02E2,9.8E1,1E2,2.39E2,3E0,3.5E1,3E0,6.62E2,1E0,7.9E1,1.23E2,9.7E1,1E0,9.9E1,1E0,1.84E2,5.5E1,2E0,1E0,2E0,3.3E1,2E0,1E0],"tree_param":{"num_deleted":"0","num_feature":"42","num_nodes":"31","size_leaf_vector":"1"}},{"base_weights":[1.0150115E-1,-3.7599543E-1,8.941594E-1,-4.3419757E-1,6.5024347E0,8.329825E-3,3.630721E0,-1.2571814E0,2.4042076E-3,-2.11597E0,1.2959176E1,-2.1548939E-1,3.0550082E0,1.4955693E1,5.9435534E-1,-2.7979976E-1,2.0543664E0,-1.11449584E-1,2.023653E-1,-9.4781244E-1,5.647627E-1,1.5790594E0,3.8441758E0,-1.7029674E-1,1.100655E-1,5.051213E-1,3.9941003E0,9.481317E0,1.6208662E0,7.894326E-2,4.4755397E0],"categories":[],"categories_nodes":[],"categories_segments":[],"categories_sizes":[],"default_left":[0,0,0,0,0,0,0,0,0,0,0,0,0,0,0,0,0,0,0,0,0,0,0,0,0,0,0,0,0,0,0],"id":3,"left_children":[1,3,5,7,9,11,13,15,17,19,21,23,25,27,29,-1,-1,-1,-1,-1,-1,-1,-1,-1,-1,-1,-1,-1,-1,-1,-1],"loss_changes":[5.064265E2,3.3430347E2,1.2193511E3,2.9751636E2,3.9007333E2,2.591332E2,4.2297354E3,2.4712997E2,2.7834E2,3.4884007E1,1.1608429E2,1.5654587E2,2.6808267E2,5.685392E3,4.3834113E2,0E0,0E0,0E0,0E0,0E0,0E0,0E0,0E0,0E0,0E0,0E0,0E0,0E0,0E0,0E0,0E0],"parents":[2147483647,0,0,1,1,2,2,3,3,4,4,5,5,6,6,7,7,8,8,9,9,10,10,11,11,12,12,13,13,14,14],"right_children":[2,4,6,8,10,12,14,16,18,20,22,24,26,28,30,-1,-1,-1,-1,-1,-1,-1,-1,-1,-1,-1,-1,-1,-1,-1,-1],"split_conditions":[5E0,2.7E1,8E0,3E0,8E0,1.4E1,3E0,2.1E1,5E0,6E0,1.5E1,4E0,2.4E1,6E0,3.5E1,-2.7979976E-1,2.0543664E0,-1.11449584E-1,2.023653E-1,-9.4781244E-1,5.647627E-1,1.5790594E0,3.8441758E0,-1.7029674E-1,1.100655E-1,5.051213E-1,3.9941003E0,9.481317E0,1.6208662E0,7.894326E-2,4.4755397E0],"split_indices":[10,34,13,21,23,25,7,2,19,7,18,13,16,10,9,0,0,0,0,0,0,0,0,0,0,0,0,0,0,0,0],"split_type":[0,0,0,0,0,0,0,0,0,0,0,0,0,0,0,0,0,0,0,0,0,0,0,0,0,0,0,0,0,0,0],"sum_hessian":[1.338E3,8.35E2,5.03E2,8.28E2,7E0,3.8E2,1.23E2,2.87E2,5.41E2,3E0,4E0,3.54E2,2.6E1,2.6E1,9.7E1,2.85E2,2E0,3.48E2,1.93E2,2E0,1E0,2E0,2E0,1.96E2,1.58E2,2.5E1,1E0,5E0,2.1E1,9.6E1,1E0],"tree_param":{"num_deleted":"0","num_feature":"42","num_nodes":"31","size_leaf_vector":"1"}},{"base_weights":[-6.9396235E-3,-1.9676341E-1,2.969083E0,-2.363107E-1,4.783074E0,3.556602E-1,2.1511995E1,-6.713324E-1,1.7847975E-1,1.4990715E1,3.98426E-1,-8.230439E-1,1.8764268E0,1.1013903E2,-7.1668684E-1,-2.685138E-1,-6.951178E-2,8.021751E-3,8.3185065E-1,1.7175627E0,5.960656E0,4.3785253E-1,-8.008865E-1,-2.2978833E-1,2.048743E0,1.3462146E-2,1.190339E0,-1.0642689E-1,4.612344E1,-6.807219E-1,3.5436323E0],"categories":[],"categories_nodes":[],"categories_segments":[],"categories_sizes":[],"default_left":[0,0,0,0,0,0,0,0,0,0,0,0,0,0,0,0,0,0,0,0,0,0,0,0,0,0,0,0,0,0,0],"id":4,"left_children":[1,3,5,7,9,11,13,15,17,19,21,23,25,27,29,-1,-1,-1,-1,-1,-1,-1,-1,-1,-1,-1,-1,-1,-1,-1,-1],"loss_changes":[7.6321387E2,2.501206E2,3.9255623E3,2.2736006E2,4.4782037E2,1.27291916E2,1.9714057E4,1.2739032E2,3.427902E2,2.732611E2,5.0038773E1,1.159687E2,2.1369017E2,2.4407348E4,3.5754572E2,0E0,0E0,0E0,0E0,0E0,0E0,0E0,0E0,0E0,0E0,0E0,0E0,0E0,0E0,0E0,0E0],"parents":[2147483647,0,0,1,1,2,2,3,3,4,4,5,5,6,6,7,7,8,8,9,9,10,10,11,11,12,12,13,13,14,14],"right_children":[2,4,6,8,10,12,14,16,18,20,22,24,26,28,30,-1,-1,-1,-1,-1,-1,-1,-1,-1,-1,-1,-1,-1,-1,-1,-1],"split_conditions":[1.5E1,3.3E1,1.3E1,4E0,4E0,6E0,1.4E1,3E0,1.8E1,1.7E1,1.1E1,1.7E1,6E0,3E0,2E1,-2.685138E-1,-6.951178E-2,8.021751E-3,8.3185065E-1,1.7175627E0,5.960656E0,4.3785253E-1,-8.008865E-1,-2.2978833E-1,2.048743E0,1.3462146E-2,1.190339E0,-1.0642689E-1,4.612344E1,-6.807219E-1,3.5436323E0],"split_indices":[8,37,26,41,28,2,26,32,40,20,20,28,16,4,4,0,0,0,0,0,0,0,0,0,0,0,0,0,0,0,0],"split_type":[0,0,0,0,0,0,0,0,0,0,0,0,0,0,0,0,0,0,0,0,0,0,0,0,0,0,0,0,0,0,0],"sum_hessian":[1.351E3,1.27E3,8.1E1,1.26E3,1E1,7.1E1,1E1,6.15E2,6.45E2,3E0,7E0,4E1,3.1E1,2E0,8E0,2.2E2,3.95E2,6.22E2,2.3E1,2E0,1E0,5E0,2E0,3.9E1,1E0,2.1E1,1E1,1E0,1E0,7E0,1E0],"tree_param":{"num_deleted":"0","num_feature":"42","num_nodes":"31","size_leaf_vector":"1"}},{"base_weights":[9.138922E-2,-1.553473E-1,1.5231857E0,-1.9396886E-1,1.0602734E1,1.15489356E-1,1.0562615E1,-2.7399164E-1,9.64186E0,4.9155574E0,-2.2827363E0,-3.9030623E-1,3.6310067E0,3.857146E0,3.868368E1,-1.766074E-1,2.5046535E-4,-1.3005571E-1,1.9116566E1,-6.9312036E-1,-2.6058996E-1,-1.3708344E-1,1.2068213E0,2.8742996E-1,5.244354E0,6.113647E-1,4.719514E0,9.564766E-1,3.6519505E1],"categories":[],"categories_nodes":[],"categories_segments":[],"categories_sizes":[],"default_left":[0,0,0,0,0,0,0,0,0,0,0,0,0,0,0,0,0,0,0,0,0,0,0,0,0,0,0,0,0],"id":5,"left_children":[1,3,5,7,9,11,13,15,17,-1,19,21,23,25,27,-1,-1,-1,-1,-1,-1,-1,-1,-1,-1,-1,-1,-1,-1],"loss_changes":[4.638561E2,4.653675E2,2.4559546E3,8.784138E2,6.638008E2,2.969697E2,4.90294E3,1.7323257E2,7.539741E3,0E0,2.108677E0,2.3680652E2,1.015141E3,3.6810278E2,2.315203E4,0E0,0E0,0E0,0E0,0E0,0E0,0E0,0E0,0E0,0E0,0E0,0E0,0E0,0E0],"parents":[2147483647,0,0,1,1,2,2,3,3,4,4,5,5,6,6,7,7,8,8,10,10,11,11,12,12,13,13,14,14],"right_children":[2,4,6,8,10,12,14,16,18,-1,20,22,24,26,28,-1,-1,-1,-1,-1,-1,-1,-1,-1,-1,-1,-1,-1,-1],"split_conditions":[1E1,4E1,1.2E1,2.9E1,6.4E1,1.4E1,9E0,3E0,1.5E1,4.9155574E0,4E0,2.5E1,1.7E1,1.8E1,7E0,-1.766074E-1,2.5046535E-4,-1.3005571E-1,1.9116566E1,-6.9312036E-1,-2.6058996E-1,-1.3708344E-1,1.2068213E0,2.8742996E-1,5.244354E0,6.113647E-1,4.719514E0,9.564766E-1,3.6519505E1],"split_indices":[13,5,41,35,5,15,39,7,24,0,0,14,27,16,6,0,0,0,0,0,0,0,0,0,0,0,0,0,0],"split_type":[0,0,0,0,0,0,0,0,0,0,0,0,0,0,0,0,0,0,0,0,0,0,0,0,0,0,0,0,0],"sum_hessian":[1.313E3,1.12E3,1.93E2,1.116E3,4E0,1.67E2,2.6E1,1.107E3,9E0,2E0,2E0,1.46E2,2.1E1,2.1E1,5E0,3.61E2,7.46E2,8E0,1E0,1E0,1E0,1.4E2,6E0,1.9E1,2E0,2E1,1E0,4E0,1E0],"tree_param":{"num_deleted":"0","num_feature":"42","num_nodes":"29","size_leaf_vector":"1"}},{"base_weights":[-3.5196956E-2,-2.4361779E-1,1.4582213E0,-7.111898E-1,1.914974E-1,6.4588153E-1,1.7183886E1,-6.14188E-1,-2.5640337E0,-1.8791993E-1,1.3842793E0,3.957516E-2,2.8869205E0,2.8915325E1,-1.8322197E-1,-2.9212326E-1,-2.3965817E-2,1.426007E-1,-5.897154E-1,-1.695952E-2,-8.083644E-1,1.9672275E-1,3.6001596E0,3.7665907E-2,-8.568023E-1,4.364833E-1,3.207984E0,-6.2240386E-1,1.9570191E-1],"categories":[],"categories_nodes":[],"categories_segments":[],"categories_sizes":[],"default_left":[0,0,0,0,0,0,0,0,0,0,0,0,0,0,0,0,0,0,0,0,0,0,0,0,0,0,0,0,0],"id":6,"left_children":[1,3,5,7,9,11,13,15,17,19,21,23,25,-1,27,-1,-1,-1,-1,-1,-1,-1,-1,-1,-1,-1,-1,-1,-1],"loss_changes":[4.142905E2,2.3762924E2,2.082265E3,1.01177826E2,2.7380496E2,2.1061487E2,1.6794764E4,2.0848401E2,2.2700699E1,1.8019876E2,1.0275281E3,7.057918E1,3.29496E2,0E0,2.182582E1,0E0,0E0,0E0,0E0,0E0,0E0,0E0,0E0,0E0,0E0,0E0,0E0,0E0,0E0],"parents":[2147483647,0,0,1,1,2,2,3,3,4,4,5,5,6,6,7,7,8,8,9,9,10,10,11,11,12,12,14,14],"right_children":[2,4,6,8,10,12,14,16,18,20,22,24,26,-1,28,-1,-1,-1,-1,-1,-1,-1,-1,-1,-1,-1,-1,-1,-1],"split_conditions":[1.1E1,4E0,2.2E1,1.5E1,8E0,9E0,3E0,3E0,2E0,1.9E1,2.9E1,3E1,2.5E1,2.8915325E1,3E0,-2.9212326E-1,-2.3965817E-2,1.426007E-1,-5.897154E-1,-1.695952E-2,-8.083644E-1,1.9672275E-1,3.6001596E0,3.7665907E-2,-8.568023E-1,4.364833E-1,3.207984E0,-6.2240386E-1,1.9570191E-1],"split_indices":[9,23,35,0,15,39,7,40,6,13,35,14,10,0,14,0,0,0,0,0,0,0,0,0,0,0,0,0,0],"split_type":[0,0,0,0,0,0,0,0,0,0,0,0,0,0,0,0,0,0,0,0,0,0,0,0,0,0,0,0,0],"sum_hessian":[1.331E3,1.168E3,1.63E2,5.63E2,6.05E2,1.55E2,8E0,5.35E2,2.8E1,4.59E2,1.46E2,1.22E2,3.3E1,1E0,7E0,2.09E2,3.26E2,2E0,2.6E1,4.46E2,1.3E1,1.42E2,4E0,1.18E2,4E0,3.1E1,2E0,2E0,5E0],"tree_param":{"num_deleted":"0","num_feature":"42","num_nodes":"29","size_leaf_vector":"1"}},{"base_weights":[-7.199692E-2,-2.1299815E-1,1.702767E0,-4.4125763E-1,1.0734115E0,1.5683795E0,3.0410218E0,-3.9834467E-1,-3.3635993E0,5.789433E-1,6.2629557E0,1.3980619E0,3.6958437E0,-2.631331E-1,-5.4259904E-2,-3.8797477E-1,-5.111362E0,7.952753E-2,1.0820061E0,6.180261E0,-3.1240168E-1,6.6700643E-1,1.2035137E-1],"categories":[],"categories_nodes":[],"categories_segments":[],"categories_sizes":[],"default_left":[0,0,0,0,0,0,0,0,0,0,0,0,0,0,0,0,0,0,0,0,0,0,0],"id":7,"left_children":[1,3,5,7,9,11,-1,13,15,17,19,21,-1,-1,-1,-1,-1,-1,-1,-1,-1,-1,-1],"loss_changes":[3.298252E2,3.5853345E2,1.6680527E2,1.3003778E2,4.721477E2,2.625349E2,0E0,1.2216016E2,4.7688147E2,1.5361186E2,2.882686E3,1.396535E2,0E0,0E0,0E0,0E0,0E0,0E0,0E0,0E0,0E0,0E0,0E0],"parents":[2147483647,0,0,1,1,2,2,3,3,4,4,5,5,7,7,8,8,9,9,10,10,11,11],"right_children":[2,4,6,8,10,12,-1,14,16,18,20,22,-1,-1,-1,-1,-1,-1,-1,-1,-1,-1,-1],"split_conditions":[1.4E1,9E0,3.7E1,2.1E1,1.3E1,2.8E1,3.0410218E0,2E0,8E0,2.1E1,1.1E1,3E0,3.6958437E0,-2.631331E-1,-5.4259904E-2,-3.8797477E-1,-5.111362E0,7.952753E-2,1.0820061E0,6.180261E0,-3.1240168E-1,6.6700643E-1,1.2035137E-1],"split_indices":[16,20,11,39,26,24,0,38,18,11,20,30,0,0,0,0,0,0,0,0,0,0,0],"split_type":[0,0,0,0,0,0,0,0,0,0,0,0,0,0,0,0,0,0,0,0,0,0,0],"sum_hessian":[1.318E3,1.221E3,9.7E1,1.037E3,1.84E2,9.6E1,1E0,1.022E3,1.5E1,1.68E2,1.6E1,9.5E1,1E0,1.43E2,8.79E2,1.4E1,1E0,1.61E2,7E0,4E0,1.2E1,3E1,6.5E1],"tree_param":{"num_deleted":"0","num_feature":"42","num_nodes":"23","size_leaf_vector":"1"}},{"base_weights":[-7.7182636E-2,-1.3282025E-1,2.806344E0,-6.8427914E-1,1.1874712E-1,5.903611E0,-5.50404E-1,1.7601763E-1,-8.5735714E-1,-6.465365E-1,4.176899E-1,1.0036474E1,3.3144557E0,1.5976975E0,-1.29756E0,-1.1995745E-1,1.0644617E0,-1.883657E-1,2.7262697E0,-1.4473252E-1,2.148159E0,9.212114E-2,-2.8201804E0,4.6416262E-1,3.192991E0,2.4460824E0,1.08819954E-1,1.0983915E0,-4.0961668E-1],"categories":[],"categories_nodes":[],"categories_segments":[],"categories_sizes":[],"default_left":[0,0,0,0,0,0,0,0,0,0,0,0,0,0,0,0,0,0,0,0,0,0,0,0,0,0,0,0,0],"id":8,"left_children":[1,3,5,7,9,11,13,15,17,19,21,23,25,-1,27,-1,-1,-1,-1,-1,-1,-1,-1,-1,-1,-1,-1,-1,-1],"loss_changes":[2.1193442E2,1.797944E2,2.600089E2,6.0454865E1,2.0361388E2,1.3895813E2,7.3386475E1,2.495476E2,1.9407701E2,1.1998222E2,1.9404294E2,2.0334293E2,1.8698048E2,0E0,4.733651E1,0E0,0E0,0E0,0E0,0E0,0E0,0E0,0E0,0E0,0E0,0E0,0E0,0E0,0E0],"parents":[2147483647,0,0,1,1,2,2,3,3,4,4,5,5,6,6,7,7,8,8,9,9,10,10,11,11,12,12,14,14],"right_children":[2,4,6,8,10,12,14,16,18,20,22,24,26,-1,28,-1,-1,-1,-1,-1,-1,-1,-1,-1,-1,-1,-1,-1,-1],"split_conditions":[2.5E1,3E0,5E0,2E0,3E0,4E0,2E0,8E0,3.6E1,3.3E1,6.4E1,3E0,2E0,1.5976975E0,2E0,-1.1995745E-1,1.0644617E0,-1.883657E-1,2.7262697E0,-1.4473252E-1,2.148159E0,9.212114E-2,-2.8201804E0,4.6416262E-1,3.192991E0,2.4460824E0,1.08819954E-1,1.0983915E0,-4.0961668E-1],"split_indices":[10,26,21,2,13,9,20,40,38,7,11,16,25,0,15,0,0,0,0,0,0,0,0,0,0,0,0,0,0],"split_type":[0,0,0,0,0,0,0,0,0,0,0,0,0,0,0,0,0,0,0,0,0,0,0,0,0,0,0,0,0],"sum_hessian":[1.321E3,1.296E3,2.5E1,4.06E2,8.9E2,1.3E1,1.2E1,6.8E1,3.38E2,2.5E2,6.4E2,5E0,8E0,1E0,1.1E1,5.9E1,9E0,3.37E2,1E0,2.49E2,1E0,6.39E2,1E0,2E0,3E0,2E0,6E0,1E0,1E1],"tree_param":{"num_deleted":"0","num_feature":"42","num_nodes":"29","size_leaf_vector":"1"}},{"base_weights":[4.5157503E-3,-1.5891743E-1,1.9800196E0,-2.50836E-1,1.5769982E0,9.403411E-2,3.941172E0,-4.3730587E-1,3.0793387E-1,-9.082926E-1,3.4940386E0,3.5538952E0,-3.5768995E-1,2.1567311E0,1.7010427E1,-9.7710826E-2,2.5533009E0,5.5843838E-2,2.5864747E0,-4.2266753E-1,2.7053018E0,2.3719281E-1,2.7106535E0,2.3762124E0,4.1588426E-1,-1.0832558E-1,1.4170884E0,3.3724627E-1,5.352957E0,-2.9605854E-1,1.12633295E1],"categories":[],"categories_nodes":[],"categories_segments":[],"categories_sizes":[],"default_left":[0,0,0,0,0,0,0,0,0,0,0,0,0,0,0,0,0,0,0,0,0,0,0,0,0,0,0,0,0,0,0],"id":9,"left_children":[1,3,5,7,9,11,13,15,17,19,21,23,25,27,29,-1,-1,-1,-1,-1,-1,-1,-1,-1,-1,-1,-1,-1,-1,-1,-1],"loss_changes":[4.3102643E2,1.9674446E2,3.7728894E2,1.2201246E2,2.9544543E2,8.129003E1,1.1659749E3,3.2029807E2,1.4624194E2,4.137378E2,7.805036E2,7.3233894E1,5.2152447E1,5.6325433E2,4.0650562E3,0E0,0E0,0E0,0E0,0E0,0E0,0E0,0E0,0E0,0E0,0E0,0E0,0E0,0E0,0E0,0E0],"parents":[2147483647,0,0,1,1,2,2,3,3,4,4,5,5,6,6,7,7,8,8,9,9,10,10,11,11,12,12,13,13,14,14],"right_children":[2,4,6,8,10,12,14,16,18,20,22,24,26,28,30,-1,-1,-1,-1,-1,-1,-1,-1,-1,-1,-1,-1,-1,-1,-1,-1],"split_conditions":[1.3E1,1.6E1,5E0,7E0,4E0,2E0,1.4E1,3.2E1,3.6E1,1.7E1,1E1,2E0,3E1,2.8E1,9E0,-9.7710826E-2,2.5533009E0,5.5843838E-2,2.5864747E0,-4.2266753E-1,2.7053018E0,2.3719281E-1,2.7106535E0,2.3762124E0,4.1588426E-1,-1.0832558E-1,1.4170884E0,3.3724627E-1,5.352957E0,-2.9605854E-1,1.12633295E1],"split_indices":[9,24,28,11,9,25,6,30,34,15,23,22,32,22,30,0,0,0,0,0,0,0,0,0,0,0,0,0,0,0,0],"split_type":[0,0,0,0,0,0,0,0,0,0,0,0,0,0,0,0,0,0,0,0,0,0,0,0,0,0,0,0,0,0,0],"sum_hessian":[1.335E3,1.233E3,1.02E2,1.171E3,6.2E1,5.2E1,5E1,8.78E2,2.93E2,2.7E1,3.5E1,6E0,4.6E1,4.4E1,6E0,8.76E2,2E0,2.92E2,1E0,2.5E1,2E0,2.8E1,7E0,1E0,5E0,4.5E1,1E0,4.3E1,1E0,4E0,2E0],"tree_param":{"num_deleted":"0","num_feature":"42","num_nodes":"31","size_leaf_vector":"1"}},{"base_weights":[-2.7762738E-3,-5.771156E-1,2.626982E-1,-5.024835E-1,-3.3229854E0,-4.737588E-1,5.9357196E-1,-8.822148E-1,3.8702775E-2,-6.148868E0,-1.7039341E0,-1.476403E0,-2.4404147E-1,3.3614075E-1,3.4703286E0,-3.887892E-1,-1.278863E-1,-1.8390512E-2,2.1874752E0,-7.3968434E-1,-1.4697037E0,2.808844E-1,-4.6365044E-1,-2.8628692E-1,-1.480303E0,-1.1677628E-1,5.9247255E-1,4.496291E-2,6.2591636E-1,3.6570844E-1,2.997917E0],"categories":[],"categories_nodes":[],"categories_segments":[],"categories_sizes":[],"default_left":[0,0,0,0,0,0,0,0,0,0,0,0,0,0,0,0,0,0,0,0,0,0,0,0,0,0,0,0,0,0,0],"id":10,"left_children":[1,3,5,7,9,11,13,15,17,19,21,23,25,27,29,-1,-1,-1,-1,-1,-1,-1,-1,-1,-1,-1,-1,-1,-1,-1,-1],"loss_changes":[2.0065578E2,8.524066E1,2.193103E2,8.3231384E1,5.0287758E1,6.425946E1,4.5988867E2,6.2977127E1,2.1960135E2,8.899658E0,1.0860767E1,3.202169E1,2.1830229E2,1.8370801E2,9.5328033E2,0E0,0E0,0E0,0E0,0E0,0E0,0E0,0E0,0E0,0E0,0E0,0E0,0E0,0E0,0E0,0E0],"parents":[2147483647,0,0,1,1,2,2,3,3,4,4,5,5,6,6,7,7,8,8,9,9,10,10,11,11,12,12,13,13,14,14],"right_children":[2,4,6,8,10,12,14,16,18,20,22,24,26,28,30,-1,-1,-1,-1,-1,-1,-1,-1,-1,-1,-1,-1,-1,-1,-1,-1],"split_conditions":[3E0,1.8E1,3E0,4E0,3E0,2E0,1.4E1,2E0,3.2E1,3E0,2E0,1.3E1,1.2E1,1.7E1,1.3E1,-3.887892E-1,-1.278863E-1,-1.8390512E-2,2.1874752E0,-7.3968434E-1,-1.4697037E0,2.808844E-1,-4.6365044E-1,-2.8628692E-1,-1.480303E0,-1.1677628E-1,5.9247255E-1,4.496291E-2,6.2591636E-1,3.6570844E-1,2.997917E0],"split_indices":[32,24,41,19,41,35,6,26,30,14,9,39,40,21,26,0,0,0,0,0,0,0,0,0,0,0,0,0,0,0,0],"split_type":[0,0,0,0,0,0,0,0,0,0,0,0,0,0,0,0,0,0,0,0,0,0,0,0,0,0,0,0,0,0,0],"sum_hessian":[1.316E3,4.16E2,9E2,4.05E2,1.1E1,2.79E2,6.21E2,2.38E2,1.67E2,4E0,7E0,5.2E1,2.27E2,5.7E2,5.1E1,5.2E1,1.86E2,1.65E2,2E0,1E0,3E0,1E0,6E0,5.1E1,1E0,2.06E2,2.1E1,5.45E2,2.5E1,4.4E1,7E0],"tree_param":{"num_deleted":"0","num_feature":"42","num_nodes":"31","size_leaf_vector":"1"}},{"base_weights":[-1.5997007E-2,-1.186418E-1,1.5535994E0,-1.5179221E-1,3.3106227E0,1.1757495E0,5.0448704E0,-1.8226214E-1,4.0196667E0,7.388467E0,3.9367005E-1,1.8330498E0,-8.6909825E-1,-4.1992283E0,8.127483E0,-2.7564358E-2,-3.8190764E-1,2.009016E0,-9.217627E-2,-1.5953246E-1,1.9751009E0,-2.483961E-1,2.0566666E0,2.8407795E0,2.4479383E-1,-3.7879106E-1,3.141423E0,-4.8509118E-1,-1.269345E0,4.10353E0,4.985877E-1],"categories":[],"categories_nodes":[],"categories_segments":[],"categories_sizes":[],"default_left":[0,0,0,0,0,0,0,0,0,0,0,0,0,0,0,0,0,0,0,0,0,0,0,0,0,0,0,0,0,0,0],"id":11,"left_children":[1,3,5,7,9,11,13,15,17,19,21,23,25,27,29,-1,-1,-1,-1,-1,-1,-1,-1,-1,-1,-1,-1,-1,-1,-1,-1],"loss_changes":[2.1524619E2,1.4256009E2,1.08141205E2,1.5786818E2,1.4279605E2,9.948125E1,2.2837852E2,1.02604996E2,2.2358385E2,8.309476E1,1.04276886E2,4.3648257E2,2.680831E2,6.9303474E0,3.951094E2,0E0,0E0,0E0,0E0,0E0,0E0,0E0,0E0,0E0,0E0,0E0,0E0,0E0,0E0,0E0,0E0],"parents":[2147483647,0,0,1,1,2,2,3,3,4,4,5,5,6,6,7,7,8,8,9,9,10,10,11,11,12,12,13,13,14,14],"right_children":[2,4,6,8,10,12,14,16,18,20,22,24,26,28,30,-1,-1,-1,-1,-1,-1,-1,-1,-1,-1,-1,-1,-1,-1,-1,-1],"split_conditions":[1.5E1,3E1,1.4E1,3.3E1,4E0,9E0,4E0,1.8E1,4E0,5E0,9E0,2E0,1.7E1,3E0,5E0,-2.7564358E-2,-3.8190764E-1,2.009016E0,-9.217627E-2,-1.5953246E-1,1.9751009E0,-2.483961E-1,2.0566666E0,2.8407795E0,2.4479383E-1,-3.7879106E-1,3.141423E0,-4.8509118E-1,-1.269345E0,4.10353E0,4.985877E-1],"split_indices":[36,4,32,27,28,18,23,28,16,16,18,4,19,6,23,0,0,0,0,0,0,0,0,0,0,0,0,0,0,0,0],"split_type":[0,0,0,0,0,0,0,0,0,0,0,0,0,0,0,0,0,0,0,0,0,0,0,0,0,0,0,0,0,0,0],"sum_hessian":[1.336E3,1.254E3,8.2E1,1.242E3,1.2E1,7.4E1,8E0,1.233E3,9E0,5E0,7E0,5.6E1,1.8E1,2E0,6E0,1.196E3,3.7E1,4E0,5E0,1E0,4E0,6E0,1E0,3E0,5.3E1,1.7E1,1E0,1E0,1E0,2E0,4E0],"tree_param":{"num_deleted":"0","num_feature":"42","num_nodes":"31","size_leaf_vector":"1"}},{"base_weights":[8.449955E-2,-1.10425435E-1,1.0529814E0,-1.8643005E-1,3.1812744E0,9.458844E-1,4.9210396E0,-4.882772E-1,5.300991E-1,1.3055642E0,1.0672563E1,8.200667E-1,1.4424397E1,7.907129E0,-1.0573673E0,-8.3491184E-2,-2.6296666E-1,-8.291044E-2,3.556579E-1,1.1574396E0,-2.1350546E-2,1.7454154E0,4.178245E0,1.531874E-1,1.4891887E0,3.2846239E0,2.7419708E0,9.4644386E-1,3.7694907E0,3.47676E-1,-7.89488E-1],"categories":[],"categories_nodes":[],"categories_segments":[],"categories_sizes":[],"default_left":[0,0,0,0,0,0,0,0,0,0,0,0,0,0,0,0,0,0,0,0,0,0,0,0,0,0,0,0,0,0,0],"id":12,"left_children":[1,3,5,7,9,11,13,15,17,19,21,23,25,27,29,-1,-1,-1,-1,-1,-1,-1,-1,-1,-1,-1,-1,-1,-1,-1,-1],"loss_changes":[2.5127007E2,2.772093E2,9.235062E1,2.3423682E2,3.512859E2,3.679274E2,1.07285126E2,5.2507874E1,3.4673996E2,1.1874505E2,1.0764398E2,1.2045534E2,2.0112305E0,1.364043E2,1.4808932E1,0E0,0E0,0E0,0E0,0E0,0E0,0E0,0E0,0E0,0E0,0E0,0E0,0E0,0E0,0E0,0E0],"parents":[2147483647,0,0,1,1,2,2,3,3,4,4,5,5,6,6,7,7,8,8,9,9,10,10,11,11,12,12,13,13,14,14],"right_children":[2,4,6,8,10,12,14,16,18,20,22,24,26,28,30,-1,-1,-1,-1,-1,-1,-1,-1,-1,-1,-1,-1,-1,-1,-1,-1],"split_conditions":[9E0,1.9E1,2.5E1,6E0,7E0,4E1,5E0,1E1,5E0,3E0,5E0,3.5E1,3E0,5E0,4E0,-8.3491184E-2,-2.6296666E-1,-8.291044E-2,3.556579E-1,1.1574396E0,-2.1350546E-2,1.7454154E0,4.178245E0,1.531874E-1,1.4891887E0,3.2846239E0,2.7419708E0,9.4644386E-1,3.7694907E0,3.47676E-1,-7.89488E-1],"split_indices":[25,40,14,0,25,5,8,10,17,7,38,27,8,1,7,0,0,0,0,0,0,0,0,0,0,0,0,0,0,0,0],"split_type":[0,0,0,0,0,0,0,0,0,0,0,0,0,0,0,0,0,0,0,0,0,0,0,0,0,0,0,0,0,0,0],"sum_hessian":[1.331E3,1.108E3,2.23E2,1.083E3,2.5E1,2.17E2,6E0,7.62E2,3.21E2,2E1,5E0,2.15E2,2E0,4E0,2E0,6.82E2,8E1,1.79E2,1.42E2,5E0,1.5E1,4E0,1E0,2.12E2,3E0,1E0,1E0,3E0,1E0,1E0,1E0],"tree_param":{"num_deleted":"0","num_feature":"42","num_nodes":"31","size_leaf_vector":"1"}},{"base_weights":[-7.654681E-2,-9.906115E-2,1.5082501E1,-1.334099E-1,3.4344935E0,4.0457506E0,2.2558048E0,-6.409178E-1,9.081508E-2,1.5545116E1,-1.9553741E0,-1.8327178E-1,1.7505725E-1,5.7459483E-3,1.0327605E0,-1.0154483E0,7.520903E0,1.55878E0,-6.5697104E-1],"categories":[],"categories_nodes":[],"categories_segments":[],"categories_sizes":[],"default_left":[0,0,0,0,0,0,0,0,0,0,0,0,0,0,0,0,0,0,0],"id":13,"left_children":[1,3,5,7,9,-1,-1,11,13,15,17,-1,-1,-1,-1,-1,-1,-1,-1],"loss_changes":[4.6178278E2,1.6397845E2,3.5218445E1,1.522602E2,8.491992E2,0E0,0E0,1.4134668E2,2.8457227E2,1.6627605E3,9.991216E1,0E0,0E0,0E0,0E0,0E0,0E0,0E0,0E0],"parents":[2147483647,0,0,1,1,2,2,3,3,4,4,7,7,8,8,9,9,10,10],"right_children":[2,4,6,8,10,-1,-1,12,14,16,18,-1,-1,-1,-1,-1,-1,-1,-1],"split_conditions":[3.7E1,2.9E1,4E1,3E0,4E0,4.0457506E0,2.2558048E0,1.1E1,2.7E1,6E0,2E0,-1.8327178E-1,1.7505725E-1,5.7459483E-3,1.0327605E0,-1.0154483E0,7.520903E0,1.55878E0,-6.5697104E-1],"split_indices":[11,35,11,41,16,0,0,10,22,11,14,0,0,0,0,0,0,0,0],"split_type":[0,0,0,0,0,0,0,0,0,0,0,0,0,0,0,0,0,0,0],"sum_hessian":[1.353E3,1.351E3,2E0,1.338E3,1.3E1,1E0,1E0,4.1E2,9.28E2,4E0,9E0,3.54E2,5.6E1,9.16E2,1.2E1,2E0,2E0,1E0,8E0],"tree_param":{"num_deleted":"0","num_feature":"42","num_nodes":"19","size_leaf_vector":"1"}},{"base_weights":[6.150238E-2,8.083997E-2,-8.5701275E0,-1.12702E-1,6.557313E-1,-6.377557E0,-2.7005308E0,-5.976803E-1,1.3453074E-1,3.469652E-1,4.073327E0,-1.4692365E0,-1.1953229E0,-1.3359787E-1,1.2746227E0,1.5757664E-1,-8.6851075E-2,5.58217E-2,1.1020218E0,1.5648992E-1,6.6508813E0],"categories":[],"categories_nodes":[],"categories_segments":[],"categories_sizes":[],"default_left":[0,0,0,0,0,0,0,0,0,0,0,0,0,0,0,0,0,0,0,0,0],"id":14,"left_children":[1,3,5,7,9,11,-1,13,15,17,19,-1,-1,-1,-1,-1,-1,-1,-1,-1,-1],"loss_changes":[2.245047E2,1.4931972E2,2.7903275E1,1.2038349E2,3.566673E2,5.92041E-1,0E0,9.004904E1,2.2534688E2,1.2273561E2,2.5768901E3,0E0,0E0,0E0,0E0,0E0,0E0,0E0,0E0,0E0,0E0],"parents":[2147483647,0,0,1,1,2,2,3,3,4,4,5,5,7,7,8,8,9,9,10,10],"right_children":[2,4,6,8,10,12,-1,14,16,18,20,-1,-1,-1,-1,-1,-1,-1,-1,-1,-1],"split_conditions":[4E1,7E0,5E0,3E0,1.5E1,4E0,-2.7005308E0,1.7E1,4E0,2.6E1,1.1E1,-1.4692365E0,-1.1953229E0,-1.3359787E-1,1.2746227E0,1.5757664E-1,-8.6851075E-2,5.58217E-2,1.1020218E0,1.5648992E-1,6.6508813E0],"split_indices":[11,36,4,32,30,7,0,30,12,34,1,0,0,0,0,0,0,0,0,0,0],"split_type":[0,0,0,0,0,0,0,0,0,0,0,0,0,0,0,0,0,0,0,0,0],"sum_hessian":[1.345E3,1.342E3,3E0,1.004E3,3.38E2,2E0,1E0,3.39E2,6.65E2,3.1E2,2.8E1,1E0,1E0,3.37E2,2E0,3.13E2,3.52E2,3.05E2,5E0,2.5E1,3E0],"tree_param":{"num_deleted":"0","num_feature":"42","num_nodes":"21","size_leaf_vector":"1"}},{"base_weights":[2.7262373E-2,-1.5887798E-1,1.1538689E0,-1.815453E-1,8.489059E0,-7.522747E-1,2.2911282E0,-3.1665346E-1,5.791037E-1,-1.3766314E0,5.8896136E0,2.7902403E-1,-3.0486655E0,2.035574E-1,3.8036952E0,-6.825639E-2,1.7614065E0,6.1146323E-2,1.2179685E0,-5.4682094E-1,-2.831141E-2,1.7744842E-1,-5.508787E-1,-2.0370371E0,-5.7176554E-1,-6.27207E-2,1.252703E0,6.7359686E-1,3.5090692E0],"categories":[],"categories_nodes":[],"categories_segments":[],"categories_sizes":[],"default_left":[0,0,0,0,0,0,0,0,0,0,0,0,0,0,0,0,0,0,0,0,0,0,0,0,0,0,0,0,0],"id":15,"left_children":[1,3,5,7,9,11,13,15,17,19,-1,21,23,25,27,-1,-1,-1,-1,-1,-1,-1,-1,-1,-1,-1,-1,-1,-1],"loss_changes":[2.8101004E2,2.2543933E2,4.1190387E2,1.178789E2,5.819872E2,1.6816835E2,3.7576825E2,7.663038E1,2.601037E2,3.067477E0,0E0,8.0893555E1,4.688655E1,1.4518231E2,5.262255E2,0E0,0E0,0E0,0E0,0E0,0E0,0E0,0E0,0E0,0E0,0E0,0E0,0E0,0E0],"parents":[2147483647,0,0,1,1,2,2,3,3,4,4,5,5,6,6,7,7,8,8,9,9,11,11,12,12,13,13,14,14],"right_children":[2,4,6,8,10,12,14,16,18,20,-1,22,24,26,28,-1,-1,-1,-1,-1,-1,-1,-1,-1,-1,-1,-1,-1,-1],"split_conditions":[1E1,6.4E1,4E0,9E0,1.2E1,7E0,4E0,4E1,1.6E1,3E0,5.8896136E0,1E1,2E0,1.4E1,1.7E1,-6.825639E-2,1.7614065E0,6.1146323E-2,1.2179685E0,-5.4682094E-1,-2.831141E-2,1.7744842E-1,-5.508787E-1,-2.0370371E0,-5.7176554E-1,-6.27207E-2,1.252703E0,6.7359686E-1,3.5090692E0],"split_indices":[30,1,41,41,13,1,18,21,33,8,0,35,7,37,24,0,0,0,0,0,0,0,0,0,0,0,0,0,0],"split_type":[0,0,0,0,0,0,0,0,0,0,0,0,0,0,0,0,0,0,0,0,0,0,0,0,0,0,0,0,0],"sum_hessian":[1.34E3,1.15E3,1.9E2,1.147E3,3E0,7.1E1,1.19E2,9.74E2,1.73E2,2E0,1E0,4.9E1,2.2E1,5E1,6.9E1,9.73E2,1E0,1.64E2,9E0,1E0,1E0,4.1E1,8E0,1E0,2.1E1,4.6E1,4E0,6.6E1,3E0],"tree_param":{"num_deleted":"0","num_feature":"42","num_nodes":"29","size_leaf_vector":"1"}},{"base_weights":[-1.8001875E-2,-1.766227E-1,7.5003916E-1,-5.466735E-1,1.8810543E-1,5.992024E-1,9.182072E0,-1.0291533E0,-2.514947E-1,3.3915865E-1,-1.9304025E0,5.9133433E-2,1.5169071E1,7.8379595E-1,1.0984032E1,-2.0640983E-1,-2.124007E0,4.789484E-3,-3.0065057E-1,-5.7536084E-2,1.1999926E-1,-3.115441E-1,-8.844251E-1,1.23487614E-1,-2.0978522E-1,6.895691E0,-5.424375E-1,1.9704238E0,2.948273E0],"categories":[],"categories_nodes":[],"categories_segments":[],"categories_sizes":[],"default_left":[0,0,0,0,0,0,0,0,0,0,0,0,0,0,0,0,0,0,0,0,0,0,0,0,0,0,0,0,0],"id":16,"left_children":[1,3,5,7,9,11,13,15,17,19,21,23,25,-1,27,-1,-1,-1,-1,-1,-1,-1,-1,-1,-1,-1,-1,-1,-1],"loss_changes":[1.6227554E2,1.4900621E2,2.8995483E2,7.804399E1,1.7793025E2,1.7626396E3,3.9020172E1,8.384581E1,1.1035083E2,7.433884E1,3.756981E1,1.2138102E2,2.5216582E3,0E0,1.3799316E1,0E0,0E0,0E0,0E0,0E0,0E0,0E0,0E0,0E0,0E0,0E0,0E0,0E0,0E0],"parents":[2147483647,0,0,1,1,2,2,3,3,4,4,5,5,6,6,7,7,8,8,9,9,10,10,11,11,12,12,14,14],"right_children":[2,4,6,8,10,12,14,16,18,20,22,24,26,-1,28,-1,-1,-1,-1,-1,-1,-1,-1,-1,-1,-1,-1,-1,-1],"split_conditions":[9E0,4E0,2.4E1,3E0,1.4E1,2.3E1,2E0,3.5E1,7E0,3E0,2.4E1,7E0,5E0,7.8379595E-1,1.3E1,-2.0640983E-1,-2.124007E0,4.789484E-3,-3.0065057E-1,-5.7536084E-2,1.1999926E-1,-3.115441E-1,-8.844251E-1,1.23487614E-1,-2.0978522E-1,6.895691E0,-5.424375E-1,1.9704238E0,2.948273E0],"split_indices":[23,22,15,40,19,35,18,11,6,37,19,7,29,0,12,0,0,0,0,0,0,0,0,0,0,0,0,0,0],"split_type":[0,0,0,0,0,0,0,0,0,0,0,0,0,0,0,0,0,0,0,0,0,0,0,0,0,0,0,0,0],"sum_hessian":[1.332E3,1.104E3,2.28E2,5.48E2,5.56E2,2.24E2,4E0,2.08E2,3.4E2,5.19E2,3.7E1,2.16E2,8E0,1E0,3E0,2.07E2,1E0,2.76E2,6.4E1,1.43E2,3.76E2,3.1E1,6E0,1.44E2,7.2E1,4E0,4E0,2E0,1E0],"tree_param":{"num_deleted":"0","num_feature":"42","num_nodes":"29","size_leaf_vector":"1"}},{"base_weights":[-1.2030494E-1,-1.06814876E-1,-6.0920753E0,-3.5687786E-2,-1.2339457E0,-5.1029367E0,-1.6817412E0,-1.3163859E-1,6.8554765E-1,-7.822531E-1,-3.1599743E0,-1.1748089E0,-9.572039E-1,-2.312126E-2,-1.009293E0,-4.3803996E-1,2.4065244E-1,-2.2272037E-1,1.0289391E0,-5.7064694E-1,-1.254112E0],"categories":[],"categories_nodes":[],"categories_segments":[],"categories_sizes":[],"default_left":[0,0,0,0,0,0,0,0,0,0,0,0,0,0,0,0,0,0,0,0,0],"id":17,"left_children":[1,3,5,7,9,11,-1,13,15,17,19,-1,-1,-1,-1,-1,-1,-1,-1,-1,-1],"loss_changes":[1.07461685E2,1.0670569E2,5.475395E0,8.664325E1,6.8716705E1,3.7086487E-1,0E0,1.1034367E2,1.8880267E2,1.0219012E2,1.8419891E1,0E0,0E0,0E0,0E0,0E0,0E0,0E0,0E0,0E0,0E0],"parents":[2147483647,0,0,1,1,2,2,3,3,4,4,5,5,7,7,8,8,9,9,10,10],"right_children":[2,4,6,8,10,12,-1,14,16,18,20,-1,-1,-1,-1,-1,-1,-1,-1,-1,-1],"split_conditions":[4E1,1.5E1,8E0,1.1E1,1.1E1,2E0,-1.6817412E0,2.9E1,2E0,2.1E1,1.4E1,-1.1748089E0,-9.572039E-1,-2.312126E-2,-1.009293E0,-4.3803996E-1,2.4065244E-1,-2.2272037E-1,1.0289391E0,-5.7064694E-1,-1.254112E0],"split_indices":[11,34,3,9,11,5,0,21,34,8,18,0,0,0,0,0,0,0,0,0,0],"split_type":[0,0,0,0,0,0,0,0,0,0,0,0,0,0,0,0,0,0,0,0,0],"sum_hessian":[1.334E3,1.331E3,3E0,1.252E3,7.9E1,2E0,1E0,1.105E3,1.47E2,6.4E1,1.5E1,1E0,1E0,1.1E3,5E0,2.1E1,1.26E2,6.1E1,3E0,1.3E1,2E0],"tree_param":{"num_deleted":"0","num_feature":"42","num_nodes":"21","size_leaf_vector":"1"}},{"base_weights":[8.892863E-3,-1.3950738E-1,1.0665464E0,-1.2719476E-1,-7.342934E0,2.2068882E0,-6.4401287E-1,-1.5398107E-1,2.2638903E0,-4.8850304E-1,-2.5793989E0,1.915785E0,1.6272991E1,-9.8359746E-1,1.816745E0,-2.3959113E-2,-3.4560183E-1,1.4785141E-1,2.2645688E0,1.8534282E-1,1.5826967E0,4.218745E0,2.5802066E0,-1.867328E-1,-1.3043617E0,5.7189393E-1,-9.5212996E-1],"categories":[],"categories_nodes":[],"categories_segments":[],"categories_sizes":[],"default_left":[0,0,0,0,0,0,0,0,0,0,0,0,0,0,0,0,0,0,0,0,0,0,0,0,0,0,0],"id":18,"left_children":[1,3,5,7,9,11,13,15,17,-1,-1,19,21,23,25,-1,-1,-1,-1,-1,-1,-1,-1,-1,-1,-1,-1],"loss_changes":[2.1048021E2,1.04296234E2,3.21875E2,7.5195145E1,4.9735046E1,4.0519366E2,5.516897E1,6.884413E1,1.7307582E2,0E0,0E0,5.638578E2,2.9026978E1,2.8119137E1,4.651602E1,0E0,0E0,0E0,0E0,0E0,0E0,0E0,0E0,0E0,0E0,0E0,0E0],"parents":[2147483647,0,0,1,1,2,2,3,3,4,4,5,5,6,6,7,7,8,8,11,11,12,12,13,13,14,14],"right_children":[2,4,6,8,10,12,14,16,18,-1,-1,20,22,24,26,-1,-1,-1,-1,-1,-1,-1,-1,-1,-1,-1,-1],"split_conditions":[1.1E1,6.4E1,7E0,2.8E1,2E0,2.2E1,1.5E1,1.9E1,1.5E1,-4.8850304E-1,-2.5793989E0,1.2E1,2E0,3.3E1,1.3E1,-2.3959113E-2,-3.4560183E-1,1.4785141E-1,2.2645688E0,1.8534282E-1,1.5826967E0,4.218745E0,2.5802066E0,-1.867328E-1,-1.3043617E0,5.7189393E-1,-9.5212996E-1],"split_indices":[9,5,7,14,9,36,38,19,25,0,0,13,0,7,37,0,0,0,0,0,0,0,0,0,0,0,0],"split_type":[0,0,0,0,0,0,0,0,0,0,0,0,0,0,0,0,0,0,0,0,0,0,0,0,0,0,0],"sum_hessian":[1.341E3,1.176E3,1.65E2,1.174E3,2E0,9.9E1,6.6E1,1.161E3,1.3E1,1E0,1E0,9.7E1,2E0,5.8E1,8E0,1.131E3,3E1,1.1E1,2E0,8.2E1,1.5E1,1E0,1E0,5.7E1,1E0,7E0,1E0],"tree_param":{"num_deleted":"0","num_feature":"42","num_nodes":"27","size_leaf_vector":"1"}},{"base_weights":[6.1184354E-3,7.970076E-2,-1.7310379E0,-7.772448E-1,2.1513481E-1,-6.087057E-1,-3.9746552E0,-6.767693E-1,-3.5867267E0,3.257726E-1,-5.2604085E-1,-1.592319E-2,-1.5397661E0,1.1162236E0,-4.523594E0,-4.8884064E-2,-2.1862246E-1,-4.373695E-1,-1.0644348E0,2.1521596E-2,2.4659997E-1,-5.041063E-2,-5.2563477E-1,-1.2308174E-1,7.536491E-1,-2.1821639E-1,-9.4691646E-1,-4.184662E0,-7.44163E-1],"categories":[],"categories_nodes":[],"categories_segments":[],"categories_sizes":[],"default_left":[0,0,0,0,0,0,0,0,0,0,0,0,0,0,0,0,0,0,0,0,0,0,0,0,0,0,0,0,0],"id":19,"left_children":[1,3,5,7,9,11,13,15,17,19,21,23,25,-1,27,-1,-1,-1,-1,-1,-1,-1,-1,-1,-1,-1,-1,-1,-1],"loss_changes":[1.6987953E2,1.4797777E2,1.359764E2,4.910267E1,9.028589E1,1.9872177E1,9.208844E1,2.729683E1,1.3371399E1,1.8183765E2,8.091901E1,4.5425488E1,2.0766945E1,0E0,2.5505719E2,0E0,0E0,0E0,0E0,0E0,0E0,0E0,0E0,0E0,0E0,0E0,0E0,0E0,0E0],"parents":[2147483647,0,0,1,1,2,2,3,3,4,4,5,5,6,6,7,7,8,8,9,9,10,10,11,11,12,12,14,14],"right_children":[2,4,6,8,10,12,14,16,18,20,22,24,26,-1,28,-1,-1,-1,-1,-1,-1,-1,-1,-1,-1,-1,-1,-1,-1],"split_conditions":[1.7E1,2E0,7E0,1.5E1,1.1E1,7E0,2E0,3E0,4E0,8E0,1.3E1,1.1E1,1.3E1,1.1162236E0,2E0,-4.8884064E-2,-2.1862246E-1,-4.373695E-1,-1.0644348E0,2.1521596E-2,2.4659997E-1,-5.041063E-2,-5.2563477E-1,-1.2308174E-1,7.536491E-1,-2.1821639E-1,-9.4691646E-1,-4.184662E0,-7.44163E-1],"split_indices":[30,33,21,26,11,7,14,20,11,36,9,38,35,0,5,0,0,0,0,0,0,0,0,0,0,0,0,0,0],"split_type":[0,0,0,0,0,0,0,0,0,0,0,0,0,0,0,0,0,0,0,0,0,0,0,0,0,0,0,0,0],"sum_hessian":[1.329E3,1.275E3,5.4E1,1.74E2,1.101E3,3.6E1,1.8E1,1.68E2,6E0,9.58E2,1.43E2,2.2E1,1.4E1,1E0,1.7E1,7.6E1,9.2E1,3E0,3E0,7.59E2,1.99E2,1.25E2,1.8E1,1.9E1,3E0,1.2E1,2E0,1E0,1.6E1],"tree_param":{"num_deleted":"0","num_feature":"42","num_nodes":"29","size_leaf_vector":"1"}},{"base_weights":[2.973662E-2,1.5077818E-2,6.475226E0,-3.2050186E-1,3.2903922E-1,2.0091116E0,4.8934956E0,-2.3108757E-1,-1.9620967E0,5.5155724E-1,-9.239286E-1,1.2710534E0,7.734531E-1,-2.791845E-2,-4.4221184E-1,-1.0035492E-1,-6.401759E-1,-7.011644E-2,1.9917008E-1,-2.1332508E-1,1.8023065E0],"categories":[],"categories_nodes":[],"categories_segments":[],"categories_sizes":[],"default_left":[0,0,0,0,0,0,0,0,0,0,0,0,0,0,0,0,0,0,0,0,0],"id":20,"left_children":[1,3,5,7,9,-1,11,13,15,17,19,-1,-1,-1,-1,-1,-1,-1,-1,-1,-1],"loss_changes":[1.2518905E2,1.3928606E2,1.448439E1,9.379136E1,1.9043094E2,0E0,2.6789627E0,1.1144296E2,5.3470512E1,2.0493672E2,9.218155E1,0E0,0E0,0E0,0E0,0E0,0E0,0E0,0E0,0E0,0E0],"parents":[2147483647,0,0,1,1,2,2,3,3,4,4,6,6,7,7,8,8,9,9,10,10],"right_children":[2,4,6,8,10,-1,12,14,16,18,20,-1,-1,-1,-1,-1,-1,-1,-1,-1,-1],"split_conditions":[4E1,4E0,2E0,1.4E1,1.2E1,2.0091116E0,9E0,1.4E1,5E0,3E0,3.5E1,1.2710534E0,7.734531E-1,-2.791845E-2,-4.4221184E-1,-1.0035492E-1,-6.401759E-1,-7.011644E-2,1.9917008E-1,-2.1332508E-1,1.8023065E0],"split_indices":[33,9,36,19,11,0,4,17,21,39,15,0,0,0,0,0,0,0,0,0,0],"split_type":[0,0,0,0,0,0,0,0,0,0,0,0,0,0,0,0,0,0,0,0,0],"sum_hessian":[1.325E3,1.322E3,3E0,6.39E2,6.83E2,1E0,2E0,6.06E2,3.3E1,5.8E2,1.03E2,1E0,1E0,5.76E2,3E1,1.4E1,1.9E1,1.8E2,4E2,1.02E2,1E0],"tree_param":{"num_deleted":"0","num_feature":"42","num_nodes":"21","size_leaf_vector":"1"}},{"base_weights":[5.8579154E-4,4.063505E-2,-1.4935468E0,1.011814E-1,-1.3906046E0,-2.7100303E0,1.1606164E0,-2.6903293E-1,4.5804882E-1,-1.063624E0,-3.9479737E0,-2.448137E0,-1.8188468E0,6.702459E0,-7.4862264E-2,-6.5029256E-2,8.2006955E-1,9.178897E-2,2.7606397E0,-2.8111437E-1,6.293334E-1,-3.4508428E-1,-3.2212436E0,-7.1765035E-1,-4.529932E-2,1.257314E0,1.542992E0,-2.088263E0,2.4487288E-1],"categories":[],"categories_nodes":[],"categories_segments":[],"categories_sizes":[],"default_left":[0,0,0,0,0,0,0,0,0,0,0,0,0,0,0,0,0,0,0,0,0,0,0,0,0,0,0,0,0],"id":21,"left_children":[1,3,5,7,9,11,13,15,17,19,21,23,-1,25,27,-1,-1,-1,-1,-1,-1,-1,-1,-1,-1,-1,-1,-1,-1],"loss_changes":[8.0244514E1,1.1317446E2,1.13048065E2,1.6554485E2,4.4296272E1,3.7382416E1,7.5364334E1,1.0607701E2,1.6295575E2,5.310015E1,1.577222E2,5.0112793E1,0E0,6.3962555E-1,1.1080576E2,0E0,0E0,0E0,0E0,0E0,0E0,0E0,0E0,0E0,0E0,0E0,0E0,0E0,0E0],"parents":[2147483647,0,0,1,1,2,2,3,3,4,4,5,5,6,6,7,7,8,8,9,9,10,10,11,11,13,13,14,14],"right_children":[2,4,6,8,10,12,14,16,18,20,22,24,-1,26,28,-1,-1,-1,-1,-1,-1,-1,-1,-1,-1,-1,-1,-1,-1],"split_conditions":[2E1,1.7E1,8E0,4E0,1.7E1,1.7E1,2E0,3E1,4E1,1.6E1,9E0,9E0,-1.8188468E0,1.2E1,3E0,-6.5029256E-2,8.2006955E-1,9.178897E-2,2.7606397E0,-2.8111437E-1,6.293334E-1,-3.4508428E-1,-3.2212436E0,-7.1765035E-1,-4.529932E-2,1.257314E0,1.542992E0,-2.088263E0,2.4487288E-1],"split_indices":[41,13,26,23,30,24,25,9,34,3,38,7,0,13,25,0,0,0,0,0,0,0,0,0,0,0,0,0,0],"split_type":[0,0,0,0,0,0,0,0,0,0,0,0,0,0,0,0,0,0,0,0,0,0,0,0,0,0,0,0,0],"sum_hessian":[1.341E3,1.306E3,3.5E1,1.253E3,5.3E1,2.4E1,1.1E1,6.15E2,6.38E2,4.7E1,6E0,2.3E1,1E0,2E0,9E0,6.09E2,6E0,6.37E2,1E0,4.4E1,3E0,5E0,1E0,1.6E1,7E0,1E0,1E0,1E0,8E0],"tree_param":{"num_deleted":"0","num_feature":"42","num_nodes":"29","size_leaf_vector":"1"}},{"base_weights":[3.3700127E-2,7.693705E-2,-2.4188418E0,-3.2159757E-2,1.0545983E0,-2.695711E0,7.649928E-1,-6.251311E-1,6.0732614E-2,3.6630814E0,-1.1498857E0,-4.0018916E0,-2.3101373E0,-9.189885E-2,-5.06361E-1,-1.2176802E-1,3.2835443E-2,4.7880718E-1,3.9410841E0,-9.212351E-2,-7.1368027E-1,-6.0505897E-1,-8.9606607E-1,-3.523148E-1,-6.720283E-1],"categories":[],"categories_nodes":[],"categories_segments":[],"categories_sizes":[],"default_left":[0,0,0,0,0,0,0,0,0,0,0,0,0,0,0,0,0,0,0,0,0,0,0,0,0],"id":22,"left_children":[1,3,5,7,9,11,-1,13,15,17,19,21,23,-1,-1,-1,-1,-1,-1,-1,-1,-1,-1,-1,-1],"loss_changes":[1.4082312E2,1.3919206E2,3.8721725E1,6.466758E1,7.533627E2,1.102153E1,0E0,5.3143974E1,6.248892E1,1.2522075E3,1.1374387E2,1.4448166E0,9.55397E0,0E0,0E0,0E0,0E0,0E0,0E0,0E0,0E0,0E0,0E0,0E0,0E0],"parents":[2147483647,0,0,1,1,2,2,3,3,4,4,5,5,7,7,8,8,9,9,10,10,11,11,12,12],"right_children":[2,4,6,8,10,12,-1,14,16,18,20,22,24,-1,-1,-1,-1,-1,-1,-1,-1,-1,-1,-1,-1],"split_conditions":[2.7E1,1.2E1,2.3E1,2E0,5E0,2E0,7.649928E-1,1E1,2E0,1.4E1,8E0,2E0,6E0,-9.189885E-2,-5.06361E-1,-1.2176802E-1,3.2835443E-2,4.7880718E-1,3.9410841E0,-9.212351E-2,-7.1368027E-1,-6.0505897E-1,-8.9606607E-1,-3.523148E-1,-6.720283E-1],"split_indices":[3,30,7,33,25,12,0,12,37,23,41,39,27,0,0,0,0,0,0,0,0,0,0,0,0],"split_type":[0,0,0,0,0,0,0,0,0,0,0,0,0,0,0,0,0,0,0,0,0,0,0,0,0],"sum_hessian":[1.328E3,1.305E3,2.3E1,1.174E3,1.31E2,2.2E1,1E0,1.59E2,1.015E3,6E1,7.1E1,5E0,1.7E1,1.44E2,1.5E1,1.32E2,8.83E2,5.5E1,5E0,5.4E1,1.7E1,1E0,4E0,1E1,7E0],"tree_param":{"num_deleted":"0","num_feature":"42","num_nodes":"25","size_leaf_vector":"1"}},{"base_weights":[-1.1750936E-1,-6.731295E-2,-2.3847594E0,-1.6019766E-1,4.8185936E-1,-6.4487344E-1,-2.6744785E0,-2.2536145E-1,9.117598E-1,-2.543912E-1,1.6168345E0,-3.6880045E0,2.400277E0,-2.3261046E0,-2.2257285E0,-9.502539E-2,3.6372878E-2,-7.474614E-2,1.4229276E0,5.364774E-3,-9.2435193E-1,2.9139712E-1,3.685256E0,-6.891436E-1,-8.516991E-1,4.4390848E-1,5.589112E-1,-5.9296304E-1,-3.5013807E-1],"categories":[],"categories_nodes":[],"categories_segments":[],"categories_sizes":[],"default_left":[0,0,0,0,0,0,0,0,0,0,0,0,0,0,0,0,0,0,0,0,0,0,0,0,0,0,0,0,0],"id":23,"left_children":[1,3,5,7,9,11,13,15,17,19,21,23,25,27,-1,-1,-1,-1,-1,-1,-1,-1,-1,-1,-1,-1,-1,-1,-1],"loss_changes":[1.4715277E2,6.452806E1,1.4105637E1,7.5582436E1,1.5292798E2,3.7186012E1,6.628363E1,9.2785446E1,4.6227457E2,1.2917174E2,2.602292E2,2.1274185E-1,1.1312008E-1,7.55542E0,0E0,0E0,0E0,0E0,0E0,0E0,0E0,0E0,0E0,0E0,0E0,0E0,0E0,0E0,0E0],"parents":[2147483647,0,0,1,1,2,2,3,3,4,4,5,5,6,6,7,7,8,8,9,9,10,10,11,11,12,12,13,13],"right_children":[2,4,6,8,10,12,14,16,18,20,22,24,26,28,-1,-1,-1,-1,-1,-1,-1,-1,-1,-1,-1,-1,-1,-1,-1],"split_conditions":[2.3E1,1E1,3E0,1.5E1,6E0,4E0,1.2E1,5E0,8E0,1.6E1,1.9E1,4E0,2E0,5E0,-2.2257285E0,-9.502539E-2,3.6372878E-2,-7.474614E-2,1.4229276E0,5.364774E-3,-9.2435193E-1,2.9139712E-1,3.685256E0,-6.891436E-1,-8.516991E-1,4.4390848E-1,5.589112E-1,-5.9296304E-1,-3.5013807E-1],"split_indices":[15,31,10,8,27,3,29,22,24,6,26,7,2,6,0,0,0,0,0,0,0,0,0,0,0,0,0,0,0],"split_type":[0,0,0,0,0,0,0,0,0,0,0,0,0,0,0,0,0,0,0,0,0,0,0,0,0,0,0,0,0],"sum_hessian":[1.293E3,1.265E3,2.8E1,1.082E3,1.83E2,4E0,2.4E1,1.02E3,6.2E1,1.11E2,7.2E1,2E0,2E0,2.3E1,1E0,6.49E2,3.71E2,5.1E1,1.1E1,1.04E2,7E0,7.1E1,1E0,1E0,1E0,1E0,1E0,1.3E1,1E1],"tree_param":{"num_deleted":"0","num_feature":"42","num_nodes":"29","size_leaf_vector":"1"}},{"base_weights":[9.384138E-2,3.380264E-2,3.2366312E0,2.0244174E-2,5.9233007E0,-1.0025465E0,1.6647182E1,7.922839E-2,-1.0371021E0,9.544471E0,-2.7955478E-1,-5.9680665E-1,-1.7299852E0,3.6014275E1,-2.7561047E0,9.5630693E-4,2.491106E-1,-6.7256585E-2,-6.763022E-1,2.7084327E0,1.2792889E0,3.3125418E-1,-4.9013257E-1,-1.148915E0,1.1886149E1,-3.7710693E-1,-6.763312E-1],"categories":[],"categories_nodes":[],"categories_segments":[],"categories_sizes":[],"default_left":[0,0,0,0,0,0,0,0,0,0,0,0,0,0,0,0,0,0,0,0,0,0,0,0,0,0,0],"id":24,"left_children":[1,3,5,7,9,11,13,15,17,19,-1,21,-1,23,25,-1,-1,-1,-1,-1,-1,-1,-1,-1,-1,-1,-1],"loss_changes":[2.517113E2,1.0452571E2,1.421727E3,8.1451744E1,7.9094864E1,5.5889782E1,2.2578274E3,1.0246198E2,1.0821551E2,2.2803223E1,0E0,6.831246E1,0E0,2.584368E3,1.3157253E0,0E0,0E0,0E0,0E0,0E0,0E0,0E0,0E0,0E0,0E0,0E0,0E0],"parents":[2147483647,0,0,1,1,2,2,3,3,4,4,5,5,6,6,7,7,8,8,9,9,11,11,13,13,14,14],"right_children":[2,4,6,8,10,12,14,16,18,20,-1,22,-1,24,26,-1,-1,-1,-1,-1,-1,-1,-1,-1,-1,-1,-1],"split_conditions":[2.3E1,6.4E1,1E1,1.5E1,4E0,3.5E1,6E0,1.4E1,9E0,3E0,-2.7955478E-1,6E0,-1.7299852E0,3E0,3E0,9.5630693E-4,2.491106E-1,-6.7256585E-2,-6.763022E-1,2.7084327E0,1.2792889E0,3.3125418E-1,-4.9013257E-1,-1.148915E0,1.1886149E1,-3.7710693E-1,-6.763312E-1],"split_indices":[35,6,30,14,12,2,2,31,24,8,0,8,0,12,5,0,0,0,0,0,0,0,0,0,0,0,0],"split_type":[0,0,0,0,0,0,0,0,0,0,0,0,0,0,0,0,0,0,0,0,0,0,0,0,0,0,0],"sum_hessian":[1.334E3,1.309E3,2.5E1,1.306E3,3E0,1.9E1,6E0,1.237E3,6.9E1,2E0,1E0,1.8E1,1E0,3E0,3E0,1.159E3,7.8E1,5.2E1,1.7E1,1E0,1E0,8E0,1E1,1E0,2E0,1E0,2E0],"tree_param":{"num_deleted":"0","num_feature":"42","num_nodes":"27","size_leaf_vector":"1"}},{"base_weights":[-1.3237887E-2,1.620023E-2,-3.2693026E0,2.8454378E-2,-2.2941744E0,-9.617665E0,-1.9941511E0,8.406874E-2,-1.3285863E0,-1.2521615E0,-3.677716E0,-6.086999E-1,-3.409603E0,1.2132359E0,-2.8625145E0,-1.7221089E-3,1.7234644E-1,-3.4744975E-1,5.4871815E-1,4.322708E-2,-3.642066E-1,-1.0167861E0,-6.448678E-1,-8.173364E-1,-1.6430828E-1],"categories":[],"categories_nodes":[],"categories_segments":[],"categories_sizes":[],"default_left":[0,0,0,0,0,0,0,0,0,0,0,0,0,0,0,0,0,0,0,0,0,0,0,0,0],"id":25,"left_children":[1,3,5,7,9,11,13,15,17,19,21,-1,-1,-1,23,-1,-1,-1,-1,-1,-1,-1,-1,-1,-1],"loss_changes":[1.2844376E2,3.7598133E1,9.7066956E1,9.969814E1,1.0070126E1,8.927603E1,6.773596E1,8.64574E1,6.759931E1,2.8399696E0,2.0211678E0,0E0,0E0,0E0,1.9397217E1,0E0,0E0,0E0,0E0,0E0,0E0,0E0,0E0,0E0,0E0],"parents":[2147483647,0,0,1,1,2,2,3,3,4,4,5,5,6,6,7,7,8,8,9,9,10,10,14,14],"right_children":[2,4,6,8,10,12,14,16,18,20,22,-1,-1,-1,24,-1,-1,-1,-1,-1,-1,-1,-1,-1,-1],"split_conditions":[3.2E1,3.5E1,3E0,1.7E1,5E0,5E0,2E0,1.1E1,1.8E1,4E0,3E0,-6.086999E-1,-3.409603E0,1.2132359E0,1.3E1,-1.7221089E-3,1.7234644E-1,-3.4744975E-1,5.4871815E-1,4.322708E-2,-3.642066E-1,-1.0167861E0,-6.448678E-1,-8.173364E-1,-1.6430828E-1],"split_indices":[35,23,3,26,2,10,15,24,5,18,0,0,0,0,23,0,0,0,0,0,0,0,0,0,0],"split_type":[0,0,0,0,0,0,0,0,0,0,0,0,0,0,0,0,0,0,0,0,0,0,0,0,0],"sum_hessian":[1.34E3,1.328E3,1.2E1,1.321E3,7E0,2E0,1E1,1.269E3,5.2E1,4E0,3E0,1E0,1E0,1E0,9E0,1.128E3,1.41E2,4.8E1,4E0,1E0,3E0,1E0,2E0,6E0,3E0],"tree_param":{"num_deleted":"0","num_feature":"42","num_nodes":"25","size_leaf_vector":"1"}},{"base_weights":[1.994223E-2,5.3357344E-2,-3.6064186E0,-6.8745203E-3,1.164395E0,-2.1450832E0,-5.0637946E0,-1.1687858E-1,5.6979734E-1,9.882601E-1,2.6632235E0,-1.134544E0,-4.1557803E0,-2.80324E0,-9.560921E0,-9.633492E-3,-1.8103613E-1,1.0570396E-1,2.8034487E0,1.1212827E-1,1.006955E0,-1.7234302E-1,-4.316742E-1,-1.07523E0,-6.6105336E-1,-9.5718694E-1,-2.1591626E-1,-2.3111389E0,-1.683456E0],"categories":[],"categories_nodes":[],"categories_segments":[],"categories_sizes":[],"default_left":[0,0,0,0,0,0,0,0,0,0,0,0,0,0,0,0,0,0,0,0,0,0,0,0,0,0,0,0,0],"id":26,"left_children":[1,3,5,7,9,11,13,15,17,19,-1,21,23,25,27,-1,-1,-1,-1,-1,-1,-1,-1,-1,-1,-1,-1,-1,-1],"loss_changes":[1.5934692E2,8.719727E1,2.5498184E1,7.8407974E1,1.3614453E2,1.2172863E1,6.088498E1,5.4978577E1,1.6591795E2,1.141572E2,0E0,1.1457415E0,1.8512993E0,1.2497854E1,3.9142303E0,0E0,0E0,0E0,0E0,0E0,0E0,0E0,0E0,0E0,0E0,0E0,0E0,0E0,0E0],"parents":[2147483647,0,0,1,1,2,2,3,3,4,4,5,5,6,6,7,7,8,8,9,9,11,11,12,12,13,13,14,14],"right_children":[2,4,6,8,10,12,14,16,18,20,-1,22,24,26,28,-1,-1,-1,-1,-1,-1,-1,-1,-1,-1,-1,-1,-1,-1],"split_conditions":[3E1,1.6E1,5E0,9E0,2.8E1,6E0,7E0,1.2E1,3.5E1,1.4E1,2.6632235E0,5E0,2E0,8E0,6E0,-9.633492E-3,-1.8103613E-1,1.0570396E-1,2.8034487E0,1.1212827E-1,1.006955E0,-1.7234302E-1,-4.316742E-1,-1.07523E0,-6.6105336E-1,-9.5718694E-1,-2.1591626E-1,-2.3111389E0,-1.683456E0],"split_indices":[26,16,38,25,13,6,13,14,22,38,0,13,13,20,2,0,0,0,0,0,0,0,0,0,0,0,0,0,0],"split_type":[0,0,0,0,0,0,0,0,0,0,0,0,0,0,0,0,0,0,0,0,0,0,0,0,0,0,0,0,0],"sum_hessian":[1.315E3,1.303E3,1.2E1,1.236E3,6.7E1,6E0,6E0,1.038E3,1.98E2,6.6E1,1E0,4E0,2E0,4E0,2E0,9.48E2,9E1,1.97E2,1E0,5.9E1,7E0,3E0,1E0,1E0,1E0,2E0,2E0,1E0,1E0],"tree_param":{"num_deleted":"0","num_feature":"42","num_nodes":"29","size_leaf_vector":"1"}},{"base_weights":[-3.2110035E-2,8.363455E-5,-2.3349178E0,-3.9505827E-1,1.8993516E-1,-4.9569874E0,-1.0218806E0,-2.7294612E-1,-1.7738844E0,1.726794E-1,7.653856E0,-3.3593276E0,-2.6976416E0,-3.7928352E0,3.6554402E-1,-4.118585E-2,-3.0856112E-1,-4.1149217E-1,2.628535E-1,6.7373198E-3,3.3447924E-1,2.1825304E0,1.0152769E0,-1.4312694E0,-2.1719241E-1,-4.0387192E-1,-1.1833644E0,-4.7093417E-2,9.3726534E-1],"categories":[],"categories_nodes":[],"categories_segments":[],"categories_sizes":[],"default_left":[0,0,0,0,0,0,0,0,0,0,0,0,0,0,0,0,0,0,0,0,0,0,0,0,0,0,0,0,0],"id":27,"left_children":[1,3,5,7,9,11,13,15,17,19,21,23,-1,25,27,-1,-1,-1,-1,-1,-1,-1,-1,-1,-1,-1,-1,-1,-1],"loss_changes":[9.6822266E1,9.662451E1,6.1960114E1,7.0376854E1,1.1204312E2,7.5663284E1,4.616872E1,3.519919E1,1.9527176E1,1.736104E2,1.5225441E1,4.0306404E1,0E0,1.3782463E1,1.9413542E1,0E0,0E0,0E0,0E0,0E0,0E0,0E0,0E0,0E0,0E0,0E0,0E0,0E0,0E0],"parents":[2147483647,0,0,1,1,2,2,3,3,4,4,5,5,6,6,7,7,8,8,9,9,10,10,11,11,13,13,14,14],"right_children":[2,4,6,8,10,12,14,16,18,20,22,24,-1,26,28,-1,-1,-1,-1,-1,-1,-1,-1,-1,-1,-1,-1,-1,-1],"split_conditions":[2.8E1,3E0,3E0,1.2E1,6.4E1,8E0,4E0,1.5E1,1.7E1,1.3E1,3E0,4E0,-2.6976416E0,4E0,1.5E1,-4.118585E-2,-3.0856112E-1,-4.1149217E-1,2.628535E-1,6.7373198E-3,3.3447924E-1,2.1825304E0,1.0152769E0,-1.4312694E0,-2.1719241E-1,-4.0387192E-1,-1.1833644E0,-4.7093417E-2,9.3726534E-1],"split_indices":[35,24,36,8,6,26,9,21,4,8,1,5,0,25,7,0,0,0,0,0,0,0,0,0,0,0,0,0,0],"split_type":[0,0,0,0,0,0,0,0,0,0,0,0,0,0,0,0,0,0,0,0,0,0,0,0,0,0,0,0,0],"sum_hessian":[1.306E3,1.288E3,1.8E1,4.18E2,8.7E2,6E0,1.2E1,3.84E2,3.4E1,8.68E2,2E0,5E0,1E0,4E0,8E0,3.61E2,2.3E1,3.2E1,2E0,7.9E2,7.8E1,1E0,1E0,2E0,3E0,2E0,2E0,7E0,1E0],"tree_param":{"num_deleted":"0","num_feature":"42","num_nodes":"29","size_leaf_vector":"1"}},{"base_weights":[5.5872694E-2,4.2832498E-2,5.8199496E0,-4.8798162E-1,1.2333103E-1,-1.1119101E0,4.1080666E0,-3.696781E-1,-2.9552243E0,1.4285417E-1,-3.0727944E0,-4.281543E-1,-3.63754E-2,-1.1209674E-1,8.505275E-1,-9.9721986E-1,-2.4050449E-1,2.8503472E-2,1.6654857E0,-1.0298465E0,3.2076374E-1],"categories":[],"categories_nodes":[],"categories_segments":[],"categories_sizes":[],"default_left":[0,0,0,0,0,0,0,0,0,0,0,0,0,0,0,0,0,0,0,0,0],"id":28,"left_children":[1,3,5,7,9,11,-1,13,15,17,19,-1,-1,-1,-1,-1,-1,-1,-1,-1,-1],"loss_changes":[1.0011723E2,5.678846E1,2.8735397E2,5.1073803E1,7.201053E1,1.7501388E0,0E0,1.22153435E2,2.6056396E1,6.1350254E1,5.942531E1,0E0,0E0,0E0,0E0,0E0,0E0,0E0,0E0,0E0,0E0],"parents":[2147483647,0,0,1,1,2,2,3,3,4,4,5,5,7,7,8,8,9,9,10,10],"right_children":[2,4,6,8,10,12,-1,14,16,18,20,-1,-1,-1,-1,-1,-1,-1,-1,-1,-1],"split_conditions":[6.4E1,2E0,1.3E1,1.4E1,3.3E1,4E0,4.1080666E0,1.2E1,6E0,4E1,3.7E1,-4.281543E-1,-3.63754E-2,-1.1209674E-1,8.505275E-1,-9.9721986E-1,-2.4050449E-1,2.8503472E-2,1.6654857E0,-1.0298465E0,3.2076374E-1],"split_indices":[1,37,10,24,26,7,0,41,8,36,26,0,0,0,0,0,0,0,0,0,0],"split_type":[0,0,0,0,0,0,0,0,0,0,0,0,0,0,0,0,0,0,0,0,0],"sum_hessian":[1.332E3,1.329E3,3E0,1.75E2,1.154E3,2E0,1E0,1.67E2,8E0,1.147E3,7E0,1E0,1E0,1.61E2,6E0,4E0,4E0,1.146E3,1E0,5E0,2E0],"tree_param":{"num_deleted":"0","num_feature":"42","num_nodes":"21","size_leaf_vector":"1"}},{"base_weights":[-4.7412254E-2,-9.564165E-2,2.0645897E0,-4.9029227E-2,-1.2267375E0,4.707359E0,-1.3919561E0,-5.927596E-3,-1.6054529E0,-1.4526731E0,2.1441267E0,-1.7030449E0,1.1914579E1,-6.5113914E-1,-2.141867E0,-4.5993477E-3,1.3665493E0,-4.168834E-1,2.6623318E-1,-1.7187592E-2,-4.4806337E-1,2.792115E-1,-5.3878576E-1,4.1819277E0,-3.138595E-1,-4.361121E-2,-1.150947E0],"categories":[],"categories_nodes":[],"categories_segments":[],"categories_sizes":[],"default_left":[0,0,0,0,0,0,0,0,0,0,0,0,0,0,0,0,0,0,0,0,0,0,0,0,0,0,0],"id":29,"left_children":[1,3,5,7,9,11,13,15,17,19,-1,21,23,25,-1,-1,-1,-1,-1,-1,-1,-1,-1,-1,-1,-1,-1],"loss_changes":[1.3690224E2,6.927791E1,2.741488E2,8.4660614E1,1.3471768E2,7.858573E2,8.5012405E1,1.283658E2,3.753338E1,4.7901436E1,0E0,2.3742344E1,8.6343506E2,2.5740396E1,0E0,0E0,0E0,0E0,0E0,0E0,0E0,0E0,0E0,0E0,0E0,0E0,0E0],"parents":[2147483647,0,0,1,1,2,2,3,3,4,4,5,5,6,6,7,7,8,8,9,9,11,11,12,12,13,13],"right_children":[2,4,6,8,10,12,14,16,18,20,-1,22,24,26,-1,-1,-1,-1,-1,-1,-1,-1,-1,-1,-1,-1,-1],"split_conditions":[2.3E1,1.7E1,4E0,2E1,1.9E1,7E0,2.6E1,4E1,1.3E1,4E0,2.1441267E0,3E0,1.1E1,1.7E1,-2.141867E0,-4.5993477E-3,1.3665493E0,-4.168834E-1,2.6623318E-1,-1.7187592E-2,-4.4806337E-1,2.792115E-1,-5.3878576E-1,4.1819277E0,-3.138595E-1,-4.361121E-2,-1.150947E0],"split_indices":[35,28,5,41,9,13,33,5,10,19,0,3,20,1,0,0,0,0,0,0,0,0,0,0,0,0,0],"split_type":[0,0,0,0,0,0,0,0,0,0,0,0,0,0,0,0,0,0,0,0,0,0,0,0,0,0,0],"sum_hessian":[1.344E3,1.314E3,3E1,1.262E3,5.2E1,1.7E1,1.3E1,1.228E3,3.4E1,5.1E1,1E0,9E0,8E0,1.2E1,1E0,1.225E3,3E0,3E1,4E0,1.7E1,3.4E1,2E0,7E0,5E0,3E0,1.1E1,1E0],"tree_param":{"num_deleted":"0","num_feature":"42","num_nodes":"27","size_leaf_vector":"1"}},{"base_weights":[1.4727917E-2,2.8001547E-2,-4.40811E0,6.0184285E-2,-2.0873322E0,-3.4152642E-1,-5.3286815E0,1.13639E-1,-1.3207381E0,-2.0920967E-1,-2.5565748E0,-1.4964575E0,-4.402558E0,7.848565E-3,6.023279E-1,-2.0804963E-1,-1.3283384E0,-7.173408E-1,6.297715E-1,-3.738055E-1,-8.051403E-1,-1.0064192E0,-8.3296967E-1],"categories":[],"categories_nodes":[],"categories_segments":[],"categories_sizes":[],"default_left":[0,0,0,0,0,0,0,0,0,0,0,0,0,0,0,0,0,0,0,0,0,0,0],"id":30,"left_children":[1,3,5,7,9,-1,11,13,15,17,19,-1,21,-1,-1,-1,-1,-1,-1,-1,-1,-1,-1],"loss_changes":[7.860928E1,9.088403E1,1.0190224E1,9.7070366E1,1.7627693E1,0E0,4.835945E0,2.6624875E2,8.062103E1,4.1447803E1,1.5854263E1,0E0,2.1670914E-1,0E0,0E0,0E0,0E0,0E0,0E0,0E0,0E0,0E0,0E0],"parents":[2147483647,0,0,1,1,2,2,3,3,4,4,6,6,7,7,8,8,9,9,10,10,12,12],"right_children":[2,4,6,8,10,-1,12,14,16,18,20,-1,22,-1,-1,-1,-1,-1,-1,-1,-1,-1,-1],"split_conditions":[5.4E1,2.7E1,2E0,1.7E1,3E0,-3.4152642E-1,4E0,1.4E1,2E1,1.2E1,3.5E1,-1.4964575E0,3E0,7.848565E-3,6.023279E-1,-2.0804963E-1,-1.3283384E0,-7.173408E-1,6.297715E-1,-3.738055E-1,-8.051403E-1,-1.0064192E0,-8.3296967E-1],"split_indices":[9,41,40,30,25,0,6,30,13,24,41,0,28,0,0,0,0,0,0,0,0,0,0],"split_type":[0,0,0,0,0,0,0,0,0,0,0,0,0,0,0,0,0,0,0,0,0,0,0],"sum_hessian":[1.339E3,1.335E3,4E0,1.315E3,2E1,1E0,3E0,1.266E3,4.9E1,4E0,1.6E1,1E0,2E0,1.232E3,3.4E1,4.6E1,3E0,2E0,2E0,1E1,6E0,1E0,1E0],"tree_param":{"num_deleted":"0","num_feature":"42","num_nodes":"23","size_leaf_vector":"1"}},{"base_weights":[-5.268571E-2,-1.3508651E-2,-1.41834E0,-1.0227199E-1,4.2296815E-1,-1.2373075E0,-1.6525618E0,4.9283486E-3,-6.710437E-1,5.2068025E-1,-1.8448344E0,-2.133578E-1,-1.7490776E0,-2.1307383E-2,1.2685657E-1,-1.5976341E-1,1.4608929E0,-1.07475564E-1,1.7025633E-1,-9.1701716E-2,-7.545761E-1,-1.2597226E-1,8.440641E-1,-1.5920737E-1,-5.418809E-1],"categories":[],"categories_nodes":[],"categories_segments":[],"categories_sizes":[],"default_left":[0,0,0,0,0,0,0,0,0,0,0,0,0,0,0,0,0,0,0,0,0,0,0,0,0],"id":31,"left_children":[1,3,5,7,9,11,-1,13,15,17,19,21,23,-1,-1,-1,-1,-1,-1,-1,-1,-1,-1,-1,-1],"loss_changes":[7.099756E1,4.9979134E1,4.325654E1,6.5363075E1,4.8314526E1,1.8865616E1,0E0,5.7722008E1,1.1856102E2,6.300407E1,2.2239609E1,1.9755056E1,1.9853989E1,0E0,0E0,0E0,0E0,0E0,0E0,0E0,0E0,0E0,0E0,0E0,0E0],"parents":[2147483647,0,0,1,1,2,2,3,3,4,4,5,5,7,7,8,8,9,9,10,10,11,11,12,12],"right_children":[2,4,6,8,10,12,-1,14,16,18,20,22,24,-1,-1,-1,-1,-1,-1,-1,-1,-1,-1,-1,-1],"split_conditions":[1.9E1,9E0,2.9E1,9E0,1.6E1,4E0,-1.6525618E0,9E0,5.4E1,3E0,4E0,1.5E1,4E0,-2.1307383E-2,1.2685657E-1,-1.5976341E-1,1.4608929E0,-1.07475564E-1,1.7025633E-1,-9.1701716E-2,-7.545761E-1,-1.2597226E-1,8.440641E-1,-1.5920737E-1,-5.418809E-1],"split_indices":[35,25,21,10,41,26,0,17,1,24,13,39,23,0,0,0,0,0,0,0,0,0,0,0,0],"split_type":[0,0,0,0,0,0,0,0,0,0,0,0,0,0,0,0,0,0,0,0,0,0,0,0,0],"sum_hessian":[1.327E3,1.29E3,3.7E1,1.072E3,2.18E2,3.6E1,1E0,9.02E2,1.7E2,2.09E2,9E0,1.2E1,2.4E1,7.66E2,1.36E2,1.68E2,2E0,4.6E1,1.63E2,5E0,4E0,1.1E1,1E0,1.1E1,1.3E1],"tree_param":{"num_deleted":"0","num_feature":"42","num_nodes":"25","size_leaf_vector":"1"}},{"base_weights":[7.655296E-2,5.8928546E-2,4.7161613E0,9.5771626E-2,-1.0884265E0,-1.285189E0,7.4338446E0,4.1674462E-1,-1.8869586E-1,-2.114365E0,2.2277778E-1,1.3054877E1,1.7884713E0,5.537736E-2,4.105123E-1,-1.0502393E-1,8.604102E-2,-2.7424896E-1,-7.054667E-1,-7.350273E-2,2.0772076E0,3.1459854E0,2.3084123E0,1.0627906E0,-3.155175E-1],"categories":[],"categories_nodes":[],"categories_segments":[],"categories_sizes":[],"default_left":[0,0,0,0,0,0,0,0,0,0,0,0,0,0,0,0,0,0,0,0,0,0,0,0,0],"id":32,"left_children":[1,3,5,7,9,-1,11,13,15,17,19,21,23,-1,-1,-1,-1,-1,-1,-1,-1,-1,-1,-1,-1],"loss_changes":[1.0818011E2,5.5715405E1,1.4790163E2,1.16599396E2,5.5166023E1,0E0,1.2698364E2,1.4110529E2,1.2673829E2,2.3175179E1,1.00069466E2,6.9210205E0,2.174548E1,0E0,0E0,0E0,0E0,0E0,0E0,0E0,0E0,0E0,0E0,0E0,0E0],"parents":[2147483647,0,0,1,1,2,2,3,3,4,4,6,6,7,7,8,8,9,9,10,10,11,11,12,12],"right_children":[2,4,6,8,10,-1,12,14,16,18,20,22,24,-1,-1,-1,-1,-1,-1,-1,-1,-1,-1,-1,-1],"split_conditions":[3.7E1,1.9E1,3E0,4E0,5E0,-1.285189E0,5.4E1,1.2E1,6E0,6E0,9E0,2E0,2E0,5.537736E-2,4.105123E-1,-1.0502393E-1,8.604102E-2,-2.7424896E-1,-7.054667E-1,-7.350273E-2,2.0772076E0,3.1459854E0,2.3084123E0,1.0627906E0,-3.155175E-1],"split_indices":[11,30,27,4,16,0,11,41,0,9,40,15,12,0,0,0,0,0,0,0,0,0,0,0,0],"split_type":[0,0,0,0,0,0,0,0,0,0,0,0,0,0,0,0,0,0,0,0,0,0,0,0,0],"sum_hessian":[1.323E3,1.318E3,5E0,1.277E3,4.1E1,1E0,4E0,6E2,6.77E2,2.3E1,1.8E1,2E0,2E0,5.46E2,5.4E1,4.45E2,2.32E2,1.4E1,9E0,1.7E1,1E0,1E0,1E0,1E0,1E0],"tree_param":{"num_deleted":"0","num_feature":"42","num_nodes":"25","size_leaf_vector":"1"}},{"base_weights":[7.94723E-2,-5.107729E-1,1.6763799E-1,-3.146508E-1,-2.7929673E0,1.5238923E-1,3.7614043E0,-4.1586223E-1,1.4162135E0,-2.4841692E0,-1.4178267E0,-3.6216593E-1,2.313601E-1,-3.1474547E0,8.364191E0,2.272569E-2,-2.3365964E-1,-2.6225831E-2,1.4238858E0,-4.200887E-1,-8.541816E-1,-9.036117E-2,1.0410863E0,1.5173636E-2,1.666469E-1,-8.2949007E-1,-4.855066E-1,1.6410038E0,1.9648694E0],"categories":[],"categories_nodes":[],"categories_segments":[],"categories_sizes":[],"default_left":[0,0,0,0,0,0,0,0,0,0,0,0,0,0,0,0,0,0,0,0,0,0,0,0,0,0,0,0,0],"id":33,"left_children":[1,3,5,7,9,11,13,15,17,19,-1,21,23,25,27,-1,-1,-1,-1,-1,-1,-1,-1,-1,-1,-1,-1,-1,-1],"loss_changes":[7.0878456E1,7.921983E1,6.493448E1,2.8559704E1,1.7067802E1,4.7949932E1,1.5938147E2,5.6441673E1,7.46596E1,9.8765335E0,0E0,5.7730278E1,9.167844E1,1.2899666E0,1.1407013E0,0E0,0E0,0E0,0E0,0E0,0E0,0E0,0E0,0E0,0E0,0E0,0E0,0E0,0E0],"parents":[2147483647,0,0,1,1,2,2,3,3,4,4,5,5,6,6,7,7,8,8,9,9,11,11,12,12,13,13,14,14],"right_children":[2,4,6,8,10,12,14,16,18,20,-1,22,24,26,28,-1,-1,-1,-1,-1,-1,-1,-1,-1,-1,-1,-1,-1,-1],"split_conditions":[2E0,1.3E1,3.6E1,1.4E1,1.4E1,2E0,4E0,4E0,6E0,8E0,-1.4178267E0,2.1E1,8E0,4E0,4E0,2.272569E-2,-2.3365964E-1,-2.6225831E-2,1.4238858E0,-4.200887E-1,-8.541816E-1,-9.036117E-2,1.0410863E0,1.5173636E-2,1.666469E-1,-8.2949007E-1,-4.855066E-1,1.6410038E0,1.9648694E0],"split_indices":[10,24,5,7,1,38,27,13,13,36,0,8,30,0,6,0,0,0,0,0,0,0,0,0,0,0,0,0,0],"split_type":[0,0,0,0,0,0,0,0,0,0,0,0,0,0,0,0,0,0,0,0,0,0,0,0,0,0,0,0,0],"sum_hessian":[1.362E3,1.77E2,1.185E3,1.63E2,1.4E1,1.18E3,5E0,1.54E2,9E0,1.3E1,1E0,1.57E2,1.023E3,2E0,3E0,8.8E1,6.6E1,7E0,2E0,1E1,3E0,1.55E2,2E0,7.98E2,2.25E2,1E0,1E0,2E0,1E0],"tree_param":{"num_deleted":"0","num_feature":"42","num_nodes":"29","size_leaf_vector":"1"}},{"base_weights":[1.8922703E-2,8.7881625E-2,-1.2164022E0,1.1299812E-1,-1.6612961E0,-1.8628461E0,-3.3270943E-1,1.8075462E-2,7.2657967E-1,-3.3188934E0,-1.328462E0,-1.3815459E0,-3.173865E0,-4.879084E-1,8.680597E-1,9.730189E-3,-3.1280902E-1,9.578299E-2,3.2526667E0,-7.8240883E-1,-6.497553E-1,-2.2978981E-1,-9.533824E-1,-1.7795312E-1,-1.0134612E0,-1.7497288E0,-5.5566597E-1,-7.263334E-1,-3.0083878E-2],"categories":[],"categories_nodes":[],"categories_segments":[],"categories_sizes":[],"default_left":[0,0,0,0,0,0,0,0,0,0,0,0,0,0,0,0,0,0,0,0,0,0,0,0,0,0,0,0,0],"id":34,"left_children":[1,3,5,7,9,11,13,15,17,19,21,23,25,27,-1,-1,-1,-1,-1,-1,-1,-1,-1,-1,-1,-1,-1,-1,-1],"loss_changes":[1.1440677E2,5.5884285E1,4.0558624E1,7.303662E1,9.904648E0,2.5845383E1,2.085028E1,4.6509197E1,6.699119E2,1.9543839E-1,1.1181347E1,5.5159256E1,2.9618225E1,2.9739805E1,0E0,0E0,0E0,0E0,0E0,0E0,0E0,0E0,0E0,0E0,0E0,0E0,0E0,0E0,0E0],"parents":[2147483647,0,0,1,1,2,2,3,3,4,4,5,5,6,6,7,7,8,8,9,9,10,10,11,11,12,12,13,13],"right_children":[2,4,6,8,10,12,14,16,18,20,22,24,26,28,-1,-1,-1,-1,-1,-1,-1,-1,-1,-1,-1,-1,-1,-1,-1],"split_conditions":[1.5E1,2.7E1,6E0,1E1,3E0,9E0,1.5E1,2E1,2.1E1,3E0,3.2E1,1.1E1,3E0,2E0,8.680597E-1,9.730189E-3,-3.1280902E-1,9.578299E-2,3.2526667E0,-7.8240883E-1,-6.497553E-1,-2.2978981E-1,-9.533824E-1,-1.7795312E-1,-1.0134612E0,-1.7497288E0,-5.5566597E-1,-7.263334E-1,-3.0083878E-2],"split_indices":[21,3,15,30,30,8,37,9,35,8,24,6,40,35,0,0,0,0,0,0,0,0,0,0,0,0,0,0,0],"split_type":[0,0,0,0,0,0,0,0,0,0,0,0,0,0,0,0,0,0,0,0,0,0,0,0,0,0,0,0,0],"sum_hessian":[1.343E3,1.272E3,7.1E1,1.254E3,1.8E1,4.1E1,3E1,1.086E3,1.68E2,3E0,1.5E1,3E1,1.1E1,2.9E1,1E0,1.066E3,2E1,1.65E2,3E0,1E0,2E0,1.4E1,1E0,2.6E1,4E0,1E0,1E1,3E0,2.6E1],"tree_param":{"num_deleted":"0","num_feature":"42","num_nodes":"29","size_leaf_vector":"1"}},{"base_weights":[2.6449239E-2,-2.1207217E-2,2.5058544E0,1.3822286E-2,-2.057101E0,1.1292747E1,-9.141245E-1,1.4212827E-1,-3.7229678E-1,-3.6959922E-1,-3.7433639E0,2.6332174E1,-1.1379847E-2,9.3496907E-1,-1.8386911E0,4.8508562E-2,-2.4608436E-1,-9.8517746E-2,8.344596E-1,-2.3968504E-1,1.5357326E0,-9.215416E-1,5.8235395E-1,6.0432132E-2,8.238934E0,1.4857936E-1,-4.533342E-1,7.5900066E-1,-8.63375E-2,-2.657997E-1,-7.4268234E-1],"categories":[],"categories_nodes":[],"categories_segments":[],"categories_sizes":[],"default_left":[0,0,0,0,0,0,0,0,0,0,0,0,0,0,0,0,0,0,0,0,0,0,0,0,0,0,0,0,0,0,0],"id":35,"left_children":[1,3,5,7,9,11,13,15,17,19,21,23,25,27,29,-1,-1,-1,-1,-1,-1,-1,-1,-1,-1,-1,-1,-1,-1,-1,-1],"loss_changes":[1.5668124E2,9.278357E1,7.515407E2,6.3364067E1,6.261145E1,1.1911724E3,3.0795582E1,1.1287123E2,1.357925E2,6.562689E1,4.699878E1,1.01615405E3,6.219681E0,2.1744604E1,1.1647263E1,0E0,0E0,0E0,0E0,0E0,0E0,0E0,0E0,0E0,0E0,0E0,0E0,0E0,0E0,0E0,0E0],"parents":[2147483647,0,0,1,1,2,2,3,3,4,4,5,5,6,6,7,7,8,8,9,9,10,10,11,11,12,12,13,13,14,14],"right_children":[2,4,6,8,10,12,14,16,18,20,22,24,26,28,30,-1,-1,-1,-1,-1,-1,-1,-1,-1,-1,-1,-1,-1,-1,-1,-1],"split_conditions":[2.2E1,2.1E1,3E0,7E0,8E0,6E0,4E0,1.3E1,1.9E1,1.6E1,3.5E1,2E0,1.2E1,4E0,9E0,4.8508562E-2,-2.4608436E-1,-9.8517746E-2,8.344596E-1,-2.3968504E-1,1.5357326E0,-9.215416E-1,5.8235395E-1,6.0432132E-2,8.238934E0,1.4857936E-1,-4.533342E-1,7.5900066E-1,-8.63375E-2,-2.657997E-1,-7.4268234E-1],"split_indices":[35,33,7,39,0,18,32,30,16,4,27,5,21,3,30,0,0,0,0,0,0,0,0,0,0,0,0,0,0,0,0],"split_type":[0,0,0,0,0,0,0,0,0,0,0,0,0,0,0,0,0,0,0,0,0,0,0,0,0,0,0,0,0,0,0],"sum_hessian":[1.326E3,1.301E3,2.5E1,1.279E3,2.2E1,7E0,1.8E1,9.6E2,3.19E2,1.1E1,1.1E1,3E0,4E0,6E0,1.2E1,8.99E2,6.1E1,3.12E2,7E0,1E1,1E0,1E1,1E0,1E0,2E0,3E0,1E0,2E0,4E0,9E0,3E0],"tree_param":{"num_deleted":"0","num_feature":"42","num_nodes":"31","size_leaf_vector":"1"}},{"base_weights":[-8.370678E-2,1.1407454E-1,-2.6139838E-1,-5.0170165E-1,2.1977262E-1,8.087794E-1,-3.786158E-1,-8.418259E-1,8.9637524E-1,2.0285591E-1,1.9302533E0,3.9617622E0,7.6456405E-2,-3.974318E-1,3.5461738E0,-1.2886281E-1,-6.31214E-1,1.0036771E0,-4.557877E-2,4.7366265E-2,-8.1587064E-1,5.6513023E-1,3.988298E0,8.982144E-2,-9.419107E-1,-1.0355596E-1,1.0468018E-1,1.4491864E0,-6.6889834E-1],"categories":[],"categories_nodes":[],"categories_segments":[],"categories_sizes":[],"default_left":[0,0,0,0,0,0,0,0,0,0,0,0,0,0,0,0,0,0,0,0,0,0,0,0,0,0,0,0,0],"id":36,"left_children":[1,3,5,7,9,11,13,15,17,19,-1,21,23,25,27,-1,-1,-1,-1,-1,-1,-1,-1,-1,-1,-1,-1,-1,-1],"loss_changes":[4.6636642E1,4.0875343E1,8.7687744E1,4.3755867E1,8.150341E1,1.5933359E2,4.6533943E1,3.6437267E1,7.807738E1,5.0717255E1,0E0,2.476409E2,9.014661E1,5.436296E1,6.837863E1,0E0,0E0,0E0,0E0,0E0,0E0,0E0,0E0,0E0,0E0,0E0,0E0,0E0,0E0],"parents":[2147483647,0,0,1,1,2,2,3,3,4,4,5,5,6,6,7,7,8,8,9,9,11,11,12,12,13,13,14,14],"right_children":[2,4,6,8,10,12,14,16,18,20,-1,22,24,26,28,-1,-1,-1,-1,-1,-1,-1,-1,-1,-1,-1,-1,-1,-1],"split_conditions":[4E0,2E0,2E0,6E0,3.6E1,2E0,4E1,7E0,2E0,2.9E1,1.9302533E0,9E0,9E0,1.3E1,5E0,-1.2886281E-1,-6.31214E-1,1.0036771E0,-4.557877E-2,4.7366265E-2,-8.1587064E-1,5.6513023E-1,3.988298E0,8.982144E-2,-9.419107E-1,-1.0355596E-1,1.0468018E-1,1.4491864E0,-6.6889834E-1],"split_indices":[20,31,4,30,34,6,5,9,18,5,0,9,30,3,7,0,0,0,0,0,0,0,0,0,0,0,0,0,0],"split_type":[0,0,0,0,0,0,0,0,0,0,0,0,0,0,0,0,0,0,0,0,0,0,0,0,0,0,0,0,0],"sum_hessian":[1.327E3,6.28E2,6.99E2,9.2E1,5.36E2,6.9E1,6.3E2,7.4E1,1.8E1,5.35E2,1E0,1.3E1,5.6E1,6.27E2,3E0,6.7E1,7E0,4E0,1.4E1,5.32E2,3E0,1.2E1,1E0,5.2E1,4E0,5.66E2,6.1E1,2E0,1E0],"tree_param":{"num_deleted":"0","num_feature":"42","num_nodes":"29","size_leaf_vector":"1"}},{"base_weights":[4.498834E-3,5.5831745E-2,-9.870643E-1,1.654548E-1,-3.4839693E-1,-1.2089206E0,3.6643472E0,-3.10445E-1,4.1168526E-1,1.1705136E0,-5.1581454E-1,-1.3565203E0,1.6539239E0,2.363884E0,-1.6719536E-1,-1.1854736E-1,2.3317985E-1,7.6609164E-2,1.141139E0,5.2872944E-1,-1.6697091E-1,-1.3469388E-1,3.304259E-1,-1.364193E-1,-3.2741597E-1,-2.6641053E-1,1.965196E-1],"categories":[],"categories_nodes":[],"categories_segments":[],"categories_sizes":[],"default_left":[0,0,0,0,0,0,0,0,0,0,0,0,0,0,0,0,0,0,0,0,0,0,0,0,0,0,0],"id":37,"left_children":[1,3,5,7,9,11,13,15,17,19,21,23,-1,-1,25,-1,-1,-1,-1,-1,-1,-1,-1,-1,-1,-1,-1],"loss_changes":[6.8257195E1,5.649943E1,6.814369E1,1.17534195E2,6.917304E1,8.46997E1,8.773106E1,1.241967E2,1.5354988E2,7.185283E1,6.5037224E1,8.992355E0,0E0,0E0,2.4552155E0,0E0,0E0,0E0,0E0,0E0,0E0,0E0,0E0,0E0,0E0,0E0,0E0],"parents":[2147483647,0,0,1,1,2,2,3,3,4,4,5,5,6,6,7,7,8,8,9,9,10,10,11,11,14,14],"right_children":[2,4,6,8,10,12,14,16,18,20,22,24,-1,-1,26,-1,-1,-1,-1,-1,-1,-1,-1,-1,-1,-1,-1],"split_conditions":[1.6E1,8E0,2.9E1,3E0,2E0,3.7E1,4E0,7E0,3E1,5E0,1.7E1,3E0,1.6539239E0,2.363884E0,4E0,-1.1854736E-1,2.3317985E-1,7.6609164E-2,1.141139E0,5.2872944E-1,-1.6697091E-1,-1.3469388E-1,3.304259E-1,-1.364193E-1,-3.2741597E-1,-2.6641053E-1,1.965196E-1],"split_indices":[34,2,8,15,15,14,7,26,29,29,17,1,0,0,10,0,0,0,0,0,0,0,0,0,0,0,0],"split_type":[0,0,0,0,0,0,0,0,0,0,0,0,0,0,0,0,0,0,0,0,0,0,0,0,0,0,0],"sum_hessian":[1.341E3,1.275E3,6.6E1,1.003E3,2.72E2,6.3E1,3E0,3.42E2,6.61E2,2.7E1,2.45E2,6.2E1,1E0,1E0,2E0,2.9E2,5.2E1,6.55E2,6E0,1.6E1,1.1E1,2.31E2,1.4E1,1.4E1,4.8E1,1E0,1E0],"tree_param":{"num_deleted":"0","num_feature":"42","num_nodes":"27","size_leaf_vector":"1"}},{"base_weights":[-3.427306E-2,-5.8639854E-1,4.54228E-2,-3.813697E-1,-1.8695762E0,3.4339227E-2,6.4251046E0,-1.8823037E-1,-2.1738682E0,2.0814297E0,-2.4627228E0,-3.7599152E-1,2.1716674E-1,1.561325E0,1.1231004E0,2.7629271E-2,-2.9529285E-1,-5.4504097E-1,-1.2721917E-1,1.2014668E0,5.0933823E-2,-6.103738E-1,3.3105725E-1,-1.10662654E-1,2.3300052E-1,4.18928E-2,2.9169507E0],"categories":[],"categories_nodes":[],"categories_segments":[],"categories_sizes":[],"default_left":[0,0,0,0,0,0,0,0,0,0,0,0,0,0,0,0,0,0,0,0,0,0,0,0,0,0,0],"id":38,"left_children":[1,3,5,7,9,11,13,15,17,19,21,23,25,-1,-1,-1,-1,-1,-1,-1,-1,-1,-1,-1,-1,-1,-1],"loss_changes":[5.8259357E1,4.3932438E1,8.1809006E1,4.9852272E1,5.3950058E1,8.664881E1,1.9286957E0,5.079462E1,9.353554E0,2.0170734E1,3.6387825E1,8.0516335E1,1.8917152E2,0E0,0E0,0E0,0E0,0E0,0E0,0E0,0E0,0E0,0E0,0E0,0E0,0E0,0E0],"parents":[2147483647,0,0,1,1,2,2,3,3,4,4,5,5,6,6,7,7,8,8,9,9,10,10,11,11,12,12],"right_children":[2,4,6,8,10,12,14,16,18,20,22,24,26,-1,-1,-1,-1,-1,-1,-1,-1,-1,-1,-1,-1,-1,-1],"split_conditions":[2E0,7E0,6.4E1,9E0,2E0,3E0,2E0,6E0,1E1,2E0,1.7E1,1.2E1,6.4E1,1.561325E0,1.1231004E0,2.7629271E-2,-2.9529285E-1,-5.4504097E-1,-1.2721917E-1,1.2014668E0,5.0933823E-2,-6.103738E-1,3.3105725E-1,-1.10662654E-1,2.3300052E-1,4.18928E-2,2.9169507E0],"split_indices":[12,27,33,13,5,15,14,36,35,3,27,2,1,0,0,0,0,0,0,0,0,0,0,0,0,0,0],"split_type":[0,0,0,0,0,0,0,0,0,0,0,0,0,0,0,0,0,0,0,0,0,0,0,0,0,0,0],"sum_hessian":[1.324E3,1.67E2,1.157E3,1.44E2,2.3E1,1.155E3,2E0,1.3E2,1.4E1,3E0,2E1,3.56E2,7.99E2,1E0,1E0,1.03E2,2.7E1,1.1E1,3E0,1E0,2E0,1.8E1,2E0,3.23E2,3.3E1,7.98E2,1E0],"tree_param":{"num_deleted":"0","num_feature":"42","num_nodes":"27","size_leaf_vector":"1"}},{"base_weights":[4.9477093E-2,1.1660174E-1,-5.389422E-1,1.9092545E-1,-7.899308E-1,-6.4954513E-1,4.3919196E0,-1.7973674E-2,5.675714E-1,1.5040252E0,-1.1054492E0,-1.103558E-1,-1.2392092E0,7.9051948E0,-5.5334336E-1,-2.110168E-2,3.4286237E-1,1.7152674E-1,-4.7615103E-2,-5.7451416E-2,9.664379E-1,-3.1755617E-1,5.4076564E-1,-1.19533226E-1,3.994111E-1,-1.97803E-1,-5.0240296E-1,2.1312573E0,1.1715616E0],"categories":[],"categories_nodes":[],"categories_segments":[],"categories_sizes":[],"default_left":[0,0,0,0,0,0,0,0,0,0,0,0,0,0,0,0,0,0,0,0,0,0,0,0,0,0,0,0,0],"id":39,"left_children":[1,3,5,7,9,11,13,15,17,19,21,23,25,27,-1,-1,-1,-1,-1,-1,-1,-1,-1,-1,-1,-1,-1,-1,-1],"loss_changes":[5.284818E1,8.092093E1,7.473695E1,8.733659E1,6.588002E1,4.2604992E1,7.441635E1,9.767047E1,7.894724E1,6.0819912E1,1.2083866E2,6.492705E1,2.188002E1,1.0141853E1,0E0,0E0,0E0,0E0,0E0,0E0,0E0,0E0,0E0,0E0,0E0,0E0,0E0,0E0,0E0],"parents":[2147483647,0,0,1,1,2,2,3,3,4,4,5,5,6,6,7,7,8,8,9,9,10,10,11,11,12,12,13,13],"right_children":[2,4,6,8,10,12,14,16,18,20,22,24,26,28,-1,-1,-1,-1,-1,-1,-1,-1,-1,-1,-1,-1,-1,-1,-1],"split_conditions":[1.2E1,1.3E1,3.3E1,5E0,2E0,5E0,1.7E1,1.4E1,8E0,9E0,1.4E1,1.2E1,9E0,5E0,-5.5334336E-1,-2.110168E-2,3.4286237E-1,1.7152674E-1,-4.7615103E-2,-5.7451416E-2,9.664379E-1,-3.1755617E-1,5.4076564E-1,-1.19533226E-1,3.994111E-1,-1.97803E-1,-5.0240296E-1,2.1312573E0,1.1715616E0],"split_indices":[14,1,13,22,14,25,1,25,16,7,12,18,29,8,0,0,0,0,0,0,0,0,0,0,0,0,0,0,0],"split_type":[0,0,0,0,0,0,0,0,0,0,0,0,0,0,0,0,0,0,0,0,0,0,0,0,0,0,0,0,0],"sum_hessian":[1.338E3,1.201E3,1.37E2,1.11E3,9.1E1,1.34E2,3E0,7.14E2,3.96E2,1.1E1,8E1,7E1,6.4E1,2E0,1E0,6.8E2,3.4E1,3.01E2,9.5E1,7E0,4E0,7.2E1,8E0,5.7E1,1.3E1,5.1E1,1.3E1,1E0,1E0],"tree_param":{"num_deleted":"0","num_feature":"42","num_nodes":"29","size_leaf_vector":"1"}},{"base_weights":[-6.4264573E-3,5.8272723E-2,-4.5579854E-1,1.0872528E-2,2.742603E0,-5.722694E-1,4.2544546E0,6.270705E-2,-9.325909E-1,8.104301E0,8.391044E-1,-1.046369E0,9.999546E-2,2.370124E0,1.8835053E0,7.659541E-2,-5.054727E-2,3.5800043E-1,-3.2232413E-1,-7.115667E-2,1.1008042E0,-1.7445779E-1,-5.614548E-1,-9.738619E-2,4.688121E-1,-1.7516994E-1,6.793781E-1],"categories":[],"categories_nodes":[],"categories_segments":[],"categories_sizes":[],"default_left":[0,0,0,0,0,0,0,0,0,0,0,0,0,0,0,0,0,0,0,0,0,0,0,0,0,0,0],"id":40,"left_children":[1,3,5,7,9,11,13,15,17,-1,19,21,23,-1,25,-1,-1,-1,-1,-1,-1,-1,-1,-1,-1,-1,-1],"loss_changes":[3.8349045E1,1.4670532E2,9.1087685E1,5.5408768E1,1.3679153E3,5.1635654E1,6.686806E1,9.881153E1,9.4338196E1,0E0,9.8874054E1,3.3172195E1,8.085645E1,0E0,1.1120935E1,0E0,0E0,0E0,0E0,0E0,0E0,0E0,0E0,0E0,0E0,0E0,0E0],"parents":[2147483647,0,0,1,1,2,2,3,3,4,4,5,5,6,6,7,7,8,8,10,10,11,11,12,12,14,14],"right_children":[2,4,6,8,10,12,14,16,18,-1,20,22,24,-1,26,-1,-1,-1,-1,-1,-1,-1,-1,-1,-1,-1,-1],"split_conditions":[1.1E1,2.2E1,2.8E1,1.5E1,2E0,1.6E1,3.2E1,4E0,3E0,8.104301E0,8E0,1.3E1,1.1E1,2.370124E0,4E0,7.659541E-2,-5.054727E-2,3.5800043E-1,-3.2232413E-1,-7.115667E-2,1.1008042E0,-1.7445779E-1,-5.614548E-1,-9.738619E-2,4.688121E-1,-1.7516994E-1,6.793781E-1],"split_indices":[22,35,12,37,27,22,12,6,4,0,28,17,15,0,23,0,0,0,0,0,0,0,0,0,0,0,0],"split_type":[0,0,0,0,0,0,0,0,0,0,0,0,0,0,0,0,0,0,0,0,0,0,0,0,0,0,0],"sum_hessian":[1.319E3,1.153E3,1.66E2,1.133E3,2E1,1.62E2,4E0,1.074E3,5.9E1,1E0,1.9E1,9.5E1,6.7E1,1E0,3E0,5.38E2,5.36E2,1.1E1,4.8E1,1.5E1,4E0,8.4E1,1.1E1,5.3E1,1.4E1,1E0,2E0],"tree_param":{"num_deleted":"0","num_feature":"42","num_nodes":"27","size_leaf_vector":"1"}},{"base_weights":[-1.0681165E-3,-7.4874185E-2,8.303881E-1,-1.0990786E-1,9.654694E-1,1.1970758E0,-9.06359E-1,-7.750008E-2,-1.1467495E0,8.981266E0,5.4210645E-1,1.4392515E0,-2.9163742E0,6.3154656E-1,-1.4556615E0,1.6866734E-3,-1.14348605E-1,-2.8996006E-1,1.486835E0,1.4098321E0,2.342578E0,-1.6905285E-2,9.7397244E-1,1.2669098E0,2.538802E-1,-2.5916627E-1,-6.9867E-1,-9.662909E-2,1.0430379E0,-5.375014E-1,-7.238004E-2],"categories":[],"categories_nodes":[],"categories_segments":[],"categories_sizes":[],"default_left":[0,0,0,0,0,0,0,0,0,0,0,0,0,0,0,0,0,0,0,0,0,0,0,0,0,0,0,0,0,0,0],"id":41,"left_children":[1,3,5,7,9,11,13,15,17,19,21,23,25,27,29,-1,-1,-1,-1,-1,-1,-1,-1,-1,-1,-1,-1,-1,-1,-1,-1],"loss_changes":[8.204772E1,4.475778E1,6.94273E1,3.9918297E1,1.3573238E2,8.968971E1,1.6062424E1,4.6131462E1,7.0311066E1,9.438553E0,9.7166016E1,8.91779E1,3.4809341E0,2.3784143E1,1.723939E1,0E0,0E0,0E0,0E0,0E0,0E0,0E0,0E0,0E0,0E0,0E0,0E0,0E0,0E0,0E0,0E0],"parents":[2147483647,0,0,1,1,2,2,3,3,4,4,5,5,6,6,7,7,8,8,9,9,10,10,11,11,12,12,13,13,14,14],"right_children":[2,4,6,8,10,12,14,16,18,20,22,24,26,28,30,-1,-1,-1,-1,-1,-1,-1,-1,-1,-1,-1,-1,-1,-1,-1,-1],"split_conditions":[1.3E1,1.8E1,1.3E1,1.8E1,2E0,1.4E1,6E0,9E0,3.5E1,3E0,1.6E1,2E0,3E0,1.4E1,7E0,1.6866734E-3,-1.14348605E-1,-2.8996006E-1,1.486835E0,1.4098321E0,2.342578E0,-1.6905285E-2,9.7397244E-1,1.2669098E0,2.538802E-1,-2.5916627E-1,-6.9867E-1,-9.662909E-2,1.0430379E0,-5.375014E-1,-7.238004E-2],"split_indices":[16,40,19,28,39,24,14,2,22,6,30,20,2,0,5,0,0,0,0,0,0,0,0,0,0,0,0,0,0,0,0],"split_type":[0,0,0,0,0,0,0,0,0,0,0,0,0,0,0,0,0,0,0,0,0,0,0,0,0,0,0,0,0,0,0],"sum_hessian":[1.337E3,1.228E3,1.09E2,1.188E3,4E1,9E1,1.9E1,1.152E3,3.6E1,2E0,3.8E1,8.5E1,5E0,5E0,1.4E1,9.74E2,1.78E2,3.5E1,1E0,1E0,1E0,3.3E1,5E0,4E0,8.1E1,1E0,4E0,4E0,1E0,7E0,7E0],"tree_param":{"num_deleted":"0","num_feature":"42","num_nodes":"31","size_leaf_vector":"1"}},{"base_weights":[4.145851E-2,4.9841307E-2,-3.655722E0,-4.5487873E-2,5.397147E-1,-4.421267E-1,-4.4193287E0,-5.1403012E-2,1.3564175E0,-1.6205337E0,8.097927E-1,-1.0729384E0,-7.734574E-1,-6.265392E-2,7.400972E-2,-1.5114683E-1,-4.9897632E-1,4.9886208E-2,3.6078694E-1],"categories":[],"categories_nodes":[],"categories_segments":[],"categories_sizes":[],"default_left":[0,0,0,0,0,0,0,0,0,0,0,0,0,0,0,0,0,0,0],"id":42,"left_children":[1,3,5,7,9,-1,11,13,-1,15,17,-1,-1,-1,-1,-1,-1,-1,-1],"loss_changes":[4.11901E1,6.192373E1,3.4876404E0,4.2793255E1,1.26034355E2,0E0,8.986397E-1,1.1105229E2,0E0,1.6402328E1,1.0007969E2,0E0,0E0,0E0,0E0,0E0,0E0,0E0,0E0],"parents":[2147483647,0,0,1,1,2,2,3,3,4,4,6,6,7,7,9,9,10,10],"right_children":[2,4,6,8,10,-1,12,14,-1,16,18,-1,-1,-1,-1,-1,-1,-1,-1],"split_conditions":[5.4E1,9E0,3E0,1.05E2,2E0,-4.421267E-1,8E0,5E0,1.3564175E0,6E0,6E0,-1.0729384E0,-7.734574E-1,-6.265392E-2,7.400972E-2,-1.5114683E-1,-4.9897632E-1,4.9886208E-2,3.6078694E-1],"split_indices":[9,25,17,21,35,0,0,22,0,23,8,0,0,0,0,0,0,0,0],"split_type":[0,0,0,0,0,0,0,0,0,0,0,0,0,0,0,0,0,0,0],"sum_hessian":[1.329E3,1.326E3,3E0,1.11E3,2.16E2,1E0,2E0,1.109E3,1E0,2.4E1,1.92E2,1E0,1E0,6.88E2,4.21E2,1.1E1,1.3E1,1.18E2,7.4E1],"tree_param":{"num_deleted":"0","num_feature":"42","num_nodes":"19","size_leaf_vector":"1"}},{"base_weights":[-1.163812E-2,3.168392E-2,-1.2737057E0,5.2648954E-2,-1.4400017E0,-1.8141125E0,8.2764894E-1,1.6157264E-1,-5.302696E-1,-1.0287422E0,-4.7159014E0,-2.482124E0,-5.330878E-1,3.5494583E0,-1.3515587E0,2.095533E-2,3.1975868E-1,-1.3323312E-1,9.645015E-1,-1.1049963E-1,-4.463976E-1,-1.0466459E0,-9.236602E-1,-3.9490032E-1,-8.060155E-1,1.2049132E-1,-5.756121E-1,4.729673E-1,1.5483614E0,-5.7812995E-1,8.9223635E-1],"categories":[],"categories_nodes":[],"categories_segments":[],"categories_sizes":[],"default_left":[0,0,0,0,0,0,0,0,0,0,0,0,0,0,0,0,0,0,0,0,0,0,0,0,0,0,0,0,0,0,0],"id":43,"left_children":[1,3,5,7,9,11,13,15,17,19,21,23,25,27,29,-1,-1,-1,-1,-1,-1,-1,-1,-1,-1,-1,-1,-1,-1,-1,-1],"loss_changes":[7.250034E1,3.955521E1,4.9983246E1,8.0256874E1,2.4226486E1,2.994728E1,5.3453106E1,8.947225E1,1.0769677E2,8.8317795E0,2.6565552E-2,1.8710114E1,2.945509E1,1.9769848E1,3.9582245E1,0E0,0E0,0E0,0E0,0E0,0E0,0E0,0E0,0E0,0E0,0E0,0E0,0E0,0E0,0E0,0E0],"parents":[2147483647,0,0,1,1,2,2,3,3,4,4,5,5,6,6,7,7,8,8,9,9,10,10,11,11,12,12,13,13,14,14],"right_children":[2,4,6,8,10,12,14,16,18,20,22,24,26,28,30,-1,-1,-1,-1,-1,-1,-1,-1,-1,-1,-1,-1,-1,-1,-1,-1],"split_conditions":[1.8E1,2.7E1,1.5E1,9E0,1.7E1,7E0,4E0,1.5E1,2.8E1,8E0,2E0,8E0,6E0,4E0,9E0,2.095533E-2,3.1975868E-1,-1.3323312E-1,9.645015E-1,-1.1049963E-1,-4.463976E-1,-1.0466459E0,-9.236602E-1,-3.9490032E-1,-8.060155E-1,1.2049132E-1,-5.756121E-1,4.729673E-1,1.5483614E0,-5.7812995E-1,8.9223635E-1],"split_indices":[25,3,8,7,0,28,30,36,17,18,12,24,18,15,18,0,0,0,0,0,0,0,0,0,0,0,0,0,0,0,0],"split_type":[0,0,0,0,0,0,0,0,0,0,0,0,0,0,0,0,0,0,0,0,0,0,0,0,0,0,0,0,0,0,0],"sum_hessian":[1.326E3,1.282E3,4.4E1,1.264E3,1.8E1,3.5E1,9E0,1.065E3,1.99E2,1.6E1,2E0,2.3E1,1.2E1,4E0,5E0,1.019E3,4.6E1,1.95E2,4E0,1.1E1,5E0,1E0,1E0,1.6E1,7E0,8E0,4E0,3E0,1E0,4E0,1E0],"tree_param":{"num_deleted":"0","num_feature":"42","num_nodes":"31","size_leaf_vector":"1"}},{"base_weights":[-5.4491617E-2,-1.9359623E-1,2.4599925E-1,-1.658745E-1,-1.7071979E0,1.6462657E-1,2.259071E0,-2.0086312E-1,2.5776134E0,-6.776705E-1,-3.4204395E0,3.7806073E-1,-6.162584E-1,-3.6445323E-1,6.6272717E0,2.96903E-2,-7.976785E-2,9.1742647E-1,-1.2027333E-1,-2.0577145E-1,4.2921448E-1,-5.833819E-1,-1.3761698E0,-4.5130495E-2,1.8105476E-1,-7.773931E-2,-6.236E-1,3.500616E-1,-2.5930807E-1,7.337271E-1,4.639133E0],"categories":[],"categories_nodes":[],"categories_segments":[],"categories_sizes":[],"default_left":[0,0,0,0,0,0,0,0,0,0,0,0,0,0,0,0,0,0,0,0,0,0,0,0,0,0,0,0,0,0,0],"id":44,"left_children":[1,3,5,7,9,11,13,15,17,19,21,23,25,27,29,-1,-1,-1,-1,-1,-1,-1,-1,-1,-1,-1,-1,-1,-1,-1,-1],"loss_changes":[5.4423737E1,3.734219E1,6.748755E1,8.389962E1,2.8216953E1,6.6002914E1,1.834532E2,5.313022E1,6.244378E1,8.307764E0,1.1913597E1,8.9656944E1,4.919305E1,1.778378E1,2.907042E2,0E0,0E0,0E0,0E0,0E0,0E0,0E0,0E0,0E0,0E0,0E0,0E0,0E0,0E0,0E0,0E0],"parents":[2147483647,0,0,1,1,2,2,3,3,4,4,5,5,6,6,7,7,8,8,9,9,10,10,11,11,12,12,13,13,14,14],"right_children":[2,4,6,8,10,12,14,16,18,20,22,24,26,28,30,-1,-1,-1,-1,-1,-1,-1,-1,-1,-1,-1,-1,-1,-1,-1,-1],"split_conditions":[6E0,2.3E1,1.7E1,2.5E1,7E0,9E0,6E0,3E0,8E0,9E0,6E0,4E0,1.1E1,1.9E1,8E0,2.96903E-2,-7.976785E-2,9.1742647E-1,-1.2027333E-1,-2.0577145E-1,4.2921448E-1,-5.833819E-1,-1.3761698E0,-4.5130495E-2,1.8105476E-1,-7.773931E-2,-6.236E-1,3.500616E-1,-2.5930807E-1,7.337271E-1,4.639133E0],"split_indices":[35,26,21,14,30,36,23,11,9,1,29,3,21,21,13,0,0,0,0,0,0,0,0,0,0,0,0,0,0,0,0],"split_type":[0,0,0,0,0,0,0,0,0,0,0,0,0,0,0,0,0,0,0,0,0,0,0,0,0,0,0,0,0,0,0],"sum_hessian":[1.302E3,8.9E2,4.12E2,8.74E2,1.6E1,3.96E2,1.6E1,8.63E2,1.1E1,1E1,6E0,3.11E2,8.5E1,1E1,6E0,2.97E2,5.66E2,7E0,4E0,9E0,1E0,5E0,1E0,1.4E2,1.71E2,7.7E1,8E0,3E0,7E0,5E0,1E0],"tree_param":{"num_deleted":"0","num_feature":"42","num_nodes":"31","size_leaf_vector":"1"}},{"base_weights":[1.515001E-2,2.3919702E-1,-1.8772987E-1,-5.236164E-1,3.7474933E-1,-1.3722627E-1,-1.716108E0,-2.820563E-1,-2.1732087E0,6.4840996E-1,-2.3972823E-1,-2.547141E-1,2.3739876E-1,-4.5757163E-1,-2.7640529E0,-8.0577865E-2,1.668561E0,-7.27648E-1,-7.3968574E-2,9.420006E-2,6.027843E-1,1.9087276E-1,-1.3394298E-1,-3.244047E-2,-1.419019E-1,-2.3270348E-1,1.3243453E-1,5.504203E-1,-2.5780305E-1,-7.3092115E-1,1.7866449E-1],"categories":[],"categories_nodes":[],"categories_segments":[],"categories_sizes":[],"default_left":[0,0,0,0,0,0,0,0,0,0,0,0,0,0,0,0,0,0,0,0,0,0,0,0,0,0,0,0,0,0,0],"id":45,"left_children":[1,3,5,7,9,11,13,15,17,19,21,23,25,27,29,-1,-1,-1,-1,-1,-1,-1,-1,-1,-1,-1,-1,-1,-1,-1,-1],"loss_changes":[5.9591618E1,6.442084E1,5.31044E1,3.745489E1,8.8957924E1,2.9313934E1,2.9015099E1,6.924585E1,2.8373302E1,1.6220409E2,7.489496E1,2.1397415E1,8.454079E1,2.3858536E1,3.1431534E1,0E0,0E0,0E0,0E0,0E0,0E0,0E0,0E0,0E0,0E0,0E0,0E0,0E0,0E0,0E0,0E0],"parents":[2147483647,0,0,1,1,2,2,3,3,4,4,5,5,6,6,7,7,8,8,9,9,10,10,11,11,12,12,13,13,14,14],"right_children":[2,4,6,8,10,12,14,16,18,20,22,24,26,28,30,-1,-1,-1,-1,-1,-1,-1,-1,-1,-1,-1,-1,-1,-1,-1,-1],"split_conditions":[4E0,2E0,2.3E1,6E0,6E0,8E0,5E0,1.3E1,1E1,1.2E1,2E0,9E0,3E0,6E0,9E0,-8.0577865E-2,1.668561E0,-7.27648E-1,-7.3968574E-2,9.420006E-2,6.027843E-1,1.9087276E-1,-1.3394298E-1,-3.244047E-2,-1.419019E-1,-2.3270348E-1,1.3243453E-1,5.504203E-1,-2.5780305E-1,-7.3092115E-1,1.7866449E-1],"split_indices":[4,7,6,14,7,25,19,22,14,30,4,14,9,4,37,0,0,0,0,0,0,0,0,0,0,0,0,0,0,0,0],"split_type":[0,0,0,0,0,0,0,0,0,0,0,0,0,0,0,0,0,0,0,0,0,0,0,0,0,0,0,0,0,0,0],"sum_hessian":[1.311E3,6.23E2,6.88E2,9.4E1,5.29E2,6.66E2,2.2E1,8.2E1,1.2E1,3.66E2,1.63E2,5.07E2,1.59E2,1E1,1.2E1,8.1E1,1E0,7E0,5E0,3.36E2,3E1,4.2E1,1.21E2,4.1E2,9.7E1,3.6E1,1.23E2,2E0,8E0,1E1,2E0],"tree_param":{"num_deleted":"0","num_feature":"42","num_nodes":"31","size_leaf_vector":"1"}},{"base_weights":[7.418499E-2,3.0126004E-2,8.025585E-1,1.9064817E-1,-2.319566E-1,1.261458E0,-1.8665494E0,2.8076994E-1,-7.3833656E-1,-3.7647113E-1,3.8829947E-1,6.1882585E-1,3.3595262E0,-5.272899E-1,-2.9807794E0,8.2136646E-2,-1.0339328E-1,-3.326473E-1,-1.4261361E-2,-6.6701315E-2,-3.407507E-1,1.5624022E-1,-2.6008067E-1,2.3335364E-2,6.02051E-1,-2.4955264E-1,9.425329E-1,-2.9894447E-1,6.402223E-1,-1.0299574E0,-5.424349E-1],"categories":[],"categories_nodes":[],"categories_segments":[],"categories_sizes":[],"default_left":[0,0,0,0,0,0,0,0,0,0,0,0,0,0,0,0,0,0,0,0,0,0,0,0,0,0,0,0,0,0,0],"id":46,"left_children":[1,3,5,7,9,11,13,15,17,19,21,23,25,27,29,-1,-1,-1,-1,-1,-1,-1,-1,-1,-1,-1,-1,-1,-1,-1,-1],"loss_changes":[4.2200104E1,5.216744E1,9.1887276E1,6.438387E1,4.2220108E1,8.628484E1,1.6413559E1,6.0305336E1,3.8692215E1,2.7781551E1,5.180022E1,5.6048435E1,7.7714386E1,1.6151642E1,4.475498E0,0E0,0E0,0E0,0E0,0E0,0E0,0E0,0E0,0E0,0E0,0E0,0E0,0E0,0E0,0E0,0E0],"parents":[2147483647,0,0,1,1,2,2,3,3,4,4,5,5,6,6,7,7,8,8,9,9,10,10,11,11,12,12,13,13,14,14],"right_children":[2,4,6,8,10,12,14,16,18,20,22,24,26,28,30,-1,-1,-1,-1,-1,-1,-1,-1,-1,-1,-1,-1,-1,-1,-1,-1],"split_conditions":[1.5E1,5E0,1.5E1,1.2E1,9E0,1E1,5E0,1E1,4E0,1.6E1,1E1,1E1,3E0,7E0,3E0,8.2136646E-2,-1.0339328E-1,-3.326473E-1,-1.4261361E-2,-6.6701315E-2,-3.407507E-1,1.5624022E-1,-2.6008067E-1,2.3335364E-2,6.02051E-1,-2.4955264E-1,9.425329E-1,-2.9894447E-1,6.402223E-1,-1.0299574E0,-5.424349E-1],"split_indices":[36,12,24,11,25,3,25,4,17,27,0,34,37,8,21,0,0,0,0,0,0,0,0,0,0,0,0,0,0,0,0],"split_type":[0,0,0,0,0,0,0,0,0,0,0,0,0,0,0,0,0,0,0,0,0,0,0,0,0,0,0,0,0,0,0],"sum_hessian":[1.315E3,1.24E3,7.5E1,7.69E2,4.71E2,6.4E1,1.1E1,7.01E2,6.8E1,3.82E2,8.9E1,4.9E1,1.5E1,5E0,6E0,6.13E2,8.8E1,3E1,3.8E1,3.65E2,1.7E1,7.3E1,1.6E1,4E1,9E0,3E0,1.2E1,4E0,1E0,1E0,5E0],"tree_param":{"num_deleted":"0","num_feature":"42","num_nodes":"31","size_leaf_vector":"1"}},{"base_weights":[2.4078074E-3,9.334909E-3,-3.0296276E0,5.4945443E-2,-8.0245936E-1,-1.2106367E0,-1.6418233E0,1.0737149E-1,-9.2940533E-1,2.4322131E-1,-1.789916E0,-5.1303095E-1,-1.7290072E-1,2.0324744E-2,5.351193E-1,-2.2926153E-1,8.5389054E-1,-4.83879E-2,1.6357816E0,-2.5939745E-1,-6.378797E-1],"categories":[],"categories_nodes":[],"categories_segments":[],"categories_sizes":[],"default_left":[0,0,0,0,0,0,0,0,0,0,0,0,0,0,0,0,0,0,0,0,0],"id":47,"left_children":[1,3,5,7,9,-1,11,13,15,17,19,-1,-1,-1,-1,-1,-1,-1,-1,-1,-1],"loss_changes":[2.7703053E1,4.8727108E1,1.139728E1,6.430145E1,7.228938E1,0E0,1.3073282E0,3.0077353E1,5.188073E1,1.2192405E2,2.4902107E1,0E0,0E0,0E0,0E0,0E0,0E0,0E0,0E0,0E0,0E0],"parents":[2147483647,0,0,1,1,2,2,3,3,4,4,6,6,7,7,8,8,9,9,10,10],"right_children":[2,4,6,8,10,-1,12,14,16,18,20,-1,-1,-1,-1,-1,-1,-1,-1,-1,-1],"split_conditions":[6.4E1,1.5E1,4E0,1.5E1,5E0,-1.2106367E0,3E0,3.5E1,2.9E1,1.7E1,1.3E1,-5.1303095E-1,-1.7290072E-1,2.0324744E-2,5.351193E-1,-2.2926153E-1,8.5389054E-1,-4.83879E-2,1.6357816E0,-2.5939745E-1,-6.378797E-1],"split_indices":[5,30,29,26,7,0,3,9,7,31,18,0,0,0,0,0,0,0,0,0,0],"split_type":[0,0,0,0,0,0,0,0,0,0,0,0,0,0,0,0,0,0,0,0,0],"sum_hessian":[1.319E3,1.316E3,3E0,1.246E3,7E1,1E0,2E0,1.183E3,6.3E1,3.4E1,3.6E1,1E0,1E0,1.178E3,5E0,6.1E1,2E0,3.2E1,2E0,2.5E1,1.1E1],"tree_param":{"num_deleted":"0","num_feature":"42","num_nodes":"21","size_leaf_vector":"1"}},{"base_weights":[5.7727955E-2,4.5464564E-2,4.2387156E0,-9.807775E-2,2.8414068E-1,-6.8121374E-1,6.7367487E0,-7.898107E-2,-3.3325024E0,6.610495E-1,-2.4671997E-1,8.313862E0,7.4377626E-1,-8.990356E-2,2.2779984E-2,-9.782399E-1,-2.7691182E-1,7.4322E-2,6.9571483E-1,-9.4426975E-2,3.387617E-1,1.6034285E0,1.8701346E0],"categories":[],"categories_nodes":[],"categories_segments":[],"categories_sizes":[],"default_left":[0,0,0,0,0,0,0,0,0,0,0,0,0,0,0,0,0,0,0,0,0,0,0],"id":48,"left_children":[1,3,5,7,9,-1,11,13,15,17,19,21,-1,-1,-1,-1,-1,-1,-1,-1,-1,-1,-1],"loss_changes":[7.0242485E1,4.6799767E1,7.5097534E1,5.2685165E1,1.02646576E2,0E0,1.49210205E1,5.5698147E1,1.340131E1,2.4438802E2,8.0889786E1,3.611145E-1,0E0,0E0,0E0,0E0,0E0,0E0,0E0,0E0,0E0,0E0,0E0],"parents":[2147483647,0,0,1,1,2,2,3,3,4,4,6,6,7,7,8,8,9,9,10,10,11,11],"right_children":[2,4,6,8,10,-1,12,14,16,18,20,22,-1,-1,-1,-1,-1,-1,-1,-1,-1,-1,-1],"split_conditions":[3.7E1,5E0,3E0,3E1,5E0,-6.8121374E-1,2E0,3E0,5E0,1.2E1,1.4E1,1E1,7.4377626E-1,-8.990356E-2,2.2779984E-2,-9.782399E-1,-2.7691182E-1,7.4322E-2,6.9571483E-1,-9.4426975E-2,3.387617E-1,1.6034285E0,1.8701346E0],"split_indices":[11,2,6,35,7,0,22,1,12,30,41,14,0,0,0,0,0,0,0,0,0,0,0],"split_type":[0,0,0,0,0,0,0,0,0,0,0,0,0,0,0,0,0,0,0,0,0,0,0],"sum_hessian":[1.37E3,1.366E3,4E0,8.53E2,5.13E2,1E0,3E0,8.48E2,5E0,3E2,2.13E2,2E0,1E0,2.96E2,5.52E2,3E0,2E0,2.69E2,3.1E1,1.92E2,2.1E1,1E0,1E0],"tree_param":{"num_deleted":"0","num_feature":"42","num_nodes":"23","size_leaf_vector":"1"}},{"base_weights":[2.3385191E-2,3.2962754E-2,-3.1631331E0,4.6203844E-2,-3.479298E0,-3.2819474E-1,-3.6909113E0,-9.072939E-2,2.781278E-1,-2.2549136E0,-5.30244E0,-9.8229E-1,-6.6631585E-1,-2.481437E-2,9.4235E-1,1.6527833E-1,-1.5355311E-2,-6.244933E-1,-1.6668478E-1,-1.4545803E0,-7.607868E-1],"categories":[],"categories_nodes":[],"categories_segments":[],"categories_sizes":[],"default_left":[0,0,0,0,0,0,0,0,0,0,0,0,0,0,0,0,0,0,0,0,0],"id":49,"left_children":[1,3,5,7,9,-1,11,13,15,17,19,-1,-1,-1,-1,-1,-1,-1,-1,-1,-1],"loss_changes":[4.0804356E1,6.199349E1,3.3386803E0,4.2175156E1,1.1096184E1,0E0,1.433281E0,1.0597511E2,8.843342E1,3.1642904E0,5.3296776E0,0E0,0E0,0E0,0E0,0E0,0E0,0E0,0E0,0E0,0E0],"parents":[2147483647,0,0,1,1,2,2,3,3,4,4,6,6,7,7,8,8,9,9,10,10],"right_children":[2,4,6,8,10,-1,12,14,16,18,20,-1,-1,-1,-1,-1,-1,-1,-1,-1,-1],"split_conditions":[4E1,3.6E1,4E0,5E0,6E0,-3.2819474E-1,4E0,3E1,4E0,5E0,6E0,-9.8229E-1,-6.6631585E-1,-2.481437E-2,9.4235E-1,1.6527833E-1,-1.5355311E-2,-6.244933E-1,-1.6668478E-1,-1.4545803E0,-7.607868E-1],"split_indices":[41,32,9,0,17,0,7,32,12,21,3,0,0,0,0,0,0,0,0,0,0],"split_type":[0,0,0,0,0,0,0,0,0,0,0,0,0,0,0,0,0,0,0,0,0],"sum_hessian":[1.337E3,1.333E3,4E0,1.328E3,5E0,1E0,3E0,8.35E2,4.93E2,3E0,2E0,1E0,2E0,8.3E2,5E0,2.01E2,2.92E2,2E0,1E0,1E0,1E0],"tree_param":{"num_deleted":"0","num_feature":"42","num_nodes":"21","size_leaf_vector":"1"}},{"base_weights":[-5.620189E-2,-1.1732523E-1,3.06025E-1,-6.54272E-1,-2.8385935E-2,3.785349E-2,1.3785154E0,-7.1179473E-1,1.586569E0,-2.2345957E-5,-1.3695362E0,-2.9324833E-1,9.648391E-1,-4.7321635E-1,5.921268E0,-1.5773214E-1,1.168464E0,-6.874316E-1,1.3514086E0,-8.577148E-2,4.1800283E-2,-3.377383E-1,3.8066946E-4,-5.222431E-3,-4.2497116E-1,1.1522163E0,1.2499826E-1,-2.8087616E-2,-5.0723416E-1,2.779797E0,6.621632E-1],"categories":[],"categories_nodes":[],"categories_segments":[],"categories_sizes":[],"default_left":[0,0,0,0,0,0,0,0,0,0,0,0,0,0,0,0,0,0,0,0,0,0,0,0,0,0,0,0,0,0,0],"id":50,"left_children":[1,3,5,7,9,11,13,15,17,19,21,23,25,27,29,-1,-1,-1,-1,-1,-1,-1,-1,-1,-1,-1,-1,-1,-1,-1,-1],"loss_changes":[2.9137272E1,5.3772957E1,5.4647465E1,2.063198E1,3.6746494E1,4.665683E1,3.1972876E2,4.0038887E1,9.4927E1,7.7218475E1,6.637642E0,5.212704E1,6.678897E1,1.7832874E1,2.2291116E2,0E0,0E0,0E0,0E0,0E0,0E0,0E0,0E0,0E0,0E0,0E0,0E0,0E0,0E0,0E0,0E0],"parents":[2147483647,0,0,1,1,2,2,3,3,4,4,5,5,6,6,7,7,8,8,9,9,10,10,11,11,12,12,13,13,14,14],"right_children":[2,4,6,8,10,12,14,16,18,20,22,24,26,28,30,-1,-1,-1,-1,-1,-1,-1,-1,-1,-1,-1,-1,-1,-1,-1,-1],"split_conditions":[1E1,2E0,1E1,1.4E1,2.7E1,8E0,1.1E1,1.4E1,2E0,3E0,1.7E1,1.2E1,2E0,1E1,3E0,-1.5773214E-1,1.168464E0,-6.874316E-1,1.3514086E0,-8.577148E-2,4.1800283E-2,-3.377383E-1,3.8066946E-4,-5.222431E-3,-4.2497116E-1,1.1522163E0,1.2499826E-1,-2.8087616E-2,-5.0723416E-1,2.779797E0,6.621632E-1],"split_indices":[27,10,19,17,3,3,13,36,4,24,30,28,4,21,28,0,0,0,0,0,0,0,0,0,0,0,0,0,0,0,0],"split_type":[0,0,0,0,0,0,0,0,0,0,0,0,0,0,0,0,0,0,0,0,0,0,0,0,0,0,0,0,0,0,0],"sum_hessian":[1.316E3,1.126E3,1.9E2,1.6E2,9.66E2,1.52E2,3.8E1,1.56E2,4E0,9.46E2,2E1,1.12E2,4E1,2.7E1,1.1E1,1.55E2,1E0,2E0,2E0,3.1E2,6.36E2,1.7E1,3E0,9.7E1,1.5E1,3E0,3.7E1,2.3E1,4E0,3E0,8E0],"tree_param":{"num_deleted":"0","num_feature":"42","num_nodes":"31","size_leaf_vector":"1"}}]},"name":"gbtree"},"learner_model_param":{"base_score":"5.632353E0","boost_from_average":"1","num_class":"0","num_feature":"42","num_target":"1"},"objective":{"name":"reg:squarederror","reg_loss_param":{"scale_pos_weight":"1"}}},"version":[2,1,1]}