{"learner":{"attributes":{"best_iteration":"0","best_score":"10.631461905042748","scikit_learn":"{\"_estimator_type\": \"regressor\"}"},"feature_names":[],"feature_types":[],"gradient_booster":{"model":{"gbtree_model_param":{"num_parallel_tree":"1","num_trees":"51"},"iteration_indptr":[0,1,2,3,4,5,6,7,8,9,10,11,12,13,14,15,16,17,18,19,20,21,22,23,24,25,26,27,28,29,30,31,32,33,34,35,36,37,38,39,40,41,42,43,44,45,46,47,48,49,50,51],"tree_info":[0,0,0,0,0,0,0,0,0,0,0,0,0,0,0,0,0,0,0,0,0,0,0,0,0,0,0,0,0,0,0,0,0,0,0,0,0,0,0,0,0,0,0,0,0,0,0,0,0,0,0],"trees":[{"base_weights":[1.5521623E-1,-3.076442E-1,2.3320623E1,1.373064E2,5.213009E0,1.3702896E2,-1.0009642E0,8.254401E-2,2.47691E1,3.684516E1,-1.9487009E0,-6.6741943E-1,2.3215897E0,1.772909E0,1.5461017E1,-7.883123E-1,1.7545143E1,-7.522012E-1,6.898333E0,-8.68871E-1,-1.0612164E-1,9.177535E-1,6.3992467E0,1.1478051E0,7.457206E0,-8.8611835E-1,3.0224411E0],"categories":[],"categories_nodes":[],"categories_segments":[],"categories_sizes":[],"default_left":[0,0,0,0,0,0,0,0,0,0,0,0,0,0,0,0,0,0,0,0,0,0,0,0,0,0,0],"id":0,"left_children":[1,11,3,5,7,-1,-1,25,9,-1,-1,17,13,21,15,-1,-1,19,23,-1,-1,-1,-1,-1,-1,-1,-1],"loss_changes":[1.0766541E4,9.324677E2,4.0119227E4,3.1336473E4,1.7714515E3,0E0,0E0,1.1108423E2,3.6794834E3,0E0,0E0,5.5938196E2,8.371439E2,2.7596414E2,1.0286509E3,0E0,0E0,3.2371558E2,2.3567538E2,0E0,0E0,0E0,0E0,0E0,0E0,0E0,0E0],"parents":[2147483647,0,0,2,2,3,3,4,4,8,8,1,1,12,12,14,14,11,11,17,17,13,13,18,18,7,7],"right_children":[2,12,4,6,8,-1,-1,26,10,-1,-1,18,14,22,16,-1,-1,20,24,-1,-1,-1,-1,-1,-1,-1,-1],"split_conditions":[2.3E1,1.1E1,2E0,4E0,8E0,1.3702896E2,-1.0009642E0,9E0,4E0,3.684516E1,-1.9487009E0,2.9E1,2.1E1,3.2E1,1E1,-7.883123E-1,1.7545143E1,4E0,3E0,-8.68871E-1,-1.0612164E-1,9.177535E-1,6.3992467E0,1.1478051E0,7.457206E0,-8.8611835E-1,3.0224411E0],"split_indices":[10,15,2,0,3,0,0,0,1,0,0,12,5,11,3,0,0,1,8,0,0,0,0,0,0,0,0],"split_type":[0,0,0,0,0,0,0,0,0,0,0,0,0,0,0,0,0,0,0,0,0,0,0,0,0,0,0],"sum_hessian":[1.003E3,9.84E2,1.9E1,2E0,1.7E1,1E0,1E0,1.4E1,3E0,1E0,2E0,8.66E2,1.18E2,1.14E2,4E0,2E0,2E0,8.57E2,9E0,4.04E2,4.53E2,1.11E2,3E0,5E0,4E0,1.1E1,3E0],"tree_param":{"num_deleted":"0","num_feature":"17","num_nodes":"27","size_leaf_vector":"1"}},{"base_weights":[8.273232E-2,-9.415967E-1,5.6395096E-1,4.814787E-1,1.2715228E1,1.4811249E-1,3.0911129E0,5.6629343E0,8.098277E-1,6.168412E-2,1.0445685E1,-1.0709691E0,7.5781016E0,-8.1818867E-1,8.720387E0,-1.1689513E0,7.124885E0,9.417893E0,1.7749111E-1,-9.394874E-1,3.9823762E-1,-1.3326387E0,5.2152574E-1],"categories":[],"categories_nodes":[],"categories_segments":[],"categories_sizes":[],"default_left":[0,0,0,0,0,0,0,0,0,0,0,0,0,0,0,0,0,0,0,0,0,0,0],"id":1,"left_children":[1,11,3,5,-1,9,7,-1,-1,-1,-1,15,13,21,-1,19,17,-1,-1,-1,-1,-1,-1],"loss_changes":[4.7290878E2,3.4344366E2,1.0675568E3,5.657478E2,0E0,4.6761725E2,7.869349E2,0E0,0E0,0E0,0E0,2.4862924E2,2.6241733E2,7.119886E0,0E0,1.8917255E2,1.9969698E2,0E0,0E0,0E0,0E0,0E0,0E0],"parents":[2147483647,0,0,2,2,3,3,6,6,5,5,1,1,12,12,11,11,16,16,15,15,13,13],"right_children":[2,12,4,6,-1,10,8,-1,-1,-1,-1,16,14,22,-1,20,18,-1,-1,-1,-1,-1,-1],"split_conditions":[3E0,2.9E1,3.6E1,1.2E1,1.2715228E1,4E1,1.3E1,5.6629343E0,8.098277E-1,6.168412E-2,1.0445685E1,1.7E1,8E0,6E0,8.720387E0,8E0,3E0,9.417893E0,1.7749111E-1,-9.394874E-1,3.9823762E-1,-1.3326387E0,5.2152574E-1],"split_indices":[14,11,0,5,0,12,5,0,0,0,0,15,3,0,0,13,0,0,0,0,0,0,0],"split_type":[0,0,0,0,0,0,0,0,0,0,0,0,0,0,0,0,0,0,0,0,0,0,0],"sum_hessian":[9.58E2,3.06E2,6.52E2,6.5E2,2E0,5.77E2,7.3E1,1.6E1,5.7E1,5.76E2,1E0,3.02E2,4E0,2E0,2E0,2.99E2,3E0,1E0,2E0,2.51E2,4.8E1,1E0,1E0],"tree_param":{"num_deleted":"0","num_feature":"17","num_nodes":"23","size_leaf_vector":"1"}},{"base_weights":[2.5811886E-2,-1.7939843E-1,9.771024E0,8.603209E1,-1.4854255E0,8.588373E1,-6.5244323E-1,-1.0857939E0,2.400167E-1,-7.701863E-1,6.7252415E-1,3.6134142E-1,5.890657E0,-1.3032976E0,2.8025076E0,-8.209432E-2,5.2746205E0,-5.452351E-1,3.290841E0,-8.978581E-1,6.41842E-1,-1.14676975E-1,-3.441103E0,-1.2870141E0,9.695954E-1,-1.3475045E0,-3.263314E0],"categories":[],"categories_nodes":[],"categories_segments":[],"categories_sizes":[],"default_left":[0,0,0,0,0,0,0,0,0,0,0,0,0,0,0,0,0,0,0,0,0,0,0,0,0,0,0],"id":2,"left_children":[1,7,3,5,21,-1,-1,13,9,17,11,-1,-1,19,15,-1,-1,-1,-1,-1,-1,23,25,-1,-1,-1,-1],"loss_changes":[2.0043462E3,3.7336353E2,1.7829414E4,1.2321561E4,4.9779705E1,0E0,0E0,2.6518454E2,2.938131E2,1.3771252E2,3.678745E2,0E0,0E0,1.0144391E2,2.8013495E2,0E0,0E0,0E0,0E0,0E0,0E0,4.0639286E1,1.0047218E1,0E0,0E0,0E0,0E0],"parents":[2147483647,0,0,2,2,3,3,1,1,8,8,10,10,7,7,14,14,9,9,13,13,4,4,21,21,22,22],"right_children":[2,8,4,6,22,-1,-1,14,10,18,12,-1,-1,20,16,-1,-1,-1,-1,-1,-1,24,26,-1,-1,-1,-1],"split_conditions":[2.3E1,3E0,2E0,4E0,5E0,8.588373E1,-6.5244323E-1,1.3E1,3E0,2E1,2.9E1,3.6134142E-1,5.890657E0,1.4E1,1.1E1,-8.209432E-2,5.2746205E0,-5.452351E-1,3.290841E0,-8.978581E-1,6.41842E-1,5E0,1.4E1,-1.2870141E0,9.695954E-1,-1.3475045E0,-3.263314E0],"split_indices":[10,7,2,0,12,0,0,14,8,15,4,0,0,13,12,0,0,0,0,0,0,6,5,0,0,0,0],"split_type":[0,0,0,0,0,0,0,0,0,0,0,0,0,0,0,0,0,0,0,0,0,0,0,0,0,0,0],"sum_hessian":[1.001E3,9.81E2,2E1,2E0,1.8E1,1E0,1E0,3.1E2,6.71E2,2.01E2,4.7E2,4.66E2,4E0,2.94E2,1.6E1,1.1E1,5E0,1.98E2,3E0,2.77E2,1.7E1,1.1E1,7E0,5E0,6E0,5E0,2E0],"tree_param":{"num_deleted":"0","num_feature":"17","num_nodes":"27","size_leaf_vector":"1"}},{"base_weights":[2.4235813E-1,2.3129256E-2,7.9428983E0,3.98813E1,2.975927E0,5.401647E1,2.935441E-1,-3.1639403E-1,1.6428022E0,-3.6910784E-1,1.1255881E1,7.2157574E-1,1.0444748E1,2.1572474E1,1.4341128E-1,6.688843E0,1.1926117E0,5.554355E-1,5.5289993E0,1.0684723E0,6.4575944E0,-2.5174236E-1,3.737724E0,3.2623482E0,-6.613338E-1,8.51071E0,1.7198814E0,7.017088E-1,-4.1035342E-1],"categories":[],"categories_nodes":[],"categories_segments":[],"categories_sizes":[],"default_left":[0,0,0,0,0,0,0,0,0,0,0,0,0,0,0,0,0,0,0,0,0,0,0,0,0,0,0,0,0],"id":3,"left_children":[1,7,3,5,11,-1,27,9,15,21,25,23,13,-1,-1,19,17,-1,-1,-1,-1,-1,-1,-1,-1,-1,-1,-1,-1],"loss_changes":[1.6874888E3,5.352376E2,4.3099062E3,6.85375E3,4.103108E2,0E0,2.6439652E0,4.936313E2,3.7780832E2,1.9236752E2,5.159189E1,1.6363884E2,1.4057949E3,0E0,0E0,2.412649E2,3.510942E2,0E0,0E0,0E0,0E0,0E0,0E0,0E0,0E0,0E0,0E0,0E0,0E0],"parents":[2147483647,0,0,2,2,3,3,1,1,7,7,4,4,12,12,8,8,16,16,15,15,9,9,11,11,10,10,6,6],"right_children":[2,8,4,6,12,-1,28,10,16,22,26,24,14,-1,-1,20,18,-1,-1,-1,-1,-1,-1,-1,-1,-1,-1,-1,-1],"split_conditions":[2.2E1,9E0,2E0,4E0,8E0,5.401647E1,6E0,3.5E1,2E0,3.6E1,3E0,3E0,4E0,2.1572474E1,1.4341128E-1,6E0,3.3E1,5.554355E-1,5.5289993E0,1.0684723E0,6.4575944E0,-2.5174236E-1,3.737724E0,3.2623482E0,-6.613338E-1,8.51071E0,1.7198814E0,7.017088E-1,-4.1035342E-1],"split_indices":[10,0,2,0,3,0,0,12,1,9,0,3,1,0,0,2,2,0,0,0,0,0,0,0,0,0,0,0,0],"split_type":[0,0,0,0,0,0,0,0,0,0,0,0,0,0,0,0,0,0,0,0,0,0,0,0,0,0,0,0,0],"sum_hessian":[9.99E2,9.72E2,2.7E1,3E0,2.4E1,1E0,2E0,8.04E2,1.68E2,8.01E2,3E0,1.9E1,5E0,1E0,4E0,1.3E1,1.55E2,1.5E2,5E0,6E0,7E0,7.97E2,4E0,5E0,1.4E1,2E0,1E0,1E0,1E0],"tree_param":{"num_deleted":"0","num_feature":"17","num_nodes":"29","size_leaf_vector":"1"}},{"base_weights":[1.3824457E-1,-6.4411604E-1,4.9301592E-1,4.1278985E-1,6.1390285E0,3.4057593E0,1.1070253E1,-5.574273E-1,-1.063383E1,4.9963388E-1,-3.316126E0,-7.6771444E-1,4.3220228E-1,-1.0465778E0,9.43029E-2,3.239564E-1,-1.3361357E0,-5.1795197E-1,-2.1987414E0,3.9801435E0,-6.2042233E-2,-1.5902123E0,-5.311041E0,-2.5502121E0,-7.9840226E0],"categories":[],"categories_nodes":[],"categories_segments":[],"categories_sizes":[],"default_left":[0,0,0,0,0,0,0,0,0,0,0,0,0,0,0,0,0,0,0,0,0,0,0,0,0],"id":4,"left_children":[1,7,3,9,5,19,-1,13,23,11,21,-1,-1,17,15,-1,-1,-1,-1,-1,-1,-1,-1,-1,-1],"loss_changes":[2.799005E2,2.685152E2,3.124956E2,2.2282527E2,2.6914972E2,9.2163124E1,0E0,9.974489E1,3.625763E0,2.3096704E2,4.698723E1,0E0,0E0,9.218161E1,1.3063281E2,0E0,0E0,0E0,0E0,0E0,0E0,0E0,0E0,0E0,0E0],"parents":[2147483647,0,0,2,2,4,4,1,1,3,3,9,9,7,7,14,14,13,13,5,5,10,10,8,8],"right_children":[2,8,4,10,6,20,-1,14,24,12,22,-1,-1,18,16,-1,-1,-1,-1,-1,-1,-1,-1,-1,-1],"split_conditions":[3E0,3.5E1,3E1,2.2E1,1.5E1,3E0,1.1070253E1,4E0,1.3E1,2E0,1.8E1,-7.6771444E-1,4.3220228E-1,1.2E1,9E0,3.239564E-1,-1.3361357E0,-5.1795197E-1,-2.1987414E0,3.9801435E0,-6.2042233E-2,-1.5902123E0,-5.311041E0,-2.5502121E0,-7.9840226E0],"split_indices":[15,12,13,1,3,9,0,13,0,10,2,0,0,5,14,0,0,0,0,0,0,0,0,0,0],"split_type":[0,0,0,0,0,0,0,0,0,0,0,0,0,0,0,0,0,0,0,0,0,0,0,0,0],"sum_hessian":[1.007E3,3.14E2,6.93E2,6.84E2,9E0,8E0,1E0,3.12E2,2E0,6.69E2,1.5E1,6.8E1,6.01E2,1.78E2,1.34E2,1.13E2,2.1E1,1.65E2,1.3E1,4E0,4E0,1.4E1,1E0,1E0,1E0],"tree_param":{"num_deleted":"0","num_feature":"17","num_nodes":"25","size_leaf_vector":"1"}},{"base_weights":[8.518746E-2,-1.5470836E-1,9.215746E-1,4.9577994E0,5.797891E-1,1.3450206E1,1.5653639E0,1.7912986E0,1.9369165E1,4.3372798E-1,1.1192723E1,1.2926975E-1,4.228944E0,4.4888616E0,-1.0003026E0,-9.712997E-2,-3.7852938E0,-1.6224253E-1,4.815946E0,1.3407614E1,7.4573237E-1,-4.786417E-1,1.012512E-1,1.3850851E0,-4.4900427E0,2.1934566E0,8.894465E0,-3.0557792E0,-8.121726E-2],"categories":[],"categories_nodes":[],"categories_segments":[],"categories_sizes":[],"default_left":[0,0,0,0,0,0,0,0,0,0,0,0,0,0,0,0,0,0,0,0,0,0,0,0,0,0,0,0,0],"id":5,"left_children":[1,15,3,5,9,7,13,-1,-1,11,25,-1,-1,-1,-1,17,23,21,19,-1,-1,-1,-1,-1,27,-1,-1,-1,-1],"loss_changes":[1.932523E2,1.5625237E2,2.942083E2,4.661327E2,3.046962E2,8.175869E2,2.3663176E2,0E0,0E0,2.8198236E2,3.0532349E1,0E0,0E0,0E0,0E0,2.364994E2,5.6243225E1,1.4488322E2,5.701482E2,0E0,0E0,0E0,0E0,0E0,2.0095612E1,0E0,0E0,0E0,0E0],"parents":[2147483647,0,0,2,2,3,3,5,5,4,4,9,9,6,6,1,1,15,15,18,18,17,17,16,16,10,10,24,24],"right_children":[2,16,4,6,10,8,14,-1,-1,12,26,-1,-1,-1,-1,18,24,22,20,-1,-1,-1,-1,-1,28,-1,-1,-1,-1],"split_conditions":[8E0,2.6E1,2E0,3E0,3.3E1,6E0,3E0,1.7912986E0,1.9369165E1,1.9E1,3E0,1.2926975E-1,4.228944E0,4.4888616E0,-1.0003026E0,2.9E1,2E0,3E0,3E1,1.3407614E1,7.4573237E-1,-4.786417E-1,1.012512E-1,1.3850851E0,1.3E1,2.1934566E0,8.894465E0,-3.0557792E0,-8.121726E-2],"split_indices":[16,15,11,10,3,1,5,0,0,8,0,0,0,0,0,10,12,12,10,0,0,0,0,0,1,0,0,0,0],"split_type":[0,0,0,0,0,0,0,0,0,0,0,0,0,0,0,0,0,0,0,0,0,0,0,0,0,0,0,0,0],"sum_hessian":[9.62E2,7.48E2,2.14E2,1.6E1,1.98E2,4E0,1.2E1,3E0,1E0,1.96E2,2E0,1.9E2,6E0,4E0,8E0,7.37E2,1.1E1,7.28E2,9E0,1E0,8E0,2.53E2,4.75E2,1E0,1E1,1E0,1E0,9E0,1E0],"tree_param":{"num_deleted":"0","num_feature":"17","num_nodes":"29","size_leaf_vector":"1"}},{"base_weights":[2.7741473E-2,7.217177E-2,-3.4055583E0,-8.8857764E-1,-7.8130555E0,-2.6659392E-2,2.9345462E0,1.4123722E0,1.0015925E1,3.5515139E-1,5.654743E0,-5.531853E-1,2.2906166E-1,4.9524616E-2,1.4628428E0,-3.160049E-1,-5.15241E0,1.5298443E0,-1.8540481E0,3.6775906E0,8.124294E0,-1.6012999E0,2.6942962E-1],"categories":[],"categories_nodes":[],"categories_segments":[],"categories_sizes":[],"default_left":[0,0,0,0,0,0,0,0,0,0,0,0,0,0,0,0,0,0,0,0,0,0,0],"id":6,"left_children":[1,5,3,17,-1,11,7,9,19,-1,-1,15,13,-1,-1,-1,-1,-1,21,-1,-1,-1,-1],"loss_changes":[1.5127908E2,2.769144E2,2.8597626E2,3.7653385E1,0E0,1.2754857E2,3.4265833E2,1.7559721E2,1.9462646E1,0E0,0E0,1.0098273E2,2.0259904E2,0E0,0E0,0E0,0E0,0E0,1.5246672E1,0E0,0E0,0E0,0E0],"parents":[2147483647,0,0,2,2,1,1,6,6,7,7,5,5,12,12,11,11,3,3,8,8,18,18],"right_children":[2,6,4,18,-1,12,8,10,20,-1,-1,16,14,-1,-1,-1,-1,-1,22,-1,-1,-1,-1],"split_conditions":[2.9E1,1.8E1,1.3E1,4E0,-7.8130555E0,3E0,1.2E1,1.2E1,1.3E1,3.5515139E-1,5.654743E0,4E1,1.3E1,4.9524616E-2,1.4628428E0,-3.160049E-1,-5.15241E0,1.5298443E0,9E0,3.6775906E0,8.124294E0,-1.6012999E0,2.6942962E-1],"split_indices":[14,15,12,6,0,6,6,11,12,0,0,0,14,0,0,0,0,0,7,0,0,0,0],"split_type":[0,0,0,0,0,0,0,0,0,0,0,0,0,0,0,0,0,0,0,0,0,0,0],"sum_hessian":[9.9E2,9.78E2,1.2E1,1E1,2E0,9.46E2,3.2E1,2.7E1,5E0,2.5E1,2E0,3.09E2,6.37E2,5.96E2,4.1E1,3.08E2,1E0,2E0,8E0,3E0,2E0,6E0,2E0],"tree_param":{"num_deleted":"0","num_feature":"17","num_nodes":"23","size_leaf_vector":"1"}},{"base_weights":[6.055244E-3,-1.24241054E-1,5.613862E0,3.4858727E1,1.3403381E0,-7.3236845E-2,-4.987387E0,-7.8219523E0,1.0743375E0,5.502951E-1,-3.6641464E-1,2.938596E-1,5.438091E0,-7.4501705E-1,4.940131E0,1.4131916E0,8.414328E0,-1.8827762E-1,-2.460419E0,-2.1116135E0,-6.6968703E0,2.7791035E0,-8.228513E-1,1.1199245E0,-7.970573E-1],"categories":[],"categories_nodes":[],"categories_segments":[],"categories_sizes":[],"default_left":[0,0,0,0,0,0,0,0,0,0,0,0,0,0,0,0,0,0,0,0,0,0,0,0,0],"id":7,"left_children":[1,5,3,-1,13,9,7,19,21,11,17,-1,-1,23,15,-1,-1,-1,-1,-1,-1,-1,-1,-1,-1],"loss_changes":[6.9729956E2,2.3108817E2,4.639304E3,0E0,1.5763797E2,1.6898697E2,1.7179208E2,6.3212738E1,3.4064896E1,1.8216095E2,1.4094691E2,0E0,0E0,2.0444105E1,1.554523E2,0E0,0E0,0E0,0E0,0E0,0E0,0E0,0E0,0E0,0E0],"parents":[2147483647,0,0,2,2,1,1,6,6,5,5,9,9,4,4,14,14,10,10,7,7,8,8,13,13],"right_children":[2,6,4,-1,14,10,8,20,22,12,18,-1,-1,24,16,-1,-1,-1,-1,-1,-1,-1,-1,-1,-1],"split_conditions":[2.3E1,3.5E1,2.4E1,3.4858727E1,9E0,3E0,1E1,4E0,3E0,3.5E1,2.6E1,2.938596E-1,5.438091E0,2E0,7E0,1.4131916E0,8.414328E0,-1.8827762E-1,-2.460419E0,-2.1116135E0,-6.6968703E0,2.7791035E0,-8.228513E-1,1.1199245E0,-7.970573E-1],"split_indices":[10,3,10,0,9,14,1,1,0,2,6,0,0,4,5,0,0,0,0,0,0,0,0,0,0],"split_type":[0,0,0,0,0,0,0,0,0,0,0,0,0,0,0,0,0,0,0,0,0,0,0,0,0],"sum_hessian":[9.53E2,9.32E2,2.1E1,1E0,2E1,9.23E2,9E0,6E0,3E0,2.95E2,6.28E2,2.93E2,2E0,1.3E1,7E0,6E0,1E0,6.18E2,1E1,3E0,3E0,1E0,2E0,2E0,1.1E1],"tree_param":{"num_deleted":"0","num_feature":"17","num_nodes":"25","size_leaf_vector":"1"}},{"base_weights":[-8.357625E-2,2.44312E-2,-1.8849698E0,-1.5994314E1,-1.1727788E0,-1.1660967E0,-1.4678692E1,5.586243E-1,-3.2934897E0,-5.0641215E-1,4.165238E0,-2.1594845E-2,4.0591564E0,9.16578E-2,7.1936917E0,-1.4126466E-1,1.565218E0,4.191974E-1,1.0196028E1,-5.0821657E0,-1.0945078E0,-3.3728153E-2,-1.5121727E0,-4.5621953E0,1.2076755E0],"categories":[],"categories_nodes":[],"categories_segments":[],"categories_sizes":[],"default_left":[0,0,0,0,0,0,0,0,0,0,0,0,0,0,0,0,0,0,0,0,0,0,0,0,0],"id":8,"left_children":[1,11,3,5,7,-1,-1,9,19,-1,-1,15,13,23,-1,21,17,-1,-1,-1,-1,-1,-1,-1,-1],"loss_changes":[1.9492241E2,1.756779E2,5.568588E2,2.6003668E2,2.01974E2,0E0,0E0,2.6377997E2,1.7519705E2,0E0,0E0,1.7782376E2,3.1890173E2,1.15799446E2,0E0,1.7372932E2,8.6148676E2,0E0,0E0,0E0,0E0,0E0,0E0,0E0,0E0],"parents":[2147483647,0,0,2,2,3,3,4,4,7,7,1,1,12,12,11,11,16,16,8,8,15,15,13,13],"right_children":[2,12,4,6,8,-1,-1,10,20,-1,-1,16,14,24,-1,22,18,-1,-1,-1,-1,-1,-1,-1,-1],"split_conditions":[1.6E1,2.7E1,2E0,4E0,7E0,-1.1660967E0,-1.4678692E1,1.1E1,1.8E1,-5.0641215E-1,4.165238E0,1.4E1,1.4E1,3E0,7.1936917E0,1.2E1,1.9E1,4.191974E-1,1.0196028E1,-5.0821657E0,-1.0945078E0,-3.3728153E-2,-1.5121727E0,-4.5621953E0,1.2076755E0],"split_indices":[9,7,8,0,4,0,0,16,9,0,0,5,16,0,0,5,10,0,0,0,0,0,0,0,0],"split_type":[0,0,0,0,0,0,0,0,0,0,0,0,0,0,0,0,0,0,0,0,0,0,0,0,0],"sum_hessian":[1.001E3,9.45E2,5.6E1,2E0,5.4E1,1E0,1E0,3E1,2.4E1,2.5E1,5E0,9.35E2,1E1,7E0,3E0,8.7E2,6.5E1,6.2E1,3E0,5E0,1.9E1,8.39E2,3.1E1,1E0,6E0],"tree_param":{"num_deleted":"0","num_feature":"17","num_nodes":"25","size_leaf_vector":"1"}},{"base_weights":[1.7871283E-1,2.4273795E-1,-2.5227106E0,-4.4407997E0,9.175495E-1,2.0595399E-1,3.48405E0,-1.5767914E0,8.318759E0,1.5210173E-1,3.866034E0,1.282981E-1,-1.4888405E0,3.1486864E0,-2.6965816E0,6.664932E-1,-2.8902876E0,3.2433162E0,2.9617584E-1,-3.2517076E0,-4.592045E0,-2.2534544E0,3.1732082E-1,-2.0790148E0,-3.4751195E-1,4.801918E-1,2.1969106E0],"categories":[],"categories_nodes":[],"categories_segments":[],"categories_sizes":[],"default_left":[0,0,0,0,0,0,0,0,0,0,0,0,0,0,0,0,0,0,0,0,0,0,0,0,0,0,0],"id":9,"left_children":[1,5,3,19,13,9,7,15,-1,11,17,-1,-1,25,23,-1,-1,-1,-1,21,-1,-1,-1,-1,-1,-1,-1],"loss_changes":[1.693307E2,1.1333754E2,1.523277E2,3.5650085E1,7.560008E1,1.8579797E2,5.510143E2,6.618262E1,0E0,1.3113434E2,6.168329E1,0E0,0E0,3.4935188E0,3.8961182E0,0E0,0E0,0E0,0E0,1.8164696E1,0E0,0E0,0E0,0E0,0E0,0E0,0E0],"parents":[2147483647,0,0,2,2,1,1,6,6,5,5,9,9,4,4,7,7,10,10,3,3,19,19,14,14,13,13],"right_children":[2,6,4,20,14,10,8,16,-1,12,18,-1,-1,26,24,-1,-1,-1,-1,22,-1,-1,-1,-1,-1,-1,-1],"split_conditions":[2.1E1,3.3E1,9E0,1.3E1,5E0,2.2E1,7E0,4E0,8.318759E0,2.1E1,3.5E1,1.282981E-1,-1.4888405E0,2E0,1.2E1,6.664932E-1,-2.8902876E0,3.2433162E0,2.9617584E-1,2.4E1,-4.592045E0,-2.2534544E0,3.1732082E-1,-2.0790148E0,-3.4751195E-1,4.801918E-1,2.1969106E0],"split_indices":[12,11,2,6,5,4,0,0,0,10,4,0,0,1,0,0,0,0,0,5,0,0,0,0,0,0,0],"split_type":[0,0,0,0,0,0,0,0,0,0,0,0,0,0,0,0,0,0,0,0,0,0,0,0,0,0,0],"sum_hessian":[9.76E2,9.54E2,2.2E1,1.4E1,8E0,9.44E2,1E1,7E0,3E0,9.31E2,1.3E1,9.12E2,1.9E1,5E0,3E0,4E0,3E0,9E0,4E0,1.1E1,3E0,1E1,1E0,2E0,1E0,1E0,4E0],"tree_param":{"num_deleted":"0","num_feature":"17","num_nodes":"27","size_leaf_vector":"1"}},{"base_weights":[-2.0416382E-1,-1.2146856E-1,-3.001517E0,-4.1879745E0,3.4424064E0,-4.1546755E-2,-2.9597836E0,-1.346215E0,-8.492116E0,4.8500188E-2,-1.9245551E0,-4.3382697E-2,2.4514074E0,-2.8037486E0,-7.434182E0,-6.009684E0,-9.9594873E-1,-1.5858138E0,2.1874806E-1,-2.3413067E0,-1.821602E-1,-2.0350356E0,-6.648859E0,-1.3626852E0,1.8055652E-1,3.1395638E0,5.909395E-1],"categories":[],"categories_nodes":[],"categories_segments":[],"categories_sizes":[],"default_left":[0,0,0,0,0,0,0,0,0,0,0,0,0,0,0,0,0,0,0,0,0,0,0,0,0,0,0],"id":10,"left_children":[1,5,3,13,25,9,7,23,21,11,17,-1,-1,19,15,-1,-1,-1,-1,-1,-1,-1,-1,-1,-1,-1,-1],"loss_changes":[2.2290619E2,2.1261731E2,2.212084E2,9.238147E1,1.5632862E1,1.5481682E2,2.2147697E2,2.9304234E1,4.2459564E1,4.0387683E2,6.084761E1,0E0,0E0,4.2478897E1,7.7552124E1,0E0,0E0,0E0,0E0,0E0,0E0,0E0,0E0,0E0,0E0,0E0,0E0],"parents":[2147483647,0,0,2,2,1,1,6,6,5,5,9,9,3,3,14,14,10,10,13,13,8,8,7,7,4,4],"right_children":[2,6,4,14,26,10,8,24,22,12,18,-1,-1,20,16,-1,-1,-1,-1,-1,-1,-1,-1,-1,-1,-1,-1],"split_conditions":[1.9E1,2.2E1,1.5E1,6E0,6E0,1.6E1,1.2E1,6E0,4E0,1.3E1,1.1E1,-4.3382697E-2,2.4514074E0,7E0,1.2E1,-6.009684E0,-9.9594873E-1,-1.5858138E0,2.1874806E-1,-2.3413067E0,-1.821602E-1,-2.0350356E0,-6.648859E0,-1.3626852E0,1.8055652E-1,3.1395638E0,5.909395E-1],"split_indices":[4,2,13,7,11,1,5,7,6,1,3,0,0,1,7,0,0,0,0,0,0,0,0,0,0,0,0],"split_type":[0,0,0,0,0,0,0,0,0,0,0,0,0,0,0,0,0,0,0,0,0,0,0,0,0,0,0],"sum_hessian":[9.64E2,9.37E2,2.7E1,2.3E1,4E0,9.12E2,2.5E1,2E1,5E0,8.71E2,4.1E1,8.46E2,2.5E1,1.7E1,6E0,4E0,2E0,3.2E1,9E0,1.2E1,5E0,2E0,3E0,1.3E1,7E0,2E0,2E0],"tree_param":{"num_deleted":"0","num_feature":"17","num_nodes":"27","size_leaf_vector":"1"}},{"base_weights":[-1.1419661E-1,-8.482399E-2,-4.399092E0,-1.5653908E-1,1.3778105E0,9.5382255E-1,7.5382214E0,3.5054345E0,-1.2866816E-2,-3.157154E-1,3.721443E-1,1.1259041E-1,4.587653E0,-2.1747003E-1,3.160816E0,-3.0143309E0,-6.521925E-1],"categories":[],"categories_nodes":[],"categories_segments":[],"categories_sizes":[],"default_left":[0,0,0,0,0,0,0,0,0,0,0,0,0,0,0,0,0],"id":11,"left_children":[1,3,15,9,5,7,-1,-1,-1,13,11,-1,-1,-1,-1,-1,-1],"loss_changes":[1.2329504E2,1.0248361E2,6.9538116E0,7.839812E1,2.010962E2,2.0485027E2,0E0,0E0,0E0,1.3784338E2,2.878929E2,0E0,0E0,0E0,0E0,0E0,0E0],"parents":[2147483647,0,0,1,1,4,4,5,5,3,3,10,10,9,9,2,2],"right_children":[2,4,16,10,6,8,-1,-1,-1,14,12,-1,-1,-1,-1,-1,-1],"split_conditions":[3.6E1,1.6E1,5E0,7E0,3.3E1,2E0,7.5382214E0,3.5054345E0,-1.2866816E-2,2.7E1,2.3E1,1.1259041E-1,4.587653E0,-2.1747003E-1,3.160816E0,-3.0143309E0,-6.521925E-1],"split_indices":[7,0,1,1,2,16,0,0,0,13,10,0,0,0,0,0,0],"split_type":[0,0,0,0,0,0,0,0,0,0,0,0,0,0,0,0,0],"sum_hessian":[9.81E2,9.75E2,6E0,9.3E2,4.5E1,4.4E1,1E0,7E0,3.7E1,7.15E2,2.15E2,2.1E2,5E0,7.11E2,4E0,5E0,1E0],"tree_param":{"num_deleted":"0","num_feature":"17","num_nodes":"17","size_leaf_vector":"1"}},{"base_weights":[9.647834E-2,2.1424931E-1,-1.6067706E0,-3.9217928E-1,-4.715306E0,-2.6177971E0,-1.0627557E1,-1.0322276E0,5.786095E0,3.7722394E-1,-6.3327944E-1,2.8077883E-1,8.326606E0,2.6568995E0,1.6081692E1,-4.0379014E-2,-3.3749812E0,-2.3048851E-1,2.2616613E0,2.865245E-1,-1.826494E0,-1.2152175E0,-4.2693267E0,-1.0298221E-1,3.2252422E-1,6.339802E0,1.6771249E0,5.917741E-1,-2.0029047E0,-7.319415E0,-2.3292725E0],"categories":[],"categories_nodes":[],"categories_segments":[],"categories_sizes":[],"default_left":[0,0,0,0,0,0,0,0,0,0,0,0,0,0,0,0,0,0,0,0,0,0,0,0,0,0,0,0,0,0,0],"id":12,"left_children":[1,9,3,7,5,27,29,19,25,11,15,23,13,-1,-1,17,21,-1,-1,-1,-1,-1,-1,-1,-1,-1,-1,-1,-1,-1,-1],"loss_changes":[2.0677345E2,1.3326724E2,2.5047264E2,1.964544E2,2.1286804E2,3.428475E1,8.235352E0,1.2880377E2,4.5357483E1,6.184113E2,2.5295392E2,8.574568E1,6.13812E2,0E0,0E0,1.5835986E2,1.2844348E2,0E0,0E0,0E0,0E0,0E0,0E0,0E0,0E0,0E0,0E0,0E0,0E0,0E0,0E0],"parents":[2147483647,0,0,2,2,4,4,3,3,1,1,9,9,12,12,10,10,15,15,7,7,16,16,11,11,8,8,5,5,6,6],"right_children":[2,10,4,8,6,28,30,20,26,12,16,24,14,-1,-1,18,22,-1,-1,-1,-1,-1,-1,-1,-1,-1,-1,-1,-1,-1,-1],"split_conditions":[1.5E1,9E0,9E0,8E0,1.3E1,2E0,1.1E1,5E0,3E0,2.3E1,1.2E1,3E0,8E0,2.6568995E0,1.6081692E1,1.4E1,1E1,-2.3048851E-1,2.2616613E0,2.865245E-1,-1.826494E0,-1.2152175E0,-4.2693267E0,-1.0298221E-1,3.2252422E-1,6.339802E0,1.6771249E0,5.917741E-1,-2.0029047E0,-7.319415E0,-2.3292725E0],"split_indices":[16,7,11,11,10,7,0,9,2,10,5,16,1,0,0,6,10,0,0,0,0,0,0,0,0,0,0,0,0,0,0],"split_type":[0,0,0,0,0,0,0,0,0,0,0,0,0,0,0,0,0,0,0,0,0,0,0,0,0,0,0,0,0,0,0],"sum_hessian":[1.029E3,9.63E2,6.6E1,4.8E1,1.8E1,1.4E1,4E0,4.4E1,4E0,8.08E2,1.55E2,7.99E2,9E0,8E0,1E0,1.28E2,2.7E1,1.18E2,1E1,2.5E1,1.9E1,2E1,7E0,2.79E2,5.2E2,1E0,3E0,2E0,1.2E1,3E0,1E0],"tree_param":{"num_deleted":"0","num_feature":"17","num_nodes":"31","size_leaf_vector":"1"}},{"base_weights":[1.3997371E-1,1.7437492E-1,-7.42804E0,3.2245213E-1,-8.250577E0,-7.0949775E-1,2.9547593E-1,2.5238132E-1,3.0824256E0,4.1795546E-1,5.898947E0,5.044108E-1,-5.379119E-2,-5.795376E-1,-3.9377024E0,-4.3962815E-1,3.279648E0,-2.7223341E0,-8.3993065E-1,2.6200584E-1,5.689721E-2],"categories":[],"categories_nodes":[],"categories_segments":[],"categories_sizes":[],"default_left":[0,0,0,0,0,0,0,0,0,0,0,0,0,0,0,0,0,0,0,0,0],"id":13,"left_children":[1,5,3,19,-1,13,7,11,9,-1,-1,-1,-1,15,17,-1,-1,-1,-1,-1,-1],"loss_changes":[2.686701E2,1.0981832E2,2.1597885E2,3.5046518E-2,0E0,5.034876E1,1.0776669E2,1.693511E2,2.0758333E2,0E0,0E0,0E0,0E0,9.383772E1,1.497467E0,0E0,0E0,0E0,0E0,0E0,0E0],"parents":[2147483647,0,0,2,2,1,1,6,6,8,8,7,7,5,5,13,13,14,14,3,3],"right_children":[2,6,4,20,-1,14,8,12,10,-1,-1,-1,-1,16,18,-1,-1,-1,-1,-1,-1],"split_conditions":[5.4E1,2E0,1.3E1,5E0,-8.250577E0,1.7E1,2.6E1,4E0,9E0,4.1795546E-1,5.898947E0,5.044108E-1,-5.379119E-2,1.6E1,1.3E1,-4.3962815E-1,3.279648E0,-2.7223341E0,-8.3993065E-1,2.6200584E-1,5.689721E-2],"split_indices":[13,13,1,2,0,3,6,13,5,0,0,0,0,0,2,0,0,0,0,0,0],"split_type":[0,0,0,0,0,0,0,0,0,0,0,0,0,0,0,0,0,0,0,0,0],"sum_hessian":[1.028E3,1.024E3,4E0,2E0,2E0,1.23E2,9.01E2,8.88E2,1.3E1,1E1,3E0,3.34E2,5.54E2,1.19E2,4E0,1.17E2,2E0,3E0,1E0,1E0,1E0],"tree_param":{"num_deleted":"0","num_feature":"17","num_nodes":"21","size_leaf_vector":"1"}},{"base_weights":[-6.916255E-2,-3.0535588E-2,-3.0490685E0,-6.6203594E-1,-1.1467012E1,2.0244942E0,-4.9797497E0,-1.4117853E-1,9.571908E-1,4.074068E0,1.7958853E-1,7.277061E-1,5.2718163E0,5.4511905E-1,-1.1446913E0,-6.1264724E-1,8.7434165E-2,-4.119906E-1,5.3294926E0,-8.630626E-3,1.0368943E0,8.9979045E-2,1.6544045E0,-9.912045E-1,-3.4751275E0],"categories":[],"categories_nodes":[],"categories_segments":[],"categories_sizes":[],"default_left":[0,0,0,0,0,0,0,0,0,0,0,0,0,0,0,0,0,0,0,0,0,0,0,0,0],"id":14,"left_children":[1,7,3,5,-1,21,23,15,9,11,13,-1,-1,-1,-1,17,19,-1,-1,-1,-1,-1,-1,-1,-1],"loss_changes":[1.1396386E2,1.0704324E2,4.592395E2,1.4212581E2,0E0,9.039976E0,3.9014282E0,9.495856E1,2.3864902E2,2.4618286E2,1.141535E2,0E0,0E0,0E0,0E0,1.422974E2,9.545499E1,0E0,0E0,0E0,0E0,0E0,0E0,0E0,0E0],"parents":[2147483647,0,0,2,2,3,3,1,1,8,8,9,9,10,10,7,7,15,15,16,16,5,5,6,6],"right_children":[2,8,4,6,-1,22,24,16,10,12,14,-1,-1,-1,-1,18,20,-1,-1,-1,-1,-1,-1,-1,-1],"split_conditions":[3.2E1,1.2E1,2.6E1,5E0,-1.1467012E1,4E0,3E0,3E0,1.3E1,8E0,8E0,7.277061E-1,5.2718163E0,5.4511905E-1,-1.1446913E0,2.7E1,1.6E1,-4.119906E-1,5.3294926E0,-8.630626E-3,1.0368943E0,8.9979045E-2,1.6544045E0,-9.912045E-1,-3.4751275E0],"split_indices":[10,16,2,1,0,0,0,11,16,5,0,0,0,0,0,10,14,0,0,0,0,0,0,0,0],"split_type":[0,0,0,0,0,0,0,0,0,0,0,0,0,0,0,0,0,0,0,0,0,0,0,0,0],"sum_hessian":[9.9E2,9.78E2,1.2E1,1.1E1,1E0,7E0,4E0,8.8E2,9.8E1,1.9E1,7.9E1,1.2E1,7E0,5.9E1,2E1,2.87E2,5.93E2,2.86E2,1E0,5.58E2,3.5E1,2E0,5E0,1E0,3E0],"tree_param":{"num_deleted":"0","num_feature":"17","num_nodes":"25","size_leaf_vector":"1"}},{"base_weights":[5.2958257E-2,2.3063722E-1,-6.0393316E-1,-7.220029E-1,4.707609E0,-7.9054826E-1,4.9625278E0,-5.853011E-1,2.0252092E0,2.8533944E-1,-2.4450257E0,-3.1502297E0,2.9308612E0,3.4233156E-1,-1.5060483E0,-1.6608008E0,2.265162E0,1.9397496E-1,2.5412462E0,4.1357083E0,-9.3098855E-1,-2.3472106E0,4.129405E-1],"categories":[],"categories_nodes":[],"categories_segments":[],"categories_sizes":[],"default_left":[0,0,0,0,0,0,0,0,0,0,0,0,0,0,0,0,0,0,0,0,0,0,0],"id":15,"left_children":[1,9,3,5,19,7,-1,-1,-1,13,11,21,-1,17,15,-1,-1,-1,-1,-1,-1,-1,-1],"loss_changes":[1.1548615E2,1.1443402E2,1.3438918E2,1.27913895E2,6.3765373E1,1.3066037E2,0E0,0E0,0E0,7.831056E1,8.926772E1,3.740793E1,0E0,8.066266E1,1.5002834E2,0E0,0E0,0E0,0E0,0E0,0E0,0E0,0E0],"parents":[2147483647,0,0,2,2,3,3,5,5,1,1,10,10,9,9,14,14,13,13,4,4,11,11],"right_children":[2,10,4,6,20,8,-1,-1,-1,14,12,22,-1,18,16,-1,-1,-1,-1,-1,-1,-1,-1],"split_conditions":[8E0,2.5E1,1.9E1,3.2E1,7E0,2.1E1,4.9625278E0,-5.853011E-1,2.0252092E0,1.7E1,3.6E1,9E0,2.9308612E0,3.3E1,1.3E1,-1.6608008E0,2.265162E0,1.9397496E-1,2.5412462E0,4.1357083E0,-9.3098855E-1,-2.3472106E0,4.129405E-1],"split_indices":[14,6,6,11,3,8,0,0,0,12,5,16,0,4,16,0,0,0,0,0,0,0,0],"split_type":[0,0,0,0,0,0,0,0,0,0,0,0,0,0,0,0,0,0,0,0,0,0,0],"sum_hessian":[9.88E2,7.78E2,2.1E2,2.06E2,4E0,2.05E2,1E0,1.98E2,7E0,7.63E2,1.5E1,1.4E1,1E0,7.4E2,2.3E1,1.9E1,4E0,7.35E2,5E0,3E0,1E0,1.2E1,2E0],"tree_param":{"num_deleted":"0","num_feature":"17","num_nodes":"23","size_leaf_vector":"1"}},{"base_weights":[-6.766396E-2,7.884587E-3,-3.7743905E0,-1.197689E1,-1.2808944E0,-1.8001062E-1,-7.2841396E0,6.982877E-2,-2.9735427E0,1.15074694E-1,-3.0238252E0,3.081263E-2,1.2238755E0,-6.0694766E-1,2.638108E0,-3.3575327E0,1.5562091E0,-2.5185988E0,-2.6922914E-1,-2.5963666E0,-8.913138E-1],"categories":[],"categories_nodes":[],"categories_segments":[],"categories_sizes":[],"default_left":[0,0,0,0,0,0,0,0,0,0,0,0,0,0,0,0,0,0,0,0,0],"id":16,"left_children":[1,7,3,-1,5,13,-1,9,15,11,17,-1,-1,-1,-1,19,-1,-1,-1,-1,-1],"loss_changes":[2.757703E2,1.7847678E2,7.4628723E2,0E0,2.0232352E2,6.193197E1,0E0,1.3273921E2,4.7079315E1,1.1342059E2,3.5651344E1,0E0,0E0,0E0,0E0,2.5786057E1,0E0,0E0,0E0,0E0,0E0],"parents":[2147483647,0,0,2,2,4,4,1,1,7,7,9,9,5,5,8,8,10,10,15,15],"right_children":[2,8,4,-1,6,14,-1,10,16,12,18,-1,-1,-1,-1,20,-1,-1,-1,-1,-1],"split_conditions":[2.2E1,2.2E1,2.4E1,-1.197689E1,1.7E1,8E0,-7.2841396E0,2.5E1,2.5E1,1.8E1,1.3E1,3.081263E-2,1.2238755E0,-6.0694766E-1,2.638108E0,1E1,1.5562091E0,-2.5185988E0,-2.6922914E-1,-2.5963666E0,-8.913138E-1],"split_indices":[10,11,10,0,6,3,0,16,8,12,11,0,0,0,0,13,0,0,0,0,0],"split_type":[0,0,0,0,0,0,0,0,0,0,0,0,0,0,0,0,0,0,0,0,0],"sum_hessian":[9.84E2,9.65E2,1.9E1,2E0,1.7E1,1.6E1,1E0,9.46E2,1.9E1,9.33E2,1.3E1,9.02E2,3.1E1,1.4E1,2E0,1.8E1,1E0,9E0,4E0,1.2E1,6E0],"tree_param":{"num_deleted":"0","num_feature":"17","num_nodes":"21","size_leaf_vector":"1"}},{"base_weights":[2.3556566E-2,1.2736666E-1,-1.603888E0,-7.1865183E-1,-4.6769376E0,-1.9878978E0,1.3921037E0,4.5273647E0,-3.2524474E-2,1.0217063E-1,5.302733E0,-3.8146395E-2,1.0722841E0,-1.4924935E-1,1.5115614E0,4.775909E-2,-6.5405875E-1,1.7083994E0,-1.591942E0,6.2099963E-1,5.361913E0,-5.5264883E0,-2.2465303E0,-1.1771617E0,-3.907448E0,-2.9929432E-1,9.150551E-1,-1.8457689E0,-5.8865607E-1],"categories":[],"categories_nodes":[],"categories_segments":[],"categories_sizes":[],"default_left":[0,0,0,0,0,0,0,0,0,0,0,0,0,0,0,0,0,0,0,0,0,0,0,0,0,0,0,0,0],"id":17,"left_children":[1,9,3,5,21,17,7,-1,-1,11,19,15,13,-1,-1,-1,-1,-1,-1,25,-1,23,27,-1,-1,-1,-1,-1,-1],"loss_changes":[1.7375456E2,1.2568158E2,1.655057E2,1.3224493E2,1.9896027E1,8.933637E1,1.5978198E2,0E0,0E0,1.3107086E2,6.964227E1,9.872377E1,2.1882895E2,0E0,0E0,0E0,0E0,0E0,0E0,3.0018473E0,0E0,1.9301514E1,2.5320587E0,0E0,0E0,0E0,0E0,0E0,0E0],"parents":[2147483647,0,0,2,2,3,3,6,6,1,1,9,9,12,12,11,11,5,5,10,10,4,4,21,21,19,19,22,22],"right_children":[2,10,4,6,22,18,8,-1,-1,12,20,16,14,-1,-1,-1,-1,-1,-1,26,-1,24,28,-1,-1,-1,-1,-1,-1],"split_conditions":[1.5E1,3.2E1,8E0,6E0,8E0,2E0,3E0,4.5273647E0,-3.2524474E-2,1.1E1,6E0,1.1E1,5E0,-1.4924935E-1,1.5115614E0,4.775909E-2,-6.5405875E-1,1.7083994E0,-1.591942E0,5E0,5.361913E0,3E0,6E0,-1.1771617E0,-3.907448E0,-2.9929432E-1,9.150551E-1,-1.8457689E0,-5.8865607E-1],"split_indices":[6,11,14,15,1,10,1,0,0,4,0,11,14,0,0,0,0,0,0,0,0,8,2,0,0,0,0,0,0],"split_type":[0,0,0,0,0,0,0,0,0,0,0,0,0,0,0,0,0,0,0,0,0,0,0,0,0,0,0,0,0],"sum_hessian":[1.027E3,9.66E2,6.1E1,4.8E1,1.3E1,3E1,1.8E1,3E0,1.5E1,9.62E2,4E0,8.41E2,1.21E2,6.2E1,5.9E1,7.56E2,8.5E1,3E0,2.7E1,2E0,2E0,9E0,4E0,2E0,7E0,1E0,1E0,2E0,2E0],"tree_param":{"num_deleted":"0","num_feature":"17","num_nodes":"29","size_leaf_vector":"1"}},{"base_weights":[-1.1678362E-1,-5.4546315E-2,-2.496182E0,-3.0658195E0,4.2875957E0,-2.4822924E-1,6.779694E-1,5.07401E-1,7.9463344E0,1.2614773E1,5.251031E-1,4.4550857E-1,-1.8456423E0,2.6309216E-1,-5.0986344E-1,3.5325337E-2,1.6630467E0,-3.4230772E-1,1.7274002E0,-7.5220954E-1,-4.3623834E0,-2.4131663E0,2.5228286E-1,-3.0127673E0,-4.3891385E-1],"categories":[],"categories_nodes":[],"categories_segments":[],"categories_sizes":[],"default_left":[0,0,0,0,0,0,0,0,0,0,0,0,0,0,0,0,0,0,0,0,0,0,0,0,0],"id":18,"left_children":[1,5,3,19,-1,13,7,11,9,-1,-1,-1,-1,15,17,-1,-1,-1,-1,21,23,-1,-1,-1,-1],"loss_changes":[1.4912819E2,1.3952917E2,1.5188882E2,7.179761E1,0E0,1.0412627E2,2.5226639E2,1.5018048E2,3.9988892E2,0E0,0E0,0E0,0E0,1.3143544E2,7.328093E1,0E0,0E0,0E0,0E0,3.62954E1,2.6301544E1,0E0,0E0,0E0,0E0],"parents":[2147483647,0,0,2,2,1,1,6,6,8,8,7,7,5,5,13,13,14,14,3,3,19,19,20,20],"right_children":[2,6,4,20,-1,14,8,12,10,-1,-1,-1,-1,16,18,-1,-1,-1,-1,22,24,-1,-1,-1,-1],"split_conditions":[2.1E1,8E0,1.7E1,4E0,4.2875957E0,3E0,2E1,1.6E1,2E0,1.2614773E1,5.251031E-1,4.4550857E-1,-1.8456423E0,1.1E1,2.9E1,3.5325337E-2,1.6630467E0,-3.4230772E-1,1.7274002E0,2E0,1.4E1,-2.4131663E0,2.5228286E-1,-3.0127673E0,-4.3891385E-1],"split_indices":[4,11,0,15,0,4,10,15,2,0,0,0,0,8,13,0,0,0,0,5,11,0,0,0,0],"split_type":[0,0,0,0,0,0,0,0,0,0,0,0,0,0,0,0,0,0,0,0,0,0,0,0,0],"sum_hessian":[1.007E3,9.82E2,2.5E1,2.4E1,1E0,7.77E2,2.05E2,2.01E2,4E0,1E0,3E0,1.9E2,1.1E1,2.63E2,5.14E2,2.43E2,2E1,5.08E2,6E0,9E0,1.5E1,2E0,7E0,1.3E1,2E0],"tree_param":{"num_deleted":"0","num_feature":"17","num_nodes":"25","size_leaf_vector":"1"}},{"base_weights":[-1.0887207E-3,-1.6118301E-1,1.1375182E0,3.093082E-1,4.662686E0,2.1589346E0,1.2355828E1,-1.4286645E-1,-6.0786114E0,6.206698E-2,-9.0530384E-1,-2.4538839E-3,1.6153803E0,-7.247088E-2,2.9950628E0,4.473371E0,3.0243945E-1,1.9766773E-1,-1.8534077E0,3.416998E-2,2.8385668E0,-9.780931E-1,-1.1695989E-1,1.7149659E0,8.682079E0],"categories":[],"categories_nodes":[],"categories_segments":[],"categories_sizes":[],"default_left":[0,0,0,0,0,0,0,0,0,0,0,0,0,0,0,0,0,0,0,0,0,0,0,0,0],"id":19,"left_children":[1,7,3,13,5,19,23,9,-1,11,21,-1,-1,17,15,-1,-1,-1,-1,-1,-1,-1,-1,-1,-1],"loss_changes":[1.8435081E2,1.5575037E2,3.6301022E2,1.0439851E2,4.380313E2,9.495832E1,6.4010376E1,1.3842384E2,0E0,1.1741113E2,9.032553E1,0E0,0E0,1.030993E2,1.3180539E2,0E0,0E0,0E0,0E0,0E0,0E0,0E0,0E0,0E0,0E0],"parents":[2147483647,0,0,2,2,4,4,1,1,7,7,9,9,3,3,14,14,13,13,5,5,10,10,6,6],"right_children":[2,8,4,14,6,20,24,10,-1,12,22,-1,-1,18,16,-1,-1,-1,-1,-1,-1,-1,-1,-1,-1],"split_conditions":[1.1E1,3.7E1,1.1E1,1.6E1,9E0,8E0,4E0,8E0,-6.0786114E0,1.9E1,5E0,-2.4538839E-3,1.6153803E0,1.5E1,3E0,4.473371E0,3.0243945E-1,1.9766773E-1,-1.8534077E0,3.416998E-2,2.8385668E0,-9.780931E-1,-1.1695989E-1,1.7149659E0,8.682079E0],"split_indices":[6,13,2,10,15,3,0,12,0,10,11,0,0,9,2,0,0,0,0,0,0,0,0,0,0],"split_type":[0,0,0,0,0,0,0,0,0,0,0,0,0,0,0,0,0,0,0,0,0,0,0,0,0],"sum_hessian":[1.01E3,8.86E2,1.24E2,1.01E2,2.3E1,1.8E1,5E0,8.85E2,1E0,6.98E2,1.87E2,6.81E2,1.7E1,8.9E1,1.2E1,4E0,8E0,7.9E1,1E1,1E1,8E0,9.6E1,9.1E1,1E0,4E0],"tree_param":{"num_deleted":"0","num_feature":"17","num_nodes":"25","size_leaf_vector":"1"}},{"base_weights":[6.999824E-3,6.308789E-2,-2.4045885E0,1.1626016E0,-5.833863E0,7.3346553E0,-5.8090955E-1,-7.85671E0,-3.5393782E0,2.042803E-1,-8.7468463E-1,2.3438391E-1,-6.761222E0,-1.0285151E0,4.0801625E0,2.3091675E-1,-4.82459E-1,-5.180199E-1,-2.7132955E0,5.199734E-1,-1.5652794E0,-2.6894054E0,-2.1680121E-1,-1.4260845E0,-4.8663135E0],"categories":[],"categories_nodes":[],"categories_segments":[],"categories_sizes":[],"default_left":[0,0,0,0,0,0,0,0,0,0,0,0,0,0,0,0,0,0,0,0,0,0,0,0,0],"id":20,"left_children":[1,9,3,5,7,-1,19,-1,21,11,13,15,23,17,-1,-1,-1,-1,-1,-1,-1,-1,-1,-1,-1],"loss_changes":[1.3490907E2,1.2917122E2,2.8186926E2,2.2181325E2,1.5321521E2,0E0,3.089685E1,0E0,2.3678253E1,1.7879721E2,1.510296E2,1.1851547E2,5.7536316E0,7.859219E1,0E0,0E0,0E0,0E0,0E0,0E0,0E0,0E0,0E0,0E0,0E0],"parents":[2147483647,0,0,2,2,3,3,4,4,1,1,9,9,10,10,11,11,13,13,6,6,8,8,12,12],"right_children":[2,10,4,6,8,-1,20,-1,22,12,14,16,24,18,-1,-1,-1,-1,-1,-1,-1,-1,-1,-1,-1],"split_conditions":[2.3E1,1.1E1,5E0,2.4E1,2.5E1,7.3346553E0,6E0,-7.85671E0,1.4E1,3.7E1,3.5E1,1.1E1,3E0,1.7E1,4.0801625E0,2.3091675E-1,-4.82459E-1,-5.180199E-1,-2.7132955E0,5.199734E-1,-1.5652794E0,-2.6894054E0,-2.1680121E-1,-1.4260845E0,-4.8663135E0],"split_indices":[10,1,4,10,10,0,1,0,9,0,0,7,2,5,0,0,0,0,0,0,0,0,0,0,0],"split_type":[0,0,0,0,0,0,0,0,0,0,0,0,0,0,0,0,0,0,0,0,0,0,0,0,0],"sum_hessian":[9.96E2,9.74E2,2.2E1,1.1E1,1.1E1,1E0,1E1,2E0,9E0,8.47E2,1.27E2,8.44E2,3E0,1.25E2,2E0,7.43E2,1.01E2,1.19E2,6E0,6E0,4E0,7E0,2E0,1E0,2E0],"tree_param":{"num_deleted":"0","num_feature":"17","num_nodes":"25","size_leaf_vector":"1"}},{"base_weights":[-3.5352997E-2,1.0187911E-2,-3.9111574E0,-1.4912526E-1,1.1317526E0,-6.4132795E-2,-2.080933E0,-2.1272142E0,6.273972E-1,2.7138896E0,6.278799E-1,5.90672E0,1.2331802E0,2.6157822E-3,-8.458333E-1,6.7735565E-1,-5.465644E-1,-4.4601064E0,-1.1772635E0,-2.927301E0,-9.0267456E-1],"categories":[],"categories_nodes":[],"categories_segments":[],"categories_sizes":[],"default_left":[0,0,0,0,0,0,0,0,0,0,0,0,0,0,0,0,0,0,0,0,0],"id":21,"left_children":[1,3,17,5,9,13,7,-1,-1,11,15,-1,-1,-1,-1,-1,-1,19,-1,-1,-1],"loss_changes":[1.7736435E2,1.776635E2,7.1979523E0,1.4286197E2,9.744264E1,7.422758E1,1.5570854E2,0E0,0E0,1.3368846E2,6.715602E1,0E0,0E0,0E0,0E0,0E0,0E0,2.2578735E0,0E0,0E0,0E0],"parents":[2147483647,0,0,1,1,3,3,6,6,4,4,9,9,5,5,10,10,2,2,17,17],"right_children":[2,4,18,6,10,14,8,-1,-1,12,16,-1,-1,-1,-1,-1,-1,20,-1,-1,-1],"split_conditions":[3E1,1.1E1,1E1,1.5E1,3E0,1.7E1,6E0,-2.1272142E0,6.273972E-1,2E0,1.2E1,5.90672E0,1.2331802E0,2.6157822E-3,-8.458333E-1,6.7735565E-1,-5.465644E-1,2.1E1,-1.1772635E0,-2.927301E0,-9.0267456E-1],"split_indices":[8,9,11,14,6,0,9,0,0,3,2,0,0,0,0,0,0,3,0,0,0],"split_type":[0,0,0,0,0,0,0,0,0,0,0,0,0,0,0,0,0,0,0,0,0],"sum_hessian":[1.004E3,9.93E2,1.1E1,8.7E2,1.23E2,8.34E2,3.6E1,2.5E1,1.1E1,2.9E1,9.4E1,2E0,2.7E1,7.93E2,4.1E1,7.2E1,2.2E1,8E0,3E0,7E0,1E0],"tree_param":{"num_deleted":"0","num_feature":"17","num_nodes":"21","size_leaf_vector":"1"}},{"base_weights":[6.096314E-2,3.7806913E-2,3.829573E0,-1.9618788E-1,5.554514E-1,-1.9100621E-1,1.1492428E0,2.8344622E0,5.374241E-1,-3.042266E-1,1.3199669E0,3.0807707E0,1.05648875E-1,4.6893921E-1,-5.1539046E-1,3.2514495E-1,-2.6747444E-1],"categories":[],"categories_nodes":[],"categories_segments":[],"categories_sizes":[],"default_left":[0,0,0,0,0,0,0,0,0,0,0,0,0,0,0,0,0],"id":22,"left_children":[1,3,-1,9,5,13,7,-1,-1,15,11,-1,-1,-1,-1,-1,-1],"loss_changes":[1.3794751E2,1.1776814E2,0E0,1.0996178E2,1.3430392E2,8.2208984E1,1.6020453E2,0E0,0E0,6.624849E1,1.8693954E2,0E0,0E0,0E0,0E0,0E0,0E0],"parents":[2147483647,0,0,1,1,4,4,6,6,3,3,10,10,5,5,9,9],"right_children":[2,4,-1,10,6,14,8,-1,-1,16,12,-1,-1,-1,-1,-1,-1],"split_conditions":[5.4E1,6E0,3.829573E0,1.5E1,4E0,4E0,2E0,2.8344622E0,5.374241E-1,2E0,1.7E1,3.0807707E0,1.05648875E-1,4.6893921E-1,-5.1539046E-1,3.2514495E-1,-2.6747444E-1],"split_indices":[8,1,0,0,16,12,11,0,0,4,0,0,0,0,0,0,0],"split_type":[0,0,0,0,0,0,0,0,0,0,0,0,0,0,0,0,0],"sum_hessian":[9.74E2,9.71E2,3E0,6.69E2,3.02E2,1.34E2,1.68E2,1.2E1,1.56E2,6.25E2,4.4E1,1E1,3.4E1,5.4E1,8E1,8.3E1,5.42E2],"tree_param":{"num_deleted":"0","num_feature":"17","num_nodes":"17","size_leaf_vector":"1"}},{"base_weights":[-2.1047013E-2,-4.5081535E-1,3.4144923E-1,1.4417055E-1,1.6922573E0,6.9072866E-1,4.4432955E0,1.3560671E0,-7.173681E-1,3.1477186E-1,3.9887757E0,-5.26625E-1,3.375843E0,3.2887378E-1,-1.3774291E0,-2.8018454E-1,4.10404E-1,-6.360312E-1,-4.521791E0,-3.2411426E-1,-1.2398063E0,-9.511678E-2,-1.3165294E0,-2.7275336E-1,8.0970716E-1,1.1910753E0,3.8011973E0,1.6873797E0,-7.5173223E-1],"categories":[],"categories_nodes":[],"categories_segments":[],"categories_sizes":[],"default_left":[0,0,0,0,0,0,0,0,0,0,0,0,0,0,0,0,0,0,0,0,0,0,0,0,0,0,0,0,0],"id":23,"left_children":[1,11,3,13,5,7,9,-1,-1,-1,-1,19,25,15,17,-1,-1,-1,-1,23,21,-1,-1,-1,-1,27,-1,-1,-1],"loss_changes":[1.5038866E2,1.2931422E2,1.3938437E2,1.2892749E2,1.8162825E2,1.3921309E2,1.3645563E2,0E0,0E0,0E0,0E0,6.2362083E1,4.7349632E1,1.06638374E2,9.8171394E1,0E0,0E0,0E0,0E0,6.449252E1,9.174071E1,0E0,0E0,0E0,0E0,2.3101322E1,0E0,0E0,0E0],"parents":[2147483647,0,0,2,2,4,4,5,5,6,6,1,1,3,3,13,13,14,14,11,11,20,20,19,19,12,12,25,25],"right_children":[2,12,4,14,6,8,10,-1,-1,-1,-1,20,26,16,18,-1,-1,-1,-1,24,22,-1,-1,-1,-1,28,-1,-1,-1],"split_conditions":[4E0,2.5E1,1.2E1,1.3E1,1E1,5E0,4E0,1.3560671E0,-7.173681E-1,3.1477186E-1,3.9887757E0,7E0,6E0,3E0,3.3E1,-2.8018454E-1,4.10404E-1,-6.360312E-1,-4.521791E0,6E0,4E0,-9.511678E-2,-1.3165294E0,-2.7275336E-1,8.0970716E-1,3E1,3.8011973E0,1.6873797E0,-7.5173223E-1],"split_indices":[4,0,11,6,7,3,14,0,0,0,0,7,10,9,5,0,0,0,0,7,11,0,0,0,0,0,0,0,0],"split_type":[0,0,0,0,0,0,0,0,0,0,0,0,0,0,0,0,0,0,0,0,0,0,0,0,0,0,0,0,0],"sum_hessian":[9.64E2,4.41E2,5.23E2,4.57E2,6.6E1,4.9E1,1.7E1,2.7E1,2.2E1,6E0,1.1E1,4.33E2,8E0,4.08E2,4.9E1,1.22E2,2.86E2,4.7E1,2E0,3.38E2,9.5E1,4.3E1,5.2E1,3.16E2,2.2E1,5E0,3E0,3E0,2E0],"tree_param":{"num_deleted":"0","num_feature":"17","num_nodes":"29","size_leaf_vector":"1"}},{"base_weights":[-3.3643227E-2,1.2643789E-1,-6.356526E-1,1.5379451E-1,-4.5758696E0,-3.539225E-1,-2.2471585E0,-3.1542478E0,1.469354E0,3.897763E-2,1.0741427E0,1.2935253E0,-2.4849893E-1,-2.2331546E-1,-2.6749227E0,-5.2090836E-1,1.5592192E-1,-8.2354534E-1,2.4785142E0,4.709849E-2,-1.068179E0,-2.2458973E0,2.0220071E-1,-1.2841752E0,-5.1063027E0,-2.1954503E0,-7.663235E-1],"categories":[],"categories_nodes":[],"categories_segments":[],"categories_sizes":[],"default_left":[0,0,0,0,0,0,0,0,0,0,0,0,0,0,0,0,0,0,0,0,0,0,0,0,0,0,0],"id":24,"left_children":[1,3,5,9,23,13,7,21,17,19,11,-1,-1,15,25,-1,-1,-1,-1,-1,-1,-1,-1,-1,-1,-1,-1],"loss_changes":[9.803141E1,1.0384848E2,9.647157E1,8.4472626E1,3.1389008E1,5.4969917E1,1.0987344E2,4.2817184E1,5.0800407E1,4.6545513E1,1.3312321E2,0E0,0E0,5.106494E1,9.131783E0,0E0,0E0,0E0,0E0,0E0,0E0,0E0,0E0,0E0,0E0,0E0,0E0],"parents":[2147483647,0,0,1,1,2,2,6,6,3,3,10,10,5,5,13,13,8,8,9,9,7,7,4,4,14,14],"right_children":[2,4,6,10,24,14,8,22,18,20,12,-1,-1,16,26,-1,-1,-1,-1,-1,-1,-1,-1,-1,-1,-1,-1],"split_conditions":[8E0,3.5E1,1.2E1,1.1E1,2.1E1,1.6E1,1.1E1,1.7E1,4E0,1.9E1,7E0,1.2935253E0,-2.4849893E-1,4E0,1.4E1,-5.2090836E-1,1.5592192E-1,-8.2354534E-1,2.4785142E0,4.709849E-2,-1.068179E0,-2.2458973E0,2.0220071E-1,-1.2841752E0,-5.1063027E0,-2.1954503E0,-7.663235E-1],"split_indices":[0,10,15,12,5,3,13,2,14,5,11,0,0,13,0,0,0,0,0,0,0,0,0,0,0,0,0],"split_type":[0,0,0,0,0,0,0,0,0,0,0,0,0,0,0,0,0,0,0,0,0,0,0,0,0,0,0],"sum_hessian":[1.016E3,8.03E2,2.13E2,7.99E2,4E0,1.82E2,3.1E1,2.5E1,6E0,7.11E2,8.8E1,5.2E1,3.6E1,1.73E2,9E0,7.5E1,9.8E1,3E0,3E0,6.97E2,1.4E1,2.2E1,3E0,3E0,1E0,5E0,4E0],"tree_param":{"num_deleted":"0","num_feature":"17","num_nodes":"27","size_leaf_vector":"1"}},{"base_weights":[8.641019E-2,3.1702366E-1,-2.9090348E-1,3.4698024E-1,-4.2579465E0,-2.942266E-1,6.607671E-1,3.744167E-1,5.8629293E0,-2.5749063E-1,2.1201806E0,1.0596988E0,-4.5222345E-1,-8.876877E-1,1.9635094E0,-7.705086E-1,1.14133336E-1,-2.7984494E-2,3.3573442E0,2.2876027E-1,-7.100025E-1,1.9411794E0,1.9899428E-1,-9.973097E-1,8.505002E-1],"categories":[],"categories_nodes":[],"categories_segments":[],"categories_sizes":[],"default_left":[0,0,0,0,0,0,0,0,0,0,0,0,0,0,0,0,0,0,0,0,0,0,0,0,0],"id":25,"left_children":[1,3,11,5,-1,9,7,-1,-1,-1,-1,13,15,23,21,19,17,-1,-1,-1,-1,-1,-1,-1,-1],"loss_changes":[8.913505E1,1.3847925E2,8.500322E1,1.27626595E2,0E0,9.5023735E1,2.0787315E2,0E0,0E0,0E0,0E0,7.4511246E1,6.2731888E1,2.37832E1,5.4377777E1,9.553487E1,1.0635398E2,0E0,0E0,0E0,0E0,0E0,0E0,0E0,0E0],"parents":[2147483647,0,0,1,1,3,3,6,6,5,5,2,2,11,11,12,12,16,16,15,15,14,14,13,13],"right_children":[2,4,12,6,-1,10,8,-1,-1,-1,-1,14,16,24,22,20,18,-1,-1,-1,-1,-1,-1,-1,-1],"split_conditions":[5E0,3.6E1,2E0,3E0,-4.2579465E0,1.6E1,3.3E1,3.744167E-1,5.8629293E0,-2.5749063E-1,2.1201806E0,3E0,6E0,5E0,4E0,3E0,1.9E1,-2.7984494E-2,3.3573442E0,2.2876027E-1,-7.100025E-1,1.9411794E0,1.9899428E-1,-9.973097E-1,8.505002E-1],"split_indices":[8,2,0,0,0,4,2,0,0,0,0,9,7,2,7,12,13,0,0,0,0,0,0,0,0],"split_type":[0,0,0,0,0,0,0,0,0,0,0,0,0,0,0,0,0,0,0,0,0,0,0,0,0],"sum_hessian":[1.023E3,6.35E2,3.88E2,6.33E2,2E0,2.08E2,4.25E2,4.23E2,2E0,2.02E2,6E0,4.1E1,3.47E2,1.3E1,2.8E1,2.22E2,1.25E2,1.22E2,3E0,5.5E1,1.67E2,1.6E1,1.2E1,1E1,3E0],"tree_param":{"num_deleted":"0","num_feature":"17","num_nodes":"25","size_leaf_vector":"1"}},{"base_weights":[1.3904899E-2,-5.249581E-3,3.0915058E0,-7.44895E-2,1.01469E0,-1.732701E-1,8.95944E-1,3.4851712E-1,3.9563897E0,2.1843908E0,-1.771272E-1,1.8156397E0,-1.4795924E0,-6.2057275E-2,-8.015729E-1,-1.4618909E0,3.3145657E-1],"categories":[],"categories_nodes":[],"categories_segments":[],"categories_sizes":[],"default_left":[0,0,0,0,0,0,0,0,0,0,0,0,0,0,0,0,0],"id":26,"left_children":[1,3,-1,5,9,13,7,-1,-1,11,15,-1,-1,-1,-1,-1,-1],"loss_changes":[9.119553E1,6.7397934E1,0E0,8.577015E1,8.484027E1,6.640206E1,1.4891502E2,0E0,0E0,1.0927048E2,4.8503204E1,0E0,0E0,0E0,0E0,0E0,0E0],"parents":[2147483647,0,0,1,1,3,3,6,6,4,4,9,9,5,5,10,10],"right_children":[2,4,-1,6,10,14,8,-1,-1,12,16,-1,-1,-1,-1,-1,-1],"split_conditions":[3.7E1,1.5E1,3.0915058E0,1.2E1,5E0,1.5E1,1.8E1,3.4851712E-1,3.9563897E0,1.4E1,4E0,1.8156397E0,-1.4795924E0,-6.2057275E-2,-8.015729E-1,-1.4618909E0,3.3145657E-1],"split_indices":[2,15,0,3,4,12,12,0,0,7,1,0,0,0,0,0,0],"split_type":[0,0,0,0,0,0,0,0,0,0,0,0,0,0,0,0,0],"sum_hessian":[9.56E2,9.53E2,3E0,8.93E2,6E1,8.11E2,8.2E1,7.8E1,4E0,3E1,3E1,2.6E1,4E0,7.62E2,4.9E1,7E0,2.3E1],"tree_param":{"num_deleted":"0","num_feature":"17","num_nodes":"17","size_leaf_vector":"1"}},{"base_weights":[-3.1719048E-2,-5.6915465E-3,-2.4461596E0,-6.5110964E-1,9.230082E-2,-7.937647E-1,2.745E0,2.1964931E-1,-9.517736E-1,2.0665628E-1,-5.198074E-1,8.1527136E-2,1.8868712E0,4.415622E-1,-7.043683E-1,-3.2155995E0,-1.4121443E0,-1.2388948E0,-2.4667254E-1,1.23822056E-1,-2.8788093E-1],"categories":[],"categories_nodes":[],"categories_segments":[],"categories_sizes":[],"default_left":[0,0,0,0,0,0,0,0,0,0,0,0,0,0,0,0,0,0,0,0,0],"id":27,"left_children":[1,3,15,5,9,7,-1,-1,-1,11,13,-1,-1,-1,-1,-1,17,-1,19,-1,-1],"loss_changes":[6.287103E1,6.269704E1,2.534782E1,9.706664E1,6.0316612E1,1.0917932E2,0E0,0E0,0E0,1.543835E2,1.0369771E2,0E0,0E0,0E0,0E0,0E0,5.600218E0,0E0,4.196896E-1,0E0,0E0],"parents":[2147483647,0,0,1,1,3,3,5,5,4,4,9,9,10,10,2,2,16,16,18,18],"right_children":[2,4,16,6,10,8,-1,-1,-1,12,14,-1,-1,-1,-1,-1,18,-1,20,-1,-1],"split_conditions":[3E1,2E0,2E0,1.7E1,1E1,3E0,2.745E0,2.1964931E-1,-9.517736E-1,9E0,4E0,8.1527136E-2,1.8868712E0,4.415622E-1,-7.043683E-1,-3.2155995E0,1.8E1,-1.2388948E0,4E0,1.23822056E-1,-2.8788093E-1],"split_indices":[15,12,16,5,13,0,0,0,0,13,9,0,0,0,0,0,16,0,1,0,0],"split_type":[0,0,0,0,0,0,0,0,0,0,0,0,0,0,0,0,0,0,0,0,0],"sum_hessian":[1E3,9.9E2,1E1,1.3E2,8.6E2,1.27E2,3E0,5E1,7.7E1,7.25E2,1.35E2,7.07E2,1.8E1,4.5E1,9E1,2E0,8E0,5E0,3E0,1E0,2E0],"tree_param":{"num_deleted":"0","num_feature":"17","num_nodes":"21","size_leaf_vector":"1"}},{"base_weights":[-8.0593616E-2,-1.4595954E-1,1.0745753E0,4.392592E0,3.4015742E-1,7.646635E-1,6.310302E0,-5.5675585E-2,4.7729025E0,6.3468784E-2,-4.915483E-1,-2.1389319E-2,2.5276232E0,-6.1560947E-1,8.84572E-2,2.190815E0,-7.541708E-1,7.220159E-1,-6.330865E-1,-3.7179443E-1,1.3887355E0,2.1136718E0,-1.2522937E0,-1.0318322E0,4.4180858E-1,2.9120156E-1,-4.7670794E-1,3.3807158E0,1.0937243E0],"categories":[],"categories_nodes":[],"categories_segments":[],"categories_sizes":[],"default_left":[0,0,0,0,0,0,0,0,0,0,0,0,0,0,0,0,0,0,0,0,0,0,0,0,0,0,0,0,0],"id":28,"left_children":[1,9,3,5,7,21,-1,23,27,11,17,13,15,-1,-1,-1,-1,19,25,-1,-1,-1,-1,-1,-1,-1,-1,-1,-1],"loss_changes":[7.5662994E1,6.861016E1,1.2977554E2,1.9793721E2,7.856404E1,5.37935E1,0E0,5.2352898E1,1.0777054E0,1.2355105E2,6.1741524E1,9.131719E1,7.71372E1,0E0,0E0,0E0,0E0,7.6561295E1,4.8436447E1,0E0,0E0,0E0,0E0,0E0,0E0,0E0,0E0,0E0,0E0],"parents":[2147483647,0,0,2,2,3,3,4,4,1,1,9,9,11,11,12,12,10,10,17,17,5,5,7,7,18,18,8,8],"right_children":[2,10,4,6,8,22,-1,24,28,12,18,14,16,-1,-1,-1,-1,20,26,-1,-1,-1,-1,-1,-1,-1,-1,-1,-1],"split_conditions":[1.5E1,5E0,3E0,9E0,1.8E1,4E0,6.310302E0,5E0,7E0,1.7E1,2E0,2E0,1E1,-6.1560947E-1,8.84572E-2,2.190815E0,-7.541708E-1,4E0,2E0,-3.7179443E-1,1.3887355E0,2.1136718E0,-1.2522937E0,-1.0318322E0,4.4180858E-1,2.9120156E-1,-4.7670794E-1,3.3807158E0,1.0937243E0],"split_indices":[6,13,1,5,15,10,0,4,1,11,10,3,16,0,0,0,0,12,12,0,0,0,0,0,0,0,0,0,0],"split_type":[0,0,0,0,0,0,0,0,0,0,0,0,0,0,0,0,0,0,0,0,0,0,0,0,0,0,0,0,0],"sum_hessian":[1E3,9.47E2,5.3E1,9E0,4.4E1,6E0,3E0,4.1E1,3E0,5.9E2,3.57E2,5.71E2,1.9E1,8.2E1,4.89E2,1.5E1,4E0,3.7E1,3.2E2,2E1,1.7E1,3E0,3E0,1.3E1,2.8E1,3.5E1,2.85E2,2E0,1E0],"tree_param":{"num_deleted":"0","num_feature":"17","num_nodes":"29","size_leaf_vector":"1"}},{"base_weights":[-1.9133791E-2,-4.953916E-3,-2.4817939E0,-9.8564364E-2,6.197344E-1,5.404793E-1,-2.0906475E-1,2.6279747E-1,5.885026E0,-5.811222E-1,-6.432267E-2,1.0061041E0,-4.3117508E-1,1.6082529E0,2.9243442E-1,4.3331784E-1,-1.1250613E0],"categories":[],"categories_nodes":[],"categories_segments":[],"categories_sizes":[],"default_left":[0,0,0,0,0,0,0,0,0,0,0,0,0,0,0,0,0],"id":29,"left_children":[1,3,-1,5,11,7,9,-1,-1,-1,-1,13,15,-1,-1,-1,-1],"loss_changes":[5.851969E1,6.042796E1,0E0,6.3534405E1,5.49728E1,1.355645E2,5.874422E1,0E0,0E0,0E0,0E0,8.2943726E1,5.8247055E1,0E0,0E0,0E0,0E0],"parents":[2147483647,0,0,1,1,3,3,5,5,6,6,4,4,11,11,12,12],"right_children":[2,4,-1,6,12,8,10,-1,-1,-1,-1,14,16,-1,-1,-1,-1],"split_conditions":[5.4E1,1E1,-2.4817939E0,2E0,9E0,2E1,2E0,2.6279747E-1,5.885026E0,-5.811222E-1,-6.432267E-2,3E0,6E0,1.6082529E0,2.9243442E-1,4.3331784E-1,-1.1250613E0],"split_indices":[4,2,0,7,4,12,11,0,0,0,0,8,12,0,0,0,0],"split_type":[0,0,0,0,0,0,0,0,0,0,0,0,0,0,0,0,0],"sum_hessian":[1.035E3,1.032E3,3E0,8.98E2,1.34E2,1.32E2,7.66E2,1.31E2,1E0,9.6E1,6.7E2,9.8E1,3.6E1,2.4E1,7.4E1,2E1,1.6E1],"tree_param":{"num_deleted":"0","num_feature":"17","num_nodes":"17","size_leaf_vector":"1"}},{"base_weights":[8.476649E-3,-1.6550772E-1,4.6871576E-1,8.103694E-1,-1.1078256E0,-3.2896447E0,-1.6318004E-1,-3.6293417E-2,-1.0716085E0,1.9486496E0,5.0015175E-1,2.3873973E-1,2.2686307E0,1.8047124E-1,1.8444375E0,-2.9083269E0,2.415234E-1,7.572261E-2,-1.0157478E0,-2.0811742E-2,9.7036767E-1,-1.5498987E0,3.8769412E-1,-9.9899787E-1,1.105135E0,2.2055173E-1,-2.1993341E0,1.6817589E0,-1.058008E0,-9.960634E-2,-1.1462435E0],"categories":[],"categories_nodes":[],"categories_segments":[],"categories_sizes":[],"default_left":[0,0,0,0,0,0,0,0,0,0,0,0,0,0,0,0,0,0,0,0,0,0,0,0,0,0,0,0,0,0,0],"id":30,"left_children":[1,7,3,9,5,15,25,17,21,11,13,-1,-1,-1,-1,-1,-1,19,29,-1,-1,27,23,-1,-1,-1,-1,-1,-1,-1,-1],"loss_changes":[7.929965E1,8.411505E1,1.4693088E2,7.8324554E1,9.994629E1,7.701428E1,6.179575E1,6.913689E1,6.2991196E1,1.2668028E2,9.081188E1,0E0,0E0,0E0,0E0,0E0,0E0,9.21882E1,4.591871E1,0E0,0E0,4.857016E1,6.521143E1,0E0,0E0,0E0,0E0,0E0,0E0,0E0,0E0],"parents":[2147483647,0,0,2,2,4,4,1,1,3,3,9,9,10,10,5,5,7,7,17,17,8,8,22,22,6,6,21,21,18,18],"right_children":[2,8,4,10,6,16,26,18,22,12,14,-1,-1,-1,-1,-1,-1,20,30,-1,-1,28,24,-1,-1,-1,-1,-1,-1,-1,-1],"split_conditions":[7E0,1E1,1.1E1,3E0,1.3E1,6E0,1.3E1,1.1E1,8E0,4E0,1.3E1,2.3873973E-1,2.2686307E0,1.8047124E-1,1.8444375E0,-2.9083269E0,2.415234E-1,1.2E1,4E0,-2.0811742E-2,9.7036767E-1,2E0,4E0,-9.9899787E-1,1.105135E0,2.2055173E-1,-2.1993341E0,1.6817589E0,-1.058008E0,-9.960634E-2,-1.1462435E0],"split_indices":[8,9,16,3,16,12,5,11,10,14,0,0,0,0,0,0,0,16,3,0,0,4,6,0,0,0,0,0,0,0,0],"split_type":[0,0,0,0,0,0,0,0,0,0,0,0,0,0,0,0,0,0,0,0,0,0,0,0,0,0,0,0,0,0,0],"sum_hessian":[9.89E2,7.18E2,2.71E2,2.23E2,4.8E1,1.4E1,3.4E1,6.29E2,8.9E1,4.7E1,1.76E2,2.5E1,2.2E1,1.63E2,1.3E1,1E1,4E0,5.65E2,6.4E1,5.27E2,3.8E1,6.7E1,2.2E1,9E0,1.3E1,3E1,4E0,2E0,6.5E1,3.2E1,3.2E1],"tree_param":{"num_deleted":"0","num_feature":"17","num_nodes":"31","size_leaf_vector":"1"}},{"base_weights":[-2.6035134E-2,4.869394E-3,-2.3899937E0,4.632024E-2,-1.4073582E0,1.1939363E0,-2.3270705E0,6.0290717E-2,-3.5388033E0,1.9548241E-2,1.7487694E0,-1.3540894E0,1.6385537E0,6.281333E-1,-3.4072545E0,-1.9833697E-1,-3.3856497E0,-1.6697441E0,5.125397E-1,-1.4348053E0,-3.0055232E0,4.7451425E-1,-9.9038476E-1,-5.996368E-2,7.4258024E-1,-1.079902E0,-1.1242558E-1],"categories":[],"categories_nodes":[],"categories_segments":[],"categories_sizes":[],"default_left":[0,0,0,0,0,0,0,0,0,0,0,0,0,0,0,0,0,0,0,0,0,0,0,0,0,0,0],"id":31,"left_children":[1,3,15,7,5,11,17,9,13,-1,-1,-1,-1,-1,-1,21,19,-1,-1,25,-1,23,-1,-1,-1,-1,-1],"loss_changes":[7.172919E1,5.680424E1,2.7192406E1,4.7352283E1,6.806177E1,4.1465797E1,2.5466354E1,7.45332E1,3.6487904E1,0E0,0E0,0E0,0E0,0E0,0E0,4.9088097E0,2.0103981E1,0E0,0E0,1.5880985E0,0E0,1.5970435E0,0E0,0E0,0E0,0E0,0E0],"parents":[2147483647,0,0,1,1,4,4,3,3,7,7,5,5,8,8,2,2,6,6,16,16,15,15,21,21,19,19],"right_children":[2,4,16,8,6,12,18,10,14,-1,-1,-1,-1,-1,-1,22,20,-1,-1,26,-1,24,-1,-1,-1,-1,-1],"split_conditions":[3E1,2E1,3E0,5.4E1,3E0,3E0,1.2E1,2.6E1,3E0,1.9548241E-2,1.7487694E0,-1.3540894E0,1.6385537E0,6.281333E-1,-3.4072545E0,8E0,4E0,-1.6697441E0,5.125397E-1,1.5E1,-3.0055232E0,6E0,-9.9038476E-1,-5.996368E-2,7.4258024E-1,-1.079902E0,-1.1242558E-1],"split_indices":[1,0,7,2,10,13,14,7,0,0,0,0,0,0,0,2,15,0,0,5,0,0,0,0,0,0,0],"split_type":[0,0,0,0,0,0,0,0,0,0,0,0,0,0,0,0,0,0,0,0,0,0,0,0,0,0,0],"sum_hessian":[9.81E2,9.69E2,1.2E1,9.42E2,2.7E1,7E0,2E1,9.39E2,3E0,9.3E2,9E0,2E0,5E0,1E0,2E0,4E0,8E0,1.8E1,2E0,4E0,4E0,3E0,1E0,2E0,1E0,3E0,1E0],"tree_param":{"num_deleted":"0","num_feature":"17","num_nodes":"27","size_leaf_vector":"1"}},{"base_weights":[1.01079024E-1,5.195519E-2,1.955927E0,1.944526E-1,-3.4917948E-1,-1.1000085E0,2.2679824E-1,-1.7066631E-2,8.6603713E-1,3.1057453E-1,2.0131512E0,-5.110857E-2,1.458866E0,-7.894583E-1,1.4088566E0,5.0376506E0,1.2312688E0,6.522013E-1,5.055286E0,7.2300196E-1,-4.9765475E-2,1.6526399E0,-2.181446E0,2.0666988E0,4.6503353E-1,-1.0553846E-1,7.522103E-1,-4.907365E-1,-1.6698447E0],"categories":[],"categories_nodes":[],"categories_segments":[],"categories_sizes":[],"default_left":[0,0,0,0,0,0,0,0,0,0,0,0,0,0,0,0,0,0,0,0,0,0,0,0,0,0,0,0,0],"id":32,"left_children":[1,3,15,7,5,13,19,11,9,-1,-1,-1,-1,-1,-1,17,21,25,-1,-1,-1,23,27,-1,-1,-1,-1,-1,-1],"loss_changes":[9.065167E1,5.5529385E1,5.316134E1,1.018163E2,1.1030318E2,6.692859E1,4.1829517E1,8.4776474E1,1.48139E2,0E0,0E0,0E0,0E0,0E0,0E0,6.0336662E1,3.3576263E1,1.3737284E0,0E0,0E0,0E0,2.817691E1,4.697857E-1,0E0,0E0,0E0,0E0,0E0,0E0],"parents":[2147483647,0,0,1,1,4,4,3,3,8,8,7,7,5,5,2,2,15,15,6,6,16,16,21,21,17,17,22,22],"right_children":[2,4,16,8,6,14,20,12,10,-1,-1,-1,-1,-1,-1,18,22,26,-1,-1,-1,24,28,-1,-1,-1,-1,-1,-1],"split_conditions":[1.9E1,7E0,2E0,7E0,1E1,1.9E1,3E0,1.6E1,1.2E1,3.1057453E-1,2.0131512E0,-5.110857E-2,1.458866E0,-7.894583E-1,1.4088566E0,4E0,1.1E1,3E0,5.055286E0,7.2300196E-1,-4.9765475E-2,3E0,5E0,2.0666988E0,4.6503353E-1,-1.0553846E-1,7.522103E-1,-4.907365E-1,-1.6698447E0],"split_indices":[1,2,9,9,2,16,3,0,5,0,0,0,0,0,0,4,15,0,0,0,0,14,0,0,0,0,0,0,0],"split_type":[0,0,0,0,0,0,0,0,0,0,0,0,0,0,0,0,0,0,0,0,0,0,0,0,0,0,0,0,0],"sum_hessian":[9.95E2,9.7E2,2.5E1,7.16E2,2.54E2,1.1E2,1.44E2,5.45E2,1.71E2,1.49E2,2.2E1,5.31E2,1.4E1,1.05E2,5E0,4E0,2.1E1,2E0,2E0,3.5E1,1.09E2,1.9E1,2E0,6E0,1.3E1,1E0,1E0,1E0,1E0],"tree_param":{"num_deleted":"0","num_feature":"17","num_nodes":"29","size_leaf_vector":"1"}},{"base_weights":[3.6416717E-2,9.517964E-2,-1.2796754E0,2.0857427E-1,-9.639287E-1,-4.777667E-1,-3.0642707E0,2.8549542E0,-4.046116E-1,2.948573E-1,-4.7209188E-1,-9.098838E-1,2.699323E-1,1.3845648E-1,9.1360366E-1,-1.8575573E0,6.240922E-1,2.1063707E0,-2.4395716E0,-3.4575949E0,-1.2730645E0,-2.3144233E0,-8.786567E-1,-8.4647185E-1,2.6352394E0,5.7103958E-2,2.0515869E0,-7.752346E-1,5.36677E-1,1.4990002E0,3.550763E-1],"categories":[],"categories_nodes":[],"categories_segments":[],"categories_sizes":[],"default_left":[0,0,0,0,0,0,0,0,0,0,0,0,0,0,0,0,0,0,0,0,0,0,0,0,0,0,0,0,0,0,0],"id":33,"left_children":[1,3,15,9,5,7,19,-1,-1,13,11,-1,-1,-1,-1,17,23,29,21,-1,-1,-1,-1,27,25,-1,-1,-1,-1,-1,-1],"loss_changes":[7.901583E1,1.17548996E2,4.8822075E1,5.199088E1,9.56821E1,7.1215744E1,3.719452E1,0E0,0E0,6.587046E1,9.0570694E1,0E0,0E0,0E0,0E0,8.112177E1,3.3053616E1,1.3066826E0,3.5711853E1,0E0,0E0,0E0,0E0,5.348735E0,7.8155174E0,0E0,0E0,0E0,0E0,0E0,0E0],"parents":[2147483647,0,0,1,1,4,4,5,5,3,3,10,10,9,9,2,2,15,15,6,6,18,18,16,16,24,24,23,23,17,17],"right_children":[2,4,16,10,6,8,20,-1,-1,14,12,-1,-1,-1,-1,18,24,30,22,-1,-1,-1,-1,28,26,-1,-1,-1,-1,-1,-1],"split_conditions":[1.7E1,1.2E1,1.1E1,1.2E1,8E0,2E0,1.3E1,2.8549542E0,-4.046116E-1,1.4E1,1.6E1,-9.098838E-1,2.699323E-1,1.3845648E-1,9.1360366E-1,3E0,2.1E1,7E0,5E0,-3.4575949E0,-1.2730645E0,-2.3144233E0,-8.786567E-1,1.8E1,3E0,5.7103958E-2,2.0515869E0,-7.752346E-1,5.36677E-1,1.4990002E0,3.550763E-1],"split_indices":[5,16,8,1,5,7,16,0,0,10,1,0,0,0,0,15,5,6,7,0,0,0,0,14,1,0,0,0,0,0,0],"split_type":[0,0,0,0,0,0,0,0,0,0,0,0,0,0,0,0,0,0,0,0,0,0,0,0,0,0,0,0,0,0,0],"sum_hessian":[1.02E3,9.77E2,4.3E1,8.83E2,9.4E1,7.7E1,1.7E1,2E0,7.5E1,7.84E2,9.9E1,4.7E1,5.2E1,7.4E2,4.4E1,3.3E1,1E1,4E0,2.9E1,4E0,1.3E1,1.2E1,1.7E1,6E0,4E0,1E0,3E0,5E0,1E0,3E0,1E0],"tree_param":{"num_deleted":"0","num_feature":"17","num_nodes":"31","size_leaf_vector":"1"}},{"base_weights":[-5.0962552E-2,-5.609551E-1,3.0139387E-2,9.0486646E-1,-7.963478E-1,2.4162646E-1,4.6837077E0,5.6057375E-2,-1.9747924E0,-3.067262E-2,7.094296E-1,1.5224763E0,1.4379077E-1,-1.2273434E0,-2.1535099E-2,5.465397E0,-2.3810832E-1,-8.568724E-1,2.0168204E0,-3.8169798E-1,3.380411E-2,-3.2798436E0,1.7216003E-1,1.0225824E0,-4.870404E-1,-2.644298E0,-4.5158854E-1,1.0825796E0,-8.956531E-1],"categories":[],"categories_nodes":[],"categories_segments":[],"categories_sizes":[],"default_left":[0,0,0,0,0,0,0,0,0,0,0,0,0,0,0,0,0,0,0,0,0,0,0,0,0,0,0,0,0],"id":34,"left_children":[1,3,7,5,13,23,-1,9,21,19,11,-1,-1,17,15,-1,-1,-1,-1,-1,-1,25,27,-1,-1,-1,-1,-1,-1],"loss_changes":[3.9994915E1,4.625951E1,4.344397E1,8.115862E1,3.8273438E1,2.6449444E1,0E0,4.674712E1,3.0278782E1,3.637411E1,8.026274E1,0E0,0E0,5.436743E1,1.359057E2,0E0,0E0,0E0,0E0,0E0,0E0,1.4714569E1,1.3589877E1,0E0,0E0,0E0,0E0,0E0,0E0],"parents":[2147483647,0,0,1,1,3,3,2,2,7,7,10,10,4,4,14,14,13,13,9,9,8,8,5,5,21,21,22,22],"right_children":[2,4,8,6,14,24,-1,10,22,20,12,-1,-1,18,16,-1,-1,-1,-1,-1,-1,26,28,-1,-1,-1,-1,-1,-1],"split_conditions":[2E0,2E0,3.2E1,7E0,5E0,3E0,4.6837077E0,1.1E1,3.7E1,2E0,3E0,1.5224763E0,1.4379077E-1,1.7E1,2E0,5.465397E0,-2.3810832E-1,-8.568724E-1,2.0168204E0,-3.8169798E-1,3.380411E-2,9E0,5E0,1.0225824E0,-4.870404E-1,-2.644298E0,-4.5158854E-1,1.0825796E0,-8.956531E-1],"split_indices":[4,10,9,3,10,1,0,16,9,15,5,0,0,9,3,0,0,0,0,0,0,1,2,0,0,0,0,0,0],"split_type":[0,0,0,0,0,0,0,0,0,0,0,0,0,0,0,0,0,0,0,0,0,0,0,0,0,0,0,0,0],"sum_hessian":[9.66E2,1.32E2,8.34E2,1.8E1,1.14E2,1.7E1,1E0,8.24E2,1E1,7.28E2,9.6E1,2E1,7.6E1,7.3E1,4.1E1,1E0,4E1,7.1E1,2E0,9.2E1,6.36E2,6E0,4E0,7E0,1E1,4E0,2E0,2E0,2E0],"tree_param":{"num_deleted":"0","num_feature":"17","num_nodes":"29","size_leaf_vector":"1"}},{"base_weights":[-1.25192E-1,-8.830094E-2,-1.5912025E0,-1.0991284E-1,2.3479497E0,6.543692E-3,-5.40057E-1,-1.519582E0,-2.029288E-1,5.682669E-2,-5.4238516E-1,3.2480142E0,-4.891525E-1,-6.280406E-1,-2.4701111E0,-1.5743E0,-3.3644314E0,7.739925E-1,-1.3348658E0,-1.1962095E0,6.9340146E-1,-1.6300742E-1,-1.372396E0,2.239303E0,4.3484545E-1,2.1192032E-1,8.7489325E-1,2.127243E-2,-5.0641423E-1],"categories":[],"categories_nodes":[],"categories_segments":[],"categories_sizes":[],"default_left":[0,0,0,0,0,0,0,0,0,0,0,0,0,0,0,0,0,0,0,0,0,0,0,0,0,0,0,0,0],"id":35,"left_children":[1,3,13,5,11,9,7,-1,-1,-1,-1,23,27,17,15,19,-1,25,21,-1,-1,-1,-1,-1,-1,-1,-1,-1,-1],"loss_changes":[5.4346813E1,5.190914E1,1.9840015E1,4.8827393E1,2.320779E1,5.7709293E1,8.387219E1,0E0,0E0,0E0,0E0,4.5086975E0,4.785611E-1,1.324881E1,2.7854057E1,1.1685188E1,0E0,9.608855E-1,7.783161E0,0E0,0E0,0E0,0E0,0E0,0E0,0E0,0E0,0E0,0E0],"parents":[2147483647,0,0,1,1,3,3,6,6,5,5,4,4,2,2,14,14,13,13,15,15,18,18,11,11,17,17,12,12],"right_children":[2,4,14,6,12,10,8,-1,-1,-1,-1,24,28,18,16,20,-1,26,22,-1,-1,-1,-1,-1,-1,-1,-1,-1,-1],"split_conditions":[2.1E1,3.3E1,4E0,8E0,1.5E1,1.2E1,2E0,-1.519582E0,-2.029288E-1,5.682669E-2,-5.4238516E-1,1.3E1,1.4E1,3E0,1.8E1,1.7E1,-3.3644314E0,6E0,5E0,-1.1962095E0,6.9340146E-1,-1.6300742E-1,-1.372396E0,2.239303E0,4.3484545E-1,2.1192032E-1,8.7489325E-1,2.127243E-2,-5.0641423E-1],"split_indices":[4,5,15,15,10,5,5,0,0,0,0,1,0,13,5,3,0,0,1,0,0,0,0,0,0,0,0,0,0],"split_type":[0,0,0,0,0,0,0,0,0,0,0,0,0,0,0,0,0,0,0,0,0,0,0,0,0,0,0,0,0],"sum_hessian":[1.006E3,9.82E2,2.4E1,9.74E2,8E0,7.67E2,2.07E2,2E1,1.87E2,7E2,6.7E1,6E0,2E0,1.2E1,1.2E1,1E1,2E0,4E0,8E0,9E0,1E0,4E0,4E0,5E0,1E0,3E0,1E0,1E0,1E0],"tree_param":{"num_deleted":"0","num_feature":"17","num_nodes":"29","size_leaf_vector":"1"}},{"base_weights":[4.256328E-2,-1.3832924E-1,5.678743E-1,9.757342E-1,-2.8500798E-1,-1.1654156E0,9.4095314E-1,2.6378238E0,7.358548E-2,-1.4004993E0,3.4544787E-1,1.5739193E0,1.3632372E-1,-2.017081E-1,1.4309341E0,-1.0783403E-2,-7.5802577E-1,-5.551263E-1,1.2087404E0,6.8342406E-1,1.90762E0,-5.218677E-1,6.722498E-1,6.698442E-2,-6.2061876E-1,-4.8777036E-2,2.744531E0,9.3923575E-1,3.810971E0,-5.8157873E-1,1.5780467E0],"categories":[],"categories_nodes":[],"categories_segments":[],"categories_sizes":[],"default_left":[0,0,0,0,0,0,0,0,0,0,0,0,0,0,0,0,0,0,0,0,0,0,0,0,0,0,0,0,0,0,0],"id":36,"left_children":[1,13,3,11,5,9,7,-1,-1,-1,-1,19,21,15,25,23,17,-1,-1,-1,-1,-1,-1,-1,-1,29,27,-1,-1,-1,-1],"loss_changes":[9.0770615E1,7.087345E1,8.529733E1,8.3040405E1,8.672638E1,8.887692E1,9.145589E1,0E0,0E0,0E0,0E0,6.622638E1,6.528265E1,7.2609245E1,5.387694E1,6.0109634E1,6.639983E1,0E0,0E0,0E0,0E0,0E0,0E0,0E0,0E0,3.3169857E1,5.5134964E1,0E0,0E0,0E0,0E0],"parents":[2147483647,0,0,2,2,4,4,6,6,5,5,3,3,1,1,13,13,16,16,11,11,12,12,15,15,14,14,26,26,25,25],"right_children":[2,14,4,12,6,10,8,-1,-1,-1,-1,20,22,16,26,24,18,-1,-1,-1,-1,-1,-1,-1,-1,30,28,-1,-1,-1,-1],"split_conditions":[7E0,1.8E1,7E0,5E0,5E0,6E0,4E0,2.6378238E0,7.358548E-2,-1.4004993E0,3.4544787E-1,6E0,5E0,7E0,5E0,1E1,1.7E1,-5.551263E-1,1.2087404E0,6.8342406E-1,1.90762E0,-5.218677E-1,6.722498E-1,6.698442E-2,-6.2061876E-1,9E0,7E0,9.3923575E-1,3.810971E0,-5.8157873E-1,1.5780467E0],"split_indices":[15,7,14,8,4,10,11,0,0,0,0,10,2,3,9,9,11,0,0,0,0,0,0,0,0,1,13,0,0,0,0],"split_type":[0,0,0,0,0,0,0,0,0,0,0,0,0,0,0,0,0,0,0,0,0,0,0,0,0,0,0,0,0,0,0],"sum_hessian":[9.54E2,7.1E2,2.44E2,1.65E2,7.9E1,4.6E1,3.3E1,6E0,2.7E1,2.8E1,1.8E1,9.6E1,6.9E1,6.83E2,2.7E1,5.09E2,1.74E2,1.66E2,8E0,7.4E1,2.2E1,3.4E1,3.5E1,4.55E2,5.4E1,1.3E1,1.4E1,1.1E1,3E0,1E1,3E0],"tree_param":{"num_deleted":"0","num_feature":"17","num_nodes":"31","size_leaf_vector":"1"}},{"base_weights":[1.0300404E-1,-4.990909E-2,4.5505384E-1,1.1190916E-1,1.3295413E0,4.2157817E0,3.9323917E-1,-9.356776E-1,4.3819192E-1,3.6272153E-1,-1.9388955E0,1.7248393E0,3.9655502E0,3.2094446E-1,-2.4327005E-1,-2.8298554E-1,2.9419615E0,-3.8925266E-1,1.8723989E-1,1.2285725E0,8.690269E-2,3.5152382E-1,4.571211E0,-1.6978301E-1,6.695847E-1,-1.4612602E0,-2.5810322E-1,3.979725E-1,-1.1379925E0,2.2692854E0,-1.5602659E-1],"categories":[],"categories_nodes":[],"categories_segments":[],"categories_sizes":[],"default_left":[0,0,0,0,0,0,0,0,0,0,0,0,0,0,0,0,0,0,0,0,0,0,0,0,0,0,0,0,0,0,0],"id":37,"left_children":[1,13,3,7,5,11,27,25,9,-1,-1,-1,-1,19,15,17,29,-1,-1,21,23,-1,-1,-1,-1,-1,-1,-1,-1,-1,-1],"loss_changes":[5.345425E1,4.9722584E1,9.012195E1,7.4333786E1,2.2769406E2,5.2704163E1,3.669889E1,3.7496883E1,8.8210464E1,0E0,0E0,0E0,0E0,5.041307E1,5.8197464E1,9.116542E1,1.3667019E1,0E0,0E0,1.9507227E2,6.822236E1,0E0,0E0,0E0,0E0,0E0,0E0,0E0,0E0,0E0,0E0],"parents":[2147483647,0,0,2,2,4,4,3,3,8,8,5,5,1,1,14,14,15,15,13,13,19,19,20,20,7,7,6,6,16,16],"right_children":[2,14,4,8,6,12,28,26,10,-1,-1,-1,-1,20,16,18,30,-1,-1,22,24,-1,-1,-1,-1,-1,-1,-1,-1,-1,-1],"split_conditions":[6E0,3E0,7E0,3E0,3E0,4E0,1.5E1,3E0,2.9E1,3.6272153E-1,-1.9388955E0,1.7248393E0,3.9655502E0,2E0,2.9E1,7E0,1.2E1,-3.8925266E-1,1.8723989E-1,8E0,6E0,3.5152382E-1,4.571211E0,-1.6978301E-1,6.695847E-1,-1.4612602E0,-2.5810322E-1,3.979725E-1,-1.1379925E0,2.2692854E0,-1.5602659E-1],"split_indices":[11,12,5,13,13,14,0,9,13,0,0,0,0,11,16,12,5,0,0,16,4,0,0,0,0,0,0,0,0,0,0],"split_type":[0,0,0,0,0,0,0,0,0,0,0,0,0,0,0,0,0,0,0,0,0,0,0,0,0,0,0,0,0,0,0],"sum_hessian":[9.92E2,6.92E2,3E2,2.16E2,8.4E1,2E1,6.4E1,5.1E1,1.65E2,1.59E2,6E0,1.3E1,7E0,2.37E2,4.55E2,4.5E2,5E0,2.83E2,1.67E2,4.8E1,1.89E2,4.4E1,4E0,1.39E2,5E1,1.3E1,3.8E1,5.8E1,6E0,4E0,1E0],"tree_param":{"num_deleted":"0","num_feature":"17","num_nodes":"31","size_leaf_vector":"1"}},{"base_weights":[-1.9186662E-1,-8.9387156E-2,-9.089859E-1,-5.5006254E-1,-2.34889E0,-3.7769065E0,5.781313E-1,-9.620589E-1,1.4215765E0,-1.0214705E0,1.6118841E-1,-1.0339213E-1,2.791307E0,2.0288598E-2,-5.798331E-1,-4.349304E-1,2.0133781E0,1.3391127E-1,-2.1861407E-1,1.7321359E0,-3.8020846E-1,-2.7039034E0,2.4439277E-1,1.6120191E0,-4.954677E-1],"categories":[],"categories_nodes":[],"categories_segments":[],"categories_sizes":[],"default_left":[0,0,0,0,0,0,0,0,0,0,0,0,0,0,0,0,0,0,0,0,0,0,0,0,0],"id":38,"left_children":[1,11,3,7,5,21,23,9,19,-1,-1,13,-1,17,15,-1,-1,-1,-1,-1,-1,-1,-1,-1,-1],"loss_changes":[7.3262856E1,5.651834E1,6.3561455E1,8.2690575E1,1.0458386E2,4.196254E1,2.5566149E1,7.048598E1,5.0557663E1,0E0,0E0,5.1373226E1,0E0,5.0658897E1,8.551394E1,0E0,0E0,0E0,0E0,0E0,0E0,0E0,0E0,0E0,0E0],"parents":[2147483647,0,0,2,2,4,4,3,3,7,7,1,1,11,11,14,14,13,13,8,8,5,5,6,6],"right_children":[2,12,4,8,6,22,24,10,20,-1,-1,14,-1,18,16,-1,-1,-1,-1,-1,-1,-1,-1,-1,-1],"split_conditions":[1.1E1,3.5E1,1.1E1,1E1,9E0,2E1,1.2E1,5E0,5E0,-1.0214705E0,1.6118841E-1,8E0,2.791307E0,5E0,1.9E1,-4.349304E-1,2.0133781E0,1.3391127E-1,-2.1861407E-1,1.7321359E0,-3.8020846E-1,-2.7039034E0,2.4439277E-1,1.6120191E0,-4.954677E-1],"split_indices":[10,13,11,4,12,10,12,11,5,0,0,16,0,4,8,0,0,0,0,0,0,0,0,0,0],"split_type":[0,0,0,0,0,0,0,0,0,0,0,0,0,0,0,0,0,0,0,0,0,0,0,0,0],"sum_hessian":[9.97E2,8.73E2,1.24E2,1E2,2.4E1,1.6E1,8E0,8.3E1,1.7E1,5.3E1,3E1,8.71E2,2E0,6.92E2,1.79E2,1.74E2,5E0,4.54E2,2.38E2,1E1,7E0,1.4E1,2E0,3E0,5E0],"tree_param":{"num_deleted":"0","num_feature":"17","num_nodes":"25","size_leaf_vector":"1"}},{"base_weights":[5.8494434E-2,-1.23381145E-1,4.5106748E-1,2.360622E-1,1.965054E0,5.2535834E0,8.099127E-1,4.7705022E-1,-9.3706113E-1,6.427707E-1,-2.1073997E-1,9.973879E-1,4.7301908E0,-1.9824767E-1,1.0424669E0,-2.0005162E0,-2.8892776E-1,-1.8051042E-1,-2.6219175E0,4.6971403E-2,-2.8331375E-1,-4.0876082E-1,1.0842779E0,-1.2665145E-1,1.8363942E0,2.840205E0,6.949359E-1,1.7201111E0,-5.5756176E-1],"categories":[],"categories_nodes":[],"categories_segments":[],"categories_sizes":[],"default_left":[0,0,0,0,0,0,0,0,0,0,0,0,0,0,0,0,0,0,0,0,0,0,0,0,0,0,0,0,0],"id":39,"left_children":[1,13,3,7,5,11,21,9,15,-1,-1,-1,-1,17,23,-1,-1,19,-1,-1,-1,-1,-1,27,25,-1,-1,-1,-1],"loss_changes":[6.8486275E1,5.736606E1,9.853514E1,7.5688705E1,1.4023795E2,7.562689E1,4.0378216E1,1.01727234E2,4.8253338E1,0E0,0E0,0E0,0E0,4.359651E1,3.697978E1,0E0,0E0,4.3620377E1,0E0,0E0,0E0,0E0,0E0,3.9082367E1,4.3034126E1,0E0,0E0,0E0,0E0],"parents":[2147483647,0,0,2,2,4,4,3,3,7,7,5,5,1,1,8,8,13,13,17,17,6,6,14,14,24,24,23,23],"right_children":[2,14,4,8,6,12,22,10,16,-1,-1,-1,-1,18,24,-1,-1,20,-1,-1,-1,-1,-1,28,26,-1,-1,-1,-1],"split_conditions":[6E0,1.4E1,1.1E1,1.5E1,1.3E1,8E0,4E0,6E0,2E0,6.427707E-1,-2.1073997E-1,9.973879E-1,4.7301908E0,4E1,4E0,-2.0005162E0,-2.8892776E-1,4E0,-2.6219175E0,4.6971403E-2,-2.8331375E-1,-4.0876082E-1,1.0842779E0,3E0,3E0,2.840205E0,6.949359E-1,1.7201111E0,-5.5756176E-1],"split_indices":[16,4,13,16,13,16,14,0,3,0,0,0,0,12,12,0,0,1,0,0,0,0,0,0,9,0,0,0,0],"split_type":[0,0,0,0,0,0,0,0,0,0,0,0,0,0,0,0,0,0,0,0,0,0,0,0,0,0,0,0,0],"sum_hessian":[9.58E2,6.55E2,3.03E2,2.66E2,3.7E1,9E0,2.8E1,2.21E2,4.5E1,1.31E2,9E1,4E0,5E0,6.16E2,3.9E1,7E0,3.8E1,6.14E2,2E0,3.19E2,2.95E2,1.1E1,1.7E1,1.6E1,2.3E1,4E0,1.9E1,3E0,1.3E1],"tree_param":{"num_deleted":"0","num_feature":"17","num_nodes":"29","size_leaf_vector":"1"}},{"base_weights":[1.7283808E-1,3.0630097E-1,-2.0965189E-1,-3.579502E-1,2.0201037E0,3.8662417E0,6.909763E-1,-5.3475934E-1,1.3964213E0,2.8361263E0,3.1154042E-1,5.23067E-1,-4.464339E-1,-7.03305E-2,5.053229E-1,-2.8097245E-1,1.7586287E0,2.6899993E0,5.0989735E-1,1.462411E0,3.7801373E-1,1.3213073E0,-4.036715E-1,-2.8296533E-1,7.072949E-1,3.0941235E-2,3.907347E-1,-4.865778E-2,2.2265477E0],"categories":[],"categories_nodes":[],"categories_segments":[],"categories_sizes":[],"default_left":[0,0,0,0,0,0,0,0,0,0,0,0,0,0,0,0,0,0,0,0,0,0,0,0,0,0,0,0,0],"id":40,"left_children":[1,13,3,7,5,-1,27,11,9,-1,-1,-1,-1,15,19,23,17,-1,-1,21,25,-1,-1,-1,-1,-1,-1,-1,-1],"loss_changes":[4.92368E1,5.3594612E1,8.3040115E1,7.3291016E1,8.498142E1,0E0,2.8490835E1,5.512652E1,6.0045017E1,0E0,0E0,0E0,0E0,9.574509E1,5.6610687E1,5.5996307E1,5.9634354E1,0E0,0E0,7.8360344E1,3.4256557E1,0E0,0E0,0E0,0E0,0E0,0E0,0E0,0E0],"parents":[2147483647,0,0,2,2,4,4,3,3,8,8,7,7,1,1,13,13,16,16,14,14,19,19,15,15,20,20,6,6],"right_children":[2,14,4,8,6,-1,28,12,10,-1,-1,-1,-1,16,20,24,18,-1,-1,22,26,-1,-1,-1,-1,-1,-1,-1,-1],"split_conditions":[7E0,3E0,1.7E1,1.3E1,3E0,3.8662417E0,3.5E1,2E0,1.5E1,2.8361263E0,3.1154042E-1,5.23067E-1,-4.464339E-1,9E0,2E0,8E0,3E0,2.6899993E0,5.0989735E-1,6E0,4E0,1.3213073E0,-4.036715E-1,-2.8296533E-1,7.072949E-1,3.0941235E-2,3.907347E-1,-4.865778E-2,2.2265477E0],"split_indices":[2,12,13,8,0,0,13,12,8,0,0,0,0,0,5,11,16,0,0,11,14,0,0,0,0,0,0,0,0],"split_type":[0,0,0,0,0,0,0,0,0,0,0,0,0,0,0,0,0,0,0,0,0,0,0,0,0,0,0,0,0],"sum_hessian":[9.63E2,7.14E2,2.49E2,2.34E2,1.5E1,3E0,1.2E1,2.13E2,2.1E1,4E0,1.7E1,2.5E1,1.88E2,2.47E2,4.67E2,2.22E2,2.5E1,6E0,1.9E1,5.4E1,4.13E2,4.1E1,1.3E1,1.98E2,2.4E1,1.8E2,2.33E2,1E1,2E0],"tree_param":{"num_deleted":"0","num_feature":"17","num_nodes":"29","size_leaf_vector":"1"}},{"base_weights":[-1.475571E-1,-1.1343209E-1,-1.5166132E0,-8.1276735E-3,-5.042858E-1,-8.121634E-1,1.1897742E0,-1.0206479E0,1.1583703E0,-4.3497947E-1,-2.2197843E0,1.2633616E-1,-4.1195247E-1,7.82753E-1,-3.8977706E-1,1.4040089E-1,-5.6791097E-1,-1.9249123E0,7.2542405E-1,-2.39457E0,1.2799034E-1,-4.3498242E-1,-1.8745687E0,-3.3199304E-1,9.519287E-1],"categories":[],"categories_nodes":[],"categories_segments":[],"categories_sizes":[],"default_left":[0,0,0,0,0,0,0,0,0,0,0,0,0,0,0,0,0,0,0,0,0,0,0,0,0],"id":41,"left_children":[1,3,17,11,5,9,7,-1,-1,-1,-1,15,13,-1,-1,-1,-1,19,-1,21,23,-1,-1,-1,-1],"loss_changes":[4.738019E1,4.085343E1,2.8579704E1,4.2534138E1,1.10524475E2,5.2838417E1,6.505697E1,0E0,0E0,0E0,0E0,6.1577545E1,7.169108E1,0E0,0E0,0E0,0E0,2.110199E1,0E0,1.7434853E1,4.9183292E0,0E0,0E0,0E0,0E0],"parents":[2147483647,0,0,1,1,4,4,6,6,5,5,3,3,12,12,11,11,2,2,17,17,19,19,20,20],"right_children":[2,4,18,12,6,10,8,-1,-1,-1,-1,16,14,-1,-1,-1,-1,20,-1,22,24,-1,-1,-1,-1],"split_conditions":[2E1,8E0,1.7E1,7E0,1.2E1,2E1,3E0,-1.0206479E0,1.1583703E0,-4.3497947E-1,-2.2197843E0,1.2E1,2E0,7.82753E-1,-3.8977706E-1,1.4040089E-1,-5.6791097E-1,9E0,7.2542405E-1,3E0,9E0,-4.3498242E-1,-1.8745687E0,-3.3199304E-1,9.519287E-1],"split_indices":[11,6,0,14,1,0,14,0,0,0,0,4,11,0,0,0,0,7,0,14,1,0,0,0,0],"split_type":[0,0,0,0,0,0,0,0,0,0,0,0,0,0,0,0,0,0,0,0,0,0,0,0,0],"sum_hessian":[1.016E3,9.92E2,2.4E1,7.82E2,2.1E2,1.78E2,3.2E1,6E0,2.6E1,1.72E2,6E0,5.87E2,1.95E2,2.2E1,1.73E2,5.36E2,5.1E1,2.1E1,3E0,1.7E1,4E0,5E0,1.2E1,3E0,1E0],"tree_param":{"num_deleted":"0","num_feature":"17","num_nodes":"25","size_leaf_vector":"1"}},{"base_weights":[-1.0646566E-1,-4.9266417E-2,-1.3030512E0,-2.1093678E0,4.97058E-1,-9.2138976E-2,1.3405511E0,-1.5964736E-1,8.754367E-1,3.4360744E-3,-3.6603028E-1,1.040983E-1,1.3873218E0,1.4564407E0,-2.5165758E0,-1.856563E0,2.3420583E-1,1.5711575E0,-1.8696685E0,1.1019461E0,-1.4671444E0,1.7690628E0,-8.445839E-1,1.9678514E0,1.4534746E-1,4.7319874E-1,-7.160147E-1],"categories":[],"categories_nodes":[],"categories_segments":[],"categories_sizes":[],"default_left":[0,0,0,0,0,0,0,0,0,0,0,0,0,0,0,0,0,0,0,0,0,0,0,0,0,0,0],"id":42,"left_children":[1,5,3,13,23,7,17,9,11,-1,-1,-1,-1,21,15,-1,-1,19,-1,-1,-1,-1,-1,-1,25,-1,-1],"loss_changes":[6.851308E1,5.7084126E1,6.699278E1,4.8442657E1,1.3507179E1,6.075281E1,3.1986217E1,6.1861065E1,5.826612E1,0E0,0E0,0E0,0E0,1.7080723E1,4.056691E1,0E0,0E0,2.5405365E1,0E0,0E0,0E0,0E0,0E0,0E0,1.1586397E1,0E0,0E0],"parents":[2147483647,0,0,2,2,1,1,5,5,7,7,8,8,3,3,14,14,6,6,17,17,13,13,4,4,24,24],"right_children":[2,6,4,14,24,8,18,10,12,-1,-1,-1,-1,22,16,-1,-1,20,-1,-1,-1,-1,-1,-1,26,-1,-1],"split_conditions":[1.7E1,2E1,9E0,2E0,3E0,1.4E1,2.5E1,6E0,7E0,3.4360744E-3,-3.6603028E-1,1.040983E-1,1.3873218E0,5E0,7E0,-1.856563E0,2.3420583E-1,1.4E1,-1.8696685E0,1.1019461E0,-1.4671444E0,1.7690628E0,-8.445839E-1,1.9678514E0,8E0,4.7319874E-1,-7.160147E-1],"split_indices":[1,6,10,5,0,5,15,12,10,0,0,0,0,0,13,0,0,1,0,0,0,0,0,0,5,0,0],"split_type":[0,0,0,0,0,0,0,0,0,0,0,0,0,0,0,0,0,0,0,0,0,0,0,0,0,0,0],"sum_hessian":[1.001E3,9.56E2,4.5E1,3.1E1,1.4E1,9.28E2,2.8E1,8.68E2,6E1,6.28E2,2.4E2,4E1,2E1,3E0,2.8E1,2.4E1,4E0,2.7E1,1E0,2.6E1,1E0,2E0,1E0,1E0,1.3E1,9E0,4E0],"tree_param":{"num_deleted":"0","num_feature":"17","num_nodes":"27","size_leaf_vector":"1"}},{"base_weights":[1.5724716E-1,1.321858E-1,2.705921E0,1.6061646E-1,-1.3490951E0,-1.6393697E-1,3.1042683E-1,3.375798E-2,-5.377013E-1,1.3199618E-1,6.0966355E-1,1.0208263E0,3.2680352E0,-4.2813042E-1,-2.9627945E0,4.7634405E-1,-9.804035E-1,-2.4118063E0,-3.6746043E-1,5.989701E-2,8.68997E-1],"categories":[],"categories_nodes":[],"categories_segments":[],"categories_sizes":[],"default_left":[0,0,0,0,0,0,0,0,0,0,0,0,0,0,0,0,0,0,0,0,0],"id":43,"left_children":[1,3,11,5,13,7,9,-1,-1,-1,-1,19,-1,15,17,-1,-1,-1,-1,-1,-1],"loss_changes":[6.341672E1,4.173793E1,3.8232254E1,4.7181087E1,2.6891743E1,4.71772E1,4.3394493E1,0E0,0E0,0E0,0E0,2.2592506E0,0E0,1.8317303E1,1.3139065E1,0E0,0E0,0E0,0E0,0E0,0E0],"parents":[2147483647,0,0,1,1,3,3,5,5,6,6,2,2,4,4,13,13,14,14,11,11],"right_children":[2,4,12,6,14,8,10,-1,-1,-1,-1,20,-1,16,18,-1,-1,-1,-1,-1,-1],"split_conditions":[3E1,2.7E1,6E0,3E0,9E0,6E0,1.2E1,3.375798E-2,-5.377013E-1,1.3199618E-1,6.0966355E-1,6E0,3.2680352E0,5E0,1E1,4.7634405E-1,-9.804035E-1,-2.4118063E0,-3.6746043E-1,5.989701E-2,8.68997E-1],"split_indices":[9,10,15,2,0,8,12,0,0,0,0,1,0,4,2,0,0,0,0,0,0],"split_type":[0,0,0,0,0,0,0,0,0,0,0,0,0,0,0,0,0,0,0,0,0],"sum_hessian":[9.96E2,9.87E2,9E0,9.69E2,1.8E1,3.06E2,6.63E2,2.34E2,7.2E1,5.8E2,8.3E1,6E0,3E0,1.2E1,6E0,6E0,6E0,4E0,2E0,2E0,4E0],"tree_param":{"num_deleted":"0","num_feature":"17","num_nodes":"21","size_leaf_vector":"1"}},{"base_weights":[-2.1482386E-2,-3.61351E-1,1.3388698E-1,-5.486724E-1,2.9187992E-1,9.614744E-1,-1.4428678E0,-8.0139065E-1,3.255507E-1,4.7519007E-1,-1.2858254E0,7.842463E-1,-1.3731582E0,-8.4206694E-1,-2.172017E-1,1.4526378E-1,-2.814694E0,5.393924E-1,-3.162702E-3,-3.2468405E-1,1.1399921E-1,3.0365983E-1,3.579748E0,-1.5732794E0,8.918751E-2],"categories":[],"categories_nodes":[],"categories_segments":[],"categories_sizes":[],"default_left":[0,0,0,0,0,0,0,0,0,0,0,0,0,0,0,0,0,0,0,0,0,0,0,0,0],"id":44,"left_children":[1,3,15,7,5,11,23,13,9,-1,-1,-1,-1,-1,-1,17,-1,21,19,-1,-1,-1,-1,-1,-1],"loss_changes":[5.2292442E1,3.8122528E1,3.6595673E1,5.356814E1,8.185573E1,5.0853508E1,3.4462612E1,4.685692E1,5.8987717E1,0E0,0E0,0E0,0E0,0E0,0E0,3.970353E1,0E0,4.6067055E1,4.8182446E1,0E0,0E0,0E0,0E0,0E0,0E0],"parents":[2147483647,0,0,1,1,4,4,3,3,8,8,5,5,7,7,2,2,15,15,18,18,17,17,6,6],"right_children":[2,4,16,8,6,12,24,14,10,-1,-1,-1,-1,-1,-1,18,-1,22,20,-1,-1,-1,-1,-1,-1],"split_conditions":[3E0,6E0,3.7E1,7E0,8E0,1.1E1,5E0,3E0,9E0,4.7519007E-1,-1.2858254E0,7.842463E-1,-1.3731582E0,-8.4206694E-1,-2.172017E-1,3E0,-2.814694E0,2.5E1,3E0,-3.2468405E-1,1.1399921E-1,3.0365983E-1,3.579748E0,-1.5732794E0,8.918751E-2],"split_indices":[1,3,0,8,13,7,2,13,11,0,0,0,0,0,0,10,0,15,2,0,0,0,0,0,0],"split_type":[0,0,0,0,0,0,0,0,0,0,0,0,0,0,0,0,0,0,0,0,0,0,0,0,0],"sum_hessian":[9.89E2,3.1E2,6.79E2,2.41E2,6.9E1,5E1,1.9E1,1.87E2,5.4E1,4.6E1,8E0,4.6E1,4E0,8.3E1,1.04E2,6.78E2,1E0,1.85E2,4.93E2,1.3E2,3.63E2,1.84E2,1E0,1.1E1,8E0],"tree_param":{"num_deleted":"0","num_feature":"17","num_nodes":"25","size_leaf_vector":"1"}},{"base_weights":[1.0015646E-1,1.735099E-1,-4.5647338E-1,-2.2864097E-1,-1.8714707E0,-4.9657813E-1,2.5909338E0,-7.614911E-1,6.0588885E-2,8.301681E-2,-3.0900934E0,6.851837E-2,5.6081814E-1,1.24175645E-1,-1.1961842E0,-1.3861076E0,8.534989E-1,-6.973181E-3,3.9553034E-1,-6.963404E-2,9.232801E-1,1.494821E-1,1.3026423E0,2.8948906E-1,-1.5024968E0,2.4979699E-1,2.2930295E0,-2.355433E0,-1.6792859E-1,8.6705047E-1,-7.733124E-1],"categories":[],"categories_nodes":[],"categories_segments":[],"categories_sizes":[],"default_left":[0,0,0,0,0,0,0,0,0,0,0,0,0,0,0,0,0,0,0,0,0,0,0,0,0,0,0,0,0,0,0],"id":45,"left_children":[1,11,3,5,9,7,25,-1,-1,29,27,13,19,17,15,-1,-1,-1,-1,23,21,-1,-1,-1,-1,-1,-1,-1,-1,-1,-1],"loss_changes":[3.9849113E1,3.5012352E1,3.6355415E1,7.540093E1,3.7498684E1,3.954937E1,2.004308E1,0E0,0E0,1.2855948E1,1.8692322E1,4.786944E1,4.2015648E1,4.531281E1,7.886063E1,0E0,0E0,0E0,0E0,8.631859E1,9.347338E1,0E0,0E0,0E0,0E0,0E0,0E0,0E0,0E0,0E0,0E0],"parents":[2147483647,0,0,2,2,3,3,5,5,4,4,1,1,11,11,14,14,13,13,12,12,20,20,19,19,6,6,10,10,9,9],"right_children":[2,12,4,6,10,8,26,-1,-1,30,28,14,20,18,16,-1,-1,-1,-1,24,22,-1,-1,-1,-1,-1,-1,-1,-1,-1,-1],"split_conditions":[1.2E1,8E0,1.2E1,1.3E1,5E0,4E0,3E0,-7.614911E-1,6.0588885E-2,5E0,1.9E1,1.6E1,4E0,6E0,8E0,-1.3861076E0,8.534989E-1,-6.973181E-3,3.9553034E-1,9E0,6E0,1.494821E-1,1.3026423E0,2.8948906E-1,-1.5024968E0,2.4979699E-1,2.2930295E0,-2.355433E0,-1.6792859E-1,8.6705047E-1,-7.733124E-1],"split_indices":[5,14,6,4,4,10,10,0,0,1,1,13,13,5,0,0,0,0,0,11,12,0,0,0,0,0,0,0,0,0,0],"split_type":[0,0,0,0,0,0,0,0,0,0,0,0,0,0,0,0,0,0,0,0,0,0,0,0,0,0,0,0,0,0,0],"sum_hessian":[9.74E2,8.61E2,1.13E2,9.8E1,1.5E1,9E1,8E0,4E1,5E1,6E0,9E0,6.78E2,1.83E2,6.5E2,2.8E1,2E1,8E0,5.15E2,1.35E2,6.7E1,1.16E2,7.4E1,4.2E1,5.5E1,1.2E1,3E0,5E0,7E0,2E0,3E0,3E0],"tree_param":{"num_deleted":"0","num_feature":"17","num_nodes":"31","size_leaf_vector":"1"}},{"base_weights":[-3.8668483E-2,-5.742302E-3,-2.023993E0,9.236086E-1,-2.770882E0,-1.7213065E-2,1.8225374E0,-1.23686105E-1,3.0619514E-1,1.0608612E0,9.582557E-2,-2.7532475E-2,-3.8783973E-1,1.5871584E-1,-3.3544958E0,-2.3790016E0,-5.810615E-1,-3.8194028E-1,1.0258782E0],"categories":[],"categories_nodes":[],"categories_segments":[],"categories_sizes":[],"default_left":[0,0,0,0,0,0,0,0,0,0,0,0,0,0,0,0,0,0,0],"id":46,"left_children":[1,5,3,17,13,7,-1,11,9,-1,-1,-1,-1,-1,15,-1,-1,-1,-1],"loss_changes":[6.278741E1,3.1997953E1,3.6215103E1,4.822341E0,2.2963097E1,3.248524E1,0E0,2.8227488E1,4.9604774E1,0E0,0E0,0E0,0E0,0E0,1.00840225E1,0E0,0E0,0E0,0E0],"parents":[2147483647,0,0,2,2,1,1,5,5,8,8,7,7,4,4,14,14,3,3],"right_children":[2,6,4,18,14,8,-1,12,10,-1,-1,-1,-1,-1,16,-1,-1,-1,-1],"split_conditions":[2.5E1,6.4E1,3E0,2E0,2E0,7E0,1.8225374E0,1E1,2E0,1.0608612E0,9.582557E-2,-2.7532475E-2,-3.8783973E-1,1.5871584E-1,1.8E1,-2.3790016E0,-5.810615E-1,-3.8194028E-1,1.0258782E0],"split_indices":[12,8,3,0,15,4,0,9,12,0,0,0,0,0,13,0,0,0,0],"split_type":[0,0,0,0,0,0,0,0,0,0,0,0,0,0,0,0,0,0,0],"sum_hessian":[9.6E2,9.45E2,1.5E1,3E0,1.2E1,9.42E2,3E0,7.09E2,2.33E2,2.2E1,2.11E2,6.13E2,9.6E1,2E0,1E1,8E0,2E0,1E0,2E0],"tree_param":{"num_deleted":"0","num_feature":"17","num_nodes":"19","size_leaf_vector":"1"}},{"base_weights":[-8.591682E-2,-1.8739378E-1,2.034145E-1,6.4023405E-2,-6.751399E-1,4.8086923E-1,-2.4384314E-1,-1.3529739E0,-3.500251E-1,1.8972503E-3,1.2328985E0,2.8867555E-1,-4.321692E-1,-2.7101725E-1,3.885437E-1,3.8412935E-1,-6.4794785E-1,-6.353154E-1,-1.9103968E0,1.6062531E0,-1.2153759E-1,1.746582E0,-6.409698E-1,1.6486161E0,-8.004264E-2,4.9597645E-1,2.5371583E0,-7.8416467E-1,4.6251103E-4,1.5078184E-2,-1.4821068E0],"categories":[],"categories_nodes":[],"categories_segments":[],"categories_sizes":[],"default_left":[0,0,0,0,0,0,0,0,0,0,0,0,0,0,0,0,0,0,0,0,0,0,0,0,0,0,0,0,0,0,0],"id":47,"left_children":[1,3,9,5,7,15,13,17,11,19,21,-1,-1,-1,-1,-1,-1,-1,-1,25,27,23,29,-1,-1,-1,-1,-1,-1,-1,-1],"loss_changes":[2.9464367E1,9.110181E1,5.4074883E1,6.3047997E1,5.5362076E1,4.47309E1,4.7828285E1,4.4175385E1,4.888179E1,4.3436928E1,4.182467E1,0E0,0E0,0E0,0E0,0E0,0E0,0E0,0E0,2.9217861E1,2.8494238E1,5.796209E1,1.1307034E1,0E0,0E0,0E0,0E0,0E0,0E0,0E0,0E0],"parents":[2147483647,0,0,1,1,3,3,4,4,2,2,8,8,6,6,5,5,7,7,9,9,10,10,21,21,19,19,20,20,22,22],"right_children":[2,4,10,6,8,16,14,18,12,20,22,-1,-1,-1,-1,-1,-1,-1,-1,26,28,24,30,-1,-1,-1,-1,-1,-1,-1,-1],"split_conditions":[7E0,5E0,1.2E1,3E0,7E0,1.1E1,8E0,9E0,9E0,2E0,9E0,2.8867555E-1,-4.321692E-1,-2.7101725E-1,3.885437E-1,3.8412935E-1,-6.4794785E-1,-6.353154E-1,-1.9103968E0,5E0,2E0,1.7E1,1.1E1,1.6486161E0,-8.004264E-2,4.9597645E-1,2.5371583E0,-7.8416467E-1,4.6251103E-4,1.5078184E-2,-1.4821068E0],"split_indices":[11,1,2,11,1,2,6,10,1,15,14,0,0,0,0,0,0,0,0,14,5,2,3,0,0,0,0,0,0,0,0],"split_type":[0,0,0,0,0,0,0,0,0,0,0,0,0,0,0,0,0,0,0,0,0,0,0,0,0,0,0,0,0,0,0],"sum_hessian":[1.002E3,7.42E2,2.6E2,4.9E2,2.52E2,2.08E2,2.82E2,8.1E1,1.71E2,2.18E2,4.2E1,5.1E1,1.2E2,2.31E2,5.1E1,1.91E2,1.7E1,6.9E1,1.2E1,1.5E1,2.03E2,3.3E1,9E0,2.2E1,1.1E1,1.2E1,3E0,1.9E1,1.84E2,7E0,2E0],"tree_param":{"num_deleted":"0","num_feature":"17","num_nodes":"31","size_leaf_vector":"1"}},{"base_weights":[-4.698991E-2,-1.3516092E-1,6.191525E-1,-9.677903E-2,-2.1389291E0,-7.932898E-3,-8.53647E-1,3.334842E-2,-7.026497E-1,5.686719E-2,-8.1455797E-1,3.6637783E-1,1.9463E0,8.4938264E-1,-3.784646E-1,-7.439929E-1,7.572347E-1,-1.6115133E0,4.2910863E-2,2.7322369E0,2.5765675E-1,-2.6135838E0,1.9140353E-2,4.0452802E-1,-1.8006757E0,1.9686497E0,1.6620718E-1,-2.2551994E-1,7.936321E-1,1.0284518E-1,-1.3782154E-1],"categories":[],"categories_nodes":[],"categories_segments":[],"categories_sizes":[],"default_left":[0,0,0,0,0,0,0,0,0,0,0,0,0,0,0,0,0,0,0,0,0,0,0,0,0,0,0,0,0,0,0],"id":48,"left_children":[1,3,11,5,21,7,9,-1,-1,-1,-1,13,19,15,17,-1,-1,-1,-1,25,27,23,29,-1,-1,-1,-1,-1,-1,-1,-1],"loss_changes":[5.912283E1,6.820423E1,3.8993526E1,5.8676704E1,1.7112984E1,5.439653E1,4.0030106E1,0E0,0E0,0E0,0E0,3.6073563E1,2.4302094E1,4.7336884E1,3.9594124E1,0E0,0E0,0E0,0E0,1.3312576E1,4.5557575E0,1.4332626E1,1.5482444E-1,0E0,0E0,0E0,0E0,0E0,0E0,0E0,0E0],"parents":[2147483647,0,0,1,1,3,3,5,5,6,6,2,2,11,11,13,13,14,14,12,12,4,4,21,21,19,19,20,20,22,22],"right_children":[2,4,12,6,22,8,10,-1,-1,-1,-1,14,20,16,18,-1,-1,-1,-1,26,28,24,30,-1,-1,-1,-1,-1,-1,-1,-1],"split_conditions":[1.1E1,2.2E1,1.1E1,1.1E1,1E1,1.5E1,4E0,3.334842E-2,-7.026497E-1,5.686719E-2,-8.1455797E-1,7E0,7E0,2E0,3E0,-7.439929E-1,7.572347E-1,-1.6115133E0,4.2910863E-2,2.2E1,7E0,2E0,1.7E1,4.0452802E-1,-1.8006757E0,1.9686497E0,1.6620718E-1,-2.2551994E-1,7.936321E-1,1.0284518E-1,-1.3782154E-1],"split_indices":[1,16,2,2,5,4,6,0,0,0,0,3,9,11,5,0,0,0,0,0,15,0,5,0,0,0,0,0,0,0,0],"split_type":[0,0,0,0,0,0,0,0,0,0,0,0,0,0,0,0,0,0,0,0,0,0,0,0,0,0,0,0,0,0,0],"sum_hessian":[1.005E3,8.88E2,1.17E2,8.72E2,1.6E1,7.81E2,9.1E1,7.41E2,4E1,3E1,6.1E1,9.9E1,1.8E1,6E1,3.9E1,9E0,5.1E1,6E0,3.3E1,1.2E1,6E0,1.3E1,3E0,1E0,1.2E1,1E1,2E0,4E0,2E0,2E0,1E0],"tree_param":{"num_deleted":"0","num_feature":"17","num_nodes":"31","size_leaf_vector":"1"}},{"base_weights":[-6.322969E-2,-2.1742256E-1,1.833432E-1,-1.8247348E-1,7.8601223E-1,3.3126692E-3,-1.2398982E0,-2.4674513E0,-2.9572797E-1,-3.7627693E-2,2.9990704E0,1.8513643E0,5.310084E-1,3.1614053E0,-3.0896413E-1,6.929625E-2,8.385345E-1,9.564555E-2,-3.7656075E-1,1.2337694E0,-1.7400275E-1,-3.937702E-1,1.841972E0,1.5327728E-2,-8.9596826E-1,-6.0659283E-1,-5.7433717E-2,1.1182709E-1,-7.1096987E-1,-4.05754E-1,1.1605799E0],"categories":[],"categories_nodes":[],"categories_segments":[],"categories_sizes":[],"default_left":[0,0,0,0,0,0,0,0,0,0,0,0,0,0,0,0,0,0,0,0,0,0,0,0,0,0,0,0,0,0,0],"id":49,"left_children":[1,17,3,5,11,9,7,-1,-1,-1,-1,13,15,-1,-1,-1,-1,19,25,21,23,-1,-1,-1,-1,29,27,-1,-1,-1,-1],"loss_changes":[3.780587E1,3.0498608E1,8.446283E1,4.689244E1,3.8640198E1,6.3288166E1,7.331708E1,0E0,0E0,0E0,0E0,2.1308379E2,4.0454033E1,0E0,0E0,0E0,0E0,6.357097E1,2.97557E1,1.3021475E2,4.241113E1,0E0,0E0,0E0,0E0,2.9007057E1,4.439667E1,0E0,0E0,0E0,0E0],"parents":[2147483647,0,0,2,2,3,3,6,6,5,5,4,4,11,11,12,12,1,1,17,17,19,19,20,20,18,18,26,26,25,25],"right_children":[2,18,4,6,12,10,8,-1,-1,-1,-1,14,16,-1,-1,-1,-1,20,26,22,24,-1,-1,-1,-1,30,28,-1,-1,-1,-1],"split_conditions":[5E0,3E0,5E0,1E1,3E0,1.8E1,1.2E1,-2.4674513E0,-2.9572797E-1,-3.7627693E-2,2.9990704E0,7E0,6E0,3.1614053E0,-3.0896413E-1,6.929625E-2,8.385345E-1,2E0,6E0,3E0,8E0,-3.937702E-1,1.841972E0,1.5327728E-2,-8.9596826E-1,2.1E1,8E0,1.1182709E-1,-7.1096987E-1,-4.05754E-1,1.1605799E0],"split_indices":[14,0,9,2,10,0,2,0,0,0,0,14,4,0,0,0,0,4,0,8,15,0,0,0,0,10,12,0,0,0,0],"split_type":[0,0,0,0,0,0,0,0,0,0,0,0,0,0,0,0,0,0,0,0,0,0,0,0,0,0,0,0,0,0,0],"sum_hessian":[9.93E2,6.11E2,3.82E2,2.38E2,1.44E2,2.03E2,3.5E1,7E0,2.8E1,2.01E2,2E0,2.7E1,1.17E2,1.1E1,1.6E1,7.8E1,3.9E1,2.06E2,4.05E2,3.9E1,1.67E2,1.9E1,2E1,1.45E2,2.2E1,2.35E2,1.7E2,1.4E2,3E1,2.31E2,4E0],"tree_param":{"num_deleted":"0","num_feature":"17","num_nodes":"31","size_leaf_vector":"1"}},{"base_weights":[1.0523584E-1,2.680559E-1,-1.386184E-1,9.568144E-2,8.926649E-1,5.328499E-1,2.9741595E0,3.2775044E0,-6.496043E-2,5.384103E-1,-6.4091533E-1,-1.0593E-1,6.3263196E-1,5.9774107E-1,-3.9441317E-1,7.524108E-2,-4.6795425E-1,-3.7493494E-1,2.4164574E-1,-5.0616676E-1,7.083237E-1,2.4438252E0,3.0737168E-1,-5.8186615E-1,5.977891E-1,-3.9802054E-1,1.9390293E0,1.2579511E-2,-4.477339E-1],"categories":[],"categories_nodes":[],"categories_segments":[],"categories_sizes":[],"default_left":[0,0,0,0,0,0,0,0,0,0,0,0,0,0,0,0,0,0,0,0,0,0,0,0,0,0,0,0,0],"id":50,"left_children":[1,3,17,11,5,9,7,-1,-1,-1,-1,15,13,-1,-1,-1,-1,25,19,23,21,-1,-1,-1,-1,27,-1,-1,-1],"loss_changes":[3.9120773E1,6.353677E1,3.5527004E1,5.024043E1,9.455191E1,5.8362984E1,1.3347101E2,0E0,0E0,0E0,0E0,4.9908943E1,5.379127E1,0E0,0E0,0E0,0E0,2.054274E1,5.317142E1,3.7963783E1,6.3018456E1,0E0,0E0,0E0,0E0,3.295801E1,0E0,0E0,0E0],"parents":[2147483647,0,0,1,1,4,4,6,6,5,5,3,3,12,12,11,11,2,2,18,18,20,20,19,19,17,17,25,25],"right_children":[2,4,18,12,6,10,8,-1,-1,-1,-1,16,14,-1,-1,-1,-1,26,20,24,22,-1,-1,-1,-1,28,-1,-1,-1],"split_conditions":[5E0,4E0,6E0,6E0,9E0,8E0,5E0,3.2775044E0,-6.496043E-2,5.384103E-1,-6.4091533E-1,6E0,1.4E1,5.9774107E-1,-3.9441317E-1,7.524108E-2,-4.6795425E-1,3.3E1,4E0,1.1E1,2E0,2.4438252E0,3.0737168E-1,-5.8186615E-1,5.977891E-1,4E0,1.9390293E0,1.2579511E-2,-4.477339E-1],"split_indices":[7,7,3,8,5,0,4,0,0,0,0,0,8,0,0,0,0,15,11,1,2,0,0,0,0,13,0,0,0],"split_type":[0,0,0,0,0,0,0,0,0,0,0,0,0,0,0,0,0,0,0,0,0,0,0,0,0,0,0,0,0],"sum_hessian":[9.84E2,5.9E2,3.94E2,4.63E2,1.27E2,1.09E2,1.8E1,1E1,8E0,9E1,1.9E1,3.37E2,1.26E2,1E2,2.6E1,2.5E2,8.7E1,2.43E2,1.51E2,5.8E1,9.3E1,5E0,8.8E1,4.5E1,1.3E1,2.42E2,1E0,1.06E2,1.36E2],"tree_param":{"num_deleted":"0","num_feature":"17","num_nodes":"29","size_leaf_vector":"1"}}]},"name":"gbtree"},"learner_model_param":{"base_score":"5.6991153E0","boost_from_average":"1","num_class":"0","num_feature":"17","num_target":"1"},"objective":{"name":"reg:squarederror","reg_loss_param":{"scale_pos_weight":"1"}}},"version":[2,1,1]}