{"learner":{"attributes":{"best_iteration":"130","best_score":"10.103089648171848","scikit_learn":"{\"_estimator_type\": \"regressor\"}"},"feature_names":[],"feature_types":[],"gradient_booster":{"model":{"gbtree_model_param":{"num_parallel_tree":"1","num_trees":"181"},"iteration_indptr":[0,1,2,3,4,5,6,7,8,9,10,11,12,13,14,15,16,17,18,19,20,21,22,23,24,25,26,27,28,29,30,31,32,33,34,35,36,37,38,39,40,41,42,43,44,45,46,47,48,49,50,51,52,53,54,55,56,57,58,59,60,61,62,63,64,65,66,67,68,69,70,71,72,73,74,75,76,77,78,79,80,81,82,83,84,85,86,87,88,89,90,91,92,93,94,95,96,97,98,99,100,101,102,103,104,105,106,107,108,109,110,111,112,113,114,115,116,117,118,119,120,121,122,123,124,125,126,127,128,129,130,131,132,133,134,135,136,137,138,139,140,141,142,143,144,145,146,147,148,149,150,151,152,153,154,155,156,157,158,159,160,161,162,163,164,165,166,167,168,169,170,171,172,173,174,175,176,177,178,179,180,181],"tree_info":[0,0,0,0,0,0,0,0,0,0,0,0,0,0,0,0,0,0,0,0,0,0,0,0,0,0,0,0,0,0,0,0,0,0,0,0,0,0,0,0,0,0,0,0,0,0,0,0,0,0,0,0,0,0,0,0,0,0,0,0,0,0,0,0,0,0,0,0,0,0,0,0,0,0,0,0,0,0,0,0,0,0,0,0,0,0,0,0,0,0,0,0,0,0,0,0,0,0,0,0,0,0,0,0,0,0,0,0,0,0,0,0,0,0,0,0,0,0,0,0,0,0,0,0,0,0,0,0,0,0,0,0,0,0,0,0,0,0,0,0,0,0,0,0,0,0,0,0,0,0,0,0,0,0,0,0,0,0,0,0,0,0,0,0,0,0,0,0,0,0,0,0,0,0,0,0,0,0,0,0,0],"trees":[{"base_weights":[-3.8687754E-1,-1.1058788E0,4.268704E0,3.4879133E-1,4.687642E0,-2.244209E-1,1.088102E-1],"categories":[],"categories_nodes":[],"categories_segments":[],"categories_sizes":[],"default_left":[0,0,0,0,0,0,0],"id":0,"left_children":[1,5,3,-1,-1,-1,-1],"loss_changes":[2.3030347E3,1.763967E3,2.2200972E3,0E0,0E0,0E0,0E0],"parents":[2147483647,0,0,2,2,1,1],"right_children":[2,6,4,-1,-1,-1,-1],"split_conditions":[1.4E1,5E0,9E1,3.4879133E-1,4.687642E0,-2.244209E-1,1.088102E-1],"split_indices":[28,26,30,0,0,0,0],"split_type":[0,0,0,0,0,0,0],"sum_hessian":[6.88E2,5.96E2,9.2E1,9.1E1,1E0,3.79E2,2.17E2],"tree_param":{"num_deleted":"0","num_feature":"32","num_nodes":"7","size_leaf_vector":"1"}},{"base_weights":[3.44486E-1,-3.5569546E-1,1.5683865E1,8.9072365E-1,3.6314769E0,-1.1094467E-1,3.7871364E-1],"categories":[],"categories_nodes":[],"categories_segments":[],"categories_sizes":[],"default_left":[0,0,0,0,0,0,0],"id":1,"left_children":[1,5,3,-1,-1,-1,-1],"loss_changes":[7.144162E3,2.345331E3,4.123939E3,0E0,0E0,0E0,0E0],"parents":[2147483647,0,0,2,2,1,1],"right_children":[2,6,4,-1,-1,-1,-1],"split_conditions":[3.2E1,1.2E1,1.7E1,8.9072365E-1,3.6314769E0,-1.1094467E-1,3.7871364E-1],"split_indices":[28,30,6,0,0,0,0],"split_type":[0,0,0,0,0,0,0],"sum_hessian":[6.65E2,6.36E2,2.9E1,2.3E1,6E0,5.35E2,1.01E2],"tree_param":{"num_deleted":"0","num_feature":"32","num_nodes":"7","size_leaf_vector":"1"}},{"base_weights":[-4.9875027E-1,-8.7813085E-1,1.7687223E1,-1.8512867E-1,2.5192627E-1,9.16087E-1,2.9494464E0],"categories":[],"categories_nodes":[],"categories_segments":[],"categories_sizes":[],"default_left":[0,0,0,0,0,0,0],"id":2,"left_children":[1,3,5,-1,-1,-1,-1],"loss_changes":[4.7393735E3,2.6703718E3,1.5247041E3,0E0,0E0,0E0,0E0],"parents":[2147483647,0,0,1,1,2,2],"right_children":[2,4,6,-1,-1,-1,-1],"split_conditions":[3.4E1,9E0,5E0,-1.8512867E-1,2.5192627E-1,9.16087E-1,2.9494464E0],"split_indices":[28,22,26,0,0,0,0],"split_type":[0,0,0,0,0,0,0],"sum_hessian":[6.87E2,6.73E2,1.4E1,5.14E2,1.59E2,9E0,5E0],"tree_param":{"num_deleted":"0","num_feature":"32","num_nodes":"7","size_leaf_vector":"1"}},{"base_weights":[-9.769326E-2,1.4937359E0,-2.2143261E0,4.3307284E-1,2.8323103E-2,-3.0115E-1,1.571063E-2],"categories":[],"categories_nodes":[],"categories_segments":[],"categories_sizes":[],"default_left":[0,0,0,0,0,0,0],"id":3,"left_children":[1,3,5,-1,-1,-1,-1],"loss_changes":[2.284128E3,1.4512944E3,7.051876E2,0E0,0E0,0E0,0E0],"parents":[2147483647,0,0,1,1,2,2],"right_children":[2,4,6,-1,-1,-1,-1],"split_conditions":[5E0,2E0,6E0,4.3307284E-1,2.8323103E-2,-3.0115E-1,1.571063E-2],"split_indices":[21,1,14,0,0,0,0],"split_type":[0,0,0,0,0,0,0],"sum_hessian":[6.78E2,3.87E2,2.91E2,1.06E2,2.81E2,2.04E2,8.7E1],"tree_param":{"num_deleted":"0","num_feature":"32","num_nodes":"7","size_leaf_vector":"1"}},{"base_weights":[-3.5490334E-1,-1.724129E0,1.6241543E0,-5.841044E-2,3.6268365E-1,-1.7897496E-1,6.537004E-1],"categories":[],"categories_nodes":[],"categories_segments":[],"categories_sizes":[],"default_left":[0,0,0,0,0,0,0],"id":4,"left_children":[1,5,3,-1,-1,-1,-1],"loss_changes":[1.8889257E3,7.055E2,1.4546243E3,0E0,0E0,0E0,0E0],"parents":[2147483647,0,0,2,2,1,1],"right_children":[2,6,4,-1,-1,-1,-1],"split_conditions":[5E0,4.3E1,6E0,-5.841044E-2,3.6268365E-1,-1.7897496E-1,6.537004E-1],"split_indices":[18,17,12,0,0,0,0],"split_type":[0,0,0,0,0,0,0],"sum_hessian":[6.97E2,4.12E2,2.85E2,1.43E2,1.42E2,4.03E2,9E0],"tree_param":{"num_deleted":"0","num_feature":"32","num_nodes":"7","size_leaf_vector":"1"}},{"base_weights":[2.4626282E-1,-1.2290666E0,3.330488E0,2.8429478E-1,5.8407903E0,-2.0727722E-1,2.0534191E-2],"categories":[],"categories_nodes":[],"categories_segments":[],"categories_sizes":[],"default_left":[0,0,0,0,0,0,0],"id":5,"left_children":[1,5,3,-1,-1,-1,-1],"loss_changes":[3.1083074E3,6.6624756E2,3.6665286E3,0E0,0E0,0E0,0E0],"parents":[2147483647,0,0,2,2,1,1],"right_children":[2,6,4,-1,-1,-1,-1],"split_conditions":[7E0,4E0,4.3E1,2.8429478E-1,5.8407903E0,-2.0727722E-1,2.0534191E-2],"split_indices":[28,12,17,0,0,0,0],"split_type":[0,0,0,0,0,0,0],"sum_hessian":[6.83E2,4.62E2,2.21E2,2.2E2,1E0,2.74E2,1.88E2],"tree_param":{"num_deleted":"0","num_feature":"32","num_nodes":"7","size_leaf_vector":"1"}},{"base_weights":[-2.5103623E-1,-5.2126545E-1,9.132565E0,3.2334461E0,4.2434672E-1,1.10977136E-1,-1.5035333E-1],"categories":[],"categories_nodes":[],"categories_segments":[],"categories_sizes":[],"default_left":[0,0,0,0,0,0,0],"id":6,"left_children":[1,5,3,-1,-1,-1,-1],"loss_changes":[1.8151571E3,1.300937E3,2.3363643E3,0E0,0E0,0E0,0E0],"parents":[2147483647,0,0,2,2,1,1],"right_children":[2,6,4,-1,-1,-1,-1],"split_conditions":[3.2E1,3E0,2E0,3.2334461E0,4.2434672E-1,1.10977136E-1,-1.5035333E-1],"split_indices":[28,25,8,0,0,0,0],"split_type":[0,0,0,0,0,0,0],"sum_hessian":[7.16E2,6.96E2,2E1,3E0,1.7E1,2.71E2,4.25E2],"tree_param":{"num_deleted":"0","num_feature":"32","num_nodes":"7","size_leaf_vector":"1"}},{"base_weights":[1.4980164E-1,-8.642373E-2,1.5456234E1,4.4299394E-1,3.7325609E0,-2.280234E-1,1.3485637E-1],"categories":[],"categories_nodes":[],"categories_segments":[],"categories_sizes":[],"default_left":[0,0,0,0,0,0,0],"id":7,"left_children":[1,5,3,-1,-1,-1,-1],"loss_changes":[2.387821E3,2.3521047E3,2.6308628E3,0E0,0E0,0E0,0E0],"parents":[2147483647,0,0,2,2,1,1],"right_children":[2,6,4,-1,-1,-1,-1],"split_conditions":[3.9E1,3E0,1.1E1,4.4299394E-1,3.7325609E0,-2.280234E-1,1.3485637E-1],"split_indices":[22,12,2,0,0,0,0],"split_type":[0,0,0,0,0,0,0],"sum_hessian":[6.6E2,6.5E2,1E1,7E0,3E0,2.56E2,3.94E2],"tree_param":{"num_deleted":"0","num_feature":"32","num_nodes":"7","size_leaf_vector":"1"}},{"base_weights":[-2.8604534E-2,-3.171204E-1,1.4292688E1,-1.1013447E-1,2.7687154E0,-8.906002E-2,4.1644186E-1],"categories":[],"categories_nodes":[],"categories_segments":[],"categories_sizes":[],"default_left":[0,0,0,0,0,0,0],"id":8,"left_children":[1,5,3,-1,-1,-1,-1],"loss_changes":[2.9369958E3,2.1288198E3,3.3509268E3,0E0,0E0,0E0,0E0],"parents":[2147483647,0,0,2,2,1,1],"right_children":[2,6,4,-1,-1,-1,-1],"split_conditions":[3.8E1,1.4E1,5E0,-1.1013447E-1,2.7687154E0,-8.906002E-2,4.1644186E-1],"split_indices":[28,20,6,0,0,0,0],"split_type":[0,0,0,0,0,0,0],"sum_hessian":[7.11E2,6.97E2,1.4E1,7E0,7E0,6.15E2,8.2E1],"tree_param":{"num_deleted":"0","num_feature":"32","num_nodes":"7","size_leaf_vector":"1"}},{"base_weights":[-1.386029E-1,-2.256447E0,1.2411674E0,1.0541835E-1,4.246246E0,-2.4274844E-1,1.2237543E0],"categories":[],"categories_nodes":[],"categories_segments":[],"categories_sizes":[],"default_left":[0,0,0,0,0,0,0],"id":9,"left_children":[1,5,3,-1,-1,-1,-1],"loss_changes":[2.0224127E3,1.4614276E3,2.0410361E3,0E0,0E0,0E0,0E0],"parents":[2147483647,0,0,2,2,1,1],"right_children":[2,6,4,-1,-1,-1,-1],"split_conditions":[3E0,4.7E1,9E1,1.0541835E-1,4.246246E0,-2.4274844E-1,1.2237543E0],"split_indices":[28,27,30,0,0,0,0],"split_type":[0,0,0,0,0,0,0],"sum_hessian":[6.92E2,2.73E2,4.19E2,4.18E2,1E0,2.67E2,6E0],"tree_param":{"num_deleted":"0","num_feature":"32","num_nodes":"7","size_leaf_vector":"1"}},{"base_weights":[1.10697284E-1,-3.154677E-1,1.1008087E1,6.9316125E-1,2.7497852E0,-6.108358E-2,4.8620558E-1],"categories":[],"categories_nodes":[],"categories_segments":[],"categories_sizes":[],"default_left":[0,0,0,0,0,0,0],"id":10,"left_children":[1,5,3,-1,-1,-1,-1],"loss_changes":[3.0894734E3,1.2029606E3,1.6425967E3,0E0,0E0,0E0,0E0],"parents":[2147483647,0,0,2,2,1,1],"right_children":[2,6,4,-1,-1,-1,-1],"split_conditions":[3.2E1,2.2E1,2E1,6.9316125E-1,2.7497852E0,-6.108358E-2,4.8620558E-1],"split_indices":[28,8,18,0,0,0,0],"split_type":[0,0,0,0,0,0,0],"sum_hessian":[6.65E2,6.4E2,2.5E1,2.1E1,4E0,6.03E2,3.7E1],"tree_param":{"num_deleted":"0","num_feature":"32","num_nodes":"7","size_leaf_vector":"1"}},{"base_weights":[4.5608824E-1,3.9314735E-1,3.870035E0,1.00206174E-1,-2.0106018E-1],"categories":[],"categories_nodes":[],"categories_segments":[],"categories_sizes":[],"default_left":[0,0,0,0,0],"id":11,"left_children":[1,3,-1,-1,-1],"loss_changes":[1.7510104E3,1.1790416E3,0E0,0E0,0E0],"parents":[2147483647,0,0,1,1],"right_children":[2,4,-1,-1,-1],"split_conditions":[9E1,1.1E1,3.870035E0,1.00206174E-1,-2.0106018E-1],"split_indices":[30,19,0,0,0],"split_type":[0,0,0,0,0],"sum_hessian":[6.79E2,6.78E2,1E0,5.35E2,1.43E2],"tree_param":{"num_deleted":"0","num_feature":"32","num_nodes":"5","size_leaf_vector":"1"}},{"base_weights":[-2.2249313E-2,-1.0395051E0,2.983201E0,-1.08672224E-1,2.9484632E0,-1.0590743E-1,4.3962952E-1],"categories":[],"categories_nodes":[],"categories_segments":[],"categories_sizes":[],"default_left":[0,0,0,0,0,0,0],"id":12,"left_children":[1,3,5,-1,-1,-1,-1],"loss_changes":[2.1646484E3,2.18278E3,1.2787773E3,0E0,0E0,0E0,0E0],"parents":[2147483647,0,0,1,1,2,2],"right_children":[2,4,6,-1,-1,-1,-1],"split_conditions":[9E0,4.3E1,3E0,-1.08672224E-1,2.9484632E0,-1.0590743E-1,4.3962952E-1],"split_indices":[26,14,12,0,0,0,0],"split_type":[0,0,0,0,0,0,0],"sum_hessian":[7.08E2,5.29E2,1.79E2,5.27E2,2E0,5.3E1,1.26E2],"tree_param":{"num_deleted":"0","num_feature":"32","num_nodes":"7","size_leaf_vector":"1"}},{"base_weights":[4.630726E-1,-6.6829634E-1,2.4495654E0,2.0043398E-1,1.6487201E0,-7.4896395E-2,7.4834013E-1],"categories":[],"categories_nodes":[],"categories_segments":[],"categories_sizes":[],"default_left":[0,0,0,0,0,0,0],"id":13,"left_children":[1,5,3,-1,-1,-1,-1],"loss_changes":[1.6229493E3,5.4058484E2,1.1919988E3,0E0,0E0,0E0,0E0],"parents":[2147483647,0,0,2,2,1,1],"right_children":[2,6,4,-1,-1,-1,-1],"split_conditions":[6E0,3.7E1,3.9E1,2.0043398E-1,1.6487201E0,-7.4896395E-2,7.4834013E-1],"split_indices":[26,18,28,0,0,0,0],"split_type":[0,0,0,0,0,0,0],"sum_hessian":[7.22E2,4.6E2,2.62E2,2.57E2,5E0,4.53E2,7E0],"tree_param":{"num_deleted":"0","num_feature":"32","num_nodes":"7","size_leaf_vector":"1"}},{"base_weights":[-1.4892137E-1,-3.174447E-1,1.4227022E1,7.8612655E-1,4.9363236E0,-7.773803E-2,2.4593754E-1],"categories":[],"categories_nodes":[],"categories_segments":[],"categories_sizes":[],"default_left":[0,0,0,0,0,0,0],"id":14,"left_children":[1,5,3,-1,-1,-1,-1],"loss_changes":[1.6804835E3,1.0474133E3,1.7819072E3,0E0,0E0,0E0,0E0],"parents":[2147483647,0,0,2,2,1,1],"right_children":[2,6,4,-1,-1,-1,-1],"split_conditions":[5.4E1,1.2E1,4E0,7.8612655E-1,4.9363236E0,-7.773803E-2,2.4593754E-1],"split_indices":[24,14,7,0,0,0,0],"split_type":[0,0,0,0,0,0,0],"sum_hessian":[6.94E2,6.86E2,8E0,7E0,1E0,5.84E2,1.02E2],"tree_param":{"num_deleted":"0","num_feature":"32","num_nodes":"7","size_leaf_vector":"1"}},{"base_weights":[-6.513221E-2,-7.051309E-1,4.1991744E0,3.090645E-1,7.4413238E0,-1.368094E-1,1.3306198E-1],"categories":[],"categories_nodes":[],"categories_segments":[],"categories_sizes":[],"default_left":[0,0,0,0,0,0,0],"id":15,"left_children":[1,5,3,-1,-1,-1,-1],"loss_changes":[1.8830442E3,9.7593274E2,5.9997954E3,0E0,0E0,0E0,0E0],"parents":[2147483647,0,0,2,2,1,1],"right_children":[2,6,4,-1,-1,-1,-1],"split_conditions":[1.5E1,8E0,2.6E1,3.090645E-1,7.4413238E0,-1.368094E-1,1.3306198E-1],"split_indices":[30,22,27,0,0,0,0],"split_type":[0,0,0,0,0,0,0],"sum_hessian":[6.9E2,6E2,9E1,8.9E1,1E0,4.42E2,1.58E2],"tree_param":{"num_deleted":"0","num_feature":"32","num_nodes":"7","size_leaf_vector":"1"}},{"base_weights":[1.5549938E-1,-3.0956946E-2,1.402965E1,-1.8923493E-1,4.270026E0,-1.642224E-2,9.8947984E-1],"categories":[],"categories_nodes":[],"categories_segments":[],"categories_sizes":[],"default_left":[0,0,0,0,0,0,0],"id":16,"left_children":[1,5,3,-1,-1,-1,-1],"loss_changes":[1.7629277E3,1.0382634E3,4.619213E3,0E0,0E0,0E0,0E0],"parents":[2147483647,0,0,2,2,1,1],"right_children":[2,6,4,-1,-1,-1,-1],"split_conditions":[3.2E1,3.7E1,1E1,-1.8923493E-1,4.270026E0,-1.642224E-2,9.8947984E-1],"split_indices":[24,22,20,0,0,0,0],"split_type":[0,0,0,0,0,0,0],"sum_hessian":[6.81E2,6.72E2,9E0,6E0,3E0,6.63E2,9E0],"tree_param":{"num_deleted":"0","num_feature":"32","num_nodes":"7","size_leaf_vector":"1"}},{"base_weights":[-1.182096E-1,-2.2160922E-1,2.430405E1,-3.7601974E-2,1.1740439E0,-5.729005E-1,3.672929E0],"categories":[],"categories_nodes":[],"categories_segments":[],"categories_sizes":[],"default_left":[0,0,0,0,0,0,0],"id":17,"left_children":[1,3,5,-1,-1,-1,-1],"loss_changes":[1.8190702E3,1.6722462E3,1.4079727E3,0E0,0E0,0E0,0E0],"parents":[2147483647,0,0,1,1,2,2],"right_children":[2,4,6,-1,-1,-1,-1],"split_conditions":[7.3E1,3.7E1,3E0,-3.7601974E-2,1.1740439E0,-5.729005E-1,3.672929E0],"split_indices":[22,28,2,0,0,0,0],"split_type":[0,0,0,0,0,0,0],"sum_hessian":[7.21E2,7.18E2,3E0,7.08E2,1E1,1E0,2E0],"tree_param":{"num_deleted":"0","num_feature":"32","num_nodes":"7","size_leaf_vector":"1"}},{"base_weights":[-2.6980606E-1,-6.0012597E-1,3.90361E0,1.0557991E0,-1.4085882E-2,-1.4319305E-1,9.728079E-2],"categories":[],"categories_nodes":[],"categories_segments":[],"categories_sizes":[],"default_left":[0,0,0,0,0,0,0],"id":18,"left_children":[1,5,3,-1,-1,-1,-1],"loss_changes":[9.593523E2,9.926122E2,1.5371191E3,0E0,0E0,0E0,0E0],"parents":[2147483647,0,0,2,2,1,1],"right_children":[2,6,4,-1,-1,-1,-1],"split_conditions":[1.8E1,6E0,2E0,1.0557991E0,-1.4085882E-2,-1.4319305E-1,9.728079E-2],"split_indices":[8,30,25,0,0,0,0],"split_type":[0,0,0,0,0,0,0],"sum_hessian":[6.96E2,6.45E2,5.1E1,1.8E1,3.3E1,4.11E2,2.34E2],"tree_param":{"num_deleted":"0","num_feature":"32","num_nodes":"7","size_leaf_vector":"1"}},{"base_weights":[1.07480474E-1,5.0456095E-2,3.51397E0,-8.092822E-2,1.6248302E-1],"categories":[],"categories_nodes":[],"categories_segments":[],"categories_sizes":[],"default_left":[0,0,0,0,0],"id":19,"left_children":[1,3,-1,-1,-1],"loss_changes":[1.4674973E3,1.0653729E3,0E0,0E0,0E0],"parents":[2147483647,0,0,1,1],"right_children":[2,4,-1,-1,-1],"split_conditions":[9E1,6E0,3.51397E0,-8.092822E-2,1.6248302E-1],"split_indices":[30,8,0,0,0],"split_type":[0,0,0,0,0],"sum_hessian":[6.86E2,6.85E2,1E0,4.44E2,2.41E2],"tree_param":{"num_deleted":"0","num_feature":"32","num_nodes":"5","size_leaf_vector":"1"}},{"base_weights":[-1.4957073E-1,-1.1210284E0,1.8056405E0,1.4010487E-1,3.2912817E0,-1.21440284E-1,4.7502342E-1],"categories":[],"categories_nodes":[],"categories_segments":[],"categories_sizes":[],"default_left":[0,0,0,0,0,0,0],"id":20,"left_children":[1,5,3,-1,-1,-1,-1],"loss_changes":[1.3049813E3,5.1879456E2,2.3067632E3,0E0,0E0,0E0,0E0],"parents":[2147483647,0,0,2,2,1,1],"right_children":[2,6,4,-1,-1,-1,-1],"split_conditions":[7E0,2E1,7.3E1,1.4010487E-1,3.2912817E0,-1.21440284E-1,4.7502342E-1],"split_indices":[20,24,22,0,0,0,0],"split_type":[0,0,0,0,0,0,0],"sum_hessian":[6.87E2,4.59E2,2.28E2,2.26E2,2E0,4.46E2,1.3E1],"tree_param":{"num_deleted":"0","num_feature":"32","num_nodes":"7","size_leaf_vector":"1"}},{"base_weights":[2.9526548E-2,-2.0106897E-2,3.2090096E0,1.2037251E-1,-8.9842275E-2],"categories":[],"categories_nodes":[],"categories_segments":[],"categories_sizes":[],"default_left":[0,0,0,0,0],"id":21,"left_children":[1,3,-1,-1,-1],"loss_changes":[1.2286549E3,8.8749365E2,0E0,0E0,0E0],"parents":[2147483647,0,0,1,1],"right_children":[2,4,-1,-1,-1],"split_conditions":[8.2E1,3E0,3.2090096E0,1.2037251E-1,-8.9842275E-2],"split_indices":[30,31,0,0,0],"split_type":[0,0,0,0,0],"sum_hessian":[7.18E2,7.17E2,1E0,3E2,4.17E2],"tree_param":{"num_deleted":"0","num_feature":"32","num_nodes":"5","size_leaf_vector":"1"}},{"base_weights":[-1.999149E-1,8.6221045E-1,-1.7245324E0,6.2527224E-2,2.4035861E0,-1.8747915E-1,2.759333E-1],"categories":[],"categories_nodes":[],"categories_segments":[],"categories_sizes":[],"default_left":[0,0,0,0,0,0,0],"id":22,"left_children":[1,3,5,-1,-1,-1,-1],"loss_changes":[1.0964735E3,1.9008932E3,3.7368408E2,0E0,0E0,0E0,0E0],"parents":[2147483647,0,0,1,1,2,2],"right_children":[2,4,6,-1,-1,-1,-1],"split_conditions":[5E0,3.9E1,1.8E1,6.2527224E-2,2.4035861E0,-1.8747915E-1,2.759333E-1],"split_indices":[23,27,12,0,0,0,0],"split_type":[0,0,0,0,0,0,0],"sum_hessian":[6.77E2,3.99E2,2.78E2,3.96E2,3E0,2.62E2,1.6E1],"tree_param":{"num_deleted":"0","num_feature":"32","num_nodes":"7","size_leaf_vector":"1"}},{"base_weights":[-4.040213E-1,-2.2418756E0,2.2543953E-1,9.298691E-3,9.9388427E-1,-1.9876258E-1,-1.8977922E0],"categories":[],"categories_nodes":[],"categories_segments":[],"categories_sizes":[],"default_left":[0,0,0,0,0,0,0],"id":23,"left_children":[1,5,3,-1,-1,-1,-1],"loss_changes":[7.8919965E2,3.419184E2,6.655181E2,0E0,0E0,0E0,0E0],"parents":[2147483647,0,0,2,2,1,1],"right_children":[2,6,4,-1,-1,-1,-1],"split_conditions":[2E0,5.5E1,4.7E1,9.298691E-3,9.9388427E-1,-1.9876258E-1,-1.8977922E0],"split_indices":[30,2,27,0,0,0,0],"split_type":[0,0,0,0,0,0,0],"sum_hessian":[6.82E2,1.74E2,5.08E2,5.02E2,6E0,1.73E2,1E0],"tree_param":{"num_deleted":"0","num_feature":"32","num_nodes":"7","size_leaf_vector":"1"}},{"base_weights":[-3.9028235E-2,-1.8642026E0,5.485136E-1,-1.917575E-1,2.9140904E0,1.5962094E-1,-3.3703398E-2],"categories":[],"categories_nodes":[],"categories_segments":[],"categories_sizes":[],"default_left":[0,0,0,0,0,0,0],"id":24,"left_children":[1,3,5,-1,-1,-1,-1],"loss_changes":[7.88372E2,1.1447472E3,5.891292E2,0E0,0E0,0E0,0E0],"parents":[2147483647,0,0,1,1,2,2],"right_children":[2,4,6,-1,-1,-1,-1],"split_conditions":[2E0,7.3E1,3E0,-1.917575E-1,2.9140904E0,1.5962094E-1,-3.3703398E-2],"split_indices":[22,30,23,0,0,0,0],"split_type":[0,0,0,0,0,0,0],"sum_hessian":[7.35E2,1.79E2,5.56E2,1.78E2,1E0,2.44E2,3.12E2],"tree_param":{"num_deleted":"0","num_feature":"32","num_nodes":"7","size_leaf_vector":"1"}},{"base_weights":[2.2430003E-1,-2.4126288E-1,2.8024058E0,5.0164956E-1,-2.9307699E-2,-9.368097E-2,8.71926E-2],"categories":[],"categories_nodes":[],"categories_segments":[],"categories_sizes":[],"default_left":[0,0,0,0,0,0,0],"id":25,"left_children":[1,5,3,-1,-1,-1,-1],"loss_changes":[8.320619E2,5.276134E2,8.5294934E2,0E0,0E0,0E0,0E0],"parents":[2147483647,0,0,2,2,1,1],"right_children":[2,6,4,-1,-1,-1,-1],"split_conditions":[1.3E1,5E0,3E0,5.0164956E-1,-2.9307699E-2,-9.368097E-2,8.71926E-2],"split_indices":[30,28,25,0,0,0,0],"split_type":[0,0,0,0,0,0,0],"sum_hessian":[6.93E2,5.87E2,1.06E2,5.8E1,4.8E1,3.56E2,2.31E2],"tree_param":{"num_deleted":"0","num_feature":"32","num_nodes":"7","size_leaf_vector":"1"}},{"base_weights":[1.2532353E-1,-4.9935E-1,2.2199557E0,1.7462142E-1,1.3958716E0,-5.32111E-2,1.6228874E0],"categories":[],"categories_nodes":[],"categories_segments":[],"categories_sizes":[],"default_left":[0,0,0,0,0,0,0],"id":26,"left_children":[1,5,3,-1,-1,-1,-1],"loss_changes":[8.716623E2,6.5606824E2,6.7415594E2,0E0,0E0,0E0,0E0],"parents":[2147483647,0,0,2,2,1,1],"right_children":[2,6,4,-1,-1,-1,-1],"split_conditions":[9E0,5.4E1,3.9E1,1.7462142E-1,1.3958716E0,-5.32111E-2,1.6228874E0],"split_indices":[26,24,28,0,0,0,0],"split_type":[0,0,0,0,0,0,0],"sum_hessian":[6.66E2,5.13E2,1.53E2,1.49E2,4E0,5.11E2,2E0],"tree_param":{"num_deleted":"0","num_feature":"32","num_nodes":"7","size_leaf_vector":"1"}},{"base_weights":[2.4290581E-1,-5.454461E-1,2.0787418E0,3.2779875E-1,-5.220955E-2,-6.2469978E-2,8.651138E-1],"categories":[],"categories_nodes":[],"categories_segments":[],"categories_sizes":[],"default_left":[0,0,0,0,0,0,0],"id":27,"left_children":[1,5,3,-1,-1,-1,-1],"loss_changes":[9.9739746E2,5.9041644E2,7.8591504E2,0E0,0E0,0E0,0E0],"parents":[2147483647,0,0,2,2,1,1],"right_children":[2,6,4,-1,-1,-1,-1],"split_conditions":[7E0,4.7E1,4E0,3.2779875E-1,-5.220955E-2,-6.2469978E-2,8.651138E-1],"split_indices":[28,27,7,0,0,0,0],"split_type":[0,0,0,0,0,0,0],"sum_hessian":[6.89E2,4.82E2,2.07E2,1.34E2,7.3E1,4.76E2,6E0],"tree_param":{"num_deleted":"0","num_feature":"32","num_nodes":"7","size_leaf_vector":"1"}},{"base_weights":[-3.3469626E-3,7.971049E-2,-1.428194E1,7.6082416E-2,-1.040969E-1,-9.6728283E-1,-1.6674175E0],"categories":[],"categories_nodes":[],"categories_segments":[],"categories_sizes":[],"default_left":[0,0,0,0,0,0,0],"id":28,"left_children":[1,3,5,-1,-1,-1,-1],"loss_changes":[8.278263E2,6.107316E2,4.7726807E1,0E0,0E0,0E0,0E0],"parents":[2147483647,0,0,1,1,2,2],"right_children":[2,4,6,-1,-1,-1,-1],"split_conditions":[4.9E1,6E0,7E0,7.6082416E-2,-1.040969E-1,-9.6728283E-1,-1.6674175E0],"split_indices":[28,29,8,0,0,0,0],"split_type":[0,0,0,0,0,0,0],"sum_hessian":[6.97E2,6.93E2,4E0,4.29E2,2.64E2,2E0,2E0],"tree_param":{"num_deleted":"0","num_feature":"32","num_nodes":"7","size_leaf_vector":"1"}},{"base_weights":[1.5906808E-1,7.3962525E-2,2.008447E1,-3.2399576E-2,2.4188645E-1,-1.7740479E-1,2.8851852E0],"categories":[],"categories_nodes":[],"categories_segments":[],"categories_sizes":[],"default_left":[0,0,0,0,0,0,0],"id":29,"left_children":[1,3,5,-1,-1,-1,-1],"loss_changes":[1.210863E3,7.5692773E2,7.302388E2,0E0,0E0,0E0,0E0],"parents":[2147483647,0,0,1,1,2,2],"right_children":[2,4,6,-1,-1,-1,-1],"split_conditions":[5.7E1,1.4E1,7E0,-3.2399576E-2,2.4188645E-1,-1.7740479E-1,2.8851852E0],"split_indices":[22,14,1,0,0,0,0],"split_type":[0,0,0,0,0,0,0],"sum_hessian":[7.15E2,7.12E2,3E0,6.1E2,1.02E2,1E0,2E0],"tree_param":{"num_deleted":"0","num_feature":"32","num_nodes":"7","size_leaf_vector":"1"}},{"base_weights":[2.2954844E-1,-1.4438726E-1,3.6745014E0,1.7350833E-1,1.6445206E0,-2.6987359E-2,4.5646584E-1],"categories":[],"categories_nodes":[],"categories_segments":[],"categories_sizes":[],"default_left":[0,0,0,0,0,0,0],"id":30,"left_children":[1,5,3,-1,-1,-1,-1],"loss_changes":[9.2140643E2,4.7165875E2,1.7709368E3,0E0,0E0,0E0,0E0],"parents":[2147483647,0,0,2,2,1,1],"right_children":[2,6,4,-1,-1,-1,-1],"split_conditions":[1.6E1,2.8E1,1.6E1,1.7350833E-1,1.6445206E0,-2.6987359E-2,4.5646584E-1],"split_indices":[8,6,22,0,0,0,0],"split_type":[0,0,0,0,0,0,0],"sum_hessian":[7.15E2,6.45E2,7E1,6.2E1,8E0,6.27E2,1.8E1],"tree_param":{"num_deleted":"0","num_feature":"32","num_nodes":"7","size_leaf_vector":"1"}},{"base_weights":[2.1538769E-1,1.2096578E-1,2.076985E1,-1.3519526E-2,3.5942197E-1,2.3133218E0,1.1186525E0],"categories":[],"categories_nodes":[],"categories_segments":[],"categories_sizes":[],"default_left":[0,0,0,0,0,0,0],"id":31,"left_children":[1,3,5,-1,-1,-1,-1],"loss_changes":[1.2889318E3,6.580682E2,9.384314E1,0E0,0E0,0E0,0E0],"parents":[2147483647,0,0,1,1,2,2],"right_children":[2,4,6,-1,-1,-1,-1],"split_conditions":[4.9E1,2.1E1,2E0,-1.3519526E-2,3.5942197E-1,2.3133218E0,1.1186525E0],"split_indices":[22,6,5,0,0,0,0],"split_type":[0,0,0,0,0,0,0],"sum_hessian":[6.65E2,6.62E2,3E0,6.18E2,4.4E1,2E0,1E0],"tree_param":{"num_deleted":"0","num_feature":"32","num_nodes":"7","size_leaf_vector":"1"}},{"base_weights":[-3.3132374E-2,-7.04269E-2,2.3199084E0,3.2403953E-2,-1.2508138E-1],"categories":[],"categories_nodes":[],"categories_segments":[],"categories_sizes":[],"default_left":[0,0,0,0,0],"id":32,"left_children":[1,3,-1,-1,-1],"loss_changes":[6.4499866E2,3.6954575E2,0E0,0E0,0E0],"parents":[2147483647,0,0,1,1],"right_children":[2,4,-1,-1,-1],"split_conditions":[7.3E1,9E0,2.3199084E0,3.2403953E-2,-1.2508138E-1],"split_indices":[6,31,0,0,0],"split_type":[0,0,0,0,0],"sum_hessian":[6.96E2,6.95E2,1E0,5.23E2,1.72E2],"tree_param":{"num_deleted":"0","num_feature":"32","num_nodes":"5","size_leaf_vector":"1"}},{"base_weights":[-1.23409696E-1,-2.862736E-1,1.1520249E1,2.7056804E0,-2.2731394E-2,-3.3559904E-2,2.3870914E0],"categories":[],"categories_nodes":[],"categories_segments":[],"categories_sizes":[],"default_left":[0,0,0,0,0,0,0],"id":33,"left_children":[1,5,3,-1,-1,-1,-1],"loss_changes":[1.3798214E3,1.3698564E3,2.069692E3,0E0,0E0,0E0,0E0],"parents":[2147483647,0,0,2,2,1,1],"right_children":[2,6,4,-1,-1,-1,-1],"split_conditions":[3.9E1,7.3E1,2E0,2.7056804E0,-2.2731394E-2,-3.3559904E-2,2.3870914E0],"split_indices":[28,22,3,0,0,0,0],"split_type":[0,0,0,0,0,0,0],"sum_hessian":[7.28E2,7.18E2,1E1,4E0,6E0,7.16E2,2E0],"tree_param":{"num_deleted":"0","num_feature":"32","num_nodes":"7","size_leaf_vector":"1"}},{"base_weights":[-4.679669E-1,-5.7228565E-1,1.1030782E1,2.4288783E0,-3.8251382E-1,-6.864563E-2,3.2258332E-1],"categories":[],"categories_nodes":[],"categories_segments":[],"categories_sizes":[],"default_left":[0,0,0,0,0,0,0],"id":34,"left_children":[1,5,3,-1,-1,-1,-1],"loss_changes":[8.05527E2,4.4082355E2,1.3786318E3,0E0,0E0,0E0,0E0],"parents":[2147483647,0,0,2,2,1,1],"right_children":[2,6,4,-1,-1,-1,-1],"split_conditions":[4.3E1,2.5E1,2E0,2.4288783E0,-3.8251382E-1,-6.864563E-2,3.2258332E-1],"split_indices":[14,6,3,0,0,0,0],"split_type":[0,0,0,0,0,0,0],"sum_hessian":[6.72E2,6.66E2,6E0,3E0,3E0,6.4E2,2.6E1],"tree_param":{"num_deleted":"0","num_feature":"32","num_nodes":"7","size_leaf_vector":"1"}},{"base_weights":[-1.3275707E-1,3.4508806E-2,-5.259868E0,-6.1627936E-1,2.0760794E0,1.3699418E-1,-3.867874E-2],"categories":[],"categories_nodes":[],"categories_segments":[],"categories_sizes":[],"default_left":[0,0,0,0,0,0,0],"id":35,"left_children":[1,5,3,-1,-1,-1,-1],"loss_changes":[5.981977E2,4.3554752E2,8.2429395E2,0E0,0E0,0E0,0E0],"parents":[2147483647,0,0,2,2,1,1],"right_children":[2,6,4,-1,-1,-1,-1],"split_conditions":[2.8E1,2E0,1.1E1,-6.1627936E-1,2.0760794E0,1.3699418E-1,-3.867874E-2],"split_indices":[24,31,17,0,0,0,0],"split_type":[0,0,0,0,0,0,0],"sum_hessian":[6.97E2,6.75E2,2.2E1,2.1E1,1E0,1.61E2,5.14E2],"tree_param":{"num_deleted":"0","num_feature":"32","num_nodes":"7","size_leaf_vector":"1"}},{"base_weights":[-1.6572912E-1,-4.6144184E-1,2.5705004E0,8.527484E-2,1.1947647E0,-3.8466994E-2,-1.3774638E0],"categories":[],"categories_nodes":[],"categories_segments":[],"categories_sizes":[],"default_left":[0,0,0,0,0,0,0],"id":36,"left_children":[1,5,3,-1,-1,-1,-1],"loss_changes":[5.3959973E2,4.1882556E2,1.1018679E3,0E0,0E0,0E0,0E0],"parents":[2147483647,0,0,2,2,1,1],"right_children":[2,6,4,-1,-1,-1,-1],"split_conditions":[1.8E1,8.2E1,1.9E1,8.527484E-2,1.1947647E0,-3.8466994E-2,-1.3774638E0],"split_indices":[8,28,14,0,0,0,0],"split_type":[0,0,0,0,0,0,0],"sum_hessian":[6.67E2,6.02E2,6.5E1,5.6E1,9E0,6E2,2E0],"tree_param":{"num_deleted":"0","num_feature":"32","num_nodes":"7","size_leaf_vector":"1"}},{"base_weights":[3.445922E-1,1.9176123E-1,8.250874E0,2.0438325E-1,2.6235788E0,1.3823952E-2,2.6430132E0],"categories":[],"categories_nodes":[],"categories_segments":[],"categories_sizes":[],"default_left":[0,0,0,0,0,0,0],"id":37,"left_children":[1,5,3,-1,-1,-1,-1],"loss_changes":[8.306374E2,8.236939E2,1.5666355E3,0E0,0E0,0E0,0E0],"parents":[2147483647,0,0,2,2,1,1],"right_children":[2,6,4,-1,-1,-1,-1],"split_conditions":[3.7E1,8.2E1,1.8E1,2.0438325E-1,2.6235788E0,1.3823952E-2,2.6430132E0],"split_indices":[28,30,30,0,0,0,0],"split_type":[0,0,0,0,0,0,0],"sum_hessian":[6.88E2,6.75E2,1.3E1,1E1,3E0,6.74E2,1E0],"tree_param":{"num_deleted":"0","num_feature":"32","num_nodes":"7","size_leaf_vector":"1"}},{"base_weights":[1.0928926E-1,7.105091E-2,2.4054284E0,4.413862E-4,8.5682905E-1],"categories":[],"categories_nodes":[],"categories_segments":[],"categories_sizes":[],"default_left":[0,0,0,0,0],"id":38,"left_children":[1,3,-1,-1,-1],"loss_changes":[6.8571185E2,4.220921E2,0E0,0E0,0E0],"parents":[2147483647,0,0,1,1],"right_children":[2,4,-1,-1,-1],"split_conditions":[8.2E1,5.7E1,2.4054284E0,4.413862E-4,8.5682905E-1],"split_indices":[30,22,0,0,0],"split_type":[0,0,0,0,0],"sum_hessian":[7E2,6.99E2,1E0,6.94E2,5E0],"tree_param":{"num_deleted":"0","num_feature":"32","num_nodes":"5","size_leaf_vector":"1"}},{"base_weights":[-7.681525E-2,7.7533744E-2,-4.5842175E0,3.8495366E-3,2.09104E0,-5.4633653E-1,7.476504E-1],"categories":[],"categories_nodes":[],"categories_segments":[],"categories_sizes":[],"default_left":[0,0,0,0,0,0,0],"id":39,"left_children":[1,3,5,-1,-1,-1,-1],"loss_changes":[4.6304898E2,5.1906213E2,3.5628088E2,0E0,0E0,0E0,0E0],"parents":[2147483647,0,0,1,1,2,2],"right_children":[2,4,6,-1,-1,-1,-1],"split_conditions":[2.9E1,5.9E1,8E0,3.8495366E-3,2.09104E0,-5.4633653E-1,7.476504E-1],"split_indices":[24,6,1,0,0,0,0],"split_type":[0,0,0,0,0,0,0],"sum_hessian":[6.65E2,6.43E2,2.2E1,6.42E2,1E0,2E1,2E0],"tree_param":{"num_deleted":"0","num_feature":"32","num_nodes":"7","size_leaf_vector":"1"}},{"base_weights":[2.5216925E-1,-3.4753826E-2,3.8230376E0,2.4818233E-1,2.8441386E0,1.5730992E-1,-4.7171906E-2],"categories":[],"categories_nodes":[],"categories_segments":[],"categories_sizes":[],"default_left":[0,0,0,0,0,0,0],"id":40,"left_children":[1,5,3,-1,-1,-1,-1],"loss_changes":[6.755343E2,4.9516095E2,1.5131559E3,0E0,0E0,0E0,0E0],"parents":[2147483647,0,0,2,2,1,1],"right_children":[2,6,4,-1,-1,-1,-1],"split_conditions":[1.9E1,2E0,3.6E1,2.4818233E-1,2.8441386E0,1.5730992E-1,-4.7171906E-2],"split_indices":[30,5,28,0,0,0,0],"split_type":[0,0,0,0,0,0,0],"sum_hessian":[6.59E2,6.1E2,4.9E1,4.7E1,2E0,1.31E2,4.79E2],"tree_param":{"num_deleted":"0","num_feature":"32","num_nodes":"7","size_leaf_vector":"1"}},{"base_weights":[1.2322805E-1,6.550607E-2,2.040074E1,-5.838494E-2,6.9018066E-2,1.2655729E0,2.4626856E0],"categories":[],"categories_nodes":[],"categories_segments":[],"categories_sizes":[],"default_left":[0,0,0,0,0,0,0],"id":41,"left_children":[1,3,5,-1,-1,-1,-1],"loss_changes":[8.399138E2,3.348575E2,6.720734E1,0E0,0E0,0E0,0E0],"parents":[2147483647,0,0,1,1,2,2],"right_children":[2,4,6,-1,-1,-1,-1],"split_conditions":[7.3E1,4E0,2E0,-5.838494E-2,6.9018066E-2,1.2655729E0,2.4626856E0],"split_indices":[22,6,3,0,0,0,0],"split_type":[0,0,0,0,0,0,0],"sum_hessian":[7.19E2,7.17E2,2E0,3.54E2,3.63E2,1E0,1E0],"tree_param":{"num_deleted":"0","num_feature":"32","num_nodes":"7","size_leaf_vector":"1"}},{"base_weights":[-5.1693225E-1,-4.3692043E-1,-1.4049906E1,-1.7457766E-2,-2.69826E-1,-8.825817E-1,-1.7092537E0],"categories":[],"categories_nodes":[],"categories_segments":[],"categories_sizes":[],"default_left":[0,0,0,0,0,0,0],"id":42,"left_children":[1,3,5,-1,-1,-1,-1],"loss_changes":[7.4361774E2,4.1942172E2,7.065088E1,0E0,0E0,0E0,0E0],"parents":[2147483647,0,0,1,1,2,2],"right_children":[2,4,6,-1,-1,-1,-1],"split_conditions":[4.9E1,1.6E1,4E0,-1.7457766E-2,-2.69826E-1,-8.825817E-1,-1.7092537E0],"split_indices":[28,16,16,0,0,0,0],"split_type":[0,0,0,0,0,0,0],"sum_hessian":[6.88E2,6.84E2,4E0,6.21E2,6.3E1,2E0,2E0],"tree_param":{"num_deleted":"0","num_feature":"32","num_nodes":"7","size_leaf_vector":"1"}},{"base_weights":[-2.6834391E-2,-7.4933755E-1,1.2667463E0,8.230616E-2,9.5097625E-1,-7.494947E-2,2.0707822E0],"categories":[],"categories_nodes":[],"categories_segments":[],"categories_sizes":[],"default_left":[0,0,0,0,0,0,0],"id":43,"left_children":[1,5,3,-1,-1,-1,-1],"loss_changes":[6.365017E2,5.482828E2,8.355835E2,0E0,0E0,0E0,0E0],"parents":[2147483647,0,0,2,2,1,1],"right_children":[2,6,4,-1,-1,-1,-1],"split_conditions":[6E0,5.6E1,1.9E1,8.230616E-2,9.5097625E-1,-7.494947E-2,2.0707822E0],"split_indices":[12,14,11,0,0,0,0],"split_type":[0,0,0,0,0,0,0],"sum_hessian":[6.81E2,4.37E2,2.44E2,2.34E2,1E1,4.36E2,1E0],"tree_param":{"num_deleted":"0","num_feature":"32","num_nodes":"7","size_leaf_vector":"1"}},{"base_weights":[-3.773044E-2,1.2358896E-2,-1.1263237E1,-2.2756946E-3,2.2496176E0,-6.8948287E-1,-1.7132132E0],"categories":[],"categories_nodes":[],"categories_segments":[],"categories_sizes":[],"default_left":[0,0,0,0,0,0,0],"id":44,"left_children":[1,3,5,-1,-1,-1,-1],"loss_changes":[3.844009E2,6.042825E2,7.6472626E1,0E0,0E0,0E0,0E0],"parents":[2147483647,0,0,1,1,2,2],"right_children":[2,4,6,-1,-1,-1,-1],"split_conditions":[5.9E1,7.3E1,2E0,-2.2756946E-3,2.2496176E0,-6.8948287E-1,-1.7132132E0],"split_indices":[14,22,4,0,0,0,0],"split_type":[0,0,0,0,0,0,0],"sum_hessian":[6.82E2,6.79E2,3E0,6.78E2,1E0,2E0,1E0],"tree_param":{"num_deleted":"0","num_feature":"32","num_nodes":"7","size_leaf_vector":"1"}},{"base_weights":[5.379598E-2,-5.466711E-1,1.528437E0,1.7825101E-1,-6.216129E-1,-7.72825E-2,3.433138E-1],"categories":[],"categories_nodes":[],"categories_segments":[],"categories_sizes":[],"default_left":[0,0,0,0,0,0,0],"id":45,"left_children":[1,5,3,-1,-1,-1,-1],"loss_changes":[6.182026E2,5.924597E2,6.358347E2,0E0,0E0,0E0,0E0],"parents":[2147483647,0,0,2,2,1,1],"right_children":[2,6,4,-1,-1,-1,-1],"split_conditions":[8E0,1.9E1,2.8E1,1.7825101E-1,-6.216129E-1,-7.72825E-2,3.433138E-1],"split_indices":[16,20,4,0,0,0,0],"split_type":[0,0,0,0,0,0,0],"sum_hessian":[6.98E2,4.96E2,2.02E2,1.93E2,9E0,4.65E2,3.1E1],"tree_param":{"num_deleted":"0","num_feature":"32","num_nodes":"7","size_leaf_vector":"1"}},{"base_weights":[3.75446E-2,1.19136184E-1,-9.316074E0,3.0876887E-3,6.9348675E-1,-3.7024337E-1,-1.3534833E0],"categories":[],"categories_nodes":[],"categories_segments":[],"categories_sizes":[],"default_left":[0,0,0,0,0,0,0],"id":46,"left_children":[1,3,5,-1,-1,-1,-1],"loss_changes":[5.3279285E2,4.3577072E2,1.6428839E2,0E0,0E0,0E0,0E0],"parents":[2147483647,0,0,1,1,2,2],"right_children":[2,4,6,-1,-1,-1,-1],"split_conditions":[5.4E1,4.7E1,7E0,3.0876887E-3,6.9348675E-1,-3.7024337E-1,-1.3534833E0],"split_indices":[4,6,30,0,0,0,0],"split_type":[0,0,0,0,0,0,0],"sum_hessian":[6.99E2,6.93E2,6E0,6.85E2,8E0,3E0,3E0],"tree_param":{"num_deleted":"0","num_feature":"32","num_nodes":"7","size_leaf_vector":"1"}},{"base_weights":[-2.4262011E-1,-2.7768475E-1,2.1869738E0,-3.4062892E-2,7.8221154E-1],"categories":[],"categories_nodes":[],"categories_segments":[],"categories_sizes":[],"default_left":[0,0,0,0,0],"id":47,"left_children":[1,3,-1,-1,-1],"loss_changes":[5.835805E2,5.342856E2,0E0,0E0,0E0],"parents":[2147483647,0,0,1,1],"right_children":[2,4,-1,-1,-1],"split_conditions":[9E1,4.7E1,2.1869738E0,-3.4062892E-2,7.8221154E-1],"split_indices":[30,27,0,0,0],"split_type":[0,0,0,0,0],"sum_hessian":[7.04E2,7.03E2,1E0,6.96E2,7E0],"tree_param":{"num_deleted":"0","num_feature":"32","num_nodes":"5","size_leaf_vector":"1"}},{"base_weights":[1.0960949E-1,-8.2732785E-1,7.27192E-1,6.312424E-2,1.9903831E0,-2.0268966E-1,-1.1913713E-2],"categories":[],"categories_nodes":[],"categories_segments":[],"categories_sizes":[],"default_left":[0,0,0,0,0,0,0],"id":48,"left_children":[1,5,3,-1,-1,-1,-1],"loss_changes":[4.1376038E2,2.674707E2,4.420865E2,0E0,0E0,0E0,0E0],"parents":[2147483647,0,0,2,2,1,1],"right_children":[2,6,4,-1,-1,-1,-1],"split_conditions":[3E0,3E0,8.2E1,6.312424E-2,1.9903831E0,-2.0268966E-1,-1.1913713E-2],"split_indices":[28,21,30,0,0,0,0],"split_type":[0,0,0,0,0,0,0],"sum_hessian":[7.15E2,2.84E2,4.31E2,4.3E2,1E0,9.7E1,1.87E2],"tree_param":{"num_deleted":"0","num_feature":"32","num_nodes":"7","size_leaf_vector":"1"}},{"base_weights":[-1.5678911E-1,3.105879E-1,-2.2746954E0,9.925894E-3,1.1085911E0,-1.477205E-1,-6.6035366E-1],"categories":[],"categories_nodes":[],"categories_segments":[],"categories_sizes":[],"default_left":[0,0,0,0,0,0,0],"id":49,"left_children":[1,3,5,-1,-1,-1,-1],"loss_changes":[7.010414E2,1.370209E3,4.2375867E2,0E0,0E0,0E0,0E0],"parents":[2147483647,0,0,1,1,2,2],"right_children":[2,4,6,-1,-1,-1,-1],"split_conditions":[1.1E1,3.6E1,2E1,9.925894E-3,1.1085911E0,-1.477205E-1,-6.6035366E-1],"split_indices":[16,24,24,0,0,0,0],"split_type":[0,0,0,0,0,0,0],"sum_hessian":[7.08E2,5.8E2,1.28E2,5.7E2,1E1,1.12E2,1.6E1],"tree_param":{"num_deleted":"0","num_feature":"32","num_nodes":"7","size_leaf_vector":"1"}},{"base_weights":[2.5912672E-1,1.1174908E0,-6.190498E-1,-8.200373E-2,9.546533E-1,9.354926E-2,1.9174958E0],"categories":[],"categories_nodes":[],"categories_segments":[],"categories_sizes":[],"default_left":[0,0,0,0,0,0,0],"id":50,"left_children":[1,5,3,-1,-1,-1,-1],"loss_changes":[5.232271E2,7.7517847E2,9.7085876E2,0E0,0E0,0E0,0E0],"parents":[2147483647,0,0,2,2,1,1],"right_children":[2,6,4,-1,-1,-1,-1],"split_conditions":[4E0,3.7E1,2.1E1,-8.200373E-2,9.546533E-1,9.354926E-2,1.9174958E0],"split_indices":[7,11,6,0,0,0,0],"split_type":[0,0,0,0,0,0,0],"sum_hessian":[6.94E2,3.51E2,3.43E2,3.35E2,8E0,3.49E2,2E0],"tree_param":{"num_deleted":"0","num_feature":"32","num_nodes":"7","size_leaf_vector":"1"}},{"base_weights":[-1.6079365E-1,-6.2153023E-1,2.1578028E0,5.6450975E-1,1.9162197E-2,-5.552633E-2,-1.3794079E0],"categories":[],"categories_nodes":[],"categories_segments":[],"categories_sizes":[],"default_left":[0,0,0,0,0,0,0],"id":51,"left_children":[1,5,3,-1,-1,-1,-1],"loss_changes":[7.3493036E2,2.0868102E2,8.673282E2,0E0,0E0,0E0,0E0],"parents":[2147483647,0,0,2,2,1,1],"right_children":[2,6,4,-1,-1,-1,-1],"split_conditions":[1.2E1,5.9E1,2E0,5.6450975E-1,1.9162197E-2,-5.552633E-2,-1.3794079E0],"split_indices":[8,6,29,0,0,0,0],"split_type":[0,0,0,0,0,0,0],"sum_hessian":[6.88E2,5.74E2,1.14E2,3.8E1,7.6E1,5.73E2,1E0],"tree_param":{"num_deleted":"0","num_feature":"32","num_nodes":"7","size_leaf_vector":"1"}},{"base_weights":[-1.7013843E-1,-2.012644E-1,1.9641627E0,-2.8632319E-2,6.6909504E-1],"categories":[],"categories_nodes":[],"categories_segments":[],"categories_sizes":[],"default_left":[0,0,0,0,0],"id":52,"left_children":[1,3,-1,-1,-1],"loss_changes":[4.6860706E2,5.54455E2,0E0,0E0,0E0],"parents":[2147483647,0,0,1,1],"right_children":[2,4,-1,-1,-1],"split_conditions":[7.3E1,3.7E1,1.9641627E0,-2.8632319E-2,6.6909504E-1],"split_indices":[22,28,0,0,0],"split_type":[0,0,0,0,0],"sum_hessian":[7.11E2,7.1E2,1E0,7E2,1E1],"tree_param":{"num_deleted":"0","num_feature":"32","num_nodes":"5","size_leaf_vector":"1"}},{"base_weights":[2.7424848E-1,1.6850468E0,-2.3219116E-1,5.7786793E-2,5.4525137E-1,-2.9169666E-2,1.7894759E0],"categories":[],"categories_nodes":[],"categories_segments":[],"categories_sizes":[],"default_left":[0,0,0,0,0,0,0],"id":53,"left_children":[1,3,5,-1,-1,-1,-1],"loss_changes":[4.7886163E2,7.846156E2,7.722337E2,0E0,0E0,0E0,0E0],"parents":[2147483647,0,0,1,1,2,2],"right_children":[2,4,6,-1,-1,-1,-1],"split_conditions":[2E0,7E0,4.3E1,5.7786793E-2,5.4525137E-1,-2.9169666E-2,1.7894759E0],"split_indices":[23,11,24,0,0,0,0],"split_type":[0,0,0,0,0,0,0],"sum_hessian":[6.7E2,1.77E2,4.93E2,1.41E2,3.6E1,4.91E2,2E0],"tree_param":{"num_deleted":"0","num_feature":"32","num_nodes":"7","size_leaf_vector":"1"}},{"base_weights":[2.1919714E-2,3.3509287E-1,-2.4854503E0,-1.014495E-3,2.8733164E-1,9.12015E-2,-3.450816E-1],"categories":[],"categories_nodes":[],"categories_segments":[],"categories_sizes":[],"default_left":[0,0,0,0,0,0,0],"id":54,"left_children":[1,3,5,-1,-1,-1,-1],"loss_changes":[5.448447E2,5.867742E2,3.250097E2,0E0,0E0,0E0,0E0],"parents":[2147483647,0,0,1,1,2,2],"right_children":[2,4,6,-1,-1,-1,-1],"split_conditions":[1.6E1,1.4E1,4E0,-1.014495E-3,2.8733164E-1,9.12015E-2,-3.450816E-1],"split_indices":[18,20,10,0,0,0,0],"split_type":[0,0,0,0,0,0,0],"sum_hessian":[6.94E2,6.17E2,7.7E1,5.48E2,6.9E1,2E1,5.7E1],"tree_param":{"num_deleted":"0","num_feature":"32","num_nodes":"7","size_leaf_vector":"1"}},{"base_weights":[1.3070013E-1,1.8901101E-1,-1.7776107E0,1.08351946E-1,-7.5835876E-2],"categories":[],"categories_nodes":[],"categories_segments":[],"categories_sizes":[],"default_left":[0,0,0,0,0],"id":55,"left_children":[1,3,-1,-1,-1],"loss_changes":[7.532993E2,6.5592426E2,0E0,0E0,0E0],"parents":[2147483647,0,0,1,1],"right_children":[2,4,-1,-1,-1],"split_conditions":[7.3E1,4E0,-1.7776107E0,1.08351946E-1,-7.5835876E-2],"split_indices":[30,19,0,0,0],"split_type":[0,0,0,0,0],"sum_hessian":[6.74E2,6.72E2,2E0,3.41E2,3.31E2],"tree_param":{"num_deleted":"0","num_feature":"32","num_nodes":"5","size_leaf_vector":"1"}},{"base_weights":[-2.3559836E-1,-1.9731277E-1,-1.3462392E1,-9.557585E-3,-6.3022596E-1,-8.1954044E-1,-1.6382778E0],"categories":[],"categories_nodes":[],"categories_segments":[],"categories_sizes":[],"default_left":[0,0,0,0,0,0,0],"id":56,"left_children":[1,3,5,-1,-1,-1,-1],"loss_changes":[3.5735428E2,4.3865387E2,3.1309113E1,0E0,0E0,0E0,0E0],"parents":[2147483647,0,0,1,1,2,2],"right_children":[2,4,6,-1,-1,-1,-1],"split_conditions":[7.3E1,4.1E1,2E0,-9.557585E-3,-6.3022596E-1,-8.1954044E-1,-1.6382778E0],"split_indices":[22,2,0,0,0,0,0],"split_type":[0,0,0,0,0,0,0],"sum_hessian":[7.08E2,7.06E2,2E0,6.96E2,1E1,1E0,1E0],"tree_param":{"num_deleted":"0","num_feature":"32","num_nodes":"7","size_leaf_vector":"1"}},{"base_weights":[3.652682E-1,1.6821772E-1,6.513326E0,-1.15226775E-1,1.3281178E0,8.088011E-2,-5.1422913E-2],"categories":[],"categories_nodes":[],"categories_segments":[],"categories_sizes":[],"default_left":[0,0,0,0,0,0,0],"id":57,"left_children":[1,5,3,-1,-1,-1,-1],"loss_changes":[8.596182E2,3.4650308E2,1.3226322E3,0E0,0E0,0E0,0E0],"parents":[2147483647,0,0,2,2,1,1],"right_children":[2,6,4,-1,-1,-1,-1],"split_conditions":[2.7E1,4E0,8E0,-1.15226775E-1,1.3281178E0,8.088011E-2,-5.1422913E-2],"split_indices":[28,15,18,0,0,0,0],"split_type":[0,0,0,0,0,0,0],"sum_hessian":[7.1E2,6.88E2,2.2E1,1.1E1,1.1E1,3.49E2,3.39E2],"tree_param":{"num_deleted":"0","num_feature":"32","num_nodes":"7","size_leaf_vector":"1"}},{"base_weights":[2.2584718E-1,5.775488E-1,-1.4241263E0,3.681495E-2,7.249315E-1,-1.4704943E-1,1.5205123E0],"categories":[],"categories_nodes":[],"categories_segments":[],"categories_sizes":[],"default_left":[0,0,0,0,0,0,0],"id":58,"left_children":[1,3,5,-1,-1,-1,-1],"loss_changes":[3.998096E2,7.459697E2,3.2918286E2,0E0,0E0,0E0,0E0],"parents":[2147483647,0,0,1,1,2,2],"right_children":[2,4,6,-1,-1,-1,-1],"split_conditions":[1.2E1,2.7E1,5.6E1,3.681495E-2,7.249315E-1,-1.4704943E-1,1.5205123E0],"split_indices":[0,14,10,0,0,0,0],"split_type":[0,0,0,0,0,0,0],"sum_hessian":[6.89E2,5.68E2,1.21E2,5.54E2,1.4E1,1.2E2,1E0],"tree_param":{"num_deleted":"0","num_feature":"32","num_nodes":"7","size_leaf_vector":"1"}},{"base_weights":[-3.0124107E-1,-8.6302584E-1,1.1041384E0,6.507783E-2,8.069703E-1,-7.7068694E-2,-1.6723554E0],"categories":[],"categories_nodes":[],"categories_segments":[],"categories_sizes":[],"default_left":[0,0,0,0,0,0,0],"id":59,"left_children":[1,5,3,-1,-1,-1,-1],"loss_changes":[5.448144E2,3.0292307E2,6.0321735E2,0E0,0E0,0E0,0E0],"parents":[2147483647,0,0,2,2,1,1],"right_children":[2,6,4,-1,-1,-1,-1],"split_conditions":[8E0,8.2E1,1.9E1,6.507783E-2,8.069703E-1,-7.7068694E-2,-1.6723554E0],"split_indices":[28,30,9,0,0,0,0],"split_type":[0,0,0,0,0,0,0],"sum_hessian":[6.9E2,4.93E2,1.97E2,1.87E2,1E1,4.92E2,1E0],"tree_param":{"num_deleted":"0","num_feature":"32","num_nodes":"7","size_leaf_vector":"1"}},{"base_weights":[-1.2584867E-1,-1.8704059E-2,-4.3389726E0,-5.4438E-1,1.9018662E0,-2.2534069E-2,1.7410868E-1],"categories":[],"categories_nodes":[],"categories_segments":[],"categories_sizes":[],"default_left":[0,0,0,0,0,0,0],"id":60,"left_children":[1,5,3,-1,-1,-1,-1],"loss_changes":[3.2829364E2,2.9866388E2,6.732047E2,0E0,0E0,0E0,0E0],"parents":[2147483647,0,0,2,2,1,1],"right_children":[2,6,4,-1,-1,-1,-1],"split_conditions":[3.6E1,1.5E1,8E0,-5.4438E-1,1.9018662E0,-2.2534069E-2,1.7410868E-1],"split_indices":[30,28,5,0,0,0,0],"split_type":[0,0,0,0,0,0,0],"sum_hessian":[7.28E2,7.1E2,1.8E1,1.7E1,1E0,6.35E2,7.5E1],"tree_param":{"num_deleted":"0","num_feature":"32","num_nodes":"7","size_leaf_vector":"1"}},{"base_weights":[2.4942505E-1,-6.854572E-2,3.3882267E0,-8.1723064E-2,6.139714E-1,-1.4513151E-2,1.2355402E0],"categories":[],"categories_nodes":[],"categories_segments":[],"categories_sizes":[],"default_left":[0,0,0,0,0,0,0],"id":61,"left_children":[1,5,3,-1,-1,-1,-1],"loss_changes":[6.8397375E2,7.2134064E2,8.6060706E2,0E0,0E0,0E0,0E0],"parents":[2147483647,0,0,2,2,1,1],"right_children":[2,6,4,-1,-1,-1,-1],"split_conditions":[1.6E1,3.9E1,6E0,-8.1723064E-2,6.139714E-1,-1.4513151E-2,1.2355402E0],"split_indices":[24,22,10,0,0,0,0],"split_type":[0,0,0,0,0,0,0],"sum_hessian":[6.85E2,6.22E2,6.3E1,2.7E1,3.6E1,6.18E2,4E0],"tree_param":{"num_deleted":"0","num_feature":"32","num_nodes":"7","size_leaf_vector":"1"}},{"base_weights":[-2.2314076E-1,-4.2221522E-1,2.3081913E0,9.499417E-2,6.114306E0,-1.370343E-1,-6.1142314E-3],"categories":[],"categories_nodes":[],"categories_segments":[],"categories_sizes":[],"default_left":[0,0,0,0,0,0,0],"id":62,"left_children":[1,5,3,-1,-1,-1,-1],"loss_changes":[3.5970493E2,2.4728152E2,4.237473E3,0E0,0E0,0E0,0E0],"parents":[2147483647,0,0,2,2,1,1],"right_children":[2,6,4,-1,-1,-1,-1],"split_conditions":[1.9E1,2E0,3.7E1,9.499417E-2,6.114306E0,-1.370343E-1,-6.1142314E-3],"split_indices":[11,15,27,0,0,0,0],"split_type":[0,0,0,0,0,0,0],"sum_hessian":[7.14E2,6.62E2,5.2E1,5.1E1,1E0,1.68E2,4.94E2],"tree_param":{"num_deleted":"0","num_feature":"32","num_nodes":"7","size_leaf_vector":"1"}},{"base_weights":[-7.914356E-2,-1.9456504E-2,-8.156549E0,-1.0260933E-2,9.443215E-1,-2.9149684E-1,-1.4417795E0],"categories":[],"categories_nodes":[],"categories_segments":[],"categories_sizes":[],"default_left":[0,0,0,0,0,0,0],"id":63,"left_children":[1,3,5,-1,-1,-1,-1],"loss_changes":[3.310532E2,6.2754175E2,1.8193149E2,0E0,0E0,0E0,0E0],"parents":[2147483647,0,0,1,1,2,2],"right_children":[2,4,6,-1,-1,-1,-1],"split_conditions":[5.5E1,3.9E1,6E0,-1.0260933E-2,9.443215E-1,-2.9149684E-1,-1.4417795E0],"split_indices":[4,28,9,0,0,0,0],"split_type":[0,0,0,0,0,0,0],"sum_hessian":[6.88E2,6.83E2,5E0,6.77E2,6E0,3E0,2E0],"tree_param":{"num_deleted":"0","num_feature":"32","num_nodes":"7","size_leaf_vector":"1"}},{"base_weights":[3.556027E-2,9.817628E-2,-1.4268839E1,6.300254E-3,1.9098297E0,-1.6111931E0,-7.2314686E-1],"categories":[],"categories_nodes":[],"categories_segments":[],"categories_sizes":[],"default_left":[0,0,0,0,0,0,0],"id":64,"left_children":[1,3,5,-1,-1,-1,-1],"loss_changes":[6.241373E2,4.317788E2,5.2681335E1,0E0,0E0,0E0,0E0],"parents":[2147483647,0,0,1,1,2,2],"right_children":[2,4,6,-1,-1,-1,-1],"split_conditions":[7.3E1,7.3E1,3E0,6.300254E-3,1.9098297E0,-1.6111931E0,-7.2314686E-1],"split_indices":[28,18,0,0,0,0,0],"split_type":[0,0,0,0,0,0,0],"sum_hessian":[6.98E2,6.95E2,3E0,6.94E2,1E0,2E0,1E0],"tree_param":{"num_deleted":"0","num_feature":"32","num_nodes":"7","size_leaf_vector":"1"}},{"base_weights":[2.6052132E-1,3.091597E-1,-1.4504638E0,2.3483511E-2,1.1870425E0],"categories":[],"categories_nodes":[],"categories_segments":[],"categories_sizes":[],"default_left":[0,0,0,0,0],"id":65,"left_children":[1,3,-1,-1,-1],"loss_changes":[5.1148785E2,4.7100516E2,0E0,0E0,0E0],"parents":[2147483647,0,0,1,1],"right_children":[2,4,-1,-1,-1],"split_conditions":[8.2E1,4.1E1,-1.4504638E0,2.3483511E-2,1.1870425E0],"split_indices":[30,24,0,0,0],"split_type":[0,0,0,0,0],"sum_hessian":[6.66E2,6.64E2,2E0,6.61E2,3E0],"tree_param":{"num_deleted":"0","num_feature":"32","num_nodes":"5","size_leaf_vector":"1"}},{"base_weights":[-3.413169E-2,2.118511E-1,-1.8839214E0,2.2807194E-2,-1.723811E0,-1.6110829E-1,-1.2531233E0],"categories":[],"categories_nodes":[],"categories_segments":[],"categories_sizes":[],"default_left":[0,0,0,0,0,0,0],"id":66,"left_children":[1,3,5,-1,-1,-1,-1],"loss_changes":[3.0639157E2,3.6348163E2,1.4002039E2,0E0,0E0,0E0,0E0],"parents":[2147483647,0,0,1,1,2,2],"right_children":[2,4,6,-1,-1,-1,-1],"split_conditions":[1.7E1,8.2E1,2.3E1,2.2807194E-2,-1.723811E0,-1.6110829E-1,-1.2531233E0],"split_indices":[15,28,28,0,0,0,0],"split_type":[0,0,0,0,0,0,0],"sum_hessian":[6.73E2,5.94E2,7.9E1,5.93E2,1E0,7.8E1,1E0],"tree_param":{"num_deleted":"0","num_feature":"32","num_nodes":"7","size_leaf_vector":"1"}},{"base_weights":[-1.69856E-1,-1.0965587E-1,-1.2770864E0,-6.502822E-3,-1.2514404E0],"categories":[],"categories_nodes":[],"categories_segments":[],"categories_sizes":[],"default_left":[0,0,0,0,0],"id":67,"left_children":[1,3,-1,-1,-1],"loss_changes":[5.584745E2,3.622506E2,0E0,0E0,0E0],"parents":[2147483647,0,0,1,1],"right_children":[2,4,-1,-1,-1],"split_conditions":[5.7E1,5.7E1,-1.2770864E0,-6.502822E-3,-1.2514404E0],"split_indices":[30,22,0,0,0],"split_type":[0,0,0,0,0],"sum_hessian":[6.87E2,6.84E2,3E0,6.82E2,2E0],"tree_param":{"num_deleted":"0","num_feature":"32","num_nodes":"5","size_leaf_vector":"1"}},{"base_weights":[-7.01099E-2,-1.3628755E0,3.9777714E-1,-7.3468216E-2,9.5071554E-2,-9.721253E-2,-5.105206E-1],"categories":[],"categories_nodes":[],"categories_segments":[],"categories_sizes":[],"default_left":[0,0,0,0,0,0,0],"id":68,"left_children":[1,5,3,-1,-1,-1,-1],"loss_changes":[4.1203497E2,2.3757477E2,3.690074E2,0E0,0E0,0E0,0E0],"parents":[2147483647,0,0,2,2,1,1],"right_children":[2,6,4,-1,-1,-1,-1],"split_conditions":[2E0,1.7E1,3E0,-7.3468216E-2,9.5071554E-2,-9.721253E-2,-5.105206E-1],"split_indices":[30,16,28,0,0,0,0],"split_type":[0,0,0,0,0,0,0],"sum_hessian":[6.81E2,1.81E2,5E2,1.72E2,3.28E2,1.68E2,1.3E1],"tree_param":{"num_deleted":"0","num_feature":"32","num_nodes":"7","size_leaf_vector":"1"}},{"base_weights":[-2.2290862E-1,-1.342147E-1,-7.8049397E0,-1.9225774E-2,1.1236217E0,-4.0454912E-1,-1.6678487E0],"categories":[],"categories_nodes":[],"categories_segments":[],"categories_sizes":[],"default_left":[0,0,0,0,0,0,0],"id":69,"left_children":[1,3,5,-1,-1,-1,-1],"loss_changes":[4.673963E2,6.033098E2,2.762708E2,0E0,0E0,0E0,0E0],"parents":[2147483647,0,0,1,1,2,2],"right_children":[2,4,6,-1,-1,-1,-1],"split_conditions":[4.1E1,3.7E1,3.4E1,-1.9225774E-2,1.1236217E0,-4.0454912E-1,-1.6678487E0],"split_indices":[2,28,28,0,0,0,0],"split_type":[0,0,0,0,0,0,0],"sum_hessian":[6.96E2,6.88E2,8E0,6.84E2,4E0,6E0,2E0],"tree_param":{"num_deleted":"0","num_feature":"32","num_nodes":"7","size_leaf_vector":"1"}},{"base_weights":[1.2802193E-1,2.2520728E-1,-8.097922E0,-2.6331063E-2,1.4883639E-1,-4.6202454E-1,-1.6052599E0],"categories":[],"categories_nodes":[],"categories_segments":[],"categories_sizes":[],"default_left":[0,0,0,0,0,0,0],"id":70,"left_children":[1,3,5,-1,-1,-1,-1],"loss_changes":[5.502815E2,4.7433966E2,2.2540375E2,0E0,0E0,0E0,0E0],"parents":[2147483647,0,0,1,1,2,2],"right_children":[2,4,6,-1,-1,-1,-1],"split_conditions":[3.9E1,8E0,5E0,-2.6331063E-2,1.4883639E-1,-4.6202454E-1,-1.6052599E0],"split_indices":[24,30,9,0,0,0,0],"split_type":[0,0,0,0,0,0,0],"sum_hessian":[6.89E2,6.81E2,8E0,4.97E2,1.84E2,6E0,2E0],"tree_param":{"num_deleted":"0","num_feature":"32","num_nodes":"7","size_leaf_vector":"1"}},{"base_weights":[3.716072E-2,1.7044587E-1,-9.747955E0,-1.2325865E0,1.6273923E0,4.3575868E-2,-1.981503E-1],"categories":[],"categories_nodes":[],"categories_segments":[],"categories_sizes":[],"default_left":[0,0,0,0,0,0,0],"id":71,"left_children":[1,5,3,-1,-1,-1,-1],"loss_changes":[8.7707623E2,4.528321E2,8.626893E2,0E0,0E0,0E0,0E0],"parents":[2147483647,0,0,2,2,1,1],"right_children":[2,6,4,-1,-1,-1,-1],"split_conditions":[4.7E1,1.5E1,2.1E1,-1.2325865E0,1.6273923E0,4.3575868E-2,-1.981503E-1],"split_indices":[28,10,10,0,0,0,0],"split_type":[0,0,0,0,0,0,0],"sum_hessian":[6.73E2,6.64E2,9E0,8E0,1E0,5.88E2,7.6E1],"tree_param":{"num_deleted":"0","num_feature":"32","num_nodes":"7","size_leaf_vector":"1"}},{"base_weights":[-6.5644705E-3,-2.429439E-1,2.5187066E0,-3.0718992E-2,9.79497E-1,6.812458E-2,6.450204E-1],"categories":[],"categories_nodes":[],"categories_segments":[],"categories_sizes":[],"default_left":[0,0,0,0,0,0,0],"id":72,"left_children":[1,3,5,-1,-1,-1,-1],"loss_changes":[4.1173862E2,5.869408E2,4.637431E2,0E0,0E0,0E0,0E0],"parents":[2147483647,0,0,1,1,2,2],"right_children":[2,4,6,-1,-1,-1,-1],"split_conditions":[1.9E1,4.4E1,1.2E1,-3.0718992E-2,9.79497E-1,6.812458E-2,6.450204E-1],"split_indices":[4,6,10,0,0,0,0],"split_type":[0,0,0,0,0,0,0],"sum_hessian":[6.9E2,6.31E2,5.9E1,6.26E2,5E0,4.2E1,1.7E1],"tree_param":{"num_deleted":"0","num_feature":"32","num_nodes":"7","size_leaf_vector":"1"}},{"base_weights":[-1.4763471E-1,-7.0316754E-2,-9.047934E0,-1.2138838E-2,1.2654477E0,-1.1761712E0,7.959949E-1],"categories":[],"categories_nodes":[],"categories_segments":[],"categories_sizes":[],"default_left":[0,0,0,0,0,0,0],"id":73,"left_children":[1,3,5,-1,-1,-1,-1],"loss_changes":[4.8235486E2,5.680397E2,3.833768E2,0E0,0E0,0E0,0E0],"parents":[2147483647,0,0,1,1,2,2],"right_children":[2,4,6,-1,-1,-1,-1],"split_conditions":[4.7E1,3.7E1,1.2E1,-1.2138838E-2,1.2654477E0,-1.1761712E0,7.959949E-1],"split_indices":[28,28,9,0,0,0,0],"split_type":[0,0,0,0,0,0,0],"sum_hessian":[7.02E2,6.96E2,6E0,6.93E2,3E0,5E0,1E0],"tree_param":{"num_deleted":"0","num_feature":"32","num_nodes":"7","size_leaf_vector":"1"}},{"base_weights":[1.9839324E-1,3.089833E-1,-3.634097E0,1.5357198E-2,7.3147404E-1,5.763271E-2,-4.382073E-1],"categories":[],"categories_nodes":[],"categories_segments":[],"categories_sizes":[],"default_left":[0,0,0,0,0,0,0],"id":74,"left_children":[1,3,5,-1,-1,-1,-1],"loss_changes":[3.02833E2,7.54991E2,9.135391E1,0E0,0E0,0E0,0E0],"parents":[2147483647,0,0,1,1,2,2],"right_children":[2,4,6,-1,-1,-1,-1],"split_conditions":[3.1E1,2.4E1,3E0,1.5357198E-2,7.3147404E-1,5.763271E-2,-4.382073E-1],"split_indices":[8,8,16,0,0,0,0],"split_type":[0,0,0,0,0,0,0],"sum_hessian":[7.15E2,6.95E2,2E1,6.82E2,1.3E1,4E0,1.6E1],"tree_param":{"num_deleted":"0","num_feature":"32","num_nodes":"7","size_leaf_vector":"1"}},{"base_weights":[-1.1045138E-1,9.12231E-2,-5.3342624E0,-6.712488E-1,1.5617603E0,6.487828E-2,-9.0810694E-2],"categories":[],"categories_nodes":[],"categories_segments":[],"categories_sizes":[],"default_left":[0,0,0,0,0,0,0],"id":75,"left_children":[1,5,3,-1,-1,-1,-1],"loss_changes":[7.379335E2,4.3434586E2,1.0774722E3,0E0,0E0,0E0,0E0],"parents":[2147483647,0,0,2,2,1,1],"right_children":[2,6,4,-1,-1,-1,-1],"split_conditions":[2.9E1,6E0,1.1E1,-6.712488E-1,1.5617603E0,6.487828E-2,-9.0810694E-2],"split_indices":[24,29,17,0,0,0,0],"split_type":[0,0,0,0,0,0,0],"sum_hessian":[7E2,6.74E2,2.6E1,2.4E1,2E0,4.3E2,2.44E2],"tree_param":{"num_deleted":"0","num_feature":"32","num_nodes":"7","size_leaf_vector":"1"}},{"base_weights":[-2.9233761E-2,4.2764693E-1,-1.700442E0,5.032624E-3,4.8376235E-1,-3.2150018E-1,-1.15071684E-1],"categories":[],"categories_nodes":[],"categories_segments":[],"categories_sizes":[],"default_left":[0,0,0,0,0,0,0],"id":76,"left_children":[1,3,5,-1,-1,-1,-1],"loss_changes":[5.0867648E2,9.3028253E2,1.16008514E2,0E0,0E0,0E0,0E0],"parents":[2147483647,0,0,1,1,2,2],"right_children":[2,4,6,-1,-1,-1,-1],"split_conditions":[1E1,1.8E1,3E0,5.032624E-3,4.8376235E-1,-3.2150018E-1,-1.15071684E-1],"split_indices":[1,8,3,0,0,0,0],"split_type":[0,0,0,0,0,0,0],"sum_hessian":[6.66E2,5.23E2,1.43E2,4.85E2,3.8E1,3E1,1.13E2],"tree_param":{"num_deleted":"0","num_feature":"32","num_nodes":"7","size_leaf_vector":"1"}},{"base_weights":[5.312717E-3,-2.9269713E-1,2.2099817E0,6.009917E-1,-1.7705644E-2,-3.1096434E-2,2.2209606E0],"categories":[],"categories_nodes":[],"categories_segments":[],"categories_sizes":[],"default_left":[0,0,0,0,0,0,0],"id":77,"left_children":[1,5,3,-1,-1,-1,-1],"loss_changes":[4.5813986E2,6.0431433E2,8.4502057E2,0E0,0E0,0E0,0E0],"parents":[2147483647,0,0,2,2,1,1],"right_children":[2,6,4,-1,-1,-1,-1],"split_conditions":[1.4E1,4.9E1,6E0,6.009917E-1,-1.7705644E-2,-3.1096434E-2,2.2209606E0],"split_indices":[20,10,16,0,0,0,0],"split_type":[0,0,0,0,0,0,0],"sum_hessian":[6.97E2,6.14E2,8.3E1,3E1,5.3E1,6.13E2,1E0],"tree_param":{"num_deleted":"0","num_feature":"32","num_nodes":"7","size_leaf_vector":"1"}},{"base_weights":[-1.8726774E-1,-7.5611275E-1,5.2309257E-1,8.927709E-2,-2.6706943E-1,-8.869817E-2,3.345712E-1],"categories":[],"categories_nodes":[],"categories_segments":[],"categories_sizes":[],"default_left":[0,0,0,0,0,0,0],"id":78,"left_children":[1,5,3,-1,-1,-1,-1],"loss_changes":[2.8816074E2,3.3628833E2,4.6689194E2,0E0,0E0,0E0,0E0],"parents":[2147483647,0,0,2,2,1,1],"right_children":[2,6,4,-1,-1,-1,-1],"split_conditions":[5E0,1.8E1,2E1,8.927709E-2,-2.6706943E-1,-8.869817E-2,3.345712E-1],"split_indices":[22,16,18,0,0,0,0],"split_type":[0,0,0,0,0,0,0],"sum_hessian":[7.13E2,3.96E2,3.17E2,2.81E2,3.6E1,3.79E2,1.7E1],"tree_param":{"num_deleted":"0","num_feature":"32","num_nodes":"7","size_leaf_vector":"1"}},{"base_weights":[5.3627383E-2,2.2311322E-2,1.9091438E0,2.3442164E-2,-3.134615E-1],"categories":[],"categories_nodes":[],"categories_segments":[],"categories_sizes":[],"default_left":[0,0,0,0,0],"id":79,"left_children":[1,3,-1,-1,-1],"loss_changes":[4.3337698E2,5.2659045E2,0E0,0E0,0E0],"parents":[2147483647,0,0,1,1],"right_children":[2,4,-1,-1,-1],"split_conditions":[9E1,2.2E1,1.9091438E0,2.3442164E-2,-3.134615E-1],"split_indices":[30,20,0,0,0],"split_type":[0,0,0,0,0],"sum_hessian":[6.8E2,6.79E2,1E0,6.36E2,4.3E1],"tree_param":{"num_deleted":"0","num_feature":"32","num_nodes":"5","size_leaf_vector":"1"}},{"base_weights":[1.2122794E-1,2.4556734E-1,-4.7352185E0,2.9016573E-2,-7.7984065E-1,1.7581575E-1,-6.989177E-1],"categories":[],"categories_nodes":[],"categories_segments":[],"categories_sizes":[],"default_left":[0,0,0,0,0,0,0],"id":80,"left_children":[1,3,5,-1,-1,-1,-1],"loss_changes":[4.121335E2,3.764512E2,3.1264978E2,0E0,0E0,0E0,0E0],"parents":[2147483647,0,0,1,1,2,2],"right_children":[2,4,6,-1,-1,-1,-1],"split_conditions":[3.4E1,4.7E1,7E0,2.9016573E-2,-7.7984065E-1,1.7581575E-1,-6.989177E-1],"split_indices":[20,28,24,0,0,0,0],"split_type":[0,0,0,0,0,0,0],"sum_hessian":[6.83E2,6.66E2,1.7E1,6.61E2,5E0,5E0,1.2E1],"tree_param":{"num_deleted":"0","num_feature":"32","num_nodes":"7","size_leaf_vector":"1"}},{"base_weights":[-1.5991585E-2,-6.2165904E-1,1.0342395E0,4.9758825E-2,3.7700433E-1,-8.330398E-2,2.0956787E-1],"categories":[],"categories_nodes":[],"categories_segments":[],"categories_sizes":[],"default_left":[0,0,0,0,0,0,0],"id":81,"left_children":[1,5,3,-1,-1,-1,-1],"loss_changes":[4.5227478E2,3.5210858E2,3.9127924E2,0E0,0E0,0E0,0E0],"parents":[2147483647,0,0,2,2,1,1],"right_children":[2,6,4,-1,-1,-1,-1],"split_conditions":[6E0,1.7E1,1.4E1,4.9758825E-2,3.7700433E-1,-8.330398E-2,2.0956787E-1],"split_indices":[18,2,4,0,0,0,0],"split_type":[0,0,0,0,0,0,0],"sum_hessian":[7.11E2,4.51E2,2.6E2,2.23E2,3.7E1,4.12E2,3.9E1],"tree_param":{"num_deleted":"0","num_feature":"32","num_nodes":"7","size_leaf_vector":"1"}},{"base_weights":[-4.5385534E-1,-2.6861364E-1,-3.7024248E0,-6.404827E-1,4.267842E-2,-1.942375E-2,-6.226066E-1],"categories":[],"categories_nodes":[],"categories_segments":[],"categories_sizes":[],"default_left":[0,0,0,0,0,0,0],"id":82,"left_children":[1,5,3,-1,-1,-1,-1],"loss_changes":[4.1308368E2,2.5040073E2,4.8889032E2,0E0,0E0,0E0,0E0],"parents":[2147483647,0,0,2,2,1,1],"right_children":[2,6,4,-1,-1,-1,-1],"split_conditions":[2.4E1,4.4E1,3E0,-6.404827E-1,4.267842E-2,-1.942375E-2,-6.226066E-1],"split_indices":[28,10,21,0,0,0,0],"split_type":[0,0,0,0,0,0,0],"sum_hessian":[6.87E2,6.5E2,3.7E1,2.1E1,1.6E1,6.44E2,6E0],"tree_param":{"num_deleted":"0","num_feature":"32","num_nodes":"7","size_leaf_vector":"1"}},{"base_weights":[9.041972E-2,3.7853447E-1,-2.783302E0,6.1979415E-3,2.746728E-1,5.307899E-2,-3.8739341E-1],"categories":[],"categories_nodes":[],"categories_segments":[],"categories_sizes":[],"default_left":[0,0,0,0,0,0,0],"id":83,"left_children":[1,3,5,-1,-1,-1,-1],"loss_changes":[5.6371875E2,4.958396E2,2.8589273E2,0E0,0E0,0E0,0E0],"parents":[2147483647,0,0,1,1,2,2],"right_children":[2,4,6,-1,-1,-1,-1],"split_conditions":[1.8E1,1.4E1,5E0,6.1979415E-3,2.746728E-1,5.307899E-2,-3.8739341E-1],"split_indices":[18,20,20,0,0,0,0],"split_type":[0,0,0,0,0,0,0],"sum_hessian":[6.81E2,6.19E2,6.2E1,5.52E2,6.7E1,1.8E1,4.4E1],"tree_param":{"num_deleted":"0","num_feature":"32","num_nodes":"7","size_leaf_vector":"1"}},{"base_weights":[2.4566801E-2,6.658929E-2,-1.3479418E0,2.1484071E-2,-1.8912771E-1],"categories":[],"categories_nodes":[],"categories_segments":[],"categories_sizes":[],"default_left":[0,0,0,0,0],"id":84,"left_children":[1,3,-1,-1,-1],"loss_changes":[4.2865967E2,2.4167975E2,0E0,0E0,0E0],"parents":[2147483647,0,0,1,1],"right_children":[2,4,-1,-1,-1],"split_conditions":[7.3E1,2E1,-1.3479418E0,2.1484071E-2,-1.8912771E-1],"split_indices":[30,12,0,0,0],"split_type":[0,0,0,0,0],"sum_hessian":[7.06E2,7.04E2,2E0,6.53E2,5.1E1],"tree_param":{"num_deleted":"0","num_feature":"32","num_nodes":"5","size_leaf_vector":"1"}},{"base_weights":[-3.6894238E-1,-5.1584905E-1,3.7925909E0,3.7910173E0,1.9083463E-1,-4.218813E-2,-9.936298E-1],"categories":[],"categories_nodes":[],"categories_segments":[],"categories_sizes":[],"default_left":[0,0,0,0,0,0,0],"id":85,"left_children":[1,5,3,-1,-1,-1,-1],"loss_changes":[4.1310974E2,4.179071E2,1.4762233E3,0E0,0E0,0E0,0E0],"parents":[2147483647,0,0,2,2,1,1],"right_children":[2,6,4,-1,-1,-1,-1],"split_conditions":[2.7E1,4.9E1,2.8E1,3.7910173E0,1.9083463E-1,-4.218813E-2,-9.936298E-1],"split_indices":[14,22,14,0,0,0,0],"split_type":[0,0,0,0,0,0,0],"sum_hessian":[6.76E2,6.53E2,2.3E1,1E0,2.2E1,6.49E2,4E0],"tree_param":{"num_deleted":"0","num_feature":"32","num_nodes":"7","size_leaf_vector":"1"}},{"base_weights":[1.7444894E-1,2.1478137E-1,-1.2207143E0,3.789677E-2,-1.973755E-1],"categories":[],"categories_nodes":[],"categories_segments":[],"categories_sizes":[],"default_left":[0,0,0,0,0],"id":86,"left_children":[1,3,-1,-1,-1],"loss_changes":[3.598376E2,3.0048703E2,0E0,0E0,0E0],"parents":[2147483647,0,0,1,1],"right_children":[2,4,-1,-1,-1],"split_conditions":[8.2E1,1.7E1,-1.2207143E0,3.789677E-2,-1.973755E-1],"split_indices":[30,28,0,0,0],"split_type":[0,0,0,0,0],"sum_hessian":[6.74E2,6.72E2,2E0,6.21E2,5.1E1],"tree_param":{"num_deleted":"0","num_feature":"32","num_nodes":"5","size_leaf_vector":"1"}},{"base_weights":[6.1107937E-2,2.833222E-2,1.9782895E0,-5.599593E-3,4.5511544E-1],"categories":[],"categories_nodes":[],"categories_segments":[],"categories_sizes":[],"default_left":[0,0,0,0,0],"id":87,"left_children":[1,3,-1,-1,-1],"loss_changes":[4.6510092E2,2.887958E2,0E0,0E0,0E0],"parents":[2147483647,0,0,1,1],"right_children":[2,4,-1,-1,-1],"split_conditions":[9E1,3.8E1,1.9782895E0,-5.599593E-3,4.5511544E-1],"split_indices":[30,11,0,0,0],"split_type":[0,0,0,0,0],"sum_hessian":[6.73E2,6.72E2,1E0,6.6E2,1.2E1],"tree_param":{"num_deleted":"0","num_feature":"32","num_nodes":"5","size_leaf_vector":"1"}},{"base_weights":[-8.602491E-2,1.1855878E-1,-2.6812065E0,-1.01356916E-1,4.9865127E-2,-1.8257622E-1,-8.6213654E-1],"categories":[],"categories_nodes":[],"categories_segments":[],"categories_sizes":[],"default_left":[0,0,0,0,0,0,0],"id":88,"left_children":[1,3,5,-1,-1,-1,-1],"loss_changes":[3.708271E2,3.2488977E2,2.4061945E2,0E0,0E0,0E0,0E0],"parents":[2147483647,0,0,1,1,2,2],"right_children":[2,4,6,-1,-1,-1,-1],"split_conditions":[2E1,2E0,3.2E1,-1.01356916E-1,4.9865127E-2,-1.8257622E-1,-8.6213654E-1],"split_indices":[22,11,20,0,0,0,0],"split_type":[0,0,0,0,0,0,0],"sum_hessian":[6.98E2,6.47E2,5.1E1,1.66E2,4.81E2,4.6E1,5E0],"tree_param":{"num_deleted":"0","num_feature":"32","num_nodes":"7","size_leaf_vector":"1"}},{"base_weights":[-1.4932518E-1,-7.796621E-1,4.8970318E-1,-1.205321E-2,2.7163073E-1,-6.326404E-2,-7.320833E-1],"categories":[],"categories_nodes":[],"categories_segments":[],"categories_sizes":[],"default_left":[0,0,0,0,0,0,0],"id":89,"left_children":[1,5,3,-1,-1,-1,-1],"loss_changes":[2.8725085E2,2.5553525E2,5.3155176E2,0E0,0E0,0E0,0E0],"parents":[2147483647,0,0,2,2,1,1],"right_children":[2,6,4,-1,-1,-1,-1],"split_conditions":[4E0,3.5E1,1.4E1,-1.205321E-2,2.7163073E-1,-6.326404E-2,-7.320833E-1],"split_indices":[22,24,20,0,0,0,0],"split_type":[0,0,0,0,0,0,0],"sum_hessian":[7.13E2,3.59E2,3.54E2,2.82E2,7.2E1,3.54E2,5E0],"tree_param":{"num_deleted":"0","num_feature":"32","num_nodes":"7","size_leaf_vector":"1"}},{"base_weights":[-4.9769692E-2,3.1128008E-2,-6.316131E0,-2.8271172E-3,6.617642E-1,-1.2833954E0,-3.8351312E-1],"categories":[],"categories_nodes":[],"categories_segments":[],"categories_sizes":[],"default_left":[0,0,0,0,0,0,0],"id":90,"left_children":[1,3,5,-1,-1,-1,-1],"loss_changes":[3.594389E2,3.0424158E2,1.447539E2,0E0,0E0,0E0,0E0],"parents":[2147483647,0,0,1,1,2,2],"right_children":[2,4,6,-1,-1,-1,-1],"split_conditions":[4.1E1,4.7E1,2E0,-2.8271172E-3,6.617642E-1,-1.2833954E0,-3.8351312E-1],"split_indices":[2,27,17,0,0,0,0],"split_type":[0,0,0,0,0,0,0],"sum_hessian":[7.08E2,6.99E2,9E0,6.93E2,6E0,2E0,7E0],"tree_param":{"num_deleted":"0","num_feature":"32","num_nodes":"7","size_leaf_vector":"1"}},{"base_weights":[1.4491652E-1,4.0068564E-1,-3.993089E0,8.290865E-2,-6.767518E-2,-4.8083773E-1,1.386912E-1],"categories":[],"categories_nodes":[],"categories_segments":[],"categories_sizes":[],"default_left":[0,0,0,0,0,0,0],"id":91,"left_children":[1,3,5,-1,-1,-1,-1],"loss_changes":[7.279718E2,3.5691653E2,2.5632062E2,0E0,0E0,0E0,0E0],"parents":[2147483647,0,0,1,1,2,2],"right_children":[2,4,6,-1,-1,-1,-1],"split_conditions":[2.1E1,8E0,1.7E1,8.290865E-2,-6.767518E-2,-4.8083773E-1,1.386912E-1],"split_indices":[20,27,26,0,0,0,0],"split_type":[0,0,0,0,0,0,0],"sum_hessian":[6.88E2,6.48E2,4E1,4.52E2,1.96E2,3.3E1,7E0],"tree_param":{"num_deleted":"0","num_feature":"32","num_nodes":"7","size_leaf_vector":"1"}},{"base_weights":[-2.5572008E-1,-2.9837468E-1,1.4180247E1,-3.5901185E-2,5.204052E-1,9.8044026E-1,1.6088203E0],"categories":[],"categories_nodes":[],"categories_segments":[],"categories_sizes":[],"default_left":[0,0,0,0,0,0,0],"id":92,"left_children":[1,3,5,-1,-1,-1,-1],"loss_changes":[4.2578894E2,3.523566E2,1.4038086E1,0E0,0E0,0E0,0E0],"parents":[2147483647,0,0,1,1,2,2],"right_children":[2,4,6,-1,-1,-1,-1],"split_conditions":[5.7E1,3.9E1,5E0,-3.5901185E-2,5.204052E-1,9.8044026E-1,1.6088203E0],"split_indices":[22,28,1,0,0,0,0],"split_type":[0,0,0,0,0,0,0],"sum_hessian":[6.93E2,6.91E2,2E0,6.81E2,1E1,1E0,1E0],"tree_param":{"num_deleted":"0","num_feature":"32","num_nodes":"7","size_leaf_vector":"1"}},{"base_weights":[1.6918252E-1,9.686177E-2,1.6192038E1,1.3848801E-1,-3.1925455E-2,8.923069E-1,1.7923527E0],"categories":[],"categories_nodes":[],"categories_segments":[],"categories_sizes":[],"default_left":[0,0,0,0,0,0,0],"id":93,"left_children":[1,3,5,-1,-1,-1,-1],"loss_changes":[7.8317737E2,4.114182E2,5.1935608E1,0E0,0E0,0E0,0E0],"parents":[2147483647,0,0,1,1,2,2],"right_children":[2,4,6,-1,-1,-1,-1],"split_conditions":[4.7E1,2E0,2E0,1.3848801E-1,-3.1925455E-2,8.923069E-1,1.7923527E0],"split_indices":[22,17,7,0,0,0,0],"split_type":[0,0,0,0,0,0,0],"sum_hessian":[6.77E2,6.74E2,3E0,1.62E2,5.12E2,1E0,2E0],"tree_param":{"num_deleted":"0","num_feature":"32","num_nodes":"7","size_leaf_vector":"1"}},{"base_weights":[-1.6201656E-1,8.2825035E-2,-2.0272205E0,1.5573866E-2,-7.85996E-1,-2.5276253E-1,4.822226E-1],"categories":[],"categories_nodes":[],"categories_segments":[],"categories_sizes":[],"default_left":[0,0,0,0,0,0,0],"id":94,"left_children":[1,3,5,-1,-1,-1,-1],"loss_changes":[3.1894116E2,4.420738E2,3.9971307E2,0E0,0E0,0E0,0E0],"parents":[2147483647,0,0,1,1,2,2],"right_children":[2,4,6,-1,-1,-1,-1],"split_conditions":[1.4E1,4.4E1,2.8E1,1.5573866E-2,-7.85996E-1,-2.5276253E-1,4.822226E-1],"split_indices":[26,6,0,0,0,0,0],"split_type":[0,0,0,0,0,0,0],"sum_hessian":[6.98E2,6.17E2,8.1E1,6.11E2,6E0,7.4E1,7E0],"tree_param":{"num_deleted":"0","num_feature":"32","num_nodes":"7","size_leaf_vector":"1"}},{"base_weights":[2.2317754E-1,7.216797E-2,5.6842866E0,1.837752E-1,1.8122061E0,1.6368743E-2,-4.926989E-1],"categories":[],"categories_nodes":[],"categories_segments":[],"categories_sizes":[],"default_left":[0,0,0,0,0,0,0],"id":95,"left_children":[1,5,3,-1,-1,-1,-1],"loss_changes":[5.834274E2,3.8150146E2,9.6922266E2,0E0,0E0,0E0,0E0],"parents":[2147483647,0,0,2,2,1,1],"right_children":[2,6,4,-1,-1,-1,-1],"split_conditions":[3.2E1,3.7E1,1.2E1,1.837752E-1,1.8122061E0,1.6368743E-2,-4.926989E-1],"split_indices":[28,6,20,0,0,0,0],"split_type":[0,0,0,0,0,0,0],"sum_hessian":[7.08E2,6.89E2,1.9E1,1.5E1,4E0,6.76E2,1.3E1],"tree_param":{"num_deleted":"0","num_feature":"32","num_nodes":"7","size_leaf_vector":"1"}},{"base_weights":[3.6077422E-1,-7.472132E-1,7.654616E-1,-1.0382937E-1,6.7839724E-1,1.2956479E-1,-1.21463E-2],"categories":[],"categories_nodes":[],"categories_segments":[],"categories_sizes":[],"default_left":[0,0,0,0,0,0,0],"id":96,"left_children":[1,3,5,-1,-1,-1,-1],"loss_changes":[3.0853046E2,5.4137604E2,2.820844E2,0E0,0E0,0E0,0E0],"parents":[2147483647,0,0,1,1,2,2],"right_children":[2,4,6,-1,-1,-1,-1],"split_conditions":[2E0,2.5E1,5E0,-1.0382937E-1,6.7839724E-1,1.2956479E-1,-1.21463E-2],"split_indices":[15,0,0,0,0,0,0],"split_type":[0,0,0,0,0,0,0],"sum_hessian":[6.88E2,1.84E2,5.04E2,1.76E2,8E0,2.97E2,2.07E2],"tree_param":{"num_deleted":"0","num_feature":"32","num_nodes":"7","size_leaf_vector":"1"}},{"base_weights":[2.772589E-1,4.0884927E-1,-3.5951996E0,2.9892566E-2,1.3488991E0,-7.473144E-1,8.99894E-3],"categories":[],"categories_nodes":[],"categories_segments":[],"categories_sizes":[],"default_left":[0,0,0,0,0,0,0],"id":97,"left_children":[1,3,5,-1,-1,-1,-1],"loss_changes":[3.4174487E2,8.032488E2,3.6042343E2,0E0,0E0,0E0,0E0],"parents":[2147483647,0,0,1,1,2,2],"right_children":[2,4,6,-1,-1,-1,-1],"split_conditions":[3.3E1,4.3E1,7E0,2.9892566E-2,1.3488991E0,-7.473144E-1,8.99894E-3],"split_indices":[22,27,20,0,0,0,0],"split_type":[0,0,0,0,0,0,0],"sum_hessian":[6.71E2,6.49E2,2.2E1,6.45E2,4E0,1E1,1.2E1],"tree_param":{"num_deleted":"0","num_feature":"32","num_nodes":"7","size_leaf_vector":"1"}},{"base_weights":[1.679004E-1,2.4103612E-1,-5.1089315E0,-5.986618E-2,7.765705E-2,-8.273559E-1,-3.7101266E-1],"categories":[],"categories_nodes":[],"categories_segments":[],"categories_sizes":[],"default_left":[0,0,0,0,0,0,0],"id":98,"left_children":[1,3,5,-1,-1,-1,-1],"loss_changes":[2.5515213E2,3.4156104E2,3.6087265E1,0E0,0E0,0E0,0E0],"parents":[2147483647,0,0,1,1,2,2],"right_children":[2,4,6,-1,-1,-1,-1],"split_conditions":[3.8E1,3E0,5E0,-5.986618E-2,7.765705E-2,-8.273559E-1,-3.7101266E-1],"split_indices":[12,3,20,0,0,0,0],"split_type":[0,0,0,0,0,0,0],"sum_hessian":[6.62E2,6.53E2,9E0,2.62E2,3.91E2,2E0,7E0],"tree_param":{"num_deleted":"0","num_feature":"32","num_nodes":"7","size_leaf_vector":"1"}},{"base_weights":[-9.4584174E-2,4.2137913E-2,-4.296912E0,-6.285268E-1,5.6351274E-1,1.0666447E-3,1.7763741E0],"categories":[],"categories_nodes":[],"categories_segments":[],"categories_sizes":[],"default_left":[0,0,0,0,0,0,0],"id":99,"left_children":[1,5,3,-1,-1,-1,-1],"loss_changes":[3.8359427E2,3.7553326E2,5.3375037E2,0E0,0E0,0E0,0E0],"parents":[2147483647,0,0,2,2,1,1],"right_children":[2,6,4,-1,-1,-1,-1],"split_conditions":[3.3E1,7.3E1,1.9E1,-6.285268E-1,5.6351274E-1,1.0666447E-3,1.7763741E0],"split_indices":[28,30,4,0,0,0,0],"split_type":[0,0,0,0,0,0,0],"sum_hessian":[6.67E2,6.46E2,2.1E1,1.7E1,4E0,6.45E2,1E0],"tree_param":{"num_deleted":"0","num_feature":"32","num_nodes":"7","size_leaf_vector":"1"}},{"base_weights":[-4.1143975E-1,-3.132941E-1,-5.019909E0,-2.706433E-2,-1.4770923E0,-7.713441E-1,-3.893068E-1],"categories":[],"categories_nodes":[],"categories_segments":[],"categories_sizes":[],"default_left":[0,0,0,0,0,0,0],"id":100,"left_children":[1,3,5,-1,-1,-1,-1],"loss_changes":[3.2609283E2,2.5051212E2,3.9006653E1,0E0,0E0,0E0,0E0],"parents":[2147483647,0,0,1,1,2,2],"right_children":[2,4,6,-1,-1,-1,-1],"split_conditions":[3.6E1,1.01E2,4E0,-2.706433E-2,-1.4770923E0,-7.713441E-1,-3.893068E-1],"split_indices":[12,30,16,0,0,0,0],"split_type":[0,0,0,0,0,0,0],"sum_hessian":[7.22E2,7.07E2,1.5E1,7.06E2,1E0,3E0,1.2E1],"tree_param":{"num_deleted":"0","num_feature":"32","num_nodes":"7","size_leaf_vector":"1"}},{"base_weights":[-1.9050308E-1,-2.4084328E-1,7.121106E0,-6.432742E-2,4.8085574E-2,1.66214E-1,1.3899027E0],"categories":[],"categories_nodes":[],"categories_segments":[],"categories_sizes":[],"default_left":[0,0,0,0,0,0,0],"id":101,"left_children":[1,3,5,-1,-1,-1,-1],"loss_changes":[2.7115988E2,2.4923828E2,2.0712943E2,0E0,0E0,0E0,0E0],"parents":[2147483647,0,0,1,1,2,2],"right_children":[2,4,6,-1,-1,-1,-1],"split_conditions":[5.4E1,6E0,3E0,-6.432742E-2,4.8085574E-2,1.66214E-1,1.3899027E0],"split_indices":[24,12,17,0,0,0,0],"split_type":[0,0,0,0,0,0,0],"sum_hessian":[7.38E2,7.33E2,5E0,4.6E2,2.73E2,3E0,2E0],"tree_param":{"num_deleted":"0","num_feature":"32","num_nodes":"7","size_leaf_vector":"1"}},{"base_weights":[1.1032666E-1,-4.3197137E-1,1.0408367E0,3.799688E-2,3.769373E-1,-3.490414E-2,-1.1729374E0],"categories":[],"categories_nodes":[],"categories_segments":[],"categories_sizes":[],"default_left":[0,0,0,0,0,0,0],"id":102,"left_children":[1,5,3,-1,-1,-1,-1],"loss_changes":[3.4675366E2,3.0212622E2,4.8073395E2,0E0,0E0,0E0,0E0],"parents":[2147483647,0,0,2,2,1,1],"right_children":[2,6,4,-1,-1,-1,-1],"split_conditions":[6E0,3.9E1,1.8E1,3.799688E-2,3.769373E-1,-3.490414E-2,-1.1729374E0],"split_indices":[26,22,20,0,0,0,0],"split_type":[0,0,0,0,0,0,0],"sum_hessian":[6.87E2,4.34E2,2.53E2,2.09E2,4.4E1,4.32E2,2E0],"tree_param":{"num_deleted":"0","num_feature":"32","num_nodes":"7","size_leaf_vector":"1"}},{"base_weights":[-6.783305E-3,1.3567204E0,-4.4238418E-1,2.1969105E-1,-2.0078461E-1,1.1734598E-1,-7.828767E-2],"categories":[],"categories_nodes":[],"categories_segments":[],"categories_sizes":[],"default_left":[0,0,0,0,0,0,0],"id":103,"left_children":[1,3,5,-1,-1,-1,-1],"loss_changes":[4.0979184E2,5.867289E2,3.537162E2,0E0,0E0,0E0,0E0],"parents":[2147483647,0,0,1,1,2,2],"right_children":[2,4,6,-1,-1,-1,-1],"split_conditions":[2E0,1.4E1,2E0,2.1969105E-1,-2.0078461E-1,1.1734598E-1,-7.828767E-2],"split_indices":[23,18,27,0,0,0,0],"split_type":[0,0,0,0,0,0,0],"sum_hessian":[6.9E2,1.67E2,5.23E2,1.3E2,3.7E1,9.9E1,4.24E2],"tree_param":{"num_deleted":"0","num_feature":"32","num_nodes":"7","size_leaf_vector":"1"}},{"base_weights":[1.4293094E-1,-2.1734853E-1,1.847082E0,-5.630287E-2,3.5364813E-1,-2.3379868E-2,1.7066169E0],"categories":[],"categories_nodes":[],"categories_segments":[],"categories_sizes":[],"default_left":[0,0,0,0,0,0,0],"id":104,"left_children":[1,5,3,-1,-1,-1,-1],"loss_changes":[4.293336E2,3.565796E2,5.827136E2,0E0,0E0,0E0,0E0],"parents":[2147483647,0,0,2,2,1,1],"right_children":[2,6,4,-1,-1,-1,-1],"split_conditions":[1.2E1,7.3E1,6E0,-5.630287E-2,3.5364813E-1,-2.3379868E-2,1.7066169E0],"split_indices":[18,6,12,0,0,0,0],"split_type":[0,0,0,0,0,0,0],"sum_hessian":[6.99E2,5.77E2,1.22E2,5.4E1,6.8E1,5.76E2,1E0],"tree_param":{"num_deleted":"0","num_feature":"32","num_nodes":"7","size_leaf_vector":"1"}},{"base_weights":[-1.3233127E-1,-3.1191665E-1,3.0223973E0,8.731445E-1,-1.2196421E-1,-5.807433E-3,-1.513332E-1],"categories":[],"categories_nodes":[],"categories_segments":[],"categories_sizes":[],"default_left":[0,0,0,0,0,0,0],"id":105,"left_children":[1,5,3,-1,-1,-1,-1],"loss_changes":[3.8962033E2,2.1300824E2,1.0188219E3,0E0,0E0,0E0,0E0],"parents":[2147483647,0,0,2,2,1,1],"right_children":[2,6,4,-1,-1,-1,-1],"split_conditions":[2.2E1,1.2E1,6E0,8.731445E-1,-1.2196421E-1,-5.807433E-3,-1.513332E-1],"split_indices":[28,6,8,0,0,0,0],"split_type":[0,0,0,0,0,0,0],"sum_hessian":[6.88E2,6.51E2,3.7E1,1.5E1,2.2E1,5.47E2,1.04E2],"tree_param":{"num_deleted":"0","num_feature":"32","num_nodes":"7","size_leaf_vector":"1"}},{"base_weights":[1.5793491E-2,1.4540304E-1,-2.9202366E0,1.7377827E-2,-1.257948E0,-3.3820495E-1,6.37541E-1],"categories":[],"categories_nodes":[],"categories_segments":[],"categories_sizes":[],"default_left":[0,0,0,0,0,0,0],"id":106,"left_children":[1,3,5,-1,-1,-1,-1],"loss_changes":[2.7036966E2,3.8018756E2,2.0823999E2,0E0,0E0,0E0,0E0],"parents":[2147483647,0,0,1,1,2,2],"right_children":[2,4,6,-1,-1,-1,-1],"split_conditions":[2.3E1,5.9E1,2.6E1,1.7377827E-2,-1.257948E0,-3.3820495E-1,6.37541E-1],"split_indices":[18,30,22,0,0,0,0],"split_type":[0,0,0,0,0,0,0],"sum_hessian":[7.11E2,6.81E2,3E1,6.79E2,2E0,2.8E1,2E0],"tree_param":{"num_deleted":"0","num_feature":"32","num_nodes":"7","size_leaf_vector":"1"}},{"base_weights":[2.2645788E-1,2.6353112E-1,-1.2169896E1,3.150975E-2,-5.5797213E-1,-1.3878735E0,-8.332836E-1],"categories":[],"categories_nodes":[],"categories_segments":[],"categories_sizes":[],"default_left":[0,0,0,0,0,0,0],"id":107,"left_children":[1,3,5,-1,-1,-1,-1],"loss_changes":[3.1398935E2,3.1768573E2,1.1067596E1,0E0,0E0,0E0,0E0],"parents":[2147483647,0,0,1,1,2,2],"right_children":[2,4,6,-1,-1,-1,-1],"split_conditions":[7.3E1,4.7E1,3E0,3.150975E-2,-5.5797213E-1,-1.3878735E0,-8.332836E-1],"split_indices":[22,28,3,0,0,0,0],"split_type":[0,0,0,0,0,0,0],"sum_hessian":[6.85E2,6.83E2,2E0,6.75E2,8E0,1E0,1E0],"tree_param":{"num_deleted":"0","num_feature":"32","num_nodes":"7","size_leaf_vector":"1"}},{"base_weights":[-1.9172761E-1,-8.159627E-2,-3.276371E0,-1.03212455E-2,1.7479539E0,9.122397E-3,-4.941667E-1],"categories":[],"categories_nodes":[],"categories_segments":[],"categories_sizes":[],"default_left":[0,0,0,0,0,0,0],"id":108,"left_children":[1,3,5,-1,-1,-1,-1],"loss_changes":[2.368554E2,3.6840613E2,1.6468747E2,0E0,0E0,0E0,0E0],"parents":[2147483647,0,0,1,1,2,2],"right_children":[2,4,6,-1,-1,-1,-1],"split_conditions":[2.4E1,5.4E1,3E0,-1.03212455E-2,1.7479539E0,9.122397E-3,-4.941667E-1],"split_indices":[4,30,8,0,0,0,0],"split_type":[0,0,0,0,0,0,0],"sum_hessian":[6.98E2,6.74E2,2.4E1,6.73E2,1E0,9E0,1.5E1],"tree_param":{"num_deleted":"0","num_feature":"32","num_nodes":"7","size_leaf_vector":"1"}},{"base_weights":[1.4384794E-1,1.1836744E-1,1.563343E0,3.087848E-2,-1.4652362E-1],"categories":[],"categories_nodes":[],"categories_segments":[],"categories_sizes":[],"default_left":[0,0,0,0,0],"id":109,"left_children":[1,3,-1,-1,-1],"loss_changes":[2.8712152E2,2.4464378E2,0E0,0E0,0E0],"parents":[2147483647,0,0,1,1],"right_children":[2,4,-1,-1,-1],"split_conditions":[7.3E1,1.5E1,1.563343E0,3.087848E-2,-1.4652362E-1],"split_indices":[6,31,0,0,0],"split_type":[0,0,0,0,0],"sum_hessian":[6.81E2,6.8E2,1E0,6.04E2,7.6E1],"tree_param":{"num_deleted":"0","num_feature":"32","num_nodes":"5","size_leaf_vector":"1"}},{"base_weights":[-2.3170748E-1,1.0683696E0,-6.594324E-1,8.4990494E-2,2.4820924E0,-6.821898E-2,5.12565E-1],"categories":[],"categories_nodes":[],"categories_segments":[],"categories_sizes":[],"default_left":[0,0,0,0,0,0,0],"id":110,"left_children":[1,3,5,-1,-1,-1,-1],"loss_changes":[3.8426187E2,6.81402E2,2.31737E2,0E0,0E0,0E0,0E0],"parents":[2147483647,0,0,1,1,2,2],"right_children":[2,4,6,-1,-1,-1,-1],"split_conditions":[2E0,3.7E1,3.7E1,8.4990494E-2,2.4820924E0,-6.821898E-2,5.12565E-1],"split_indices":[23,11,20,0,0,0,0],"split_type":[0,0,0,0,0,0,0],"sum_hessian":[6.91E2,1.71E2,5.2E2,1.7E2,1E0,5.14E2,6E0],"tree_param":{"num_deleted":"0","num_feature":"32","num_nodes":"7","size_leaf_vector":"1"}},{"base_weights":[-1.5487804E-1,-2.687892E-1,3.1405494E0,1.3520123E-1,1.9881006E0,-1.3771992E-2,-3.271119E-1],"categories":[],"categories_nodes":[],"categories_segments":[],"categories_sizes":[],"default_left":[0,0,0,0,0,0,0],"id":111,"left_children":[1,5,3,-1,-1,-1,-1],"loss_changes":[2.7009293E2,2.7269858E2,7.359169E2,0E0,0E0,0E0,0E0],"parents":[2147483647,0,0,2,2,1,1],"right_children":[2,6,4,-1,-1,-1,-1],"split_conditions":[2.7E1,2.6E1,1.9E1,1.3520123E-1,1.9881006E0,-1.3771992E-2,-3.271119E-1],"split_indices":[24,26,30,0,0,0,0],"split_type":[0,0,0,0,0,0,0],"sum_hessian":[7.2E2,6.96E2,2.4E1,2.2E1,2E0,6.71E2,2.5E1],"tree_param":{"num_deleted":"0","num_feature":"32","num_nodes":"7","size_leaf_vector":"1"}},{"base_weights":[-9.087493E-2,-1.16768844E-1,1.576826E0,4.7654036E-2,-6.910197E-2],"categories":[],"categories_nodes":[],"categories_segments":[],"categories_sizes":[],"default_left":[0,0,0,0,0],"id":112,"left_children":[1,3,-1,-1,-1],"loss_changes":[3.004083E2,2.6833603E2,0E0,0E0,0E0],"parents":[2147483647,0,0,1,1],"right_children":[2,4,-1,-1,-1],"split_conditions":[8.2E1,4E0,1.576826E0,4.7654036E-2,-6.910197E-2],"split_indices":[18,25,0,0,0],"split_type":[0,0,0,0,0],"sum_hessian":[6.85E2,6.84E2,1E0,3.41E2,3.43E2],"tree_param":{"num_deleted":"0","num_feature":"32","num_nodes":"5","size_leaf_vector":"1"}},{"base_weights":[3.0897586E-2,1.473068E-1,-3.7837107E0,2.3689296E-3,7.1203816E-1,-2.425578E-1,-8.123944E-1],"categories":[],"categories_nodes":[],"categories_segments":[],"categories_sizes":[],"default_left":[0,0,0,0,0,0,0],"id":113,"left_children":[1,3,5,-1,-1,-1,-1],"loss_changes":[3.154692E2,6.294969E2,1.20836914E2,0E0,0E0,0E0,0E0],"parents":[2147483647,0,0,1,1,2,2],"right_children":[2,4,6,-1,-1,-1,-1],"split_conditions":[3.2E1,2.4E1,2.1E1,2.3689296E-3,7.1203816E-1,-2.425578E-1,-8.123944E-1],"split_indices":[26,26,28,0,0,0,0],"split_type":[0,0,0,0,0,0,0],"sum_hessian":[7.11E2,6.9E2,2.1E1,6.79E2,1.1E1,1.7E1,4E0],"tree_param":{"num_deleted":"0","num_feature":"32","num_nodes":"7","size_leaf_vector":"1"}},{"base_weights":[-7.942139E-2,-4.403102E-2,-1.2427141E1,-1.1296383E-3,-1.0387105E0,-1.3725147E0,-8.9574504E-1],"categories":[],"categories_nodes":[],"categories_segments":[],"categories_sizes":[],"default_left":[0,0,0,0,0,0,0],"id":114,"left_children":[1,3,5,-1,-1,-1,-1],"loss_changes":[3.1144498E2,2.5166331E2,6.0081787E0,0E0,0E0,0E0,0E0],"parents":[2147483647,0,0,1,1,2,2],"right_children":[2,4,6,-1,-1,-1,-1],"split_conditions":[8.2E1,7.3E1,2E0,-1.1296383E-3,-1.0387105E0,-1.3725147E0,-8.9574504E-1],"split_indices":[30,22,0,0,0,0,0],"split_type":[0,0,0,0,0,0,0],"sum_hessian":[7.15E2,7.13E2,2E0,7.11E2,2E0,1E0,1E0],"tree_param":{"num_deleted":"0","num_feature":"32","num_nodes":"7","size_leaf_vector":"1"}},{"base_weights":[-3.6466055E-2,5.0081942E-2,-4.623437E0,1.1883379E-2,-5.382661E-1,-2.7993324E-1,-1.2378126E0],"categories":[],"categories_nodes":[],"categories_segments":[],"categories_sizes":[],"default_left":[0,0,0,0,0,0,0],"id":115,"left_children":[1,3,5,-1,-1,-1,-1],"loss_changes":[2.7947577E2,3.106855E2,1.8006622E2,0E0,0E0,0E0,0E0],"parents":[2147483647,0,0,1,1,2,2],"right_children":[2,4,6,-1,-1,-1,-1],"split_conditions":[4.1E1,4.1E1,3.4E1,1.1883379E-2,-5.382661E-1,-2.7993324E-1,-1.2378126E0],"split_indices":[2,16,28,0,0,0,0],"split_type":[0,0,0,0,0,0,0],"sum_hessian":[7.03E2,6.9E2,1.3E1,6.81E2,9E0,1.1E1,2E0],"tree_param":{"num_deleted":"0","num_feature":"32","num_nodes":"7","size_leaf_vector":"1"}},{"base_weights":[9.318232E-2,1.628283E-1,-5.850955E0,2.4626363E-2,-3.79757E-1,-1.7934054E-2,-7.187755E-1],"categories":[],"categories_nodes":[],"categories_segments":[],"categories_sizes":[],"default_left":[0,0,0,0,0,0,0],"id":116,"left_children":[1,3,5,-1,-1,-1,-1],"loss_changes":[2.8731458E2,2.948084E2,8.390906E1,0E0,0E0,0E0,0E0],"parents":[2147483647,0,0,1,1,2,2],"right_children":[2,4,6,-1,-1,-1,-1],"split_conditions":[4.3E1,3.2E1,2E0,2.4626363E-2,-3.79757E-1,-1.7934054E-2,-7.187755E-1],"split_indices":[27,2,9,0,0,0,0],"split_type":[0,0,0,0,0,0,0],"sum_hessian":[6.95E2,6.87E2,8E0,6.71E2,1.6E1,2E0,6E0],"tree_param":{"num_deleted":"0","num_feature":"32","num_nodes":"7","size_leaf_vector":"1"}},{"base_weights":[7.35263E-2,-3.8457188E-1,1.0551313E0,7.534752E-2,1.3152583E0,-4.1282702E-2,7.927065E-1],"categories":[],"categories_nodes":[],"categories_segments":[],"categories_sizes":[],"default_left":[0,0,0,0,0,0,0],"id":117,"left_children":[1,5,3,-1,-1,-1,-1],"loss_changes":[3.0811026E2,2.4158902E2,7.008744E2,0E0,0E0,0E0,0E0],"parents":[2147483647,0,0,2,2,1,1],"right_children":[2,6,4,-1,-1,-1,-1],"split_conditions":[7E0,3.6E1,3.7E1,7.534752E-2,1.3152583E0,-4.1282702E-2,7.927065E-1],"split_indices":[10,6,22,0,0,0,0],"split_type":[0,0,0,0,0,0,0],"sum_hessian":[6.85E2,4.67E2,2.18E2,2.14E2,4E0,4.64E2,3E0],"tree_param":{"num_deleted":"0","num_feature":"32","num_nodes":"7","size_leaf_vector":"1"}},{"base_weights":[-2.413978E-1,2.03703E-1,-2.1884089E0,-6.311501E-2,-3.8658327E-1,-3.7618645E-2,1.2062777E-1],"categories":[],"categories_nodes":[],"categories_segments":[],"categories_sizes":[],"default_left":[0,0,0,0,0,0,0],"id":118,"left_children":[1,5,3,-1,-1,-1,-1],"loss_changes":[6.103053E2,3.7954922E2,3.874477E2,0E0,0E0,0E0,0E0],"parents":[2147483647,0,0,2,2,1,1],"right_children":[2,6,4,-1,-1,-1,-1],"split_conditions":[1.1E1,5E0,7E0,-6.311501E-2,-3.8658327E-1,-3.7618645E-2,1.2062777E-1],"split_indices":[6,30,22,0,0,0,0],"split_type":[0,0,0,0,0,0,0],"sum_hessian":[7.04E2,5.73E2,1.31E2,7.4E1,5.7E1,3.68E2,2.05E2],"tree_param":{"num_deleted":"0","num_feature":"32","num_nodes":"7","size_leaf_vector":"1"}},{"base_weights":[-4.0664174E-2,-1.7380504E-1,4.8639913E0,1.5623074E0,-1.0354949E-1,6.5501095E-3,-1.979141E-1],"categories":[],"categories_nodes":[],"categories_segments":[],"categories_sizes":[],"default_left":[0,0,0,0,0,0,0],"id":119,"left_children":[1,5,3,-1,-1,-1,-1],"loss_changes":[4.4568555E2,3.166039E2,1.2840356E3,0E0,0E0,0E0,0E0],"parents":[2147483647,0,0,2,2,1,1],"right_children":[2,6,4,-1,-1,-1,-1],"split_conditions":[3.1E1,1.5E1,3.6E1,1.5623074E0,-1.0354949E-1,6.5501095E-3,-1.979141E-1],"split_indices":[30,10,30,0,0,0,0],"split_type":[0,0,0,0,0,0,0],"sum_hessian":[6.83E2,6.65E2,1.8E1,6E0,1.2E1,5.91E2,7.4E1],"tree_param":{"num_deleted":"0","num_feature":"32","num_nodes":"7","size_leaf_vector":"1"}},{"base_weights":[-1.4385317E-1,-9.737942E-2,-7.870773E0,-1.2916115E-1,3.1181045E-2,-3.6959738E-1,-1.0807395E0],"categories":[],"categories_nodes":[],"categories_segments":[],"categories_sizes":[],"default_left":[0,0,0,0,0,0,0],"id":120,"left_children":[1,3,5,-1,-1,-1,-1],"loss_changes":[2.4245662E2,3.7458163E2,5.5764893E1,0E0,0E0,0E0,0E0],"parents":[2147483647,0,0,1,1,2,2],"right_children":[2,4,6,-1,-1,-1,-1],"split_conditions":[4.4E1,2E0,3E0,-1.2916115E-1,3.1181045E-2,-3.6959738E-1,-1.0807395E0],"split_indices":[22,13,4,0,0,0,0],"split_type":[0,0,0,0,0,0,0],"sum_hessian":[6.77E2,6.73E2,4E0,1.69E2,5.04E2,2E0,2E0],"tree_param":{"num_deleted":"0","num_feature":"32","num_nodes":"7","size_leaf_vector":"1"}},{"base_weights":[-6.555651E-2,5.115289E-2,-6.5492525E0,1.2924631E-1,-3.1892076E-2,-1.0776775E0,-5.126644E-1],"categories":[],"categories_nodes":[],"categories_segments":[],"categories_sizes":[],"default_left":[0,0,0,0,0,0,0],"id":121,"left_children":[1,3,5,-1,-1,-1,-1],"loss_changes":[5.151225E2,3.5096622E2,5.959076E1,0E0,0E0,0E0,0E0],"parents":[2147483647,0,0,1,1,2,2],"right_children":[2,4,6,-1,-1,-1,-1],"split_conditions":[3.7E1,2E0,3E0,1.2924631E-1,-3.1892076E-2,-1.0776775E0,-5.126644E-1],"split_indices":[6,19,0,0,0,0,0],"split_type":[0,0,0,0,0,0,0],"sum_hessian":[6.8E2,6.68E2,1.2E1,1.52E2,5.16E2,2E0,1E1],"tree_param":{"num_deleted":"0","num_feature":"32","num_nodes":"7","size_leaf_vector":"1"}},{"base_weights":[1.3575943E-1,-3.1508547E-1,1.1027154E0,1.6036887E-1,-2.260825E-1,-1.8647648E-1,8.736858E-3],"categories":[],"categories_nodes":[],"categories_segments":[],"categories_sizes":[],"default_left":[0,0,0,0,0,0,0],"id":122,"left_children":[1,5,3,-1,-1,-1,-1],"loss_changes":[2.9479233E2,3.178354E2,4.6877643E2,0E0,0E0,0E0,0E0],"parents":[2147483647,0,0,2,2,1,1],"right_children":[2,6,4,-1,-1,-1,-1],"split_conditions":[7E0,2E0,1.9E1,1.6036887E-1,-2.260825E-1,-1.8647648E-1,8.736858E-3],"split_indices":[20,15,18,0,0,0,0],"split_type":[0,0,0,0,0,0,0],"sum_hessian":[6.76E2,4.61E2,2.15E2,1.83E2,3.2E1,9E1,3.71E2],"tree_param":{"num_deleted":"0","num_feature":"32","num_nodes":"7","size_leaf_vector":"1"}},{"base_weights":[-7.77026E-2,-1.3266286E-1,6.3099437E0,-4.1880432E-1,5.465761E0,-1.9589797E-2,3.4174025E-1],"categories":[],"categories_nodes":[],"categories_segments":[],"categories_sizes":[],"default_left":[0,0,0,0,0,0,0],"id":123,"left_children":[1,5,3,-1,-1,-1,-1],"loss_changes":[2.4845532E2,2.067366E2,3.426716E3,0E0,0E0,0E0,0E0],"parents":[2147483647,0,0,2,2,1,1],"right_children":[2,6,4,-1,-1,-1,-1],"split_conditions":[4.3E1,3.7E1,2.3E1,-4.1880432E-1,5.465761E0,-1.9589797E-2,3.4174025E-1],"split_indices":[27,28,3,0,0,0,0],"split_type":[0,0,0,0,0,0,0],"sum_hessian":[7.09E2,7.03E2,6E0,5E0,1E0,6.89E2,1.4E1],"tree_param":{"num_deleted":"0","num_feature":"32","num_nodes":"7","size_leaf_vector":"1"}},{"base_weights":[4.1516162E-2,2.901269E-1,-2.3383462E0,1.17369965E-2,5.8809674E-1,9.633787E-2,-3.5183752E-1],"categories":[],"categories_nodes":[],"categories_segments":[],"categories_sizes":[],"default_left":[0,0,0,0,0,0,0],"id":124,"left_children":[1,3,5,-1,-1,-1,-1],"loss_changes":[4.1936935E2,6.3404114E2,3.2500925E2,0E0,0E0,0E0,0E0],"parents":[2147483647,0,0,1,1,2,2],"right_children":[2,4,6,-1,-1,-1,-1],"split_conditions":[1.8E1,2.4E1,2E0,1.17369965E-2,5.8809674E-1,9.633787E-2,-3.5183752E-1],"split_indices":[18,8,27,0,0,0,0],"split_type":[0,0,0,0,0,0,0],"sum_hessian":[7.09E2,6.42E2,6.7E1,6.25E2,1.7E1,2E1,4.7E1],"tree_param":{"num_deleted":"0","num_feature":"32","num_nodes":"7","size_leaf_vector":"1"}},{"base_weights":[-5.2299865E-2,1.8058826E-1,-2.120109E0,-1.0602865E-1,-7.194057E-1,-2.921651E-2,1.0527176E-1],"categories":[],"categories_nodes":[],"categories_segments":[],"categories_sizes":[],"default_left":[0,0,0,0,0,0,0],"id":125,"left_children":[1,5,3,-1,-1,-1,-1],"loss_changes":[3.522137E2,3.080493E2,4.062054E2,0E0,0E0,0E0,0E0],"parents":[2147483647,0,0,2,2,1,1],"right_children":[2,6,4,-1,-1,-1,-1],"split_conditions":[1.7E1,5E0,1.9E1,-1.0602865E-1,-7.194057E-1,-2.921651E-2,1.0527176E-1],"split_indices":[16,16,22,0,0,0,0],"split_type":[0,0,0,0,0,0,0],"sum_hessian":[7.31E2,6.57E2,7.4E1,6.3E1,1.1E1,4.32E2,2.25E2],"tree_param":{"num_deleted":"0","num_feature":"32","num_nodes":"7","size_leaf_vector":"1"}},{"base_weights":[6.630577E-2,4.0930007E-2,1.4883815E0,1.0104184E-2,-5.000218E-1],"categories":[],"categories_nodes":[],"categories_segments":[],"categories_sizes":[],"default_left":[0,0,0,0,0],"id":126,"left_children":[1,3,-1,-1,-1],"loss_changes":[2.626026E2,2.3775618E2,0E0,0E0,0E0],"parents":[2147483647,0,0,1,1],"right_children":[2,4,-1,-1,-1],"split_conditions":[7.3E1,3.9E1,1.4883815E0,1.0104184E-2,-5.000218E-1],"split_indices":[6,30,0,0,0],"split_type":[0,0,0,0,0],"sum_hessian":[6.54E2,6.53E2,1E0,6.45E2,8E0],"tree_param":{"num_deleted":"0","num_feature":"32","num_nodes":"5","size_leaf_vector":"1"}},{"base_weights":[4.342449E-2,-1.361084E-1,3.3918934E0,2.2396807E-1,1.8021277E0,-4.9821218E-3,-2.9986605E-1],"categories":[],"categories_nodes":[],"categories_segments":[],"categories_sizes":[],"default_left":[0,0,0,0,0,0,0],"id":127,"left_children":[1,5,3,-1,-1,-1,-1],"loss_changes":[4.138984E2,1.6603778E2,5.4901465E2,0E0,0E0,0E0,0E0],"parents":[2147483647,0,0,2,2,1,1],"right_children":[2,6,4,-1,-1,-1,-1],"split_conditions":[2.1E1,3.2E1,3.2E1,2.2396807E-1,1.8021277E0,-4.9821218E-3,-2.9986605E-1],"split_indices":[30,12,24,0,0,0,0],"split_type":[0,0,0,0,0,0,0],"sum_hessian":[6.88E2,6.53E2,3.5E1,3.3E1,2E0,6.36E2,1.7E1],"tree_param":{"num_deleted":"0","num_feature":"32","num_nodes":"7","size_leaf_vector":"1"}},{"base_weights":[-3.8808385E-1,-5.67269E-1,1.4471719E0,3.902548E-1,-1.6759826E-1,-4.0113408E-2,-3.9012697E-1],"categories":[],"categories_nodes":[],"categories_segments":[],"categories_sizes":[],"default_left":[0,0,0,0,0,0,0],"id":128,"left_children":[1,5,3,-1,-1,-1,-1],"loss_changes":[2.1832881E2,2.9930325E2,5.2533014E2,0E0,0E0,0E0,0E0],"parents":[2147483647,0,0,2,2,1,1],"right_children":[2,6,4,-1,-1,-1,-1],"split_conditions":[1.7E1,1.4E1,1E1,3.902548E-1,-1.6759826E-1,-4.0113408E-2,-3.9012697E-1],"split_indices":[26,26,16,0,0,0,0],"split_type":[0,0,0,0,0,0,0],"sum_hessian":[6.64E2,6.05E2,5.9E1,3.2E1,2.7E1,5.83E2,2.2E1],"tree_param":{"num_deleted":"0","num_feature":"32","num_nodes":"7","size_leaf_vector":"1"}},{"base_weights":[-2.9272932E-1,-6.674712E-1,7.02057E-1,-3.0562695E-2,3.19551E-1,-5.718902E-2,-8.7190664E-1],"categories":[],"categories_nodes":[],"categories_segments":[],"categories_sizes":[],"default_left":[0,0,0,0,0,0,0],"id":129,"left_children":[1,5,3,-1,-1,-1,-1],"loss_changes":[2.5352417E2,2.304584E2,5.226371E2,0E0,0E0,0E0,0E0],"parents":[2147483647,0,0,2,2,1,1],"right_children":[2,6,4,-1,-1,-1,-1],"split_conditions":[8E0,3.9E1,1E1,-3.0562695E-2,3.19551E-1,-5.718902E-2,-8.7190664E-1],"split_indices":[8,6,22,0,0,0,0],"split_type":[0,0,0,0,0,0,0],"sum_hessian":[6.8E2,4.94E2,1.86E2,1.35E2,5.1E1,4.91E2,3E0],"tree_param":{"num_deleted":"0","num_feature":"32","num_nodes":"7","size_leaf_vector":"1"}},{"base_weights":[2.5937396E-1,3.451706E-1,-3.678801E0,2.6354287E-2,6.911511E-1,-1.115806E-1,-5.429512E-1],"categories":[],"categories_nodes":[],"categories_segments":[],"categories_sizes":[],"default_left":[0,0,0,0,0,0,0],"id":130,"left_children":[1,3,5,-1,-1,-1,-1],"loss_changes":[2.3833713E2,3.0433444E2,7.9266846E1,0E0,0E0,0E0,0E0],"parents":[2147483647,0,0,1,1,2,2],"right_children":[2,4,6,-1,-1,-1,-1],"split_conditions":[3.6E1,5.4E1,6E0,2.6354287E-2,6.911511E-1,-1.115806E-1,-5.429512E-1],"split_indices":[26,24,8,0,0,0,0],"split_type":[0,0,0,0,0,0,0],"sum_hessian":[7.06E2,6.91E2,1.5E1,6.85E2,6E0,7E0,8E0],"tree_param":{"num_deleted":"0","num_feature":"32","num_nodes":"7","size_leaf_vector":"1"}},{"base_weights":[-9.226891E-2,2.2692682E-1,-1.1486787E0,-6.870722E-2,1.0091187E-1,-1.5307665E-1,3.7786323E-1],"categories":[],"categories_nodes":[],"categories_segments":[],"categories_sizes":[],"default_left":[0,0,0,0,0,0,0],"id":131,"left_children":[1,3,5,-1,-1,-1,-1],"loss_changes":[2.3546254E2,4.4223132E2,4.1611493E2,0E0,0E0,0E0,0E0],"parents":[2147483647,0,0,1,1,2,2],"right_children":[2,4,6,-1,-1,-1,-1],"split_conditions":[1E1,3E0,2.1E1,-6.870722E-2,1.0091187E-1,-1.5307665E-1,3.7786323E-1],"split_indices":[24,14,0,0,0,0,0],"split_type":[0,0,0,0,0,0,0],"sum_hessian":[6.98E2,5.36E2,1.62E2,2.52E2,2.84E2,1.48E2,1.4E1],"tree_param":{"num_deleted":"0","num_feature":"32","num_nodes":"7","size_leaf_vector":"1"}},{"base_weights":[-1.720421E-1,-2.474948E-1,5.6980553E0,9.674723E-2,1.3856915E0,4.2531062E-2,-8.943881E-2],"categories":[],"categories_nodes":[],"categories_segments":[],"categories_sizes":[],"default_left":[0,0,0,0,0,0,0],"id":132,"left_children":[1,5,3,-1,-1,-1,-1],"loss_changes":[3.1543E2,3.528513E2,3.8424658E2,0E0,0E0,0E0,0E0],"parents":[2147483647,0,0,2,2,1,1],"right_children":[2,6,4,-1,-1,-1,-1],"split_conditions":[3.7E1,4E0,7E0,9.674723E-2,1.3856915E0,4.2531062E-2,-8.943881E-2],"split_indices":[20,30,10,0,0,0,0],"split_type":[0,0,0,0,0,0,0],"sum_hessian":[7.13E2,7.04E2,9E0,6E0,3E0,3.54E2,3.5E2],"tree_param":{"num_deleted":"0","num_feature":"32","num_nodes":"7","size_leaf_vector":"1"}},{"base_weights":[-1.5762819E-2,1.22872666E-1,-7.1683364E0,-5.082571E-2,7.563485E-2,-2.3244318E-1,-8.5927033E-1],"categories":[],"categories_nodes":[],"categories_segments":[],"categories_sizes":[],"default_left":[0,0,0,0,0,0,0],"id":133,"left_children":[1,3,5,-1,-1,-1,-1],"loss_changes":[6.798799E2,3.0920737E2,1.231499E2,0E0,0E0,0E0,0E0],"parents":[2147483647,0,0,1,1,2,2],"right_children":[2,4,6,-1,-1,-1,-1],"split_conditions":[3.5E1,4E0,3E0,-5.082571E-2,7.563485E-2,-2.3244318E-1,-8.5927033E-1],"split_indices":[24,6,16,0,0,0,0],"split_type":[0,0,0,0,0,0,0],"sum_hessian":[6.85E2,6.72E2,1.3E1,3.41E2,3.31E2,4E0,9E0],"tree_param":{"num_deleted":"0","num_feature":"32","num_nodes":"7","size_leaf_vector":"1"}},{"base_weights":[4.6651572E-1,2.775883E-1,2.9187222E0,1.6577157E-1,4.9740934E0,1.1752559E-2,2.727103E-1],"categories":[],"categories_nodes":[],"categories_segments":[],"categories_sizes":[],"default_left":[0,0,0,0,0,0,0],"id":134,"left_children":[1,5,3,-1,-1,-1,-1],"loss_changes":[3.0457535E2,2.448894E2,2.6977043E3,0E0,0E0,0E0,0E0],"parents":[2147483647,0,0,2,2,1,1],"right_children":[2,6,4,-1,-1,-1,-1],"split_conditions":[2E1,2.1E1,1.8E1,1.6577157E-1,4.9740934E0,1.1752559E-2,2.727103E-1],"split_indices":[6,11,19,0,0,0,0],"split_type":[0,0,0,0,0,0,0],"sum_hessian":[6.58E2,6.11E2,4.7E1,4.6E1,1E0,5.78E2,3.3E1],"tree_param":{"num_deleted":"0","num_feature":"32","num_nodes":"7","size_leaf_vector":"1"}},{"base_weights":[-6.933648E-2,1.5599687E-1,-1.8347126E0,-2.756674E-1,2.038334E-1,8.04703E-3,6.640418E-1],"categories":[],"categories_nodes":[],"categories_segments":[],"categories_sizes":[],"default_left":[0,0,0,0,0,0,0],"id":135,"left_children":[1,5,3,-1,-1,-1,-1],"loss_changes":[2.7424265E2,2.960192E2,3.5262906E2,0E0,0E0,0E0,0E0],"parents":[2147483647,0,0,2,2,1,1],"right_children":[2,6,4,-1,-1,-1,-1],"split_conditions":[1.6E1,3.6E1,8E0,-2.756674E-1,2.038334E-1,8.04703E-3,6.640418E-1],"split_indices":[10,6,17,0,0,0,0],"split_type":[0,0,0,0,0,0,0],"sum_hessian":[6.89E2,6.11E2,7.8E1,6.1E1,1.7E1,6.05E2,6E0],"tree_param":{"num_deleted":"0","num_feature":"32","num_nodes":"7","size_leaf_vector":"1"}},{"base_weights":[-6.1579324E-2,4.0498085E-2,-3.2922332E0,-1.5113282E-2,1.8117002E-1,-3.5385394E-1,6.045901E-1],"categories":[],"categories_nodes":[],"categories_segments":[],"categories_sizes":[],"default_left":[0,0,0,0,0,0,0],"id":136,"left_children":[1,3,5,-1,-1,-1,-1],"loss_changes":[2.2650447E2,2.5662045E2,1.0436539E2,0E0,0E0,0E0,0E0],"parents":[2147483647,0,0,1,1,2,2],"right_children":[2,4,6,-1,-1,-1,-1],"split_conditions":[3.2E1,1.6E1,2.4E1,-1.5113282E-2,1.8117002E-1,-3.5385394E-1,6.045901E-1],"split_indices":[2,6,26,0,0,0,0],"split_type":[0,0,0,0,0,0,0],"sum_hessian":[6.86E2,6.65E2,2.1E1,6.01E2,6.4E1,2E1,1E0],"tree_param":{"num_deleted":"0","num_feature":"32","num_nodes":"7","size_leaf_vector":"1"}},{"base_weights":[-3.8073856E-1,-4.0732294E-1,1.5645508E0,-5.1965695E-2,1.4375241E-1],"categories":[],"categories_nodes":[],"categories_segments":[],"categories_sizes":[],"default_left":[0,0,0,0,0],"id":137,"left_children":[1,3,-1,-1,-1],"loss_changes":[3.0607092E2,1.9670395E2,0E0,0E0,0E0],"parents":[2147483647,0,0,1,1],"right_children":[2,4,-1,-1,-1],"split_conditions":[7.3E1,2E1,1.5645508E0,-5.1965695E-2,1.4375241E-1],"split_indices":[22,19,0,0,0],"split_type":[0,0,0,0,0],"sum_hessian":[6.73E2,6.72E2,1E0,6.24E2,4.8E1],"tree_param":{"num_deleted":"0","num_feature":"32","num_nodes":"5","size_leaf_vector":"1"}},{"base_weights":[-4.2380515E-1,-2.9803324E-1,-3.851184E0,-1.1571678E-2,-2.2016731E-1,-3.899159E-1,3.6375982E-1],"categories":[],"categories_nodes":[],"categories_segments":[],"categories_sizes":[],"default_left":[0,0,0,0,0,0,0],"id":138,"left_children":[1,3,5,-1,-1,-1,-1],"loss_changes":[3.048372E2,2.4493375E2,6.505731E1,0E0,0E0,0E0,0E0],"parents":[2147483647,0,0,1,1,2,2],"right_children":[2,4,6,-1,-1,-1,-1],"split_conditions":[2.4E1,1.8E1,1.1E1,-1.1571678E-2,-2.2016731E-1,-3.899159E-1,3.6375982E-1],"split_indices":[8,18,5,0,0,0,0],"split_type":[0,0,0,0,0,0,0],"sum_hessian":[7.08E2,6.83E2,2.5E1,6.3E2,5.3E1,2.4E1,1E0],"tree_param":{"num_deleted":"0","num_feature":"32","num_nodes":"7","size_leaf_vector":"1"}},{"base_weights":[3.4973097E-1,5.052104E-1,-2.364687E0,3.55015E-2,4.2898116E-1,-2.478664E-2,-5.060825E-1],"categories":[],"categories_nodes":[],"categories_segments":[],"categories_sizes":[],"default_left":[0,0,0,0,0,0,0],"id":139,"left_children":[1,3,5,-1,-1,-1,-1],"loss_changes":[2.885835E2,3.29159E2,2.3771246E2,0E0,0E0,0E0,0E0],"parents":[2147483647,0,0,1,1,2,2],"right_children":[2,4,6,-1,-1,-1,-1],"split_conditions":[2.2E1,2.6E1,9E0,3.55015E-2,4.2898116E-1,-2.478664E-2,-5.060825E-1],"split_indices":[20,10,12,0,0,0,0],"split_type":[0,0,0,0,0,0,0],"sum_hessian":[6.84E2,6.47E2,3.7E1,6.28E2,1.9E1,2.2E1,1.5E1],"tree_param":{"num_deleted":"0","num_feature":"32","num_nodes":"7","size_leaf_vector":"1"}},{"base_weights":[-3.952947E-2,-6.7758664E-2,1.7250365E0,-3.7791353E-2,1.09597825E-1],"categories":[],"categories_nodes":[],"categories_segments":[],"categories_sizes":[],"default_left":[0,0,0,0,0],"id":140,"left_children":[1,3,-1,-1,-1],"loss_changes":[3.572131E2,2.8719116E2,0E0,0E0,0E0],"parents":[2147483647,0,0,1,1],"right_children":[2,4,-1,-1,-1],"split_conditions":[7.3E1,1E1,1.7250365E0,-3.7791353E-2,1.09597825E-1],"split_indices":[30,26,0,0,0],"split_type":[0,0,0,0,0],"sum_hessian":[6.85E2,6.84E2,1E0,5.38E2,1.46E2],"tree_param":{"num_deleted":"0","num_feature":"32","num_nodes":"5","size_leaf_vector":"1"}},{"base_weights":[-1.8426931E-1,-2.494849E-1,5.1543508E0,1.2163504E0,-2.5799772E-1,4.3990365E-3,-2.487035E-1],"categories":[],"categories_nodes":[],"categories_segments":[],"categories_sizes":[],"default_left":[0,0,0,0,0,0,0],"id":141,"left_children":[1,5,3,-1,-1,-1,-1],"loss_changes":[2.3189104E2,4.731142E2,5.0482623E2,0E0,0E0,0E0,0E0],"parents":[2147483647,0,0,2,2,1,1],"right_children":[2,6,4,-1,-1,-1,-1],"split_conditions":[3.9E1,1.4E1,2E0,1.2163504E0,-2.5799772E-1,4.3990365E-3,